SVM-light Version V6.10
0 # kernel type
3 # kernel parameter -d 
1 # kernel parameter -g 
1 # kernel parameter -s 
1 # kernel parameter -r 
0# kernel parameter -u 
1764 # highest feature index 
728 # number of training documents 
104 # number of support vectors plus 1 
1.0558351 # threshold b, each following line is a SV (starting with alpha*y)
-0.0011283195810919658015614164270346 1:0 2:0 3:0 4:0 5:0 6:0 7:0 8:0 9:0 10:0 11:0 12:0 13:0 14:0 15:0 16:0 17:0 18:0 19:0.455547 20:0 21:0 22:0 23:0.12851 24:0 25:0.25271901 26:0.34931499 27:0.455547 28:0 29:0 30:0 31:0 32:0.0085672997 33:0 34:0 35:0 36:0 37:0 38:0 39:0 40:0 41:0 42:0 43:0 44:0 45:0 46:0.066550098 47:0.0138003 48:0.054868501 49:0.079950102 50:0.336283 51:0.017013 52:0.018291799 53:0.0057421098 54:0.047209699 55:0.00096500001 56:0.000410206 57:0.00122749 58:0 59:0.00690644 60:0 61:0 62:0 63:0.00096500001 64:0.070166297 65:0.023832999 66:0.082845896 67:0.095836103 68:0.89348 69:0.12978099 70:0.0461687 71:0.045077302 72:0.045299899 73:0.069223501 74:0.049358599 75:0.032741699 76:0.034079 77:0.091328397 78:0.0121429 79:0.018974699 80:0.0056993398 81:0.054062199 82:0.111815 83:0.076483302 84:0.0521392 85:0.072652496 86:0.16006599 87:0.0698722 88:0.063053802 89:0.0242029 90:0.128961 91:0.062079702 92:0.0570039 93:0.046908502 94:0.061466999 95:0.28914499 96:0.082611799 97:0.063225597 98:0.0421388 99:0.036061902 100:0.45246401 101:0.56254297 102:0.18131199 103:0.18862399 104:0.36572 105:0.16748799 106:0.123148 107:0.068342999 108:0.112517 109:0.0096953996 110:0.0072309799 111:0.0137775 112:0.0258072 113:0.043424401 114:0.0119452 115:0.0123677 116:0.00915433 117:0.0166017 118:0.042233899 119:0.0496861 120:0.027028101 121:0.0255618 122:0.033373602 123:0.00265023 124:0.0050163702 125:0.0086099003 126:0.0185559 127:0.28897801 128:0.48489001 129:0.120919 130:0.024884799 131:0.0432855 132:0.0134522 133:0.0119442 134:0.0090739904 135:0.025169799 136:0.48489001 137:0.48489001 138:0.41417199 139:0.0157566 140:0.0092704296 141:0.00017668201 142:0.0051818001 143:0.0136953 144:0.072866797 145:0.0718491 146:0.134688 147:0.037179299 148:0.0027245299 149:0.0039658002 150:0 151:0.000127918 152:0.0011903601 153:0.0067875502 154:0.232806 155:0.38826901 156:0.148293 157:0.00214315 158:0.00109431 159:3.9099799e-05 160:0.00019316201 161:0.00047567501 162:0.00548252 163:0.38826901 164:0.38826901 165:0.231501 166:0.0037255301 167:0.00137235 168:0.00074967998 169:0.00041457999 170:0.00339756 171:0.0251654 172:0.38826901 173:0.38826901 174:0.29502901 175:0.00158642 176:0.00154507 177:0.00181873 178:0.00083703501 179:0.00070083397 180:0.0083701201 181:0.29879099 182:0.36658299 183:0.194888 184:0.00298086 185:0.00204739 186:0.000165762 187:0.00116544 188:0.00246253 189:0.0080072898 190:0.36658299 191:0.36658299 192:0.231291 193:0.0021358901 194:0.00171069 195:0.00049239502 196:0.00203272 197:0.00447238 198:0.0154192 199:0.26368099 200:0.36658299 201:0.19168299 202:0.00111115 203:0.0037754399 204:0.00106642 205:0.0047118701 206:0.0039607701 207:0.0049412702 208:0.155678 209:0.36658299 210:0.111486 211:0.0053434102 212:0.00740914 213:0.0021337101 214:0.0065655899 215:0.0094187204 216:0.0089941705 217:0.403191 218:0.403366 219:0.202765 220:0.0136857 221:0.036585402 222:0.00246802 223:0.00141286 224:0.0125031 225:0.025238 226:0.20223799 227:0.35436401 228:0.084989503 229:0.0200764 230:0.403366 231:0.112193 232:0.047771201 233:0.076340199 234:0.067544498 235:0.083134197 236:0.21477 237:0.072150499 238:0.065178096 239:0.131687 240:0.0057708998 241:0.00234842 242:0.0142785 243:0.0135079 244:0.032274202 245:0.052756999 246:0.039548099 247:0.092486203 248:0.403366 249:0.084146097 250:0.000565066 251:0.0284712 252:0.0200662 253:0.121437 254:0.020668199 255:0.0255458 256:0.0095078303 257:0.00132168 258:0.00184368 259:0.023087099 260:0.043382101 261:0.104715 262:0.108265 263:0.0067611798 264:0.0145524 265:8.2896098e-05 266:3.1731299e-05 267:0.000209878 268:0.0207629 269:0.071774296 270:0.157327 271:0.318652 272:0.137702 273:0.12702499 274:0.083712302 275:0.085368 276:0.145022 277:0.295261 278:0.318652 279:0.318652 280:0.318652 281:0.16030601 282:0.126396 283:0.045665301 284:0.056664199 285:0.099270299 286:0.318652 287:0.318652 288:0.318652 289:0.039668601 290:0.00076334702 291:0.000167413 292:4.5726199e-05 293:0.00138208 294:0.00055764097 295:0.0269223 296:0.083484396 297:0.086117104 298:0.026171001 299:0.026204601 300:0.0080086803 301:0.00102092 302:0.0141471 303:0.0020623901 304:0.0061299698 305:0.0132496 306:0.0117634 307:0.233349 308:0.165931 309:0.071810603 310:0.071112998 311:0.067019001 312:0.048811901 313:0.367475 314:0.367475 315:0.367475 316:0.367475 317:0.367475 318:0.17396 319:0.0177742 320:0.020581201 321:0.0054247798 322:0.17281 323:0.32842499 324:0.186093 325:0.070031397 326:0.12696201 327:0.036013801 328:0.00160216 329:0.017970201 330:0.00368255 331:0.0047809002 332:0.00382855 333:0.0092550898 334:0.255835 335:0.384139 336:0.14999799 337:0.0067250798 338:0.022836801 339:0.0072303801 340:0.0087285098 341:0.0062615401 342:0.017095299 343:0.384139 344:0.384139 345:0.216591 346:0.00128682 347:0.0090489397 348:0.00069525902 349:0.0022473701 350:0.0083826203 351:0.041330699 352:0.384139 353:0.384139 354:0.311748 355:0.00141446 356:0.0063465498 357:0.00143137 358:0.00242577 359:0.0044157598 360:0.0235293 361:0.34769601 362:0.34845799 363:0.179396 364:0.0045793802 365:0.0102588 366:0.0026102101 367:0.0036468599 368:0.00317348 369:0.018918499 370:0.34845799 371:0.34845799 372:0.21825001 373:0.00362114 374:0.0034874401 375:0 376:0.0016850299 377:0.00244044 378:0.027818101 379:0.315736 380:0.34845799 381:0.198304 382:0.0028929301 383:0.0023457699 384:0.0010564401 385:0.0032738899 386:0.00476124 387:0.021061599 388:0.189441 389:0.34845799 390:0.106086 391:0.0038101501 392:0.0043368898 393:0.000471785 394:0.0049346001 395:0.00452941 396:0.025461599 397:0.426139 398:0.426139 399:0.32404101 400:0.0096244598 401:0.0049167299 402:0.00230475 403:0.00072700798 404:0.0025311899 405:0.039557401 406:0.343777 407:0.426139 408:0.218702 409:0.011104 410:0.0113697 411:0.0059869001 412:0.0027798801 413:0.00252788 414:0.0190576 415:0.135484 416:0.33114901 417:0.092255697 418:0.0112638 419:0.0135239 420:0.00215054 421:0.00448668 422:0.00339457 423:0.0343365 424:0.076866202 425:0.169411 426:0.054483999 427:0.0192945 428:0.028767399 429:0.0077729202 430:0.0093170302 431:0.00488326 432:0.0241723 433:0.40465501 434:0.47778499 435:0.32310501 436:0.0254377 437:0.048532501 438:0.0077724499 439:0.019263901 440:0.0222886 441:0.059079599 442:0.15221199 443:0.47778499 444:0.22349501 445:0.038230699 446:0.059735298 447:0.0051873601 448:0.0205728 449:0.024804199 450:0.056102298 451:0.150773 452:0.21918599 453:0.124644 454:0.0435642 455:0.071103401 456:0.0144272 457:0.020680301 458:0.0299934 459:0.066638902 460:0.100888 461:0.17006201 462:0.18447401 463:0.0478274 464:0.064763203 465:0.0046456698 466:0.0066735302 467:0.0162523 468:0.0395271 469:0.0252319 470:0.077769399 471:0.072076201 472:0.105267 473:0.249679 474:0.00284277 475:0.0021443199 476:0.0042523202 477:0.0076658102 478:0.015958101 479:0.024711 480:0.054754101 481:0.156092 482:0.55875099 483:0.124779 484:0.0129621 485:0.0258453 486:0.021771001 487:0.017180299 488:0.039986901 489:0.062672801 490:0.080060199 491:0.34961 492:0.0056644599 493:0.0062657902 494:0.00243568 495:0.00361571 496:0.052285202 497:0.0136327 498:0.040466201 499:0.151195 500:0.55875099 501:0.25595799 502:0.092959203 503:0.033617601 504:0.047602199 505:0.26045501 506:0.146045 507:0.083816797 508:0.068068303 509:0.122636 510:0.134801 511:0.26045501 512:0.22663601 513:0.219927 514:0.26045501 515:0.26045501 516:0.123379 517:0.053758699 518:0.072044797 519:0.082602702 520:0.26045501 521:0.26045501 522:0.246177 523:0.225116 524:0.26045501 525:0.111289 526:0.0354026 527:0.051683601 528:0.0333586 529:0.092935599 530:0.062890597 531:0.110378 532:0.26045501 533:0.26045501 534:0.108723 535:0.0208757 536:0.025332 537:0.0125078 538:0.087737203 539:0.074849904 540:0.104758 541:0.269036 542:0.289024 543:0.117511 544:0.090826303 545:0.080639198 546:0.038483702 547:0.289024 548:0.289024 549:0.28405699 550:0.289024 551:0.289024 552:0.14934599 553:0.020199601 554:0.0121376 555:0.0029814399 556:0.127527 557:0.24922501 558:0.20968901 559:0.170405 560:0.271395 561:0.091801003 562:0.034311999 563:0.0299323 564:0.0062318002 565:0.050749902 566:0.059884802 567:0.107428 568:0.160044 569:0.27767 570:0.080808699 571:0.0124589 572:0.0081697404 573:0.0055998699 574:0.0224826 575:0.042279098 576:0.091579698 577:0.39902499 578:0.39902499 579:0.294415 580:0.0032160601 581:0.0058065201 582:0.00278422 583:0.0055799098 584:0.027829699 585:0.084169298 586:0.33683699 587:0.39902499 588:0.240334 589:0.0039113802 590:0.00163071 591:0.0048305099 592:0.0028182999 593:0.0091420598 594:0.031323198 595:0.2095 596:0.31953999 597:0.12108 598:0.0182363 599:0.0074617099 600:0.0083799604 601:0.0070158099 602:0.0259644 603:0.0821684 604:0.180135 605:0.138203 606:0.079543002 607:0.0082186796 608:0.0031053401 609:0.0061807898 610:0.0051197601 611:0.0373022 612:0.15295801 613:0.31212601 614:0.39121801 615:0.283115 616:0.0087098395 617:0.0028852201 618:0.0068425098 619:0.0140586 620:0.0161543 621:0.062989399 622:0.15396801 623:0.38582 624:0.130147 625:0.0071733799 626:0.0094356202 627:0.0041727899 628:0.022260699 629:0.0157061 630:0.095898896 631:0.21903101 632:0.149942 633:0.095867597 634:0.0126543 635:0.0092171701 636:0.0059026601 637:0.0159433 638:0.112753 639:0.26504099 640:0.21025699 641:0.39121801 642:0.275372 643:0.055708099 644:0.034722898 645:0.0082285302 646:0.0164284 647:0.0610562 648:0.129236 649:0.092142597 650:0.12665699 651:0.0369468 652:0.00458385 653:0.012665 654:0.00303553 655:0.0063010701 656:0.0053952299 657:0.050810501 658:0.12991001 659:0.117427 660:0.032214299 661:0.0119514 662:0.031580999 663:0.028287699 664:0.0123823 665:0.0263894 666:0.066578299 667:0.26188001 668:0.374587 669:0.31693801 670:0.0269184 671:0.025728401 672:0.0351777 673:0.0096474104 674:0.022734299 675:0.106287 676:0.374587 677:0.374587 678:0.23134699 679:0.019855 680:0.26273799 681:0.374587 682:0.078609698 683:0.109541 684:0.206506 685:0.119104 686:0.107746 687:0.0656204 688:0.0270586 689:0.057069901 690:0.040914599 691:0.0142947 692:0.039189901 693:0.075222299 694:0.076373599 695:0.092927799 696:0.0867792 697:0.051511999 698:0.0734016 699:0.0114573 700:0.0142141 701:0.0163642 702:0.033635799 703:0.376816 704:0.32515901 705:0.093331501 706:0.032379601 707:0.39592099 708:0.39592099 709:0.096726596 710:0.118786 711:0.220415 712:0.36086199 713:0.29914701 714:0.114028 715:0.092657998 716:0.093874499 717:0.0505808 718:0.0339178 719:0.031847298 720:0.15245201 721:0.022730799 722:0.027087299 723:0.039113 724:0.105235 725:0.38338399 726:0.0101832 727:0.0111857 728:0.0072929799 729:0.0091489004 730:0.12416 731:0.032768801 732:0.038755201 733:0.22578301 734:0.42069101 735:0.20608699 736:0.116306 737:0.0343615 738:0.090204298 739:0.106146 740:0.077513501 741:0.063076101 742:0.136434 743:0.42069101 744:0.019132899 745:0.0136626 746:0.018508499 747:0.045652699 748:0.121771 749:0.047231302 750:0.056080598 751:0.299115 752:0.42069101 753:0.0567328 754:0.036642998 755:0.045133099 756:0.101214 757:0.237688 758:0.34110099 759:0.184798 760:0.035550401 761:0.034161299 762:0.0059221801 763:0.0120332 764:0.066799797 765:0.103936 766:0.1767 767:0.34110099 768:0.183466 769:0.0272734 770:0.0274329 771:0.00162955 772:0.0165425 773:0.081963703 774:0.091451399 775:0.221717 776:0.108466 777:0.115454 778:0.046045501 779:0.057248201 780:0.093951002 781:0.20028999 782:0.34110099 783:0.24785499 784:0.18100999 785:0.210088 786:0.127591 787:0.0345411 788:0.047115501 789:0.028891699 790:0.123249 791:0.34110099 792:0.195682 793:0.181756 794:0.35248399 795:0.175749 796:0.0220674 797:0.017190401 798:0.00715901 799:0.0140307 800:0.0460134 801:0.067462303 802:0.245977 803:0.35248399 804:0.18534499 805:0.174813 806:0.106414 807:0.0493569 808:0.039925002 809:0.0256867 810:0.082498901 811:0.152775 812:0.16754 813:0.0727918 814:0.016266899 815:0.031696301 816:0.00753118 817:0.060008701 818:0.35248399 819:0.179143 820:0.14696699 821:0.098099902 822:0.103251 823:0.230244 824:0.210215 825:0.081493899 826:0.084301598 827:0.31663299 828:0.238883 829:0.23350801 830:0.12657 831:0.085318998 832:0.13031501 833:0.12836701 834:0.0452912 835:0.0348548 836:0.0404885 837:0.165021 838:0.32374299 839:0.105972 840:0.068236902 841:0.105697 842:0.145603 843:0.039535802 844:0.025512001 845:0.131175 846:0.32374299 847:0.21255299 848:0.0657406 849:0.0678038 850:0.160458 851:0.201355 852:0.084627897 853:0.0716068 854:0.100638 855:0.32374299 856:0.32374299 857:0.134354 858:0.089774601 859:0.140093 860:0.21569701 861:0.061004199 862:0.042823199 863:0.144888 864:0.32374299 865:0.262382 866:0.092657901 867:0.102205 868:0.053966898 869:0.0500242 870:0.055650599 871:0.024957599 872:0.206034 873:0.28636801 874:0.28636801 875:0.28636801 876:0.25636101 877:0.092982501 878:0.044858702 879:0.051182799 880:0.025776001 881:0.100196 882:0.12500399 883:0.28636801 884:0.193013 885:0.17149501 886:0.074000597 887:0.073432803 888:0.071054101 889:0.025463199 890:0.17925499 891:0.28636801 892:0.28636801 893:0.237262 894:0.202842 895:0.091650099 896:0.0649653 897:0.067719102 898:0.027935 899:0.093944401 900:0.143865 901:0.239649 902:0.27904701 903:0.200688 904:0.0450189 905:0.062203199 906:0.095309801 907:0.040432401 908:0.031342998 909:0.098672703 910:0.182961 911:0.27904701 912:0.102814 913:0.020641301 914:0.23310199 915:0.27904701 916:0.095203698 917:0.040219899 918:0.109167 919:0.212134 920:0.119566 921:0.065854199 922:0.059918001 923:0.180874 924:0.26721901 925:0.074898601 926:0.035751 927:0.106715 928:0.17817301 929:0.27904701 930:0.148766 931:0.043342002 932:0.27904701 933:0.27904701 934:0.148973 935:0.032707501 936:0.122155 937:0.203733 938:0.27878201 939:0.076734297 940:0.020651201 941:0.16623899 942:0.30355701 943:0.064217798 944:0.0144314 945:0.093055204 946:0.23153301 947:0.30355701 948:0.20039199 949:0.089710899 950:0.029383199 951:0.0152635 952:0.0087231202 953:0.0064981999 954:0.074571699 955:0.243021 956:0.30355701 957:0.30355701 958:0.0285303 959:0.099243902 960:0.194397 961:0.0772053 962:0.0119935 963:0.116914 964:0.17481101 965:0.30355701 966:0.30355701 967:0.083949797 968:0.023993 969:0.0091954404 970:0.0108081 971:0.0068036099 972:0.060095001 973:0.159293 974:0.1971 975:0.174237 976:0.16873001 977:0.36386099 978:0.011481 979:0.00771175 980:0.018861501 981:0.064049698 982:0.104918 983:0.0556968 984:0.0232701 985:0.193673 986:0.369091 987:0.083183803 988:0.0251419 989:0.069942698 990:0.102732 991:0.092623398 992:0.215988 993:0.19051699 994:0.155267 995:0.369091 996:0.021950001 997:0.0058073299 998:0.015458 999:0.047959302 1000:0.16291299 1001:0.0954336 1002:0.0258267 1003:0.244752 1004:0.369091 1005:0.132514 1006:0.0244921 1007:0.058028702 1008:0.12625401 1009:0.10392 1010:0.070914298 1011:0.144537 1012:0.0251294 1013:0.00825301 1014:0.044986401 1015:0.082499802 1016:0.13841 1017:0.100772 1018:0.168694 1019:0.1383 1020:0.215459 1021:0.0163859 1022:0.0057413499 1023:0.0178962 1024:0.067177601 1025:0.19552401 1026:0.240117 1027:0.248228 1028:0.219583 1029:0.27821001 1030:0.27821001 1031:0.089838803 1032:0.067931503 1033:0.1089 1034:0.064725198 1035:0.123156 1036:0.261691 1037:0.27821001 1038:0.27821001 1039:0.183525 1040:0.060977198 1041:0.046676099 1042:0.112953 1043:0.25509599 1044:0.27821001 1045:0.107866 1046:0.0467018 1047:0.053088501 1048:0.0027821199 1049:0.0072059399 1050:0.0128217 1051:0.081638001 1052:0.31209299 1053:0.261971 1054:0.022125799 1055:0.0120849 1056:0.0086492496 1057:0.0152612 1058:0.023533801 1059:0.020624001 1060:0.0694509 1061:0.248079 1062:0.12745599 1063:0.210851 1064:0.092776403 1065:0.15134799 1066:0.043043099 1067:0.0144626 1068:0.061858099 1069:0.31936201 1070:0.31936201 1071:0.31936201 1072:0.11635 1073:0.043519299 1074:0.0317403 1075:0.035605401 1076:0.0146518 1077:0.104816 1078:0.31936201 1079:0.31936201 1080:0.31936201 1081:0.081004597 1082:0.036028001 1083:0.020735599 1084:0.0368612 1085:0.054543301 1086:0.033367898 1087:0.063857697 1088:0.237363 1089:0.229068 1090:0.206826 1091:0.060837399 1092:0.0273515 1093:0.0283194 1094:0.060061801 1095:0.017049501 1096:0.042968001 1097:0.110098 1098:0.29749599 1099:0.189013 1100:0.106842 1101:0.048732299 1102:0.028433001 1103:0.0230792 1104:0.091612101 1105:0.34734401 1106:0.34734401 1107:0.34734401 1108:0.14534099 1109:0.082951203 1110:0.039062899 1111:0.0125047 1112:0.034637801 1113:0.0320982 1114:0.14524999 1115:0.34734401 1116:0.34734401 1117:0.37936699 1118:0.184219 1119:0.098759703 1120:0.039117001 1121:0.071878403 1122:0.028783901 1123:0.026208701 1124:0.068899602 1125:0.27265501 1126:0.25214499 1127:0.147305 1128:0.081612498 1129:0.040411599 1130:0.057516798 1131:0.037483599 1132:0.018812001 1133:0.0440979 1134:0.111964 1135:0.124971 1136:0.080437697 1137:0.034903001 1138:0.0182772 1139:0.053887799 1140:0.0254882 1141:0.14059401 1142:0.39573699 1143:0.39573699 1144:0.094074398 1145:0.101822 1146:0.042400599 1147:0.017672401 1148:0.023184299 1149:0.0145475 1150:0.074796803 1151:0.39573699 1152:0.25211999 1153:0.126324 1154:0.070217803 1155:0.034632999 1156:0.071363099 1157:0.234868 1158:0.34747601 1159:0.107056 1160:0.038440399 1161:0.11022 1162:0.34676301 1163:0.34747601 1164:0.30583701 1165:0.0667715 1166:0.32289401 1167:0.34747601 1168:0.23057599 1169:0.041724399 1170:0.19667201 1171:0.052978501 1172:0.045758899 1173:0.029797301 1174:0.031957898 1175:0.049907699 1176:0.039523099 1177:0.051292699 1178:0.088069499 1179:0.089531101 1180:0.16478699 1181:0.15432701 1182:0.060555801 1183:0.046372801 1184:0.081597902 1185:0.053388599 1186:0.065231703 1187:0.028011 1188:0.100948 1189:0.334461 1190:0.44762999 1191:0.44762999 1192:0.036387999 1193:0.105285 1194:0.13583601 1195:0.105211 1196:0.033502501 1197:0.13849699 1198:0.112962 1199:0.44762999 1200:0.31703201 1201:0.043761 1202:0.050237499 1203:0.0129535 1204:0.0311606 1205:0.018313199 1206:0.056201201 1207:0.168704 1208:0.177468 1209:0.063781098 1210:0.033790499 1211:0.053869698 1212:0.0193197 1213:0.043984301 1214:0.0268944 1215:0.0637464 1216:0.0798482 1217:0.068290703 1218:0.0505438 1219:0.049164999 1220:0.052974399 1221:0.0122399 1222:0.035574298 1223:0.028328501 1224:0.0421248 1225:0.030644201 1226:0.060945101 1227:0.035601601 1228:0.067140102 1229:0.345882 1230:0.0319735 1231:0.0085314102 1232:0.0068366001 1233:0.022813501 1234:0.10152 1235:0.0342604 1236:0.022838799 1237:0.235559 1238:0.50103098 1239:0.162991 1240:0.023994001 1241:0.0151675 1242:0.0814799 1243:0.023696501 1244:0.028688001 1245:0.0248222 1246:0.070168898 1247:0.405285 1248:0.0310196 1249:0.0140105 1250:0.0085234903 1251:0.0143623 1252:0.044641498 1253:0.0142249 1254:0.015734401 1255:0.174008 1256:0.50103098 1257:0.228003 1258:0.0239756 1259:0.0055774599 1260:0.042119 1261:0.17049301 1262:0.137347 1263:0.218964 1264:0.212193 1265:0.132364 1266:0.059262998 1267:0.14176001 1268:0.163495 1269:0.243871 1270:0.181704 1271:0.074069299 1272:0.16302399 1273:0.125383 1274:0.074715696 1275:0.040345199 1276:0.100122 1277:0.28803399 1278:0.28803399 1279:0.146552 1280:0.155533 1281:0.229195 1282:0.102547 1283:0.101263 1284:0.0531036 1285:0.12909099 1286:0.180218 1287:0.28803399 1288:0.185986 1289:0.026820401 1290:0.016866 1291:0.031129099 1292:0.0430879 1293:0.043520201 1294:0.069186501 1295:0.28803399 1296:0.28803399 1297:0.208639 1298:0.038975202 1299:0.046029899 1300:0.0304516 1301:0.0087872501 1302:0.0276177 1303:0.108922 1304:0.240015 1305:0.28769401 1306:0.23298299 1307:0.194609 1308:0.055108901 1309:0.0337945 1310:0.0076027801 1311:0.0542478 1312:0.208033 1313:0.28769401 1314:0.28769401 1315:0.242586 1316:0.029800201 1317:0.016311999 1318:0.021471599 1319:0.0077201799 1320:0.0095837098 1321:0.0299873 1322:0.23709901 1323:0.28769401 1324:0.28769401 1325:0.27707401 1326:0.0707165 1327:0.034992602 1328:0.0111954 1329:0.0166687 1330:0.064046703 1331:0.18512399 1332:0.28769401 1333:0.20465 1334:0.26875901 1335:0.0860423 1336:0.026639801 1337:0.0141838 1338:0.042847201 1339:0.149949 1340:0.26875901 1341:0.26875901 1342:0.116713 1343:0.178729 1344:0.076821499 1345:0.032339599 1346:0.0174411 1347:0.024917001 1348:0.118756 1349:0.26875901 1350:0.26875901 1351:0.26875901 1352:0.26875901 1353:0.120001 1354:0.031647 1355:0.0184258 1356:0.023744 1357:0.073875099 1358:0.15147001 1359:0.24311399 1360:0.151751 1361:0.26647499 1362:0.0945279 1363:0.0474246 1364:0.022345999 1365:0.0207875 1366:0.116094 1367:0.26875901 1368:0.23230401 1369:0.040677 1370:0.028510701 1371:0.017254399 1372:0.0101106 1373:0.00683313 1374:0.0087341396 1375:0.13500001 1376:0.341014 1377:0.28065801 1378:0.020605501 1379:0.0099676298 1380:0.010618 1381:0.0022931199 1382:0.0042539998 1383:0.00189578 1384:0.081346802 1385:0.33336699 1386:0.161301 1387:0.114548 1388:0.0467146 1389:0.0220575 1390:0.017431701 1391:0.017488301 1392:0.0138124 1393:0.207387 1394:0.341014 1395:0.341014 1396:0.153515 1397:0.060796302 1398:0.0160328 1399:0.00366264 1400:0.0147487 1401:0.0243774 1402:0.28771201 1403:0.341014 1404:0.341014 1405:0.0272565 1406:0.019497801 1407:0.0200812 1408:0.0106275 1409:0.0163802 1410:0.00462812 1411:0.068492703 1412:0.29681799 1413:0.13759901 1414:0.0246328 1415:0.018464999 1416:0.020575199 1417:0.0232042 1418:0.032750499 1419:0.0064705899 1420:0.0215034 1421:0.116646 1422:0.070631698 1423:0.159795 1424:0.16378701 1425:0.051177699 1426:0.0181504 1427:0.0208397 1428:0.13225301 1429:0.400657 1430:0.400657 1431:0.400657 1432:0.0447606 1433:0.0730514 1434:0.044671301 1435:0.024385899 1436:0.018161301 1437:0.098439798 1438:0.241974 1439:0.400657 1440:0.257723 1441:0.078006104 1442:0.050967298 1443:0.0453001 1444:0.040291399 1445:0.0469971 1446:0.0106821 1447:0.0250625 1448:0.098001301 1449:0.095785797 1450:0.069813997 1451:0.052685201 1452:0.068717703 1453:0.051918801 1454:0.0421829 1455:0.012093 1456:0.0373629 1457:0.043586198 1458:0.061605301 1459:0.093211003 1460:0.122743 1461:0.070243597 1462:0.046696998 1463:0.0153238 1464:0.0305299 1465:0.200066 1466:0.48337001 1467:0.48337001 1468:0.0756099 1469:0.122864 1470:0.097265497 1471:0.056284402 1472:0.033850498 1473:0.018483 1474:0.113902 1475:0.48337001 1476:0.34072801 1477:0.0132019 1478:0.022313301 1479:0.039452001 1480:0.080352902 1481:0.33883101 1482:0.033602498 1483:0.0146318 1484:0.013621 1485:0.0115145 1486:0.031964298 1487:0.0170931 1488:0.026229201 1489:0.148586 1490:0.53281498 1491:0.19978 1492:0.0182159 1493:0.0062717502 1494:0.025977099 1495:0.0200975 1496:0.035108101 1497:0.048038598 1498:0.091517501 1499:0.36957499 1500:0.040733799 1501:0.020780699 1502:0.092308499 1503:0.0509432 1504:0.0643849 1505:0.028006401 1506:0.034439102 1507:0.168221 1508:0.53281498 1509:0.191744 1510:0.028020799 1511:0.0178324 1512:0.048069399 1513:0.27840301 1514:0.31897601 1515:0.34204501 1516:0.25687 1517:0.16623101 1518:0.116845 1519:0.126762 1520:0.152518 1521:0.334277 1522:0.278124 1523:0.054602299 1524:0.0278522 1525:0.078158699 1526:0.108208 1527:0.12621699 1528:0.054681402 1529:0.27574801 1530:0.34204501 1531:0.153263 1532:0.089023501 1533:0.037686199 1534:0.071675003 1535:0.107469 1536:0.020920999 1537:0.0091519402 1538:0.0113968 1539:0.0948762 1540:0.12013 1541:0.056987502 1542:0.0218355 1543:0.064378999 1544:0.2068 1545:0.051547099 1546:0.0138721 1547:0.016309001 1548:0.0612978 1549:0.35539699 1550:0.029766301 1551:0.022310499 1552:0.0487868 1553:0.048202299 1554:0.0308307 1555:0.037191 1556:0.26384199 1557:0.413672 1558:0.413672 1559:0.29537299 1560:0.121533 1561:0.065691501 1562:0.074201897 1563:0.090516903 1564:0.15654001 1565:0.272883 1566:0.413672 1567:0.069741398 1568:0.025188901 1569:0.0113737 1570:0.0243812 1571:0.11508 1572:0.025791001 1573:0.0069757798 1574:0.0147156 1575:0.053761601 1576:0.0529918 1577:0.035847299 1578:0.0243061 1579:0.038417399 1580:0.103216 1581:0.092423797 1582:0.063210502 1583:0.053770401 1584:0.060207602 1585:0.276723 1586:0.276723 1587:0.084573299 1588:0.0360616 1589:0.061791599 1590:0.0697276 1591:0.106695 1592:0.106877 1593:0.16943499 1594:0.276723 1595:0.178563 1596:0.13484301 1597:0.170075 1598:0.206148 1599:0.086582698 1600:0.097258702 1601:0.176328 1602:0.190585 1603:0.0182015 1604:0.018970801 1605:0.021769101 1606:0.039218001 1607:0.124557 1608:0.123172 1609:0.087116599 1610:0.079761401 1611:0.032049999 1612:0.208536 1613:0.10754 1614:0.23694099 1615:0.276723 1616:0.276723 1617:0.19079 1618:0.144164 1619:0.276723 1620:0.21571 1621:0.270812 1622:0.051362801 1623:0.048559502 1624:0.055938002 1625:0.069532 1626:0.034584198 1627:0.0659822 1628:0.195297 1629:0.271532 1630:0.271532 1631:0.149275 1632:0.0241242 1633:0.0109971 1634:0.024315899 1635:0.042917099 1636:0.15462001 1637:0.271532 1638:0.271532 1639:0.23083 1640:0.071201801 1641:0.147543 1642:0.20088901 1643:0.215414 1644:0.078652702 1645:0.079686098 1646:0.193533 1647:0.271532 1648:0.271532 1649:0.137824 1650:0.092791498 1651:0.140522 1652:0.104074 1653:0.054977998 1654:0.069012202 1655:0.137925 1656:0.271532 1657:0.26168299 1658:0.26168299 1659:0.046459898 1660:0.0111623 1661:0.026254199 1662:0.144647 1663:0.26168299 1664:0.26168299 1665:0.26168299 1666:0.088653997 1667:0.117329 1668:0.054218099 1669:0.020752801 1670:0.0285608 1671:0.118989 1672:0.23577 1673:0.26168299 1674:0.17828999 1675:0.26168299 1676:0.20694 1677:0.0887511 1678:0.063101403 1679:0.0590887 1680:0.088636696 1681:0.090463199 1682:0.098381102 1683:0.21742401 1684:0.22939 1685:0.16472 1686:0.118602 1687:0.065382801 1688:0.13486201 1689:0.098015003 1690:0.140277 1691:0.14692999 1692:0.26168299 1693:0.062423099 1694:0.0364068 1695:0.0166758 1696:0.0132482 1697:0.0115602 1698:0.021278501 1699:0.072232097 1700:0.248539 1701:0.25110301 1702:0.040651701 1703:0.019641699 1704:0.0121835 1705:0.0101048 1706:0.0063844402 1707:0.0224523 1708:0.049394701 1709:0.286149 1710:0.21413501 1711:0.286149 1712:0.142444 1713:0.058512598 1714:0.0568919 1715:0.139066 1716:0.169893 1717:0.123709 1718:0.270298 1719:0.286149 1720:0.215442 1721:0.13778301 1722:0.035746802 1723:0.047035798 1724:0.110939 1725:0.286149 1726:0.271492 1727:0.286149 1728:0.286149 1729:0.042317498 1730:0.027070699 1731:0.022941399 1732:0.036770299 1733:0.174951 1734:0.033976 1735:0.039346199 1736:0.308685 1737:0.135287 1738:0.061420701 1739:0.0245836 1740:0.019032599 1741:0.077410601 1742:0.33313599 1743:0.104495 1744:0.0178544 1745:0.097014099 1746:0.067359902 1747:0.115613 1748:0.080168903 1749:0.037726901 1750:0.0480946 1751:0.151379 1752:0.234633 1753:0.29050401 1754:0.33313599 1755:0.33313599 1756:0.110791 1757:0.058168098 1758:0.0450514 1759:0.071824297 1760:0.31555 1761:0.061417401 1762:0.0852805 1763:0.33313599 1764:0.214894 #
-0.0042951708122781605964091156124596 1:0.0278371 2:0.0026159999 3:0.0078280596 4:0 5:0.197355 6:0 7:0.018394399 8:0.0061471099 9:0.0278371 10:0.17595901 11:0.0256713 12:0.076818399 13:0 14:0.61635298 15:0 16:0.041965298 17:0.0140241 18:0.17595901 19:0.063780896 20:0.0076867002 21:0.023001499 22:0 23:0.103038 24:0 25:0.032662299 26:0.0109152 27:0.063780896 28:0.443804 29:0.044543602 30:0.13329101 31:0 32:0.20669299 33:0 34:0.101418 35:0.033892099 36:0.443804 37:0.0799293 38:0.0252958 39:0.0763731 40:0.00267114 41:0.42985001 42:0 43:0.0080109499 44:0.00267712 45:0.0799293 46:0.071843699 47:0.036651202 48:0.066551 49:0.066377401 50:0.180305 51:0.018037399 52:0.0099846497 53:0.0093482798 54:0.068192601 55:0.28715 56:0.05046 57:0.13754299 58:0.037377302 59:0.124232 60:0 61:0.050415002 62:0.0225942 63:0.285256 64:0.284825 65:0.1164 66:0.246527 67:0.38690999 68:0.227615 69:0.151779 70:0.139724 71:0.210554 72:0.28116 73:0.042743001 74:0.0114958 75:0.018993501 76:0.016575901 77:0.0149151 78:0.0154825 79:0.0123074 80:0.0066026999 81:0.042004101 82:0.039828598 83:0.0261859 84:0.032534301 85:0.013441 86:0.083549596 87:0.0145211 88:0.021275399 89:0.0094317999 90:0.040510099 91:0.112087 92:0.116003 93:0.065489702 94:0.095730796 95:0.074350096 96:0.102145 97:0.118045 98:0.100484 99:0.0907759 100:0.50497103 101:0.75357503 102:0.157397 103:0.057350401 104:0.0757754 105:0.065184101 106:0.101208 107:0.087523401 108:0.089678697 109:0.0090128602 110:0.0096944999 111:0.00481549 112:0.00307904 113:0.0117047 114:0.00172025 115:0.0037927099 116:0.0036410501 117:0.0068603 118:0.078052104 119:0.134446 120:0.0113801 121:0.0079840897 122:0.0147652 123:0.0023672399 124:0.0030709901 125:0.00980304 126:0.0189751 127:0.202602 128:0.55361903 129:0.036274899 130:0.0071035302 131:0.0093253599 132:0.0046434202 133:0.0074820202 134:0.017676899 135:0.0213055 136:0.55361903 137:0.55361903 138:0.056029599 139:0.0093041696 140:0.0134493 141:0.0060321498 142:0.00653328 143:0.023445699 144:0.046226598 145:0.071806498 146:0.234293 147:0.0139344 148:0.0070685698 149:0.00642918 150:0.00101225 151:0.00095058698 152:0.0041080401 153:0.0127576 154:0.18489499 155:0.458204 156:0.0279996 157:0.00678444 158:0.00311864 159:0.00061410898 160:0.0029200001 161:0.0047006002 162:0.0226171 163:0.30352899 164:0.458204 165:0.0275233 166:0.0048603499 167:0.0045759901 168:0.00095853797 169:0.0054315701 170:0.0067133699 171:0.021776 172:0.41398799 173:0.458204 174:0.059831899 175:0.0083032902 176:0.0086991098 177:4.70409e-05 178:0.0079327598 179:0.0045782202 180:0.028477101 181:0.17838299 182:0.436528 183:0.0362067 184:0.0028987301 185:0.0014402 186:0.00056097901 187:0.0021396601 188:0.0049503399 189:0.020577401 190:0.20637099 191:0.436528 192:0.075285599 193:0.00162725 194:0.00299862 195:0.00387663 196:0.0042683398 197:0.017348001 198:0.024679 199:0.31172901 200:0.436528 201:0.055840299 202:0.0053076199 203:0.0041745501 204:0.00183145 205:0.0046400102 206:0.00339344 207:0.026042201 208:0.21199501 209:0.436528 210:0.057056401 211:0.00675047 212:0.0063838102 213:0.0085867699 214:0.0079399804 215:0.0117078 216:0.0315255 217:0.23761 218:0.37587899 219:0.077709503 220:0.0042918301 221:0.0561583 222:0.044298202 223:0.041097902 224:0.032733299 225:0.0775363 226:0.140931 227:0.34141999 228:0.051490199 229:0.0496011 230:0.33442599 231:0.148131 232:0.082890399 233:0.0427223 234:0.097072601 235:0.14467999 236:0.37587899 237:0.0314053 238:0.051287401 239:0.309237 240:0.066200599 241:0.043015901 242:0.0250312 243:0.060963701 244:0.054610498 245:0.124395 246:0.0099211102 247:0.138978 248:0.37587899 249:0.16081101 250:0.0675404 251:0.0242169 252:0.0539519 253:0.0225803 254:0.0149395 255:0.022463899 256:0.0126466 257:0.024131 258:0.0032190999 259:0.0126227 260:0.0103851 261:0.025056399 262:0.0877413 263:0.048773699 264:0.048138201 265:0.0198713 266:0.042198502 267:0.01042 268:0.0194779 269:0.0127466 270:0.066633597 271:0.100628 272:0.137439 273:0.103156 274:0.087073699 275:0.080202498 276:0.036067199 277:0.078521498 278:0.0806095 279:0.084401503 280:0.56878102 281:0.59809703 282:0.23741999 283:0.088190302 284:0.20453399 285:0.164248 286:0.106746 287:0.190933 288:0.18623599 289:0.0295619 290:0.0094912499 291:0.0084073301 292:0.0057755099 293:0.0069783898 294:0.0030988699 295:0.00321197 296:0.0028669001 297:0.017182199 298:0.079559602 299:0.1356 300:0.019986801 301:0.0169998 302:0.0132743 303:0.0080604795 304:0.0064497399 305:0.0127925 306:0.019608401 307:0.31696799 308:0.53162497 309:0.058527902 310:0.0122177 311:0.032694399 312:0.043256499 313:0.0111259 314:0.033671301 315:0.0337102 316:0.53162497 317:0.53162497 318:0.078792103 319:0.0072749099 320:0.0145322 321:0.022999801 322:0.0090169404 323:0.0205315 324:0.047516599 325:0.073479801 326:0.24431001 327:0.0128117 328:0.0060047 329:0.0053922399 330:0.00570908 331:0.00670513 332:0.0064234901 333:0.0063433098 334:0.18655901 335:0.459104 336:0.071832404 337:0.0068423599 338:0.0041058101 339:0.00330182 340:0.0053150598 341:0.00616966 342:0.0071365498 343:0.26531899 344:0.459104 345:0.048716299 346:0.0061094002 347:0.0058598001 348:0.0061077699 349:0.00204067 350:0.0050889901 351:0.0249543 352:0.40968999 353:0.459104 354:0.12124 355:0.028694101 356:0.00901144 357:0.00333461 358:0.00093683001 359:0.0043675201 360:0.021083299 361:0.179379 362:0.43454701 363:0.0578475 364:0.00305128 365:0.0028409599 366:0.00156247 367:0.0021718801 368:0.0070383302 369:0.0143802 370:0.25539699 371:0.43454701 372:0.0443817 373:0.00068541098 374:0.0040492099 375:0.0033584 376:0.0022149801 377:0.0059345001 378:0.031371601 379:0.282473 380:0.43454701 381:0.070825703 382:0.0136383 383:0.0066906102 384:0.0026698599 385:0.0020940001 386:0.0078762705 387:0.025867701 388:0.21796501 389:0.43454701 390:0.041016601 391:0.0066416799 392:0.0071449298 393:0.0068793702 394:0.0026780099 395:0.0049567199 396:0.033697799 397:0.30084601 398:0.443616 399:0.049218401 400:0.00081525702 401:0.0041829301 402:0.0028163299 403:0.00594236 404:0.0034310899 405:0.0299726 406:0.314731 407:0.443616 408:0.060134899 409:0.00532819 410:0.0059414902 411:0.00115584 412:0.0084420303 413:0.0022702999 414:0.0230873 415:0.16623899 416:0.443616 417:0.042889901 418:0.0054416498 419:0.0075364001 420:0.0057432302 421:0.0022023499 422:0.0011868899 423:0.0236187 424:0.098147199 425:0.409253 426:0.0194142 427:0.0027201499 428:0.0048241802 429:0.00175816 430:0.0039476501 431:0.00062713999 432:0.0151109 433:0.50229901 434:0.50229901 435:0.123539 436:0.018201601 437:0.0181028 438:0.0176282 439:0.0304724 440:0.00663241 441:0.0454145 442:0.31617999 443:0.50229901 444:0.073779002 445:0.030624401 446:0.055355001 447:0.053474698 448:0.050781399 449:0.0184364 450:0.057518002 451:0.104375 452:0.26194099 453:0.0223711 454:0.0106125 455:0.039704401 456:0.0130851 457:0.0213206 458:0.0067178202 459:0.0190011 460:0.054010801 461:0.039453499 462:0.0114709 463:0.0108912 464:0.096935697 465:0.0365154 466:0.037377499 467:0.016558399 468:0.0212013 469:0.0409256 470:0.15601701 471:0.00877144 472:0.081790298 473:0.47484499 474:0.035571199 475:0.0126643 476:0.0081149703 477:0.020340599 478:0.0079177804 479:0.0159001 480:0.0030666899 481:0.181688 482:0.48056 483:0.057024099 484:0.0056070201 485:0.0024047301 486:0.0059950701 487:0.0080257198 488:0.0054588001 489:0.00135563 490:0.0258897 491:0.48056 492:0.021894 493:0.00627873 494:0.0047890199 495:0.0094185602 496:0.00119119 497:0.00048863498 498:0.000404452 499:0.056397598 500:0.48056 501:0.031184699 502:0.000839154 503:0.000862777 504:0.00246965 505:0.094148703 506:0.289343 507:0.0263508 508:0.0067505799 509:0.00619807 510:0.0038177001 511:0.0097769098 512:0.0117916 513:0.017672401 514:0.208462 515:0.45508501 516:0.059194099 517:0.0073695099 518:0.0136441 519:0.0131803 520:0.0109533 521:0.020168999 522:0.033355899 523:0.27807301 524:0.45508501 525:0.112653 526:0.032896198 527:0.0134978 528:0.0160747 529:0.0111659 530:0.016392101 531:0.0412816 532:0.32931599 533:0.45508501 534:0.148981 535:0.024136901 536:0.00859698 537:0.0127009 538:0.0188752 539:0.0227507 540:0.072383098 541:0.21482401 542:0.42372599 543:0.0499366 544:0.00445324 545:0.0074419798 546:0.0130075 547:0.0062583499 548:0.0152668 549:0.0204308 550:0.30258101 551:0.42372599 552:0.056309801 553:0.0036871 554:0.00369723 555:0.0116469 556:0.00940031 557:0.0140617 558:0.024782199 559:0.24479 560:0.42372599 561:0.073775902 562:0.0073317098 563:0.0049423301 564:0.0047855899 565:0.0079504997 566:0.012077 567:0.031505302 568:0.243497 569:0.42372599 570:0.067850903 571:0.0075821201 572:0.0058927801 573:0.016744999 574:0.0153537 575:0.017522801 576:0.0273661 577:0.23085199 578:0.395338 579:0.058763899 580:0.0041050902 581:0.0052253902 582:0.0078844596 583:0.0042140302 584:0.0098825404 585:0.0288944 586:0.274885 587:0.395338 588:0.059080102 589:0.017306499 590:0.0065836799 591:0.0043500699 592:0.00139975 593:0.0047612698 594:0.0247235 595:0.169273 596:0.395338 597:0.092702001 598:0.025477 599:0.017397599 600:0.049362201 601:0.0282613 602:0.032598399 603:0.034201398 604:0.395338 605:0.395338 606:0.111471 607:0.0321557 608:0.0206555 609:0.063918203 610:0.072456896 611:0.085400298 612:0.050537299 613:0.240868 614:0.37942299 615:0.0223302 616:0.0100269 617:0.0059437002 618:0.00363704 619:0.0024465499 620:0.00500625 621:0.050899599 622:0.210419 623:0.28975701 624:0.0090247598 625:0.0119072 626:0.0094088595 627:0.00614182 628:0.0034884999 629:0.0059544798 630:0.127038 631:0.37942299 632:0.37942299 633:0.030552 634:0.0072263801 635:0.0121987 636:0.018309901 637:0.0365972 638:0.0454797 639:0.245923 640:0.37942299 641:0.064951599 642:0.00660141 643:0.0104292 644:0.0153416 645:0.0100925 646:0.00755635 647:0.0149084 648:0.37942299 649:0.13626499 650:0.115237 651:0.0068942402 652:0.00890096 653:0.0096225599 654:0.0036438999 655:0.0020061401 656:0.0080426103 657:0.15736701 658:0.120623 659:0.019745501 660:0.00090187002 661:0.00076019001 662:0.0046955799 663:0.00054138299 664:0.00066649501 665:0.0062911101 666:0.13872699 667:0.474594 668:0.019750699 669:0.0036420899 670:0.0106579 671:0.00809508 672:0.00697634 673:0.0061543202 674:0.0246528 675:0.474594 676:0.474594 677:0.024692301 678:0.0025274199 679:0.0036581401 680:0.0089305602 681:0.0046084202 682:0.0061005699 683:0.033093199 684:0.474594 685:0.13197801 686:0.0095088296 687:8.2282699e-05 688:0.00027808399 689:0.0157515 690:0.00083433901 691:0.0027256 692:0.0071234098 693:0.13459501 694:0.081400998 695:0.0102931 696:0.00068342499 697:0.000702944 698:0.036456101 699:0.0065667699 700:0.0095555596 701:0.010227 702:0.087605402 703:0.409697 704:0.031773299 705:0.049602099 706:0.120334 707:0.110396 708:0.042806599 709:0.061329801 710:0.064903602 711:0.409697 712:0.409697 713:0.0538246 714:0.14264999 715:0.33259299 716:0.212725 717:0.124648 718:0.16915201 719:0.096874803 720:0.409697 721:0.014431 722:0.0035494701 723:0.00159229 724:0.0144858 725:0.39973199 726:0.054597601 727:0.0075095701 728:0.0044436902 729:0.0195881 730:0.00055808801 731:0.000346607 732:0.00173111 733:0.046211701 734:0.39973199 735:0.134591 736:0.0162872 737:0.0045000701 738:0.00096349401 739:0.056326099 740:0.024425101 741:0.054269399 742:0.249778 743:0.39973199 744:0.154002 745:0.060654402 746:0.0300133 747:0.096270397 748:0.0019543699 749:0.0029253601 750:0.0210535 751:0.39973199 752:0.39973199 753:0.25488901 754:0.0226974 755:0.0071124602 756:0.00283743 757:0.124826 758:0.39643499 759:0.0988544 760:0.065774798 761:0.036641899 762:0.061344501 763:0.058806099 764:0.191816 765:0.0523591 766:0.134634 767:0.39643499 768:0.112413 769:0.036914598 770:0.0131082 771:0.0428157 772:0.097173199 773:0.30085799 774:0.08382 775:0.0289598 776:0.045765899 777:0.035583898 778:0.035040502 779:0.0261348 780:0.0513907 781:0.098530598 782:0.39643499 783:0.16792201 784:0.058603302 785:0.105648 786:0.033797 787:0.025165901 788:0.0132315 789:0.036792401 790:0.144446 791:0.39643499 792:0.25115699 793:0.181722 794:0.42543301 795:0.064251304 796:0.0096973497 797:0.0083312597 798:0.0089022797 799:0.0549693 800:0.291453 801:0.084679201 802:0.136847 803:0.38426301 804:0.031612001 805:0.0143272 806:0.023537399 807:0.0292546 808:0.03053 809:0.096565701 810:0.042258501 811:0.063197799 812:0.085492499 813:0.0150395 814:0.0148996 815:0.0077146301 816:0.0077271699 817:0.129733 818:0.42543301 819:0.25586799 820:0.026365301 821:0.025479 822:0.0106789 823:0.0148938 824:0.0188209 825:0.0150879 826:0.081972599 827:0.42543301 828:0.18985701 829:0.060026299 830:0.18859901 831:0.089670703 832:0.042142902 833:0.0405058 834:0.123885 835:0.071997397 836:0.136287 837:0.0363531 838:0.31676799 839:0.35612899 840:0.17282 841:0.0428131 842:0.0400443 843:0.17951401 844:0.26137999 845:0.35612899 846:0.153311 847:0.0134317 848:0.025121 849:0.022267699 850:0.0117713 851:0.0226248 852:0.056925301 853:0.074445501 854:0.35612899 855:0.092275001 856:0.057330601 857:0.0935992 858:0.0476151 859:0.0129362 860:0.022358401 861:0.083565503 862:0.16605701 863:0.35612899 864:0.267551 865:0.27853999 866:0.27853999 867:0.0293351 868:0.0031874599 869:0.0171791 870:0.0361383 871:0.0882833 872:0.27853999 873:0.27853999 874:0.27853999 875:0.066784397 876:0.0182255 877:0.036155701 878:0.045646202 879:0.043117501 880:0.0456862 881:0.081810199 882:0.27853999 883:0.088087298 884:0.0442959 885:0.0138173 886:0.0065483199 887:0.0426061 888:0.080438197 889:0.097567402 890:0.27853999 891:0.27853999 892:0.177112 893:0.12823801 894:0.042495199 895:0.18015701 896:0.21169201 897:0.215974 898:0.182523 899:0.187766 900:0.27853999 901:0.32756099 902:0.047646102 903:0.0179641 904:0.043338299 905:0.0281136 906:0.018405 907:0.0178877 908:0.023722401 909:0.32756099 910:0.32756099 911:0.022468099 912:0.0102785 913:0.0097585795 914:0.0117105 915:0.0053072199 916:0.0084095597 917:0.0269331 918:0.32756099 919:0.32756099 920:0.153164 921:0.069781899 922:0.23897099 923:0.164059 924:0.070074901 925:0.0645542 926:0.0548946 927:0.325611 928:0.32756099 929:0.046043001 930:0.029590599 931:0.0515108 932:0.030081799 933:0.0042615202 934:0.00454988 935:0.0211714 936:0.32756099 937:0.305893 938:0.035752699 939:0.051915601 940:0.090847902 941:0.14972299 942:0.0734993 943:0.0579856 944:0.036448099 945:0.305893 946:0.26941299 947:0.063522302 948:0.13581499 949:0.219751 950:0.26812401 951:0.183083 952:0.151913 953:0.052506901 954:0.26901799 955:0.305893 956:0.040198401 957:0.0272818 958:0.0217281 959:0.084523097 960:0.054705098 961:0.0307872 962:0.0140287 963:0.305893 964:0.305893 965:0.063424803 966:0.074838497 967:0.058056898 968:0.16941801 969:0.147981 970:0.085479498 971:0.018291 972:0.228109 973:0.047938399 974:0.0380059 975:0.081405297 976:0.213443 977:0.43568701 978:0.173466 979:0.086918302 980:0.034096599 981:0.048987299 982:0.00213229 983:0.0029466201 984:0.015727 985:0.26846799 986:0.43568701 987:0.13917901 988:0.0070841298 989:0.00328374 990:0.00279355 991:0.0841529 992:0.033373099 993:0.053092401 994:0.069604203 995:0.43568701 996:0.13104101 997:0.0526172 998:0.0175393 999:0.037567899 1000:0.0026884 1001:0.00168631 1002:0.0058534201 1003:0.051873598 1004:0.43568701 1005:0.084554903 1006:0.0051489798 1007:0.00205235 1008:0.0031631701 1009:0.0336858 1010:0.019109 1011:0.013549 1012:0.0101806 1013:0.00813697 1014:0.0139963 1015:0.077164702 1016:0.492479 1017:0.216794 1018:0.062630802 1019:0.0202187 1020:0.00348167 1021:0.0112415 1022:0.00829856 1023:0.0147398 1024:0.115024 1025:0.492479 1026:0.39558601 1027:0.0225068 1028:0.0103659 1029:0.0066891001 1030:0.0035928399 1031:0.00684526 1032:0.0138881 1033:0.030387901 1034:0.0917155 1035:0.046228301 1036:0.0266064 1037:0.020795001 1038:0.0073026898 1039:0.00106097 1040:0.012444 1041:0.0163629 1042:0.043381002 1043:0.492479 1044:0.148708 1045:0.0304475 1046:0.00711567 1047:0.00289289 1048:0.0135104 1049:0.0039007801 1050:0.0023402199 1051:0.076322697 1052:0.445472 1053:0.203174 1054:0.0165649 1055:0.0121773 1056:0.00890313 1057:0.0204625 1058:0.0088436296 1059:0.0048064501 1060:0.10459 1061:0.445472 1062:0.21222501 1063:0.016080899 1064:0.0059631099 1065:0.0038437899 1066:0.0053941398 1067:0.0055459598 1068:0.0036879601 1069:0.042126399 1070:0.445472 1071:0.14264999 1072:0.022521701 1073:0.00962428 1074:0.0084286099 1075:0.0144227 1076:0.01009 1077:0.0058172802 1078:0.107601 1079:0.445472 1080:0.24774399 1081:0.018949799 1082:0.016454799 1083:0.00764661 1084:0.0074222502 1085:0.00850657 1086:0.0047074198 1087:0.095047303 1088:0.42781299 1089:0.151115 1090:0.034223299 1091:0.0218587 1092:0.0211729 1093:0.0092468299 1094:0.00831478 1095:0.0042661699 1096:0.082346499 1097:0.42781299 1098:0.17954201 1099:0.0303779 1100:0.0148134 1101:0.0147312 1102:0.0083470102 1103:0.012342 1104:0.0072654402 1105:0.121158 1106:0.42781299 1107:0.24168999 1108:0.0599274 1109:0.0179791 1110:0.0330204 1111:0.0091252998 1112:0.00754506 1113:0.0083023999 1114:0.16194101 1115:0.42781299 1116:0.28890899 1117:0.053492501 1118:0.035133202 1119:0.030070201 1120:0.016372601 1121:0.049715102 1122:0.078400299 1123:0.087573797 1124:0.348746 1125:0.25255999 1126:0.195683 1127:0.166337 1128:0.063037597 1129:0.189805 1130:0.207772 1131:0.223496 1132:0.187868 1133:0.187631 1134:0.348746 1135:0.045473799 1136:0.019758699 1137:0.031929102 1138:0.0106167 1139:0.0076274602 1140:0.0061991299 1141:0.11536 1142:0.348746 1143:0.24246299 1144:0.0659566 1145:0.033572499 1146:0.0343192 1147:0.0148471 1148:0.013818 1149:0.018298199 1150:0.062532797 1151:0.348746 1152:0.26077601 1153:0.31613001 1154:0.30197501 1155:0.156965 1156:0.31613001 1157:0.27880499 1158:0.119115 1159:0.119454 1160:0.096309401 1161:0.31613001 1162:0.31613001 1163:0.087130301 1164:0.075989597 1165:0.124608 1166:0.067819797 1167:0.0130892 1168:0.0074012899 1169:0.0309662 1170:0.31613001 1171:0.0971637 1172:0.046433799 1173:0.084538803 1174:0.050544199 1175:0.020893499 1176:0.0209285 1177:0.0560438 1178:0.31613001 1179:0.22580799 1180:0.047760099 1181:0.043611299 1182:0.104021 1183:0.044358801 1184:0.0304532 1185:0.0134225 1186:0.020067999 1187:0.173124 1188:0.080533497 1189:0.466849 1190:0.094396301 1191:0.046727799 1192:0.0210592 1193:0.079594202 1194:0.0484633 1195:0.0126116 1196:0.039072599 1197:0.466849 1198:0.466849 1199:0.116671 1200:0.101524 1201:0.057306599 1202:0.132981 1203:0.101085 1204:0.0113243 1205:0.0208991 1206:0.466849 1207:0.063847303 1208:0.052200399 1209:0.076698303 1210:0.0270175 1211:0.088480599 1212:0.0403019 1213:0.021168301 1214:0.071315601 1215:0.085227199 1216:0.045887899 1217:0.019138699 1218:0.0135687 1219:0.0062414999 1220:0.055604801 1221:0.0156525 1222:0.0087052397 1223:0.026315801 1224:0.059171699 1225:0.037491199 1226:0.0128752 1227:0.0177265 1228:0.021743299 1229:0.49768001 1230:0.021412199 1231:0.00341922 1232:0.0044811098 1233:0.0227955 1234:0.0035194401 1235:0.00110905 1236:0.0052891602 1237:0.017164299 1238:0.49768001 1239:0.013476 1240:0.0021883701 1241:0.00110629 1242:0.00270849 1243:0.0075795101 1244:0.0022416899 1245:0.0054630199 1246:0.0025989399 1247:0.49768001 1248:0.0049543399 1249:0.00156228 1250:0.00544179 1251:0.0090742502 1252:0.0020674199 1253:0.000432617 1254:0.0033626601 1255:0.0107788 1256:0.49768001 1257:0.00385338 1258:0.0010723301 1259:0.00122333 1260:0.00162994 1261:0.18079799 1262:0.050219499 1263:0.046089899 1264:0.0073896199 1265:0.061425801 1266:0.0630688 1267:0.14059199 1268:0.024194401 1269:0.18117499 1270:0.269925 1271:0.18042301 1272:0.27182999 1273:0.0050050602 1274:0.218611 1275:0.093250699 1276:0.14035 1277:0.486718 1278:0.39444301 1279:0.110634 1280:0.0199828 1281:0.0597963 1282:0 1283:0.096016303 1284:0 1285:0.081334397 1286:0.027180601 1287:0.110634 1288:0.116185 1289:0.071836904 1290:0.214963 1291:0 1292:0.31644899 1293:0 1294:0.110624 1295:0.039248899 1296:0.117475 1297:0.0533241 1298:0.0150451 1299:0.027028801 1300:0.00158398 1301:0.017653801 1302:0.0102954 1303:0.0305747 1304:0.43288001 1305:0.164224 1306:0.085082702 1307:0.020323301 1308:0.0225468 1309:0.016496301 1310:0.042585898 1311:0.0381415 1312:0.20090599 1313:0.62425202 1314:0.56158698 1315:0.026280699 1316:0.0101992 1317:0.0292532 1318:0 1319:0.032658599 1320:0.000985755 1321:0.0078264903 1322:0.00744429 1323:0.0272967 1324:0.043708298 1325:0.0132953 1326:0.01403 1327:0.00432709 1328:0.037995201 1329:0.0201659 1330:0.031798702 1331:0.065260798 1332:0.064190596 1333:0.028880499 1334:0.0075350101 1335:0.0106945 1336:0.0056095398 1337:0.0141005 1338:0.0136491 1339:0.078427099 1340:0.46837199 1341:0.240504 1342:0.065373503 1343:0.0154231 1344:0.023124401 1345:0.0078431098 1346:0.0070119202 1347:0.012844 1348:0.16726901 1349:0.46837199 1350:0.43650499 1351:0.018460801 1352:0.0035832301 1353:0.0022640901 1354:0.00179314 1355:0.00777514 1356:0.0094906799 1357:0.0149305 1358:0.098815002 1359:0.050283398 1360:0.0256435 1361:0.0089820996 1362:0.0031788701 1363:0.0023683801 1364:0.0065401299 1365:0.0126694 1366:0.0571009 1367:0.46837199 1368:0.17523 1369:0.0271885 1370:0.0075979498 1371:0.0095114298 1372:0.0049121901 1373:0.00250736 1374:0.0027449401 1375:0.077129103 1376:0.44830701 1377:0.24123301 1378:0.034991398 1379:0.00615134 1380:0.0052804002 1381:0.00372565 1382:0.0037134499 1383:0.0103828 1384:0.076784797 1385:0.44830701 1386:0.25333801 1387:0.0119556 1388:0.00658669 1389:0.0020256101 1390:0.0023628101 1391:0.0030082101 1392:0.0046481499 1393:0.031814501 1394:0.44830701 1395:0.13303199 1396:0.0275135 1397:0.0024636399 1398:0.00274144 1399:0.00245252 1400:0.0030725901 1401:0.0093611199 1402:0.053873301 1403:0.44830701 1404:0.17979001 1405:0.028289 1406:0.0063160802 1407:0.017697699 1408:0.0093538398 1409:0.0037008999 1410:0.0093708597 1411:0.0594583 1412:0.44275701 1413:0.18408599 1414:0.018955801 1415:0.017038001 1416:0.0284956 1417:0.0090962797 1418:0.0090940604 1419:0.0050936001 1420:0.043829799 1421:0.44275701 1422:0.12604301 1423:0.034506299 1424:0.00151004 1425:0.0022301101 1426:0.00086977502 1427:0.00329324 1428:0.0078142704 1429:0.072279602 1430:0.44275701 1431:0.224856 1432:0.0436619 1433:0.0061448398 1434:0.0022726101 1435:0.0047391499 1436:0.0043893601 1437:0.0031751499 1438:0.122866 1439:0.44275701 1440:0.28118199 1441:0.022621401 1442:0.0147157 1443:0.015254 1444:0.0046345098 1445:0.026639299 1446:0.0102358 1447:0.036654498 1448:0.43603301 1449:0.117178 1450:0.0113208 1451:0.00184853 1452:0.00218315 1453:0.00096392602 1454:0.021864999 1455:0.0036336901 1456:0.0037225401 1457:0.088911302 1458:0.039413199 1459:0.044960599 1460:0.0064389198 1461:0.00403341 1462:0.010318 1463:0.0080549903 1464:0.0071854698 1465:0.139746 1466:0.50672799 1467:0.39388299 1468:0.023893001 1469:0.0082637304 1470:0.0076966202 1471:0.0049061002 1472:0.0142666 1473:0.0091713797 1474:0.074514002 1475:0.50672799 1476:0.284181 1477:0.00192457 1478:0.00093795703 1479:0.00066742703 1480:0.0033036501 1481:0.46467301 1482:0.00419376 1483:0.00075050199 1484:0.00561404 1485:0.00293159 1486:0.00022132701 1487:0.000230021 1488:0.00012338199 1489:0.0112029 1490:0.46467301 1491:0.0073827002 1492:0.00032030401 1493:0.00031357101 1494:0.000271128 1495:0.0096925804 1496:0.0131593 1497:0.0144471 1498:0.045333002 1499:0.46467301 1500:0.0226929 1501:0.044144198 1502:0.31342599 1503:0.091789797 1504:0.0059050699 1505:0.0082710898 1506:0.018042799 1507:0.115546 1508:0.46467301 1509:0.063048601 1510:0.0149909 1511:0.0359153 1512:0.022264799 1513:0.037409902 1514:0.0061212298 1515:0.0183171 1516:0 1517:0.164884 1518:0 1519:0.033924799 1520:0.0113371 1521:0.037409902 1522:0.030649999 1523:0.0137274 1524:0.0410777 1525:0 1526:0.56623697 1527:0 1528:0.041605402 1529:0.0138959 1530:0.030649999 1531:0 1532:0 1533:0 1534:0 1535:0.223511 1536:0 1537:0 1538:0 1539:0 1540:0 1541:0 1542:0 1543:0 1544:0.75882798 1545:0 1546:0 1547:0 1548:0 1549:0.061364301 1550:0.024713101 1551:0.069856197 1552:0 1553:0.53859597 1554:0 1555:0.0150749 1556:0.0089048399 1557:0.061898898 1558:0.113899 1559:0.031700399 1560:0.0312787 1561:0 1562:0.217088 1563:0.0099774199 1564:0.029783599 1565:0.037095699 1566:0.125295 1567:0 1568:0 1569:0 1570:0 1571:0.73309398 1572:0 1573:0 1574:0 1575:0 1576:0 1577:0 1578:0 1579:0 1580:0.251753 1581:0 1582:0 1583:0 1584:0 1585:0.100607 1586:0.0143718 1587:0.00516439 1588:0.0054273801 1589:0.041476302 1590:0.0274952 1591:0.0421529 1592:0.045325201 1593:0.112751 1594:0.214687 1595:0.075865202 1596:0.032755699 1597:0.104947 1598:0.20398 1599:0.19171201 1600:0.371427 1601:0.57763898 1602:0.425515 1603:0 1604:0 1605:0.000210741 1606:0.0020468701 1607:0.0198789 1608:0.0042079799 1609:0.00083756098 1610:0 1611:0 1612:0.064829201 1613:0.0200889 1614:0.044688601 1615:0.0863427 1616:0.290465 1617:0.16281401 1618:0.150832 1619:0.113066 1620:0.053588402 1621:0.041356899 1622:0.0164556 1623:0.0128995 1624:0.0221023 1625:0.033361498 1626:0.046055101 1627:0.079915203 1628:0.52074802 1629:0.16194201 1630:0.079832397 1631:0.00698409 1632:0.0427549 1633:0.0215538 1634:0.054207899 1635:0.065034598 1636:0.110055 1637:0.68029398 1638:0.40360299 1639:0.028273299 1640:0.0055949599 1641:0.0171037 1642:0.017756401 1643:0.040598899 1644:0.043304101 1645:0.034398399 1646:0.0368593 1647:0.0250609 1648:0.055974599 1649:0.0069441102 1650:0.0237744 1651:0.0120997 1652:0.0494867 1653:0.046148501 1654:0.027654899 1655:0.084115103 1656:0.0735837 1657:0.037608098 1658:0.0026858801 1659:0.0085003804 1660:0.0033208099 1661:0.0090880999 1662:0.011424 1663:0.057874698 1664:0.48150599 1665:0.233266 1666:0.0586229 1667:0.0070148702 1668:0.0054744398 1669:0.0095379101 1670:0.0030453 1671:0.00551331 1672:0.166014 1673:0.48150599 1674:0.41632599 1675:0.019916501 1676:0.0044930601 1677:0.0057027 1678:0.0031213099 1679:0.0109333 1680:0.0093044303 1681:0.0098922802 1682:0.100272 1683:0.045221701 1684:0.0209284 1685:0.0092709698 1686:0.0091933403 1687:0.0060379799 1688:0.0112713 1689:0.0064139399 1690:0.039345302 1691:0.48150599 1692:0.142859 1693:0.022264499 1694:0.0023365801 1695:0.00246193 1696:0.0058516799 1697:0.00096618099 1698:0.00282575 1699:0.064954698 1700:0.44602901 1701:0.21934 1702:0.019798299 1703:0.00352656 1704:0.0026146499 1705:0.0026362501 1706:0.00427404 1707:0.0064671198 1708:0.0851532 1709:0.44602901 1710:0.235302 1711:0.0079255002 1712:0.0046219402 1713:0.0026972501 1714:0.0020019801 1715:0.0063350298 1716:0.00154368 1717:0.0244433 1718:0.44602901 1719:0.13312399 1720:0.0169858 1721:0.0039444598 1722:0.00159465 1723:0.00095146702 1724:0.0061305901 1725:0.0048602498 1726:0.085595399 1727:0.44602901 1728:0.24010301 1729:0.044356499 1730:0.0267577 1731:0.041599698 1732:0.063449897 1733:0.210539 1734:0.0195773 1735:0.103938 1736:0.366173 1737:0.200591 1738:0.040885098 1739:0.0320337 1740:0.071735702 1741:0.16975699 1742:0.366173 1743:0.067927301 1744:0.033321101 1745:0.119539 1746:0.077968299 1747:0.056853201 1748:0.0214206 1749:0.0318911 1750:0.027462799 1751:0.0249836 1752:0.0084118703 1753:0.13449501 1754:0.366173 1755:0.27469999 1756:0.11067 1757:0.080750696 1758:0.112541 1759:0.14411099 1760:0.28726599 1761:0.038413901 1762:0.0622302 1763:0.366173 1764:0.23084 #
0.010000000000000000208166817117217 1:0.068366803 2:0.028870201 3:0.023046801 4:0.037236799 5:0.428767 6:0.16141801 7:0.20545 8:0.144244 9:0.083862498 10:0.069507502 11:0.025174901 12:0.0444052 13:0.0124455 14:0.185424 15:0.060022 16:0.084300898 17:0.044248201 18:0.072311603 19:0.080450103 20:0.00756728 21:0.0168218 22:0.0342988 23:0.407471 24:0.343505 25:0.26657301 26:0.18113799 27:0.175056 28:0.097839303 29:0.00343967 30:0.00609789 31:0.0124063 32:0.18604299 33:0.221209 34:0.179745 35:0.19721501 36:0.224209 37:0.094048202 38:0.0300675 39:0.095252603 40:0.0108188 41:0.160098 42:0.0606745 43:0.098794103 44:0.050288901 45:0.099717803 46:0.312475 47:0.0096046301 48:0.051637899 49:0.046881501 50:0.244164 51:0.188153 52:0.34551299 53:0.29993001 54:0.36368501 55:0.126118 56:0.015816201 57:0.033860601 58:0.0149374 59:0.110664 60:0.146311 61:0.121991 62:0.131586 63:0.18344399 64:0.26470399 65:0.0846572 66:0.17226601 67:0.0192052 68:0.23533501 69:0.0205325 70:0.095343702 71:0.065331697 72:0.268962 73:0.174412 74:0.0069153602 75:0.0099651497 76:0.00755999 77:0.077431001 78:0.067954302 79:0.18488 80:0.283243 81:0.26405099 82:0.35159799 83:0.078162998 84:0.093093798 85:0.0207534 86:0.071083598 87:0.047550399 88:0.092476502 89:0.271685 90:0.44722 91:0.126136 92:0.021415399 93:0.0421714 94:0.00282751 95:0.11314 96:0.00691379 97:0.063541599 98:0.101127 99:0.152587 100:0.32026801 101:0.097047098 102:0.073832899 103:0.037129998 104:0.17096099 105:0.047720801 106:0.060606401 107:0.15649299 108:0.29802799 109:0.094780304 110:0.053189401 111:0.055660199 112:0.0097670099 113:0.0123674 114:0.0032869901 115:0.0030437 116:0.018015699 117:0.095918097 118:0.11061 119:0.094768196 120:0.073029503 121:0.0146709 122:0.0265637 123:0.000225148 124:0.0106893 125:0.020398401 126:0.082961299 127:0.210316 128:0.25406101 129:0.101286 130:0.021252699 131:0.039007898 132:0.0136806 133:0.0096907401 134:0.0130635 135:0.092006303 136:0.542844 137:0.542844 138:0.45521399 139:0.025788801 140:0.0419196 141:0.0065964698 142:0.0069674598 143:0.0060886298 144:0.077026799 145:0.073775902 146:0.090187304 147:0.038432099 148:0.0133931 149:0.00940408 150:0 151:0.00254414 152:0.0063979798 153:0.0284783 154:0.208528 155:0.353037 156:0.130869 157:0.018738899 158:0.0079063103 159:0 160:0.00069875899 161:0.0052547702 162:0.040213399 163:0.343687 164:0.409017 165:0.234568 166:0.0108422 167:0.0111939 168:0.00076147699 169:0.00219047 170:0.0070521301 171:0.030812601 172:0.409017 173:0.409017 174:0.333404 175:0.011979 176:0.0121708 177:0.000577092 178:0.00237408 179:0.01412 180:0.067078598 181:0.213246 182:0.36393899 183:0.133976 184:0.0063205701 185:0.0037427701 186:0.00025856699 187:0.0016812 188:0.0056513799 189:0.034268301 190:0.33249801 191:0.36393899 192:0.204698 193:0.0026086201 194:0.0056084502 195:0.0041765501 196:0.00299318 197:0.0043372102 198:0.049376499 199:0.31041199 200:0.36393899 201:0.21450201 202:0.0041951602 203:0.00754327 204:0.000453338 205:0.00338489 206:0.0112029 207:0.0416268 208:0.275042 209:0.36393899 210:0.15919501 211:0.0059124799 212:0.0118958 213:0.0051126098 214:0.0051146601 215:0.0114066 216:0.035081699 217:0.353598 218:0.353598 219:0.188907 220:0.0093599902 221:0.054148 222:0.0187007 223:0.0127365 224:0.0034602601 225:0.049256299 226:0.28849199 227:0.353598 228:0.093911402 229:0.054118101 230:0.28819099 231:0.064304203 232:0.035446402 233:0.0121192 234:0.061781 235:0.169824 236:0.353598 237:0.084333897 238:0.0561333 239:0.18396901 240:0.017729601 241:0.0152723 242:0.0113268 243:0.025340701 244:0.077499203 245:0.111049 246:0.033149499 247:0.209914 248:0.353598 249:0.060692899 250:0.0222627 251:0.00817353 252:0.015988501 253:0.104588 254:0.0226494 255:0.0145119 256:0.029607899 257:0.186827 258:0.105144 259:0.106655 260:0.150617 261:0.208324 262:0.115113 263:0.0146316 264:0.0097994199 265:0.017052 266:0.096273199 267:0.209334 268:0.32378599 269:0.25632399 270:0.248639 271:0.16977 272:0.0941507 273:0.060746901 274:0.0454803 275:0.17569 276:0.033855502 277:0.067438699 278:0.063733302 279:0.191806 280:0.31862 281:0.20089599 282:0.092967503 283:0.0481814 284:0.199084 285:0.20856901 286:0.34632799 287:0.134781 288:0.24809299 289:0.0257707 290:0.0058403099 291:0.0097803902 292:0.0056708702 293:0.068004698 294:0.067355201 295:0.08591 296:0.038408902 297:0.035511401 298:0.044614799 299:0.0406822 300:0.042066701 301:0.0090635298 302:0.105112 303:0.0101629 304:0.016853601 305:0.0059429999 306:0.029947801 307:0.149306 308:0.27289701 309:0.096164897 310:0.016759001 311:0.201795 312:0.099403203 313:0.106154 314:0.025718199 315:0.040377401 316:0.459681 317:0.577196 318:0.44336301 319:0.010479 320:0.207569 321:0.0247372 322:0.0185949 323:0.0056670299 324:0.0243649 325:0.0496765 326:0.072544798 327:0.020987401 328:0.00183363 329:0.0181376 330:9.0107002e-05 331:0.0082291896 332:0.0079461001 333:0.0234525 334:0.172056 335:0.36588499 336:0.084221803 337:0.00293799 338:0.0114801 339:0.0020452701 340:0.0075045698 341:0.0097845802 342:0.061730601 343:0.30714801 344:0.43978101 345:0.215168 346:0.0035389799 347:0.0163997 348:0.00215076 349:0.0081452904 350:0.0065241498 351:0.033400599 352:0.43978101 353:0.43978101 354:0.287444 355:0.0024614499 356:0.0040655201 357:0.00110113 358:0.0085803503 359:0.0160027 360:0.080003902 361:0.200599 362:0.376995 363:0.110184 364:0.0045546698 365:0.0065125199 366:0.0022646501 367:0.00378567 368:0.0033336401 369:0.046362001 370:0.298287 371:0.376995 372:0.23403201 373:0.0101036 374:0.0054801502 375:0.0050235302 376:0.0034906201 377:0.0016627799 378:0.0347009 379:0.299642 380:0.376995 381:0.177064 382:0.00136792 383:0.0056078699 384:0.00031788999 385:0.00429746 386:0.0103266 387:0.058697999 388:0.27299899 389:0.376995 390:0.161512 391:0.0066906 392:0.00786974 393:0.00342143 394:0.0057041999 395:0.00456435 396:0.0496061 397:0.35313499 398:0.37947601 399:0.240199 400:0.010003 401:0.0073048398 402:0.0050295801 403:0.00362908 404:0.0119862 405:0.028999699 406:0.34358299 407:0.37947601 408:0.174867 409:0.0091410903 410:0.019159099 411:0.0057673198 412:0.0048774201 413:0.0212729 414:0.050244998 415:0.26321599 416:0.37947601 417:0.106441 418:0.00948459 419:0.014459 420:0.0062876302 421:0.0052248002 422:0.0115652 423:0.0549438 424:0.29207999 425:0.209947 426:0.0393629 427:0.016767399 428:0.035627998 429:0.0080856597 430:0.0045972802 431:0.0175661 432:0.10724 433:0.36492401 434:0.43472099 435:0.233658 436:0.0151521 437:0.044294301 438:0.0071177701 439:0.0070497799 440:0.0195147 441:0.066018201 442:0.205515 443:0.423792 444:0.13279 445:0.021416601 446:0.050651699 447:0.0071747 448:0.0093275504 449:0.016084099 450:0.0377714 451:0.40767401 452:0.113048 453:0.0384323 454:0.031322598 455:0.072850898 456:0.0081276502 457:0.00631428 458:0.0103122 459:0.21297599 460:0.289453 461:0.024126399 462:0.026678201 463:0.0205102 464:0.084103502 465:0.0138574 466:0.042416699 467:0.0174156 468:0.20095 469:0.0380827 470:0.071352303 471:0.0258894 472:0.142508 473:0.25873101 474:0.0123929 475:0.0079883803 476:0.0109414 477:0.0118062 478:0.012324 479:0.0129183 480:0.0129442 481:0.422607 482:0.422607 483:0.037834998 484:0.00797778 485:0.0158494 486:0.0072286399 487:0.0405064 488:0.0125985 489:0.0153238 490:0.190791 491:0.37403199 492:0.016712001 493:0.017123999 494:0.0105115 495:0.035621099 496:0.00591113 497:0.0096918698 498:0.0176377 499:0.422607 500:0.422607 501:0.055457499 502:0.010343 503:0.0145859 504:0.0068085599 505:0.0517984 506:0.066554897 507:0.028997101 508:0.0111767 509:0.019390101 510:0.00135273 511:0.00241223 512:0.00358598 513:0.0237616 514:0.15016299 515:0.33847499 516:0.093224399 517:0.0124374 518:0.0262367 519:0.0078702904 520:0.00821013 521:0.00281659 522:0.029991601 523:0.40386701 524:0.40386701 525:0.14292 526:0.0116813 527:0.0102334 528:0.000176024 529:0.0051214499 530:0.00481054 531:0.209278 532:0.40386701 533:0.40386701 534:0.34599099 535:0.017023901 536:0.0151197 537:4.06209e-05 538:0.00223833 539:0.0023249299 540:0.045326699 541:0.15450101 542:0.38718399 543:0.130724 544:0.00976435 545:0.033197802 546:0.00783432 547:0.0052460898 548:0.0033452699 549:0.018862801 550:0.25822899 551:0.38718399 552:0.245217 553:0.0036132799 554:0.027924201 555:0.0044619502 556:0.0057116901 557:0.0072024199 558:0.026621999 559:0.269265 560:0.38718399 561:0.230947 562:0.0187792 563:0.0072800401 564:6.6466098e-05 565:0.00052611099 566:0.0043735402 567:0.031297401 568:0.247036 569:0.38718399 570:0.18102799 571:0.0103135 572:0.0042480701 573:0.000637458 574:0.0080523603 575:0.0129255 576:0.063671499 577:0.26007 578:0.34381801 579:0.187592 580:0.00182917 581:0.00634212 582:0.0028616299 583:0.010667 584:0.00680668 585:0.032452699 586:0.31077501 587:0.34381801 588:0.153815 589:0.0026612 590:0.0122211 591:0.00143411 592:0.0088577103 593:0.0079488801 594:0.060015202 595:0.182483 596:0.33451399 597:0.116986 598:0.041306298 599:0.076524399 600:0.0033608701 601:0.0129957 602:0.01524 603:0.0544612 604:0.34381801 605:0.283806 606:0.18095601 607:0.112982 608:0.19665 609:0.0077796699 610:0.024249399 611:0.0409832 612:0.27715701 613:0.186156 614:0.29741901 615:0.0684608 616:0.00132599 617:0.0142193 618:0.000112555 619:0.00178976 620:0.0037382599 621:0.057877898 622:0.185085 623:0.29075801 624:0.14545 625:0.00246508 626:0.0127726 627:0.000579065 628:0.0030646201 629:0.0042538098 630:0.052125599 631:0.348232 632:0.164193 633:0.065608703 634:0.0281308 635:0.048377 636:0.00190258 637:0.0077432198 638:0.0131949 639:0.348232 640:0.348232 641:0.348232 642:0.348232 643:0.013179 644:0.0093756104 645:0.0025722601 646:0.0020451001 647:0.00261055 648:0.28468201 649:0.30777699 650:0.151877 651:0.103483 652:0.00172571 653:0.0067892498 654:0.00124076 655:0.00334951 656:0.0041690902 657:0.099194899 658:0.35133401 659:0.0245681 660:0.0145287 661:0.0036727299 662:0.0071836798 663:0.00084862998 664:0.00290339 665:0.0036126401 666:0.27428299 667:0.35133401 668:0.35133401 669:0.338974 670:0.0082842102 671:0.0080453204 672:0.0037144299 673:0.0057811001 674:0.00314545 675:0.203702 676:0.35133401 677:0.076474003 678:0.0466474 679:0.00264351 680:0.0061814701 681:0.00173555 682:0.0073710699 683:0.00655314 684:0.35133401 685:0.35715199 686:0.0060012699 687:0.0087868897 688:0.0085147098 689:0.0095694801 690:0.00095310702 691:0.0071729999 692:0.0020689999 693:0.307825 694:0.35715199 695:0.0143738 696:0.032806601 697:0.056188598 698:0.108844 699:0.0132882 700:0.065090902 701:0.0139232 702:0.237179 703:0.35715199 704:0.0154809 705:0.0153293 706:0.0090714898 707:0.0056538698 708:0.00231905 709:0.0101779 710:0.0066661998 711:0.35715199 712:0.35715199 713:0.0624802 714:0.104021 715:0.132993 716:0.15632901 717:0.0214116 718:0.0640499 719:0.0128627 720:0.35225901 721:0.104406 722:0.0135005 723:0.031742401 724:0.150414 725:0.35431001 726:0.030560501 727:0.055883799 728:0.015227 729:0.081706598 730:0.00779902 731:0.0088555301 732:0.0162667 733:0.29181901 734:0.35431001 735:0.0439208 736:0.0096912701 737:0.0131163 738:0.0120658 739:0.173712 740:0.068518803 741:0.117793 742:0.306315 743:0.35431001 744:0.077380598 745:0.074415602 746:0.0129409 747:0.104218 748:0.147424 749:0.101159 750:0.108994 751:0.35431001 752:0.35431001 753:0.115739 754:0.0375598 755:0.054922398 756:0.091657303 757:0.30829501 758:0.31367001 759:0.124294 760:0.0214238 761:0.0427384 762:0.0171891 763:0.044270899 764:0.042012099 765:0.181749 766:0.28123301 767:0.31367001 768:0.26662201 769:0.095802702 770:0.080693297 771:0.016293 772:0.058045998 773:0.0777025 774:0.062134001 775:0.131796 776:0.093172997 777:0.063299298 778:0.0364011 779:0.069460198 780:0.033309601 781:0.093665697 782:0.25968099 783:0.277053 784:0.15652999 785:0.171058 786:0.119417 787:0.121662 788:0.117128 789:0.029916 790:0.20404901 791:0.31367001 792:0.207616 793:0.308083 794:0.37197101 795:0.261895 796:0.156018 797:0.100219 798:0.0156729 799:0.030114399 800:0.051030699 801:0.072599798 802:0.144336 803:0.32938901 804:0.092242204 805:0.032122198 806:0.0425088 807:0.0105969 808:0.0267743 809:0.025776399 810:0.0706563 811:0.20328701 812:0.16648801 813:0.114738 814:0.1769 815:0.14029101 816:0.041013401 817:0.18393099 818:0.37197101 819:0.23650301 820:0.053873099 821:0.0317773 822:0.035582099 823:0.031312399 824:0.057727002 825:0.051581301 826:0.110423 827:0.32289699 828:0.110638 829:0.082015201 830:0.077828303 831:0.052512199 832:0.056538898 833:0.121837 834:0.0069063501 835:0.0168299 836:0.024195701 837:0.042175502 838:0.38500699 839:0.12091 840:0.14393 841:0.14414901 842:0.285777 843:0.0147596 844:0.042519301 845:0.092566296 846:0.38500699 847:0.066018 848:0.0204852 849:0.045553401 850:0.075425602 851:0.160723 852:0.061499599 853:0.033982899 854:0.077116199 855:0.075869702 856:0.38500699 857:0.057383299 858:0.135566 859:0.16000301 860:0.287058 861:0.110053 862:0.041007899 863:0.14176001 864:0.38500699 865:0.346623 866:0.049439501 867:0.0272412 868:0.0182539 869:0.032977801 870:0.00199694 871:0.0081758797 872:0.0169791 873:0.339587 874:0.346623 875:0.19141901 876:0.148706 877:0.0068320502 878:0.0027427201 879:0.00066502299 880:0.00039803601 881:0.00038692699 882:0.303938 883:0.346623 884:0.0127837 885:0.019685401 886:0.015785599 887:0.027717801 888:0.0114076 889:0.0081394799 890:0.0288368 891:0.346623 892:0.346623 893:0.0353445 894:0.0176918 895:0.00057103002 896:0.00128939 897:0.000121117 898:0.00039105699 899:0.0042870301 900:0.346623 901:0.362625 902:0.193588 903:0.184673 904:0.0085954396 905:0.0071030399 906:0.00186782 907:0.0024956199 908:0.00078348297 909:0.22121499 910:0.362625 911:0.0370363 912:0.029789699 913:0.00434937 914:0.0071384502 915:0.00149172 916:0.00370657 917:0.00351061 918:0.28814799 919:0.362625 920:0.029130099 921:0.0206635 922:0.00186143 923:0.00355638 924:0.000659385 925:0.000863444 926:0.00185523 927:0.362625 928:0.362625 929:0.0044607902 930:0.0048886202 931:0.00191418 932:0.0033988201 933:0.000552652 934:0.00130595 935:0.00080153899 936:0.362625 937:0.338045 938:0.00818926 939:0.0101454 940:0.00440674 941:0.0109785 942:0.00339098 943:0.0097241597 944:0.0096739596 945:0.33631 946:0.30929801 947:0.035543799 948:0.0451754 949:0.078365803 950:0.105898 951:0.0290184 952:0.041285601 953:0.0277452 954:0.23520499 955:0.338045 956:0.014557 957:0.0269072 958:0.0165128 959:0.034075301 960:0.00730563 961:0.0155663 962:0.011797 963:0.338045 964:0.338045 965:0.035451598 966:0.093289502 967:0.130242 968:0.314255 969:0.0381063 970:0.066408098 971:0.0482383 972:0.338045 973:0.099100903 974:0.060508002 975:0.090151697 976:0.25605699 977:0.246059 978:0.077448599 979:0.052912701 980:0.022019301 981:0.061431602 982:0.139594 983:0.095867403 984:0.150555 985:0.36332801 986:0.36332801 987:0.0852753 988:0.040888101 989:0.034629501 990:0.077514902 991:0.0966122 992:0.026032999 993:0.077720799 994:0.24249101 995:0.36332801 996:0.076416299 997:0.044643998 998:0.0333081 999:0.070740901 1000:0.0486819 1001:0.0216271 1002:0.0695685 1003:0.36332801 1004:0.36332801 1005:0.090426497 1006:0.029176399 1007:0.0213557 1008:0.045814499 1009:0.31503001 1010:0.0093577998 1011:0.0034012401 1012:0.0097080301 1013:0.0135824 1014:0.0070643998 1015:0.025018601 1016:0.21899299 1017:0.33404601 1018:0.215793 1019:0.020295599 1020:0.011925 1021:0.027977901 1022:0.056853302 1023:0.00694955 1024:0.0682825 1025:0.29827201 1026:0.33404601 1027:0.33404601 1028:0.00300992 1029:0.00068376999 1030:0.0041521601 1031:0.0072903498 1032:0.0021303601 1033:0.0097079398 1034:0.092633396 1035:0.33404601 1036:0.33404601 1037:0.025371101 1038:0.0067592901 1039:0.0196879 1040:0.062552802 1041:0.0060027 1042:0.024514399 1043:0.14030799 1044:0.33404601 1045:0.154277 1046:0.029710099 1047:0.022724699 1048:0.0286901 1049:0.069149703 1050:0.0126707 1051:0.098859698 1052:0.34050801 1053:0.27238801 1054:0.049120001 1055:0.0097567402 1056:0.0129945 1057:0.0058561899 1058:0.0123619 1059:0.023091899 1060:0.101398 1061:0.34050801 1062:0.160143 1063:0.29743901 1064:0.0478191 1065:0.0180133 1066:0.016771801 1067:0.0775714 1068:0.0121786 1069:0.105947 1070:0.33617201 1071:0.34050801 1072:0.064434499 1073:0.0142925 1074:0.0089563904 1075:0.00158019 1076:0.0116209 1077:0.0152521 1078:0.21544001 1079:0.34050801 1080:0.32491499 1081:0.0686353 1082:0.0118214 1083:0.0220821 1084:0.035973001 1085:0.099893697 1086:0.066592798 1087:0.067993999 1088:0.26945701 1089:0.16435 1090:0.36637601 1091:0.020056101 1092:0.054446399 1093:0.075107403 1094:0.167382 1095:0.118874 1096:0.045314599 1097:0.215514 1098:0.36637601 1099:0.067307897 1100:0.0093095303 1101:0.00789952 1102:0.00037400401 1103:0.0125258 1104:0.0139988 1105:0.15921301 1106:0.36637601 1107:0.26842901 1108:0.115882 1109:0.0055348198 1110:0.0070628901 1111:0 1112:0.0139677 1113:0.0132106 1114:0.120843 1115:0.36637601 1116:0.32179701 1117:0.43243599 1118:0.0058563198 1119:0.0147509 1120:0.0143194 1121:0.0326357 1122:0.022849699 1123:0.0126197 1124:0.062012799 1125:0.43243599 1126:0.43243599 1127:0.0024900499 1128:0.000678543 1129:0 1130:0.0048181899 1131:0 1132:0.00249267 1133:0.0070350398 1134:0.43243599 1135:0.110887 1136:0.0024800899 1137:0.00163154 1138:0 1139:0.0135622 1140:0.0035909801 1141:0.053075101 1142:0.31507501 1143:0.22514001 1144:0.130761 1145:0.00322729 1146:0.00349535 1147:0.00365567 1148:0.017655 1149:0.00066815299 1150:0.027912199 1151:0.140007 1152:0.19604801 1153:0.48014399 1154:0.0042670402 1155:0.0018677 1156:0 1157:0.0037950799 1158:0.00115839 1159:0.00266858 1160:0.0036078701 1161:0.48014399 1162:0.48014399 1163:0.0028154401 1164:0.00155336 1165:0 1166:0.0057027498 1167:0.00148936 1168:0.0020387401 1169:0.0022088699 1170:0.48014399 1171:0.131873 1172:0.00530231 1173:0.0057669999 1174:0.00516287 1175:0.0138801 1176:0.00148936 1177:0.0089754499 1178:0.037061501 1179:0.146093 1180:0.131621 1181:0.0026864801 1182:0.00363162 1183:0.00078381097 1184:0.0116288 1185:0.00191489 1186:0.0019533001 1187:0.00193025 1188:0.122384 1189:0.427885 1190:0.023589499 1191:0.041814599 1192:0.0198467 1193:0.033218998 1194:0.00534999 1195:0.0088276798 1196:0.00771554 1197:0.427885 1198:0.427885 1199:0.056699298 1200:0.160594 1201:0.14916299 1202:0.365731 1203:0.019191001 1204:0.035722401 1205:0.026812799 1206:0.42142299 1207:0.12248 1208:0.00241165 1209:0.0055832402 1210:0.00055079302 1211:0.0151436 1212:0.00030846 1213:0.00321756 1214:0.00196055 1215:0.110412 1216:0.079111502 1217:0.00726711 1218:0.0226236 1219:0.0477238 1220:0.18989199 1221:0.0048019998 1222:0.0140313 1223:0.00630876 1224:0.068071902 1225:0.0537633 1226:0.0093098599 1227:0.039581601 1228:0.143638 1229:0.395558 1230:0.0273092 1231:0.0108874 1232:0.0089823101 1233:0.036722399 1234:0.023858201 1235:0.0045126402 1236:0.011478 1237:0.29655001 1238:0.395558 1239:0.111018 1240:0.026155399 1241:0.035125598 1242:0.091735803 1243:0.0094804401 1244:0.00178599 1245:0.0089729 1246:0.123654 1247:0.395558 1248:0.0217632 1249:0.0073911501 1250:0.0050110999 1251:0.0103423 1252:0.114608 1253:0.031274099 1254:0.063279197 1255:0.24694701 1256:0.395558 1257:0.12635399 1258:0.0478344 1259:0.072737597 1260:0.335596 1261:0.48173299 1262:0.0046368302 1263:0.00850375 1264:0.010836 1265:0.074813798 1266:0.018704001 1267:0.0197793 1268:0.031263702 1269:0.48173299 1270:0.48173299 1271:0.0273932 1272:0.022328001 1273:0.027088299 1274:0.136649 1275:0.0269043 1276:0.051141299 1277:0.062440898 1278:0.48173299 1279:0.017988101 1280:0.0253458 1281:0.050712001 1282:0.027643699 1283:0.099138699 1284:0.0089910999 1285:0.0067414502 1286:0.00335443 1287:0.015338 1288:0.0155261 1289:0.0214159 1290:0.069149502 1291:0.033061601 1292:0.096426502 1293:0.0134469 1294:0.025785999 1295:0.0073790201 1296:0.0149574 1297:0.207542 1298:0.0285812 1299:0.018217999 1300:0.0091529703 1301:0.077418096 1302:0.025082501 1303:0.144511 1304:0.30829701 1305:0.36302599 1306:0.086555898 1307:0.0241284 1308:0.024503499 1309:0.0082354601 1310:0.0146635 1311:0.020076299 1312:0.34289899 1313:0.49473301 1314:0.49473301 1315:0.0384514 1316:0.015739201 1317:0.031530701 1318:0.0188332 1319:0.0552992 1320:0.0146663 1321:0.029881001 1322:0.0204204 1323:0.045367699 1324:0.073441401 1325:0.0474286 1326:0.0404016 1327:0.032761499 1328:0.039428201 1329:0.0102668 1330:0.043188401 1331:0.145009 1332:0.187968 1333:0.034297802 1334:0.0074353199 1335:0.0072630499 1336:0.0026309199 1337:0.0071881702 1338:0.0064309998 1339:0.160124 1340:0.391509 1341:0.31722999 1342:0.0482512 1343:0.0049286601 1344:0.0050585498 1345:0.000114191 1346:0.0093344096 1347:0.0098552201 1348:0.17980801 1349:0.391509 1350:0.38729599 1351:0.03026 1352:0.025761699 1353:0.0128956 1354:0.0086593498 1355:0.0090169096 1356:0.00070192397 1357:0.055077001 1358:0.22244801 1359:0.16253901 1360:0.085000001 1361:0.0335715 1362:0.011484 1363:0.00076432101 1364:0.0047617001 1365:0.0039738198 1366:0.13041399 1367:0.391509 1368:0.34254 1369:0.0342886 1370:0.0042748498 1371:0.0040215598 1372:0.00031923701 1373:0.0091506802 1374:0.0108165 1375:0.099624299 1376:0.37426001 1377:0.249845 1378:0.036473401 1379:0.0036027399 1380:0.0065793102 1381:0.0074744201 1382:0.0106604 1383:0.0089310203 1384:0.085457802 1385:0.37426001 1386:0.194883 1387:0.061984301 1388:0.0105143 1389:0.0051291101 1390:0.00041044701 1391:0.0023771999 1392:0.0101656 1393:0.122914 1394:0.37426001 1395:0.336025 1396:0.050925799 1397:0.00384345 1398:0.0057768398 1399:0.0031842301 1400:0.00335046 1401:0.017399 1402:0.200394 1403:0.37426001 1404:0.37426001 1405:0.042851102 1406:0.0034498801 1407:0.0047214502 1408:0.0128902 1409:0.0135128 1410:0.0028298199 1411:0.0685606 1412:0.37466499 1413:0.146354 1414:0.0157196 1415:0.00148304 1416:0.00124003 1417:0.00183494 1418:0.0075954599 1419:0.00047351199 1420:0.028883699 1421:0.147852 1422:0.070233099 1423:0.061077502 1424:0.0051643401 1425:0.00325332 1426:0.0038224801 1427:0.00794366 1428:0.0154972 1429:0.27261901 1430:0.43048799 1431:0.42938599 1432:0.039691798 1433:0.0091163004 1434:0.00354842 1435:0.000423449 1436:0.0073224301 1437:0.0114753 1438:0.222886 1439:0.43048799 1440:0.33776599 1441:0.0141773 1442:0.00248853 1443:0.0074156201 1444:0.00272553 1445:0.035208698 1446:8.5549204e-05 1447:0.016106401 1448:0.042570502 1449:0.039358899 1450:0.019686401 1451:0.0104805 1452:0.0329316 1453:0.111728 1454:0.404035 1455:0.0042549102 1456:0.0175873 1457:0.00715642 1458:0.020732399 1459:0.055462699 1460:0.014954 1461:0.0074800001 1462:0.00123888 1463:0.041456901 1464:0.010645 1465:0.18463001 1466:0.451536 1467:0.371093 1468:0.0363141 1469:0.0135703 1470:0.029190701 1471:0.172957 1472:0.451536 1473:0.0143662 1474:0.0718766 1475:0.38581401 1476:0.202464 1477:0.0049859602 1478:0.0029051199 1479:0.0112807 1480:0.143407 1481:0.39689401 1482:0.016911799 1483:0.0064473799 1484:0.00370731 1485:0.0073802401 1486:0.074949197 1487:0.0230559 1488:0.054090701 1489:0.32779199 1490:0.39689401 1491:0.043593101 1492:0.018080199 1493:0.0275796 1494:0.15972801 1495:0.00365327 1496:0.00333959 1497:0.0153998 1498:0.19712099 1499:0.39689401 1500:0.0169599 1501:0.0093071796 1502:0.0297604 1503:0.0181197 1504:0.0040770601 1505:0.00387581 1506:0.0124932 1507:0.39689401 1508:0.39689401 1509:0.0341454 1510:0.0095433304 1511:0.00770741 1512:0.0073962398 1513:0.232512 1514:0.193095 1515:0.243893 1516:0.106032 1517:0.20274501 1518:0.00155586 1519:0.016215499 1520:0.0258015 1521:0.190813 1522:0.117949 1523:0.121967 1524:0.247862 1525:0.119758 1526:0.26894799 1527:0.0045803199 1528:0.106609 1529:0.036819998 1530:0.102704 1531:0.344383 1532:0.150576 1533:0.166969 1534:0.097815201 1535:0.14781199 1536:0 1537:0.046515599 1538:0.088298596 1539:0.312143 1540:0.23929501 1541:0.080540501 1542:0.172952 1543:0.119082 1544:0.27513301 1545:0 1546:0.068179503 1547:0.031255499 1548:0.224043 1549:0.097227901 1550:0.072249301 1551:0.116094 1552:0.116765 1553:0.228374 1554:0.0142529 1555:0.096606702 1556:0.061779801 1557:0.111188 1558:0.123588 1559:0.14058299 1560:0.101711 1561:0.14506599 1562:0.33794299 1563:0.0203337 1564:0.074284799 1565:0.093541302 1566:0.13812999 1567:0.122462 1568:0.074615501 1569:0.166272 1570:0.131043 1571:0.30815801 1572:0 1573:0.077501699 1574:0.044468898 1575:0.12746701 1576:0.112866 1577:0.15198299 1578:0.19527601 1579:0.184724 1580:0.58272803 1581:0.0130637 1582:0.097965002 1583:0.060591701 1584:0.098655298 1585:0.121247 1586:0.170386 1587:0.057652202 1588:0.063880697 1589:0.16365799 1590:0.0199013 1591:0.041563299 1592:0.0483956 1593:0.064098299 1594:0.323356 1595:0.26676899 1596:0.101261 1597:0.033665299 1598:0.081169702 1599:0.033204898 1600:0.17075901 1601:0.428179 1602:0.33966801 1603:0.063384801 1604:0.099760003 1605:0.065107003 1606:0.120967 1607:0.407152 1608:0.104365 1609:0.059624799 1610:0.012652 1611:0.0133541 1612:0.102066 1613:0.110261 1614:0.056868002 1615:0.0562374 1616:0.28230301 1617:0.184609 1618:0.15593 1619:0.050911002 1620:0.041265901 1621:0.103129 1622:0.0305326 1623:0.0137207 1624:0.00086071901 1625:0.0105841 1626:0.0154129 1627:0.127708 1628:0.478742 1629:0.309892 1630:0.078010798 1631:0.0133139 1632:0.0036687099 1633:0.00054015702 1634:0.022620801 1635:0.035545599 1636:0.31298801 1637:0.478742 1638:0.478742 1639:0.032593399 1640:0.0113653 1641:0.010191 1642:0.00094637298 1643:0.045121402 1644:0.038952 1645:0.065891802 1646:0.043856099 1647:0.048232701 1648:0.042307399 1649:0.0088211801 1650:0.0053204698 1651:0 1652:0.063454397 1653:0.071735397 1654:0.104119 1655:0.16469499 1656:0.121237 1657:0.0257528 1658:0.0042167502 1659:0.00146032 1660:0.000102813 1661:0.017539499 1662:0.019846501 1663:0.241338 1664:0.39520699 1665:0.282987 1666:0.018649301 1667:0.0072046602 1668:0.00302975 1669:0 1670:0.0136342 1671:0.0216961 1672:0.30435199 1673:0.39520699 1674:0.29108 1675:0.0110499 1676:0.00172486 1677:0.00115935 1678:0 1679:0.067312501 1680:0.039286099 1681:0.115937 1682:0.25380999 1683:0.093058698 1684:0.00506149 1685:0.00109791 1686:0.000377513 1687:0 1688:0.077015698 1689:0.031576399 1690:0.26232901 1691:0.39520699 1692:0.202135 1693:0.021786099 1694:0.0070639402 1695:0.0031970399 1696:0 1697:0.0106306 1698:0.0155738 1699:0.155266 1700:0.37567201 1701:0.20882601 1702:0.033068702 1703:0.0116261 1704:0.0247084 1705:0.061988201 1706:0.121422 1707:0.011726 1708:0.077576503 1709:0.37567201 1710:0.20395701 1711:0.0097310403 1712:0.00265544 1713:0.0018049499 1714:0.00163966 1715:0.0288985 1716:0.0280178 1717:0.247687 1718:0.37567201 1719:0.226236 1720:0.049013902 1721:0.0179356 1722:0.0237993 1723:0.030408001 1724:0.0438306 1725:0.018704001 1726:0.247684 1727:0.37567201 1728:0.335933 1729:0.027039399 1730:0.0070947702 1731:0.038211498 1732:0.18415099 1733:0.37018001 1734:0.0199017 1735:0.0237861 1736:0.130316 1737:0.090562202 1738:0.0078515504 1739:0.0023163401 1740:0.0144175 1741:0.338027 1742:0.37018001 1743:0.039811201 1744:0.0094025899 1745:0.00831185 1746:0.0132102 1747:0.071072698 1748:0.0288982 1749:0.057911299 1750:0.121504 1751:0.19906899 1752:0.0079151699 1753:0.098833598 1754:0.37018001 1755:0.217259 1756:0.0305457 1757:0.034701198 1758:0.091301203 1759:0.36400899 1760:0.37018001 1761:0.0150241 1762:0.0124886 1763:0.049336299 1764:0.054419 #
