SVM-light Version V6.10
0 # kernel type
3 # kernel parameter -d 
1 # kernel parameter -g 
1 # kernel parameter -s 
1 # kernel parameter -r 
0# kernel parameter -u 
1764 # highest feature index 
728 # number of training documents 
109 # number of support vectors plus 1 
1.0095095 # threshold b, each following line is a SV (starting with alpha*y)
-0.0010051046370919620217415646479253 1:0 2:0 3:0 4:0 5:0 6:0 7:0 8:0 9:0 10:0 11:0 12:0 13:0 14:0 15:0 16:0 17:0 18:0 19:0.223828 20:0 21:0 22:0 23:0 24:0 25:0 26:0 27:0.223828 28:0.50779998 29:0 30:0 31:0 32:0 33:0 34:0 35:0 36:0.50779998 37:0.022226101 38:0.0048633702 39:0.025385199 40:0 41:0.112668 42:0.015818 43:0.0239652 44:0.0053262198 45:0.0241576 46:0.387669 47:0.084147401 48:0.211422 49:0.115539 50:0.31758699 51:0.082576603 52:0.18268301 53:0.088961497 54:0.284747 55:0.024296399 56:0.017218599 57:0.0074285199 58:0.0027076099 59:0.073419899 60:0.0131371 61:0.0160161 62:0.0097406497 63:0.021298399 64:0.548922 65:0.24000201 66:0.110748 67:0.051261701 68:0.190386 69:0.0700223 70:0.103355 71:0.067776099 72:0.306887 73:0.118596 74:0.049558099 75:0.0645044 76:0.062626503 77:0.064584397 78:0.0131204 79:0.045755401 80:0.034972999 81:0.084336802 82:0.136088 83:0.098383702 84:0.058422498 85:0.055407699 86:0.044797 87:0.0113153 88:0.024126999 89:0.032916799 90:0.096376203 91:0.239473 92:0.329016 93:0.121861 94:0.03272 95:0.051887099 96:0.0165227 97:0.0262185 98:0.041324899 99:0.123299 100:0.52905899 101:0.52905899 102:0.32476601 103:0.089993797 104:0.050527599 105:0.019216601 106:0.024348499 107:0.058063801 108:0.15880799 109:0.076241203 110:0.062104501 111:0.0226791 112:0.0139853 113:0.0057579302 114:0.00526996 115:0.0064502 116:0.019277699 117:0.036527101 118:0.186986 119:0.27886999 120:0.074760601 121:0.0158346 122:0.021193501 123:0.0069285198 124:0.0065522701 125:0.018649001 126:0.061777201 127:0.40681499 128:0.432408 129:0.148412 130:0.063510098 131:0.0083838003 132:0.0055365702 133:0.0088530704 134:0.0106193 135:0.054271199 136:0.432408 137:0.432408 138:0.29461101 139:0.077076301 140:0.022218401 141:0.0301251 142:0.022370201 143:0.00618358 144:0.099073 145:0.15097 146:0.32578301 147:0.089809097 148:0.0089076003 149:0.020041 150:0.0102363 151:0.0071779201 152:0.0104175 153:0.054432198 154:0.32280999 155:0.34704199 156:0.18336999 157:0.025839301 158:0.0114618 159:0.0216711 160:0.0119104 161:0.010129 162:0.084498897 163:0.34704199 164:0.34704199 165:0.207434 166:0.030005099 167:0.0189723 168:0.028942101 169:0.0112188 170:0.0057361699 171:0.061976898 172:0.34704199 173:0.34704199 174:0.227607 175:0.020492399 176:0.011009 177:0.027194399 178:0.016901599 179:0.00739404 180:0.067865297 181:0.317287 182:0.317287 183:0.24400701 184:0.0270749 185:0.0175444 186:0.0134886 187:0.0064643798 188:0.0053667398 189:0.088862099 190:0.317287 191:0.317287 192:0.253149 193:0.017793801 194:0.041957401 195:0.0117913 196:0.0080712996 197:0.0141634 198:0.104737 199:0.317287 200:0.317287 201:0.192616 202:0.018675201 203:0.0106451 204:0.0083323298 205:0.0106349 206:0.00652277 207:0.064391099 208:0.280756 209:0.317287 210:0.14128999 211:0.0117833 212:0.0120807 213:0.0080872998 214:0.014495 215:0.017026501 216:0.065541297 217:0.35635599 218:0.35635599 219:0.15701699 220:0.038302202 221:0.14969601 222:0.084597804 223:0.115551 224:0.076535396 225:0.115195 226:0.092408203 227:0.120548 228:0.070256598 229:0.169726 230:0.35635599 231:0.228498 232:0.167463 233:0.068183199 234:0.0571949 235:0.166169 236:0.144797 237:0.070382699 238:0.051633898 239:0.35635599 240:0.072225399 241:0.048374999 242:0.041032799 243:0.054367401 244:0.037377 245:0.033124 246:0.035614599 247:0.132572 248:0.35635599 249:0.183043 250:0.0596365 251:0.029497599 252:0.0259548 253:0.0138734 254:0.00956342 255:0.0021676801 256:8.2484301e-05 257:0.017887199 258:0.0057430398 259:0.0041748802 260:0.0058090002 261:0.0139795 262:0.046613399 263:0.0408886 264:0.0090308804 265:0.000357432 266:0.0228638 267:0.0157695 268:0.0065571298 269:0.0068674302 270:0.037719902 271:0.232398 272:0.247903 273:0.087373398 274:0.028534001 275:0.062091898 276:0.0123659 277:0.0114057 278:0.0272571 279:0.113037 280:0.60821199 281:0.60821199 282:0.29651999 283:0.0172804 284:0.058650602 285:0.029965799 286:0.015002 287:0.0262293 288:0.109263 289:0.0421542 290:0.041715901 291:0.0144634 292:0.0022496299 293:0.0050330199 294:0.00365528 295:0.00153287 296:0.000740599 297:0.0077792401 298:0.218493 299:0.22467899 300:0.118249 301:0.0145986 302:0.0099696899 303:0.0041835001 304:0.0035217099 305:0.0035632099 306:0.0243963 307:0.40839899 308:0.40839899 309:0.194773 310:0.0154002 311:0.0071010399 312:0.010055 313:0.0028438901 314:0.0052016 315:0.0191293 316:0.40839899 317:0.40839899 318:0.40839899 319:0.074344903 320:0.0113021 321:0.0078250105 322:0.00213584 323:0.012424 324:0.019543801 325:0.19252899 326:0.26773599 327:0.111881 328:0.0052937199 329:0.0087695196 330:0.0022168001 331:0.0021297201 332:0.00492561 333:0.0163412 334:0.29602101 335:0.331294 336:0.180907 337:0.0105711 338:0.00988572 339:0.0057180501 340:0.0042451499 341:0.0069832299 342:0.019615199 343:0.331294 344:0.331294 345:0.306429 346:0.0296298 347:0.0250198 348:0.0026052301 349:0.0024800899 350:0.0184425 351:0.0066836299 352:0.331294 353:0.331294 354:0.32062 355:0.050705701 356:0.047894198 357:0.0060096099 358:0.0058009401 359:0.024524501 360:0.032476 361:0.24921501 362:0.31363401 363:0.145492 364:0.031578001 365:0.0070389202 366:0.0066434699 367:0.00706359 368:0.0022704001 369:0.027380301 370:0.31363401 371:0.31363401 372:0.18692601 373:0.05909 374:0.0080869701 375:0.0139299 376:0.016327901 377:0.00386513 378:0.040310301 379:0.31363401 380:0.31363401 381:0.200165 382:0.056955501 383:0.0167764 384:0.0057998798 385:0.00454188 386:0.0141691 387:0.116474 388:0.31363401 389:0.31363401 390:0.31363401 391:0.103422 392:0.0061340798 393:0.0072487299 394:0.00650009 395:0.0248507 396:0.123722 397:0.27333999 398:0.29593399 399:0.15159 400:0.0524319 401:0.00554218 402:0.01267 403:0.0067442502 404:0.00626439 405:0.085001901 406:0.29593399 407:0.29593399 408:0.097096898 409:0.0194383 410:0.00229463 411:0.0049872301 412:0.00350386 413:0.0088902898 414:0.237654 415:0.29559699 416:0.29593399 417:0.29593399 418:0.126084 419:0.0081582498 420:0.0120345 421:0.0060069598 422:0.0276282 423:0.13464101 424:0.29593399 425:0.199866 426:0.206725 427:0.056017902 428:0.00597734 429:0.00525206 430:0.0083791902 431:0.0358615 432:0.29593399 433:0.364528 434:0.178314 435:0.042499602 436:0.00293876 437:0.00103435 438:0.0017750399 439:0.0034421701 440:0.0061778901 441:0.25361699 442:0.346158 443:0.044507101 444:0.017496999 445:0.0055532502 446:0.0042021102 447:0.0056860601 448:0.0133114 449:0.0116543 450:0.320438 451:0.364528 452:0.068294004 453:0.0261184 454:0.00148933 455:5.4782799e-05 456:0.00018351901 457:0.0113023 458:0.0309195 459:0.364528 460:0.364528 461:0.036209099 462:0.0137176 463:0.0140254 464:0.0019896999 465:0.00274799 466:0.0108987 467:0.0228572 468:0.364528 469:0.309735 470:0.026895501 471:0.029084301 472:0.052575499 473:0.241033 474:0.033174399 475:0.032396 476:0.0260795 477:0.3001 478:0.092712797 479:0.0291474 480:0.039486099 481:0.121398 482:0.346773 483:0.112628 484:0.025832999 485:0.019105099 486:0.086797297 487:0.346773 488:0.084916502 489:0.042238899 490:0.096150897 491:0.076220401 492:0.042106699 493:0.064668 494:0.085718498 495:0.346773 496:0.16966701 497:0.086432703 498:0.057817899 499:0.219236 500:0.346773 501:0.190295 502:0.087817602 503:0.088765897 504:0.201147 505:0.13727701 506:0.249752 507:0.114581 508:0.066327199 509:0.026252201 510:0.00173373 511:0.0010037801 512:0.0023886799 513:0.025353 514:0.28405499 515:0.28405499 516:0.181356 517:0.047682799 518:0.034485102 519:0.0024956099 520:0.0056998902 521:0.0087859901 522:0.027748801 523:0.150433 524:0.28405499 525:0.180926 526:0.228422 527:0.174042 528:0.0140733 529:0.097953998 530:0.236083 531:0.122781 532:0.26468399 533:0.28405499 534:0.209492 535:0.204761 536:0.17589401 537:0.035599899 538:0.123874 539:0.28405499 540:0.185845 541:0.290865 542:0.290865 543:0.160317 544:0.0481706 545:0.029791599 546:0.00745819 547:0.0035196799 548:0.0125028 549:0.018495301 550:0.290865 551:0.290865 552:0.290865 553:0.0581665 554:0.016991301 555:0.0091032404 556:0.00244996 557:0.0132376 558:0.026100401 559:0.24535599 560:0.281174 561:0.123318 562:0.184203 563:0.149518 564:0.0231381 565:0.103344 566:0.204964 567:0.098309703 568:0.282419 569:0.290865 570:0.154039 571:0.0952878 572:0.082832001 573:0.024572 574:0.083104797 575:0.196586 576:0.127113 577:0.28870299 578:0.28870299 579:0.28870299 580:0.042315301 581:0.0374019 582:0.0092581697 583:0.0121473 584:0.031977199 585:0.0187406 586:0.28870299 587:0.28870299 588:0.27422801 589:0.15206499 590:0.140343 591:0.051881202 592:0.083006501 593:0.123358 594:0.085105203 595:0.162122 596:0.28870299 597:0.119184 598:0.041212399 599:0.040654901 600:0.0301062 601:0.049304899 602:0.098698601 603:0.104162 604:0.20343 605:0.19852 606:0.137264 607:0.198015 608:0.135535 609:0.0839964 610:0.153594 611:0.211487 612:0.20446201 613:0.30505201 614:0.190442 615:0.108342 616:0.084484696 617:0.032699499 618:0.0150018 619:0.041196901 620:0.080623299 621:0.231782 622:0.30505201 623:0.28898701 624:0.20971701 625:0.070528902 626:0.00339159 627:0.0063223001 628:0.0084617399 629:0.046550401 630:0.28955701 631:0.30505201 632:0.098748997 633:0.070626698 634:0.0912553 635:0.030615101 636:0.021496 637:0.066460498 638:0.146209 639:0.30505201 640:0.30505201 641:0.18133301 642:0.073287301 643:0.035914801 644:0.0032969001 645:0.0054850001 646:0.0373151 647:0.102042 648:0.30505201 649:0.27796501 650:0.27796501 651:0.27796501 652:0.116575 653:0.0128341 654:0.021654701 655:0.0095090698 656:0.039136201 657:0.110542 658:0.27796501 659:0.27796501 660:0.27796501 661:0.0667331 662:0.0138275 663:0.0101156 664:0.0084672198 665:0.028266801 666:0.27796501 667:0.27796501 668:0.27796501 669:0.23407599 670:0.072665803 671:0.0202547 672:0.031976402 673:0.074453101 674:0.097048603 675:0.27796501 676:0.16260999 677:0.18301301 678:0.201529 679:0.066380002 680:0.033905499 681:0.0293565 682:0.034659602 683:0.0310905 684:0.072735801 685:0.42583701 686:0.121811 687:0.072099999 688:0.0134489 689:0.0039800699 690:9.4549097e-05 691:0.0132091 692:0.0399004 693:0.42583701 694:0.42583701 695:0.058007199 696:0.016752301 697:0.0167716 698:0.0027227099 699:0.00431321 700:0.0148686 701:0.0645836 702:0.42583701 703:0.25542 704:0.077864602 705:0.064920597 706:0.0332991 707:0.025638999 708:0.0139682 709:0.018218599 710:0.0431863 711:0.167119 712:0.20211799 713:0.042573899 714:0.017505899 715:0.0150919 716:0.022340201 717:0.020547699 718:0.038885102 719:0.113462 720:0.271925 721:0.33767399 722:0.073875301 723:0.020013001 724:0.061644901 725:0.124773 726:0.086866997 727:0.077168599 728:0.116147 729:0.33767399 730:0.091242202 731:0.071194597 732:0.037992898 733:0.19121601 734:0.33767399 735:0.281957 736:0.111506 737:0.094529502 738:0.13809501 739:0.091621399 740:0.025735701 741:0.0109967 742:0.057679001 743:0.33767399 744:0.0920237 745:0.053448401 746:0.097882301 747:0.156339 748:0.021120301 749:0.014728 750:0.030194599 751:0.19934601 752:0.33767399 753:0.31077999 754:0.063671097 755:0.040200401 756:0.039100599 757:0.102463 758:0.0761934 759:0.0620098 760:0.137697 761:0.155118 762:0.028640401 763:0.206506 764:0.32863 765:0.25296199 766:0.14555199 767:0.0776821 768:0.062018801 769:0.133018 770:0.143254 771:0.084360696 772:0.32863 773:0.32863 774:0.32863 775:0.052002899 776:0.016092099 777:0.0093511799 778:0.0154581 779:0.029266501 780:0.0299748 781:0.079984002 782:0.110946 783:0.107531 784:0.085848503 785:0.0096063502 786:0.0057880799 787:0.0103051 788:0.027534099 789:0.076739699 790:0.228347 791:0.32863 792:0.32863 793:0.098273799 794:0.0487893 795:0.0276487 796:0.090603799 797:0.082182199 798:0.053982198 799:0.20176999 800:0.30025199 801:0.27317601 802:0.13282999 803:0.065635197 804:0.037524901 805:0.056379002 806:0.051927999 807:0.068508901 808:0.19752599 809:0.30025199 810:0.30025199 811:0.0525936 812:0.0156877 813:0.0044458802 814:0.0108408 815:0.0149079 816:0.0684231 817:0.179545 818:0.30025199 819:0.30025199 820:0.103493 821:0.021413101 822:0.0337639 823:0.0213938 824:0.021443799 825:0.090774201 826:0.29193199 827:0.30025199 828:0.30025199 829:0.097660303 830:0.052834898 831:0.0409871 832:0.038575999 833:0.021293901 834:0.047626 835:0.130786 836:0.297593 837:0.225217 838:0.182606 839:0.116134 840:0.118343 841:0.226768 842:0.082514897 843:0.051756799 844:0.125697 845:0.193422 846:0.220715 847:0.132347 848:0.0221026 849:0.068375602 850:0.021347901 851:0.0132535 852:0.053010199 853:0.28226599 854:0.297593 855:0.297593 856:0.17447001 857:0.057856701 858:0.094295397 859:0.144271 860:0.056647498 861:0.0680926 862:0.259543 863:0.297593 864:0.297593 865:0.28557101 866:0.0947759 867:0.087759398 868:0.114809 869:0.026311001 870:0.0153434 871:0.0591834 872:0.095799901 873:0.30613801 874:0.30613801 875:0.0609404 876:0.029683501 877:0.018570401 878:0.0056961002 879:0.0324491 880:0.099350698 881:0.195408 882:0.30613801 883:0.176531 884:0.046344198 885:0.0479366 886:0.089195997 887:0.029625401 888:0.035215098 889:0.13483401 890:0.25272399 891:0.30613801 892:0.23652899 893:0.028382201 894:0.0151771 895:0.0274795 896:0.0261379 897:0.116774 898:0.236065 899:0.30613801 900:0.30613801 901:0.202272 902:0.054939002 903:0.028222701 904:0.023834201 905:0.033039398 906:0.100366 907:0.23797899 908:0.26711601 909:0.28873 910:0.086290397 911:0.032577299 912:0.028207701 913:0.025916999 914:0.041338898 915:0.077340499 916:0.149893 917:0.17204399 918:0.16353001 919:0.14266799 920:0.020980099 921:0.0024510501 922:0.027772499 923:0.073002398 924:0.181648 925:0.28873 926:0.28873 927:0.28873 928:0.28873 929:0.0214443 930:0.0034074101 931:0.0180586 932:0.063958302 933:0.088241398 934:0.245088 935:0.28873 936:0.28873 937:0.190126 938:0.032478999 939:0.028287601 940:0.0196936 941:0.021065099 942:0.0235602 943:0.034623899 944:0.077411897 945:0.153625 946:0.218073 947:0.038078401 948:0.0159718 949:0.018525399 950:0.026613301 951:0.022169 952:0.030554 953:0.068060897 954:0.193762 955:0.44084799 956:0.0517205 957:0.0172562 958:0.0060196798 959:0.0120673 960:0.0190413 961:0.051892299 962:0.191616 963:0.44084799 964:0.44084799 965:0.077852897 966:0.0253204 967:0.0119239 968:0.0117725 969:0.0082716197 970:0.010147 971:0.063493997 972:0.44084799 973:0.147166 974:0.034614101 975:0.036029302 976:0.080949999 977:0.270816 978:0.064750299 979:0.031311002 980:0.0438472 981:0.145083 982:0.057752501 983:0.019314799 984:0.057717901 985:0.21211199 986:0.33661199 987:0.244486 988:0.032940999 989:0.0183836 990:0.0398973 991:0.33661199 992:0.097318098 993:0.092150003 994:0.086589098 995:0.086693898 996:0.033135999 997:0.0187732 998:0.088220201 999:0.33661199 1000:0.25672701 1001:0.071818702 1002:0.12648199 1003:0.314071 1004:0.33661199 1005:0.135685 1006:0.047351498 1007:0.082033597 1008:0.20272499 1009:0.104493 1010:0.043418001 1011:0.0225469 1012:0.036266599 1013:0.113931 1014:0.18802699 1015:0.227424 1016:0.12171 1017:0.121608 1018:0.155451 1019:0.050886702 1020:0.047931802 1021:0.053816002 1022:0.179401 1023:0.25509101 1024:0.38054401 1025:0.38492301 1026:0.468402 1027:0.13513 1028:0.0597445 1029:0.0372326 1030:0.038101502 1031:0.127231 1032:0.074234299 1033:0.118953 1034:0.082670301 1035:0.17204501 1036:0.126325 1037:0.053885799 1038:0.071485698 1039:0.035768799 1040:0.163093 1041:0.048461899 1042:0.138065 1043:0.096323602 1044:0.168323 1045:0.049258001 1046:0.019892599 1047:0.0119095 1048:0.00654739 1049:0.034193199 1050:0.088785298 1051:0.18783 1052:0.31755599 1053:0.36636999 1054:0.118342 1055:0.0240712 1056:0.046872102 1057:0.0141716 1058:0.032299899 1059:0.125412 1060:0.43992701 1061:0.43992701 1062:0.43992701 1063:0.0365595 1064:0.033535901 1065:0.0176268 1066:0.0113265 1067:0.031069901 1068:0.033913199 1069:0.040304702 1070:0.053241599 1071:0.061245199 1072:0.052771199 1073:0.032797899 1074:0.0256005 1075:0.023892401 1076:0.047833599 1077:0.0605838 1078:0.087669201 1079:0.168203 1080:0.19644099 1081:0.081854001 1082:0.017154099 1083:0.041784398 1084:0.0046460601 1085:0.00726033 1086:0.032837301 1087:0.23852199 1088:0.35121 1089:0.35121 1090:0.12622701 1091:0.047265299 1092:0.037088498 1093:0.0298215 1094:0.023584399 1095:0.053653799 1096:0.317415 1097:0.35121 1098:0.35121 1099:0.0267672 1100:0.0136515 1101:0.013118 1102:0.0060153902 1103:0.0166706 1104:0.017360801 1105:0.051680401 1106:0.159895 1107:0.14123499 1108:0.035099398 1109:0.023910001 1110:0.00767616 1111:0.0060942299 1112:0.0112106 1113:0.019602399 1114:0.19859 1115:0.35121 1116:0.31084201 1117:0.082086898 1118:0.029722201 1119:0.00391794 1120:0.021191699 1121:0.030812399 1122:0.0403497 1123:0.19521999 1124:0.30011299 1125:0.30011299 1126:0.095605001 1127:0.018888701 1128:0.00471221 1129:0.0132966 1130:0.045000099 1131:0.155835 1132:0.29738501 1133:0.30011299 1134:0.30011299 1135:0.0196287 1136:0.0094398502 1137:0.00088807801 1138:0.00221674 1139:0.0112722 1140:0.017640401 1141:0.18197 1142:0.30011299 1143:0.278404 1144:0.039528299 1145:0.0036702401 1146:0.00145787 1147:0.0022921499 1148:0.0199768 1149:0.089038797 1150:0.26806599 1151:0.30011299 1152:0.30011299 1153:0.101001 1154:0.0105375 1155:0.00286008 1156:0.0136869 1157:0.046279699 1158:0.129326 1159:0.260048 1160:0.286603 1161:0.286603 1162:0.286603 1163:0.021578699 1164:0.00156276 1165:0.00977726 1166:0.027884999 1167:0.036906801 1168:0.122543 1169:0.286603 1170:0.286603 1171:0.070303597 1172:0.0029287699 1173:0.00073925703 1174:0.0048199198 1175:0.023724601 1176:0.086401403 1177:0.225384 1178:0.286603 1179:0.286603 1180:0.187288 1181:0.016552201 1182:0.00227236 1183:0.00614281 1184:0.0131866 1185:0.0621567 1186:0.199779 1187:0.286603 1188:0.286603 1189:0.356047 1190:0.045120701 1191:0.0114527 1192:0.00201182 1193:0.0025428501 1194:0.00504498 1195:0.0164889 1196:0.105524 1197:0.356047 1198:0.356047 1199:0.061653402 1200:0.0204446 1201:0.0043182401 1202:0.0034719 1203:0.0018361 1204:0.0053023999 1205:0.049268499 1206:0.356047 1207:0.23659401 1208:0.045631099 1209:0.0125929 1210:0.0068611801 1211:0.0093800602 1212:0.027329801 1213:0.098003402 1214:0.25660899 1215:0.356047 1216:0.25056699 1217:0.053668302 1218:0.0181608 1219:0.0188132 1220:0.019408001 1221:0.011981 1222:0.047716301 1223:0.108668 1224:0.356047 1225:0.344403 1226:0.071109802 1227:0.050918698 1228:0.041486599 1229:0.0593624 1230:0.041720901 1231:0.031124501 1232:0.118037 1233:0.344403 1234:0.215552 1235:0.040428299 1236:0.0675335 1237:0.17938501 1238:0.344403 1239:0.127152 1240:0.060236 1241:0.115619 1242:0.217232 1243:0.240769 1244:0.034573302 1245:0.016804099 1246:0.062192298 1247:0.256538 1248:0.091355003 1249:0.045517702 1250:0.091863401 1251:0.31286299 1252:0.0742926 1253:0.023663901 1254:0.0279346 1255:0.16014799 1256:0.344403 1257:0.183593 1258:0.052283999 1259:0.058899 1260:0.0953729 1261:0.27804399 1262:0.120216 1263:0.130493 1264:0.063120298 1265:0.260827 1266:0.0558387 1267:0.095239103 1268:0.14329299 1269:0.32838401 1270:0.26064101 1271:0.111991 1272:0.141248 1273:0.057482202 1274:0.30035099 1275:0.074519597 1276:0.176486 1277:0.23098101 1278:0.333951 1279:0.192277 1280:0.065555498 1281:0.095059097 1282:0.0235576 1283:0.0974444 1284:0.018983601 1285:0.030620299 1286:0.061826501 1287:0.192417 1288:0.22474 1289:0.076636903 1290:0.082434602 1291:0.013286 1292:0.135728 1293:0.089359403 1294:0.0422104 1295:0.114406 1296:0.254374 1297:0.15118399 1298:0.083013497 1299:0.049811799 1300:0.048634298 1301:0.213778 1302:0.129528 1303:0.17155001 1304:0.302564 1305:0.28974101 1306:0.177901 1307:0.065022498 1308:0.115245 1309:0.159686 1310:0.349145 1311:0.220642 1312:0.187764 1313:0.29701 1314:0.30590901 1315:0.141454 1316:0.053762 1317:0.025323501 1318:0.015626701 1319:0.147053 1320:0.072870404 1321:0.033991601 1322:0.092949599 1323:0.221311 1324:0.111825 1325:0.034413598 1326:0.043963101 1327:0.089272499 1328:0.230701 1329:0.0722223 1330:0.084914997 1331:0.056260001 1332:0.15646 1333:0.123092 1334:0.037606999 1335:0.068520397 1336:0.062629297 1337:0.14731701 1338:0.074607603 1339:0.076400101 1340:0.087976001 1341:0.16142 1342:0.16686399 1343:0.062034499 1344:0.0266304 1345:0.0234043 1346:0.067323297 1347:0.076327197 1348:0.40583801 1349:0.547212 1350:0.57397199 1351:0.054295901 1352:0.00402766 1353:0.0164463 1354:0.0446877 1355:0.081680298 1356:0.036592498 1357:0.052788299 1358:0.030484799 1359:0.069345199 1360:0.115997 1361:0.0178605 1362:0.0046212599 1363:0.026192199 1364:0.044736899 1365:0.0475921 1366:0.077524297 1367:0.051275901 1368:0.12701701 1369:0.029810701 1370:0.0138735 1371:0.0076480499 1372:0.0066867601 1373:0.0077065299 1374:0.0188327 1375:0.234336 1376:0.42476499 1377:0.358592 1378:0.043991499 1379:0.0152508 1380:0.0176154 1381:0.01115 1382:0.0178777 1383:0.090924799 1384:0.43302599 1385:0.43302599 1386:0.43302599 1387:0.039921399 1388:0.0105971 1389:0.00699045 1390:0.0053538 1391:0.0079010101 1392:0.0053840601 1393:0.017105799 1394:0.024851199 1395:0.054171499 1396:0.044084899 1397:0.020251799 1398:0.024501201 1399:0.0127527 1400:0.0127226 1401:0.035930902 1402:0.078167804 1403:0.13568801 1404:0.147021 1405:0.0435379 1406:0.0122774 1407:0.0069819801 1408:0.0088544497 1409:0.0129928 1410:0.059456602 1411:0.27465299 1412:0.344735 1413:0.344735 1414:0.0505546 1415:0.026144501 1416:0.00450275 1417:0.0076257102 1418:0.0124413 1419:0.092559896 1420:0.344735 1421:0.344735 1422:0.344735 1423:0.019901499 1424:0.0178982 1425:0.0135838 1426:0.013826 1427:0.0055956198 1428:0.023664599 1429:0.093145803 1430:0.160457 1431:0.113754 1432:0.0224547 1433:0.017872499 1434:0.0062888502 1435:0.00978476 1436:0.0055277902 1437:0.024184801 1438:0.18381099 1439:0.344735 1440:0.32518399 1441:0.0424078 1442:0.033355199 1443:0.00799911 1444:0.0132602 1445:0.018135799 1446:0.0493722 1447:0.215378 1448:0.31789899 1449:0.31789899 1450:0.072766297 1451:0.0430861 1452:0.0154239 1453:0.036771499 1454:0.034809802 1455:0.0513044 1456:0.172443 1457:0.31789899 1458:0.299761 1459:0.0331394 1460:0.0069813202 1461:0.00081887998 1462:0.0104366 1463:0.0134149 1464:0.0309976 1465:0.183963 1466:0.31789899 1467:0.31718901 1468:0.085301898 1469:0.0177442 1470:0.00207308 1471:0.028279001 1472:0.042045798 1473:0.088881403 1474:0.22598401 1475:0.31789899 1476:0.31789899 1477:0.060852699 1478:0.048620801 1479:0.0267446 1480:0.112221 1481:0.238653 1482:0.075675897 1483:0.070111401 1484:0.15970699 1485:0.21904001 1486:0.034389999 1487:0.047511298 1488:0.033743002 1489:0.25094801 1490:0.31515199 1491:0.13138901 1492:0.034262698 1493:0.037833899 1494:0.062999196 1495:0.103728 1496:0.098089598 1497:0.044240601 1498:0.117143 1499:0.113695 1500:0.082374997 1501:0.20353299 1502:0.31515199 1503:0.31515199 1504:0.098575898 1505:0.15848801 1506:0.13014799 1507:0.31515199 1508:0.31515199 1509:0.12749 1510:0.099738203 1511:0.120026 1512:0.242522 1513:0.331747 1514:0.0850541 1515:0.119863 1516:0.031870902 1517:0.142877 1518:0.019351499 1519:0.052611701 1520:0.0160303 1521:0.30449 1522:0.48311999 1523:0.0609034 1524:0.111751 1525:0.00212473 1526:0.16810399 1527:0.20435099 1528:0.052384499 1529:0.066499799 1530:0.55922198 1531:0 1532:0 1533:0 1534:0 1535:0 1536:0 1537:0 1538:0 1539:0 1540:0 1541:0 1542:0 1543:0 1544:0 1545:0 1546:0 1547:0 1548:0 1549:0.42204601 1550:0.101368 1551:0.043595798 1552:0 1553:0.223129 1554:0.146935 1555:0.0262587 1556:0.051224001 1557:0.482842 1558:0.36954799 1559:0.080648698 1560:0.0387468 1561:0.0967687 1562:0.30419999 1563:0.099621601 1564:0.119439 1565:0.042721801 1566:0.37360099 1567:0 1568:0 1569:0 1570:0 1571:0 1572:0 1573:0 1574:0 1575:0 1576:0 1577:0 1578:0 1579:0 1580:0 1581:0 1582:0 1583:0 1584:0 1585:0.28907299 1586:0.0075559001 1587:0.0123834 1588:0.155918 1589:0.152248 1590:0.0809002 1591:0.163682 1592:0.048914298 1593:0.284475 1594:0.55610502 1595:0.050332401 1596:0.0073943702 1597:0.108314 1598:0.074223503 1599:0.0989464 1600:0.166666 1601:0.080608197 1602:0.54473901 1603:0 1604:0 1605:0 1606:0 1607:0 1608:0 1609:0 1610:0 1611:0 1612:0 1613:0 1614:0 1615:0 1616:0 1617:0 1618:0 1619:0 1620:0 1621:0.19811 1622:0.0125911 1623:0.0118239 1624:0.0121994 1625:0.0262147 1626:0.0056257602 1627:0.021435101 1628:0.026093399 1629:0.234394 1630:0.35031101 1631:0.16782001 1632:0.18080001 1633:0.088031799 1634:0.22564 1635:0.111247 1636:0.35476699 1637:0.21561 1638:0.430989 1639:0 1640:0 1641:0 1642:0 1643:0.0067608398 1644:0 1645:0 1646:0 1647:0 1648:0.12573101 1649:0.112718 1650:0.065546103 1651:0.088867299 1652:0.386296 1653:0.035400901 1654:0.106258 1655:0.076104797 1656:0.238831 1657:0.090490699 1658:0.055741899 1659:0.045008399 1660:0.026258299 1661:0.041692302 1662:0.044521999 1663:0.093201399 1664:0.132581 1665:0.131006 1666:0.161823 1667:0.038689598 1668:0.024173301 1669:0.015698301 1670:0.027796401 1671:0.049878798 1672:0.256964 1673:0.55992299 1674:0.55992299 1675:0.065641597 1676:0.026786501 1677:0.0152851 1678:0.0125679 1679:0.079393297 1680:0.026020899 1681:0.043820702 1682:0.0692949 1683:0.14489099 1684:0.19561701 1685:0.0186131 1686:0.0128132 1687:0.00083786203 1688:0.04047 1689:0.027102901 1690:0.050019 1691:0.12798899 1692:0.329045 1693:0.059177 1694:0.0047267601 1695:0.0031950399 1696:0.0053102402 1697:0.0141045 1698:0.032025699 1699:0.182918 1700:0.458303 1701:0.293349 1702:0.097168401 1703:0.0180363 1704:0.0056471699 1705:0.023103099 1706:0.046707101 1707:0.109802 1708:0.349783 1709:0.458303 1710:0.458303 1711:0.065817602 1712:0.0089927297 1713:0.0037503501 1714:0.00069046102 1715:0.0044783498 1716:0.0051830402 1717:0.0145398 1718:0.049276698 1719:0.089726299 1720:0.059677102 1721:0.0091521898 1722:0.0098483898 1723:0.0047094501 1724:0.0082147699 1725:0.023608999 1726:0.066585399 1727:0.16594499 1728:0.206286 1729:0.112037 1730:0.064292997 1731:0.027076 1732:0.041138101 1733:0.0454139 1734:0.0675506 1735:0.261444 1736:0.306826 1737:0.306826 1738:0.27345499 1739:0.26232699 1740:0.197043 1741:0.26217499 1742:0.24677099 1743:0.073620602 1744:0.13402601 1745:0.178964 1746:0.306826 1747:0.074768603 1748:0.018977899 1749:0.0116313 1750:0.0070386999 1751:0.0155745 1752:0.026851101 1753:0.065839097 1754:0.116878 1755:0.236551 1756:0.215707 1757:0.12732799 1758:0.072990701 1759:0.0295416 1760:0.0243949 1761:0.023953199 1762:0.043753002 1763:0.075747199 1764:0.306826 #
-0.010000000000000000208166817117217 1:0.065011002 2:0.0350377 3:0.0146719 4:0.0136112 5:0.064431697 6:0.041798599 7:0.0233215 8:0.018765399 9:0.053610802 10:0.043088801 11:0.0194859 12:0.038322099 13:0.051051401 14:0.28675699 15:0.28090301 16:0.19029599 17:0.051197201 18:0.058302999 19:0.28675699 20:0.28675699 21:0.22657099 22:0.031042101 23:0.0437764 24:0.0540457 25:0.165168 26:0.211293 27:0.28675699 28:0.15166301 29:0.096280299 30:0.0431276 31:0.068438202 32:0.185745 33:0.275998 34:0.28675699 35:0.28675699 36:0.28675699 37:0.060560901 38:0.035775501 39:0.078727402 40:0.12771299 41:0.33330101 42:0.33330101 43:0.30507499 44:0.0746141 45:0.075145602 46:0.0415342 47:0.0135889 48:0.026247799 49:0.053048 50:0.15409499 51:0.13042399 52:0.061964899 53:0.042748101 54:0.0478906 55:0.110357 56:0.072081603 57:0.100413 58:0.20654701 59:0.33330101 60:0.33330101 61:0.33330101 62:0.242176 63:0.20960499 64:0.069525503 65:0.0347315 66:0.054207101 67:0.072500698 68:0.154471 69:0.137265 70:0.130494 71:0.051291801 72:0.077801198 73:0.151934 74:0.0093094204 75:0.028369 76:0.065507598 77:0.158794 78:0.0696683 79:0.098622002 80:0.088174798 81:0.115072 82:0.108757 83:0.0247852 84:0.0508768 85:0.0185051 86:0.035897002 87:0.0288135 88:0.0111697 89:0.0145714 90:0.128343 91:0.25098899 92:0.161028 93:0.105766 94:0.104104 95:0.21489801 96:0.104528 97:0.25165099 98:0.144173 99:0.233164 100:0.35465699 101:0.48290199 102:0.173352 103:0.067869604 104:0.055721801 105:0.055866402 106:0.0778623 107:0.114391 108:0.381697 109:0.0234647 110:0.0111451 111:0.021959299 112:0.011483 113:0.017105401 114:0.0218757 115:0.00738884 116:0.0104938 117:0.028697601 118:0.075067401 119:0.055962399 120:0.051079199 121:0.050114602 122:0.037494201 123:0.037368499 124:0.0204009 125:0.021317201 126:0.049057499 127:0.17291 128:0.50312901 129:0.127976 130:0.027381999 131:0.025609801 132:0.037363701 133:0.0312465 134:0.039004199 135:0.075722098 136:0.50312901 137:0.50312901 138:0.34714499 139:0.10882 140:0.058650699 141:0.063905701 142:0.064414598 143:0.048186801 144:0.094277397 145:0.068029203 146:0.095282897 147:0.049464099 148:0.0241326 149:0.019893 150:0.027962901 151:0.0270594 152:0.017433999 153:0.044898599 154:0.154618 155:0.38710499 156:0.152325 157:0.0153288 158:0.041010302 159:0.084373802 160:0.0768255 161:0.0483144 162:0.120163 163:0.30085 164:0.38710499 165:0.193729 166:0.0417809 167:0.0153946 168:0.0382718 169:0.051240399 170:0.030994499 171:0.052737899 172:0.34804299 173:0.38710499 174:0.38710499 175:0.0195328 176:0.0210131 177:0.075643897 178:0.087082699 179:0.081044503 180:0.131374 181:0.14448 182:0.35072401 183:0.16058201 184:0.0087650698 185:0.032111999 186:0.0430112 187:0.0441592 188:0.0429224 189:0.0909146 190:0.27680999 191:0.35072401 192:0.25865301 193:0.039002601 194:0.034795899 195:0.0174907 196:0.037578098 197:0.037781 198:0.088036798 199:0.189851 200:0.35072401 201:0.32067999 202:0.0132385 203:0.0227826 204:0.039000399 205:0.031613 206:0.050774999 207:0.108514 208:0.179315 209:0.35072401 210:0.27201101 211:0.039005298 212:0.052568499 213:0.0417003 214:0.0282351 215:0.037134599 216:0.12184 217:0.283463 218:0.34058499 219:0.210675 220:0.080265701 221:0.092069998 222:0.0606956 223:0.045149099 224:0.0153072 225:0.108372 226:0.199331 227:0.229477 228:0.110287 229:0.116116 230:0.34058499 231:0.216288 232:0.117271 233:0.022305001 234:0.094961502 235:0.14548901 236:0.31676599 237:0.127378 238:0.092797697 239:0.238106 240:0.112491 241:0.0521942 242:0.0209531 243:0.124179 244:0.052340198 245:0.094698504 246:0.0454273 247:0.15123001 248:0.34058499 249:0.155458 250:0.066225499 251:0.018472999 252:0.057847802 253:0.23058 254:0.225153 255:0.182689 256:0.054853301 257:0.079119101 258:0.056858301 259:0.141082 260:0.14597 261:0.23058 262:0.100638 263:0.091009699 264:0.062749296 265:0.065163702 266:0.174188 267:0.23058 268:0.23058 269:0.23058 270:0.23058 271:0.13559 272:0.14517599 273:0.135336 274:0.095253401 275:0.120299 276:0.092218101 277:0.20518 278:0.216701 279:0.108073 280:0.121168 281:0.23058 282:0.23058 283:0.189882 284:0.23058 285:0.197944 286:0.107416 287:0.127253 288:0.127516 289:0.076471701 290:0.066761598 291:0.081880704 292:0.107597 293:0.25054899 294:0.26552001 295:0.25274101 296:0.16180301 297:0.122956 298:0.052226 299:0.035973199 300:0.038605701 301:0.045635499 302:0.046642199 303:0.064629599 304:0.059631702 305:0.059593599 306:0.070280701 307:0.137474 308:0.26552001 309:0.26552001 310:0.215473 311:0.26552001 312:0.26552001 313:0.153115 314:0.196787 315:0.14408199 316:0.26552001 317:0.26552001 318:0.137766 319:0.065925002 320:0.070210502 321:0.066735603 322:0.084239699 323:0.17896 324:0.247431 325:0.072868101 326:0.15900201 327:0.054533601 328:0.0199253 329:0.0158506 330:0.00554456 331:0.024027299 332:0.0280833 333:0.044313699 334:0.128929 335:0.39076301 336:0.123991 337:0.011933 338:0.0054226299 339:0.0095501104 340:0.0145774 341:0.017789099 342:0.061323799 343:0.39076301 344:0.39076301 345:0.17343099 346:0.0415399 347:0.038300298 348:0.0155146 349:0.026738999 350:0.066195004 351:0.237405 352:0.29999599 353:0.39076301 354:0.32561299 355:0.047858998 356:0.0353074 357:0.0320834 358:0.030745899 359:0.035900999 360:0.11575 361:0.13916001 362:0.38551599 363:0.14380699 364:0.016443901 365:0.0158052 366:0.028691901 367:0.0145794 368:0.012304 369:0.041085102 370:0.230828 371:0.38551599 372:0.24315199 373:0.055684801 374:0.031620398 375:0.0296364 376:0.0216018 377:0.021670699 378:0.0339575 379:0.22368801 380:0.38551599 381:0.220917 382:0.0298822 383:0.038766101 384:0.056236502 385:0.0249191 386:0.019625399 387:0.057293601 388:0.22726899 389:0.38551599 390:0.242227 391:0.068220899 392:0.058912799 393:0.0502511 394:0.0327015 395:0.046706598 396:0.0763584 397:0.28710899 398:0.36847401 399:0.312105 400:0.056703899 401:0.0279631 402:0.0364636 403:0.045641199 404:0.042471301 405:0.0490149 406:0.203646 407:0.36847401 408:0.337271 409:0.032444399 410:0.0173025 411:0.059097901 412:0.0550786 413:0.0601441 414:0.086864397 415:0.186684 416:0.36847401 417:0.24652299 418:0.053307701 419:0.061506201 420:0.037293799 421:0.0512104 422:0.0953646 423:0.101495 424:0.069743603 425:0.25916201 426:0.12563799 427:0.036806598 428:0.041381098 429:0.0345819 430:0.034663599 431:0.047966499 432:0.045160901 433:0.24668901 434:0.384958 435:0.384958 436:0.082638301 437:0.0512596 438:0.055285498 439:0.046847399 440:0.105733 441:0.197239 442:0.179479 443:0.384958 444:0.36137301 445:0.131459 446:0.163644 447:0.071384899 448:0.0886437 449:0.107479 450:0.21053199 451:0.060981899 452:0.217143 453:0.103301 454:0.086040102 455:0.074717201 456:0.0236315 457:0.026396601 458:0.021025499 459:0.0471338 460:0.059635401 461:0.067839198 462:0.079102203 463:0.104362 464:0.183606 465:0.046198599 466:0.063293599 467:0.063939601 468:0.0504435 469:0.048642799 470:0.095378302 471:0.074190699 472:0.112855 473:0.387593 474:0.089445099 475:0.045730699 476:0.023683099 477:0.053226199 478:0.0141802 479:0.031574 480:0.035877898 481:0.139318 482:0.43679401 483:0.156644 484:0.0505502 485:0.015704099 486:0.0131629 487:0.0180458 488:0.019203899 489:0.033541799 490:0.151306 491:0.43679401 492:0.0544855 493:0.0267385 494:0.026091401 495:0.0108243 496:0.0152974 497:0.0125204 498:0.029704001 499:0.249615 500:0.43679401 501:0.29077101 502:0.0452132 503:0.0285393 504:0.016200701 505:0.138356 506:0.18303899 507:0.23366299 508:0.113826 509:0.105147 510:0.14966699 511:0.22044501 512:0.23366299 513:0.101731 514:0.182419 515:0.23366299 516:0.23366299 517:0.172409 518:0.147853 519:0.112081 520:0.099382497 521:0.187537 522:0.15194499 523:0.13519301 524:0.23366299 525:0.23366299 526:0.17936701 527:0.094413802 528:0.122419 529:0.115963 530:0.13620999 531:0.101587 532:0.23366299 533:0.23366299 534:0.18550099 535:0.119719 536:0.077838898 537:0.086640596 538:0.105107 539:0.16452201 540:0.142195 541:0.189004 542:0.28718901 543:0.26908299 544:0.13265599 545:0.115749 546:0.085880399 547:0.110102 548:0.14213 549:0.123006 550:0.28718901 551:0.28718901 552:0.233611 553:0.0685504 554:0.056334801 555:0.044608101 556:0.061374601 557:0.090272397 558:0.129107 559:0.25219899 560:0.28718901 561:0.223562 562:0.085645303 563:0.050020501 564:0.055141602 565:0.076448403 566:0.085641101 567:0.120191 568:0.25112101 569:0.28718901 570:0.26106 571:0.048956599 572:0.034922201 573:0.0467907 574:0.0537122 575:0.0434012 576:0.043519601 577:0.27268299 578:0.27268299 579:0.238823 580:0.054721799 581:0.060807802 582:0.039626699 583:0.0176934 584:0.0438556 585:0.16823401 586:0.26643601 587:0.27268299 588:0.26210999 589:0.050004799 590:0.0654286 591:0.0442244 592:0.030471601 593:0.035999998 594:0.164204 595:0.196141 596:0.27268299 597:0.24604499 598:0.058388799 599:0.074779198 600:0.063202299 601:0.030535299 602:0.02592 603:0.052041002 604:0.27268299 605:0.175822 606:0.180712 607:0.0993319 608:0.219745 609:0.158452 610:0.092902802 611:0.076847397 612:0.27268299 613:0.26821601 614:0.32684401 615:0.127453 616:0.0230402 617:0.040965199 618:0.034442801 619:0.025531201 620:0.028033599 621:0.198774 622:0.27701601 623:0.156701 624:0.073884398 625:0.0248044 626:0.028020401 627:0.0236859 628:0.0269728 629:0.032575998 630:0.28137201 631:0.36232001 632:0.068655297 633:0.071804002 634:0.042170901 635:0.10936 636:0.081836604 637:0.065241702 638:0.073000498 639:0.36232001 640:0.36232001 641:0.0102011 642:0.0124864 643:0.0080317697 644:0.0135653 645:0.0268458 646:0.0222467 647:0.025197599 648:0.36232001 649:0.23054899 650:0.049712099 651:0.037679501 652:0.0139146 653:0.0212267 654:0.0185638 655:0.028528299 656:0.0404361 657:0.26451701 658:0.24303199 659:0.0129033 660:0.0110477 661:0.015772 662:0.023289399 663:0.0145746 664:0.0141962 665:0.0185427 666:0.2402 667:0.43153799 668:0.0103531 669:0.0076487102 670:0.0034082099 671:0.00369981 672:0.016310399 673:0.0154904 674:0.017309399 675:0.43153799 676:0.43153799 677:0.015697001 678:0.0106206 679:0.0075752102 680:0.0084049702 681:0.0120164 682:0.0079194801 683:0.00711047 684:0.43153799 685:0.222708 686:0.0129209 687:0.0096201804 688:0.0209335 689:0.021358799 690:0.0069720699 691:0.0059388098 692:0.0050840699 693:0.23475701 694:0.16908 695:0.0156895 696:0.0270395 697:0.036579501 698:0.080540501 699:0.034728501 700:0.0345699 701:0.0475564 702:0.192451 703:0.411367 704:0.0290219 705:0.022593901 706:0.0210397 707:0.0145398 708:0.0071153301 709:0.0052790702 710:0.0125615 711:0.411367 712:0.411367 713:0.079786398 714:0.093888097 715:0.13266499 716:0.25956699 717:0.100316 718:0.086962797 719:0.11794 720:0.411367 721:0.042321 722:0.010368 723:0.023260901 724:0.111909 725:0.34718701 726:0.0697124 727:0.0417368 728:0.044395 729:0.047019999 730:0.020944299 731:0.021245901 732:0.047219802 733:0.28871799 734:0.34718701 735:0.253521 736:0.050331701 737:0.024336001 738:0.0196444 739:0.143014 740:0.048479401 741:0.067574203 742:0.179177 743:0.34718701 744:0.221719 745:0.088669203 746:0.092124403 747:0.17791399 748:0.020364201 749:0.029561199 750:0.036182199 751:0.232172 752:0.34718701 753:0.34275299 754:0.0544798 755:0.024399299 756:0.0137295 757:0.101318 758:0.167363 759:0.118983 760:0.15276299 761:0.095884599 762:0.081785798 763:0.139725 764:0.27970099 765:0.105193 766:0.215496 767:0.258356 768:0.101103 769:0.107091 770:0.066607103 771:0.057603899 772:0.165997 773:0.30781201 774:0.115999 775:0.048763901 776:0.045271199 777:0.023407999 778:0.0636646 779:0.055612501 780:0.117942 781:0.294889 782:0.30781201 783:0.16101401 784:0.13936 785:0.096194498 786:0.038084801 787:0.084605202 788:0.037997499 789:0.118935 790:0.30781201 791:0.30781201 792:0.20500199 793:0.213333 794:0.30580601 795:0.138685 796:0.056442998 797:0.049107 798:0.049647499 799:0.170303 800:0.25138101 801:0.146341 802:0.16930801 803:0.26516399 804:0.114654 805:0.0202468 806:0.0533248 807:0.056800101 808:0.116091 809:0.092147097 810:0.084126502 811:0.117095 812:0.089092202 813:0.036919799 814:0.048063699 815:0.040977199 816:0.082900703 817:0.30580601 818:0.30580601 819:0.282814 820:0.062512897 821:0.0640608 822:0.027175499 823:0.0245788 824:0.0861414 825:0.073684201 826:0.30580601 827:0.30580601 828:0.243375 829:0.148498 830:0.15408801 831:0.105021 832:0.051345099 833:0.087092698 834:0.057711601 835:0.064061597 836:0.042894401 837:0.041212302 838:0.27234799 839:0.0816705 840:0.087717101 841:0.124186 842:0.20117401 843:0.170518 844:0.13398901 845:0.148733 846:0.27234799 847:0.095666803 848:0.0626854 849:0.048723899 850:0.0712763 851:0.127884 852:0.082953699 853:0.23137499 854:0.27234799 855:0.157671 856:0.27234799 857:0.13153 858:0.081350297 859:0.24309801 860:0.185185 861:0.15220501 862:0.26864699 863:0.27234799 864:0.27234799 865:0.31984499 866:0.0269459 867:0.021850901 868:0.0296055 869:0.053697601 870:0.061704502 871:0.0744275 872:0.13848101 873:0.31984499 874:0.31984499 875:0.017306199 876:0.00140328 877:0.0030181401 878:0.0075999801 879:0.0270372 880:0.036335099 881:0.078476697 882:0.31984499 883:0.159768 884:0.076148599 885:0.0200416 886:0.066591501 887:0.040146399 888:0.049171001 889:0.175366 890:0.31984499 891:0.31984499 892:0.20271 893:0.055017099 894:0.019735601 895:0.035227299 896:0.0179653 897:0.0181683 898:0.137794 899:0.31984499 900:0.31984499 901:0.345503 902:0.0111566 903:0.0044596801 904:0.0054864301 905:0.0069035599 906:0.0185575 907:0.0227392 908:0.0221454 909:0.345503 910:0.345503 911:0.0129379 912:0.0167758 913:0.0085096601 914:0.0066434201 915:0.0144631 916:0.0136033 917:0.0124548 918:0.345503 919:0.345503 920:0.038129698 921:0.024857599 922:0.034373499 923:0.0119523 924:0.0167556 925:0.0679828 926:0.16591699 927:0.345503 928:0.345503 929:0.023353999 930:0.0201056 931:0.0101814 932:0.0053629 933:0.0142676 934:0.029624101 935:0.029872499 936:0.345503 937:0.33558801 938:0.0260332 939:0.0206942 940:0.0173473 941:0.0119102 942:0.00864561 943:0.0051374398 944:0.0121043 945:0.33558801 946:0.33558801 947:0.086791299 948:0.079616502 949:0.1151 950:0.15109 951:0.051700801 952:0.036936499 953:0.0423664 954:0.33558801 955:0.33558801 956:0.0228299 957:0.0142755 958:0.0118506 959:0.00738808 960:0.0088337101 961:0.0094284397 962:0.013727 963:0.33558801 964:0.33558801 965:0.0585077 966:0.034134001 967:0.066003099 968:0.10589 969:0.077016003 970:0.0616831 971:0.083349504 972:0.33558801 973:0.134095 974:0.087621801 975:0.085875303 976:0.222028 977:0.30863199 978:0.183623 979:0.055048801 980:0.043148499 981:0.14226 982:0.0274128 983:0.038945299 984:0.037338901 985:0.177387 986:0.30863199 987:0.30863199 988:0.043469701 989:0.025055001 990:0.025008099 991:0.13106699 992:0.074661002 993:0.051889699 994:0.21034899 995:0.30863199 996:0.18759499 997:0.077508397 998:0.097802296 999:0.168898 1000:0.034024999 1001:0.0773995 1002:0.103236 1003:0.29031599 1004:0.30863199 1005:0.28445399 1006:0.065164 1007:0.0504447 1008:0.049199 1009:0.050337799 1010:0.0148112 1011:0.035478201 1012:0.084990799 1013:0.18272699 1014:0.14846399 1015:0.211585 1016:0.31504801 1017:0.138045 1018:0.186497 1019:0.072280698 1020:0.078684002 1021:0.117891 1022:0.16201 1023:0.157821 1024:0.31504801 1025:0.31504801 1026:0.31504801 1027:0.017831 1028:0.0030314501 1029:0.0190183 1030:0.050636601 1031:0.31504801 1032:0.080842301 1033:0.0254202 1034:0.032349601 1035:0.043531399 1036:0.0911915 1037:0.0185236 1038:0.051850799 1039:0.072522998 1040:0.31504801 1041:0.10783 1042:0.087361 1043:0.24843299 1044:0.220495 1045:0.096619003 1046:0.0491364 1047:0.0412747 1048:0.0365934 1049:0.037248898 1050:0.054989301 1051:0.29085699 1052:0.34079799 1053:0.25210801 1054:0.038918801 1055:0.0251166 1056:0.021597501 1057:0.0142433 1058:0.0389135 1059:0.051975802 1060:0.34079799 1061:0.34079799 1062:0.20188899 1063:0.070079401 1064:0.0208668 1065:0.0304252 1066:0.032075699 1067:0.067513302 1068:0.061222099 1069:0.14050201 1070:0.34079799 1071:0.164276 1072:0.072642297 1073:0.0274546 1074:0.0278512 1075:0.022451499 1076:0.017174 1077:0.041691199 1078:0.28995001 1079:0.34079799 1080:0.21208601 1081:0.040348299 1082:0.0175853 1083:0.0096078496 1084:0.0244112 1085:0.040098399 1086:0.0501967 1087:0.24691901 1088:0.32236099 1089:0.14159 1090:0.107242 1091:0.054488901 1092:0.017880101 1093:0.076943703 1094:0.0555401 1095:0.068117298 1096:0.28477699 1097:0.32236099 1098:0.24078999 1099:0.053719401 1100:0.028736999 1101:0.034697399 1102:0.026267899 1103:0.0124505 1104:0.032893199 1105:0.32236099 1106:0.32236099 1107:0.207899 1108:0.089804403 1109:0.0540612 1110:0.049475901 1111:0.067267999 1112:0.023019901 1113:0.051709101 1114:0.32236099 1115:0.32236099 1116:0.216259 1117:0.095929302 1118:0.0502184 1119:0.0129659 1120:0.038313001 1121:0.029090101 1122:0.030633699 1123:0.22447801 1124:0.323378 1125:0.30166501 1126:0.15853 1127:0.032405298 1128:0.042518798 1129:0.060318299 1130:0.0215319 1131:0.0107906 1132:0.157699 1133:0.323378 1134:0.323378 1135:0.069559 1136:0.0253959 1137:0.026011299 1138:0.033595301 1139:0.0200429 1140:0.036470301 1141:0.274602 1142:0.323378 1143:0.169962 1144:0.078472003 1145:0.0082019595 1146:0.027578101 1147:0.0258791 1148:0.0170998 1149:0.031716298 1150:0.192563 1151:0.323378 1152:0.31771001 1153:0.33592701 1154:0.035088498 1155:0.036515001 1156:0.0439956 1157:0.0067700599 1158:0.0100388 1159:0.078447998 1160:0.21996801 1161:0.33592701 1162:0.33592701 1163:0.024274999 1164:0.0093966704 1165:0.00324992 1166:0.00138731 1167:0.0070940801 1168:0.032173298 1169:0.0294307 1170:0.33592701 1171:0.211257 1172:0.0119179 1173:0.019305401 1174:0.0152457 1175:0.0113467 1176:0.034145899 1177:0.111851 1178:0.279919 1179:0.33592701 1180:0.33592701 1181:0.0126053 1182:0.0126632 1183:0.0058628698 1184:0.0084302798 1185:0.026280001 1186:0.0522081 1187:0.059231501 1188:0.33592701 1189:0.34119299 1190:0.0158385 1191:0.0054206299 1192:0.00177998 1193:0.00253148 1194:0.0030567599 1195:0.0112143 1196:0.0085548796 1197:0.34119299 1198:0.34119299 1199:0.0694438 1200:0.036798701 1201:0.0595048 1202:0.172846 1203:0.087210298 1204:0.067858502 1205:0.068221301 1206:0.34119299 1207:0.34119299 1208:0.020238699 1209:0.0099645397 1210:0.0075180898 1211:0.0097575597 1212:0.0111528 1213:0.0221391 1214:0.016846299 1215:0.34119299 1216:0.32625401 1217:0.073180303 1218:0.0437361 1219:0.0613988 1220:0.14667299 1221:0.0305527 1222:0.0282149 1223:0.0198649 1224:0.31382 1225:0.185729 1226:0.0613571 1227:0.0492783 1228:0.173241 1229:0.34819001 1230:0.18985701 1231:0.0757531 1232:0.087381303 1233:0.195319 1234:0.021419801 1235:0.074992098 1236:0.0917482 1237:0.27288699 1238:0.34819001 1239:0.21222199 1240:0.062553599 1241:0.057204999 1242:0.029425099 1243:0.132489 1244:0.0534002 1245:0.049024001 1246:0.16007701 1247:0.34819001 1248:0.083587103 1249:0.038214799 1250:0.0175779 1251:0.095705703 1252:0.020891299 1253:0.030130399 1254:0.059170999 1255:0.23793299 1256:0.34819001 1257:0.27467301 1258:0.075246699 1259:0.0413794 1260:0.0249897 1261:0.0062152902 1262:0.00192756 1263:0.0058310698 1264:0.021330999 1265:0.48968101 1266:0.059863299 1267:0.0087159704 1268:0.0095743202 1269:0.0084509803 1270:0.0261431 1271:0.0172252 1272:0.0225829 1273:0.046505298 1274:0.48968101 1275:0.085946299 1276:0.028918801 1277:0.066622697 1278:0.043010999 1279:0.00250103 1280:0.00129343 1281:0.00201003 1282:0.0616422 1283:0.48968101 1284:0.056866702 1285:0.0061014802 1286:0.00201622 1287:0.00193402 1288:0.0062668198 1289:0.0100334 1290:0.012634 1291:0.050675701 1292:0.48968101 1293:0.057030901 1294:0.00606615 1295:0.0108976 1296:0.0085811401 1297:0.110105 1298:0.060029998 1299:0.051473401 1300:0.083118699 1301:0.31365201 1302:0.12849399 1303:0.116741 1304:0.28142399 1305:0.16928101 1306:0.23437101 1307:0.14968599 1308:0.12427 1309:0.111976 1310:0.089880504 1311:0.074188396 1312:0.37164301 1313:0.406405 1314:0.40363801 1315:0.035365701 1316:0.0306125 1317:0.0265476 1318:0.032459199 1319:0.32914701 1320:0.032076702 1321:0.0162134 1322:0.024789499 1323:0.044785801 1324:0.091759302 1325:0.074114598 1326:0.062572099 1327:0.0623983 1328:0.0479513 1329:0.0211452 1330:0.038830999 1331:0.043182701 1332:0.0716912 1333:0.081377499 1334:0.050287802 1335:0.060435198 1336:0.037964702 1337:0.022029201 1338:0.0265981 1339:0.30117199 1340:0.37708801 1341:0.236884 1342:0.111871 1343:0.049877699 1344:0.074406996 1345:0.074804403 1346:0.039737798 1347:0.0576736 1348:0.37708801 1349:0.37708801 1350:0.37708801 1351:0.038272999 1352:0.0267464 1353:0.025194 1354:0.017303601 1355:0.016550999 1356:0.0131968 1357:0.041933201 1358:0.089838199 1359:0.0468679 1360:0.049483702 1361:0.027091799 1362:0.0234205 1363:0.0097099803 1364:0.022687901 1365:0.026919 1366:0.212311 1367:0.37708801 1368:0.161952 1369:0.063104801 1370:0.0192231 1371:0.0281594 1372:0.035042401 1373:0.019562701 1374:0.033490401 1375:0.30676201 1376:0.342291 1377:0.187895 1378:0.039299902 1379:0.0133628 1380:0.017495699 1381:0.0269875 1382:0.026246199 1383:0.038878199 1384:0.27440399 1385:0.342291 1386:0.178682 1387:0.045784101 1388:0.020284601 1389:0.017340699 1390:0.0157008 1391:0.0209253 1392:0.021435199 1393:0.225471 1394:0.342291 1395:0.136116 1396:0.073487602 1397:0.040747602 1398:0.032403 1399:0.0448412 1400:0.0454753 1401:0.037926398 1402:0.342291 1403:0.342291 1404:0.27267301 1405:0.061710801 1406:0.0181228 1407:0.018844901 1408:0.027634799 1409:0.0217936 1410:0.0399055 1411:0.211386 1412:0.34270999 1413:0.139605 1414:0.081895597 1415:0.0141078 1416:0.0221643 1417:0.023028599 1418:0.0123748 1419:0.033271398 1420:0.14812499 1421:0.324541 1422:0.15677901 1423:0.112041 1424:0.064857401 1425:0.035056502 1426:0.063039497 1427:0.036168899 1428:0.058653802 1429:0.34270999 1430:0.34270999 1431:0.26620799 1432:0.077243499 1433:0.0442761 1434:0.020377699 1435:0.060683802 1436:0.0199639 1437:0.065839097 1438:0.34270999 1439:0.34270999 1440:0.249917 1441:0.122613 1442:0.0322318 1443:0.0305907 1444:0.029253401 1445:0.0214149 1446:0.0285313 1447:0.128071 1448:0.24135099 1449:0.22090501 1450:0.1117 1451:0.060647301 1452:0.047711499 1453:0.057070602 1454:0.193234 1455:0.039475299 1456:0.070689701 1457:0.070762403 1458:0.116642 1459:0.056722 1460:0.037572298 1461:0.025954099 1462:0.054967899 1463:0.025310401 1464:0.042893 1465:0.390957 1466:0.390957 1467:0.33652201 1468:0.076119997 1469:0.041263901 1470:0.024970099 1471:0.0602323 1472:0.16907699 1473:0.10672 1474:0.30866501 1475:0.390957 1476:0.199292 1477:0.025873 1478:0.0197552 1479:0.0239354 1480:0.095091298 1481:0.38851199 1482:0.055949401 1483:0.0285911 1484:0.0147447 1485:0.019653801 1486:0.0152706 1487:0.0080492198 1488:0.0530091 1489:0.27085701 1490:0.38851199 1491:0.207782 1492:0.0415175 1493:0.0208345 1494:0.016644999 1495:0.030933401 1496:0.0127932 1497:0.0276086 1498:0.132511 1499:0.38851199 1500:0.15235201 1501:0.075362101 1502:0.16910701 1503:0.055989198 1504:0.015988 1505:0.0210671 1506:0.061582901 1507:0.32122001 1508:0.38851199 1509:0.24500801 1510:0.050330199 1511:0.062559098 1512:0.0288334 1513:0.00119822 1514:0.00035066801 1515:3.4640099e-05 1516:0.049433399 1517:0.49553999 1518:0.060588401 1519:0.0026801899 1520:0.00546681 1521:0.00111954 1522:0.0037442599 1523:0.00102311 1524:0.00180739 1525:0.032975599 1526:0.49553999 1527:0.0529368 1528:0.00343894 1529:0.0023703501 1530:0.0039254702 1531:0.00082639197 1532:0.00040449301 1533:0 1534:0.0126351 1535:0.49553999 1536:0.039353199 1537:0.00156235 1538:0.0055368599 1539:0.00080454501 1540:0.00137432 1541:0.00017939101 1542:0.00054131501 1543:0.0151119 1544:0.49553999 1545:0.0271776 1546:0.00074580702 1547:0.00056645198 1548:0.00144007 1549:0.0472279 1550:0.0214222 1551:0.035204399 1552:0.0353503 1553:0.67363 1554:0.057817701 1555:0.041196302 1556:0.037273999 1557:0.048379 1558:0.129292 1559:0.061099701 1560:0.075886197 1561:0.068368599 1562:0.065766402 1563:0.0348428 1564:0.070102803 1565:0.060669798 1566:0.089777701 1567:0.015489 1568:0.0066815699 1569:0.020064499 1570:0.021968599 1571:0.67363 1572:0.0170068 1573:0.0103671 1574:0.011071 1575:0.017080899 1576:0.043377198 1577:0.014744 1578:0.024760401 1579:0.0105951 1580:0.108622 1581:0.0085025104 1582:0.0241547 1583:0.0147585 1584:0.034901202 1585:0.198048 1586:0.11555 1587:0.128189 1588:0.078691497 1589:0.0671634 1590:0.0527303 1591:0.125089 1592:0.206653 1593:0.16170099 1594:0.186976 1595:0.12672301 1596:0.120819 1597:0.020152001 1598:0.099489696 1599:0.109529 1600:0.43774199 1601:0.62517399 1602:0.25043499 1603:0.081638701 1604:0.0311474 1605:0.0307485 1606:0.0133718 1607:0.127386 1608:0.0097920401 1609:0.0296243 1610:0.036322702 1611:0.060991898 1612:0.070202999 1613:0.042029299 1614:0.046456799 1615:0.00162696 1616:0.20655701 1617:0.022704599 1618:0.046521399 1619:0.0708225 1620:0.058780201 1621:0.091057397 1622:0.050279699 1623:0.056317199 1624:0.041237801 1625:0.090097599 1626:0.073743902 1627:0.23110899 1628:0.37710899 1629:0.117181 1630:0.168304 1631:0.109541 1632:0.171809 1633:0.17464 1634:0.235596 1635:0.118864 1636:0.421397 1637:0.421397 1638:0.421397 1639:0.0363704 1640:0.020448299 1641:0.0298585 1642:0.016019 1643:0.048163101 1644:0.0253442 1645:0.0256522 1646:0.018005 1647:0.013043 1648:0.059835199 1649:0.047028199 1650:0.094701797 1651:0.077084199 1652:0.115078 1653:0.038301099 1654:0.039834701 1655:0.064071201 1656:0.0798591 1657:0.096089303 1658:0.050609101 1659:0.053424399 1660:0.063339897 1661:0.074116603 1662:0.045500599 1663:0.27574 1664:0.40677699 1665:0.21872599 1666:0.099694498 1667:0.047704399 1668:0.019649301 1669:0.059119601 1670:0.057034001 1671:0.066788197 1672:0.40677699 1673:0.40677699 1674:0.239868 1675:0.046562299 1676:0.0183789 1677:0.027845601 1678:0.024230501 1679:0.057544801 1680:0.0196453 1681:0.045112401 1682:0.102185 1683:0.051354799 1684:0.100566 1685:0.0312276 1686:0.0136805 1687:0.033700701 1688:0.091189101 1689:0.073404104 1690:0.194056 1691:0.40677699 1692:0.127161 1693:0.034547601 1694:0.020383099 1695:0.0080466196 1696:0.022937801 1697:0.0264639 1698:0.0228871 1699:0.25476199 1700:0.375671 1701:0.13569801 1702:0.067040198 1703:0.024180699 1704:0.0105981 1705:0.040594898 1706:0.044812799 1707:0.044638399 1708:0.199882 1709:0.375671 1710:0.142652 1711:0.070223004 1712:0.017253 1713:0.0114327 1714:0.026687801 1715:0.047412299 1716:0.043893401 1717:0.200058 1718:0.375671 1719:0.142616 1720:0.091399297 1721:0.0167177 1722:0.0174003 1723:0.042872299 1724:0.033840202 1725:0.0410944 1726:0.335271 1727:0.375671 1728:0.27789 1729:0.070138998 1730:0.030357501 1731:0.028669599 1732:0.091925398 1733:0.169912 1734:0.115834 1735:0.102692 1736:0.317406 1737:0.114021 1738:0.045770701 1739:0.041920401 1740:0.0384917 1741:0.188995 1742:0.317406 1743:0.17124601 1744:0.073367201 1745:0.074209601 1746:0.0585845 1747:0.071537599 1748:0.051685899 1749:0.0404386 1750:0.067664601 1751:0.0615534 1752:0.044608898 1753:0.26363099 1754:0.317406 1755:0.267611 1756:0.100219 1757:0.0810875 1758:0.101694 1759:0.253497 1760:0.317406 1761:0.092578299 1762:0.14264099 1763:0.317406 1764:0.21542899 #
-0.010000000000000000208166817117217 1:0.25721499 2:0.229839 3:0.141169 4:0.069318503 5:0.057485402 6:0.042515799 7:0.0674126 8:0.052657899 9:0.16358601 10:0.25721499 11:0.25721499 12:0.16650499 13:0.16613799 14:0.119048 15:0.067042999 16:0.084059998 17:0.136318 18:0.17099001 19:0.23654699 20:0.25721499 21:0.121989 22:0.094113797 23:0.073360197 24:0.023360699 25:0.019145301 26:0.034074701 27:0.108141 28:0.25721499 29:0.25721499 30:0.25721499 31:0.25721499 32:0.16670799 33:0.067265302 34:0.110306 35:0.114188 36:0.25721499 37:0.247586 38:0.173471 39:0.12299 40:0.095894001 41:0.043014001 42:0.044537399 43:0.061653301 44:0.14692201 45:0.164545 46:0.247586 47:0.17626899 48:0.12668499 49:0.10592 50:0.048386399 51:0.069863699 52:0.062416799 53:0.155816 54:0.151281 55:0.22422101 56:0.247586 57:0.247586 58:0.23011599 59:0.113259 60:0.094338402 61:0.111294 62:0.089119397 63:0.172718 64:0.157482 65:0.198121 66:0.247586 67:0.247586 68:0.247586 69:0.247586 70:0.132342 71:0.14195099 72:0.054496799 73:0.27734199 74:0.27734199 75:0.13994201 76:0.133597 77:0.132112 78:0.077764101 79:0.073743001 80:0.109172 81:0.132292 82:0.27734199 83:0.27734199 84:0.121756 85:0.107787 86:0.121053 87:0.051633701 88:0.050204098 89:0.086902298 90:0.140549 91:0.217042 92:0.27734199 93:0.16453999 94:0.224601 95:0.229616 96:0.237427 97:0.10961 98:0.13003799 99:0.048206098 100:0.25222501 101:0.27734199 102:0.15813699 103:0.066325597 104:0.030809101 105:0.031024599 106:0.0102237 107:0.050062399 108:0.061818801 109:0.28003499 110:0.28003499 111:0.16010199 112:0.152098 113:0.096958399 114:0.0266874 115:0.047922999 116:0.081029102 117:0.15120199 118:0.28003499 119:0.28003499 120:0.199039 121:0.16679101 122:0.097474203 123:0.0099083204 124:0.073908098 125:0.19512799 126:0.28003499 127:0.171754 128:0.212879 129:0.175181 130:0.132155 131:0.075954102 132:0.0112499 133:0.046971198 134:0.068619497 135:0.13245501 136:0.28003499 137:0.14891 138:0.104787 139:0.11271 140:0.078597397 141:0.013601 142:0.076776803 143:0.160151 144:0.28003499 145:0.28110701 146:0.257745 147:0.075032599 148:0.0254406 149:0.0212484 150:0.0094847102 151:0.042610601 152:0.201914 153:0.28110701 154:0.28110701 155:0.25369599 156:0.13206799 157:0.0149562 158:0.032767199 159:0.0342988 160:0.123021 161:0.174209 162:0.28110701 163:0.28110701 164:0.218427 165:0.048735 166:0.0076795602 167:0.0136934 168:0.0113902 169:0.017866701 170:0.105228 171:0.28110701 172:0.28110701 173:0.28110701 174:0.121723 175:0.0079340497 176:0.0255698 177:0.028890699 178:0.0282367 179:0.077216297 180:0.18559401 181:0.27865499 182:0.27865499 183:0.24668799 184:0.057113402 185:0.070473798 186:0.103915 187:0.15170699 188:0.13422 189:0.27865499 190:0.231645 191:0.27865499 192:0.219999 193:0.117262 194:0.10538 195:0.075955302 196:0.084912203 197:0.112354 198:0.196052 199:0.23999099 200:0.27865499 201:0.21407899 202:0.023445399 203:0.043737601 204:0.067722604 205:0.060175899 206:0.056776602 207:0.13011999 208:0.221753 209:0.27865499 210:0.13550299 211:0.0141162 212:0.031441301 213:0.041126601 214:0.050260399 215:0.043528501 216:0.101838 217:0.29780701 218:0.303444 219:0.20455199 220:0.129573 221:0.16287699 222:0.0564369 223:0.063488796 224:0.082419097 225:0.102281 226:0.206881 227:0.303444 228:0.091943003 229:0.078819796 230:0.221549 231:0.0835732 232:0.078403302 233:0.109066 234:0.117093 235:0.239884 236:0.303444 237:0.109995 238:0.070042297 239:0.18842199 240:0.049617801 241:0.052526802 242:0.034457698 243:0.091928102 244:0.133211 245:0.196467 246:0.057421301 247:0.26837999 248:0.303444 249:0.120028 250:0.040825602 251:0.0533172 252:0.097739398 253:0.27008799 254:0.27008799 255:0.14951999 256:0.130242 257:0.089193203 258:0.034828 259:0.020254601 260:0.039298099 261:0.107525 262:0.27008799 263:0.27008799 264:0.24583 265:0.27008799 266:0.228174 267:0.0547304 268:0.086315401 269:0.098912701 270:0.228498 271:0.27008799 272:0.17179599 273:0.065450698 274:0.043513801 275:0.032609802 276:0.020683801 277:0.02665 278:0.0530186 279:0.231905 280:0.231721 281:0.235015 282:0.096287698 283:0.13659 284:0.11551 285:0.065043896 286:0.114414 287:0.145844 288:0.171471 289:0.232853 290:0.271467 291:0.222515 292:0.271467 293:0.21709999 294:0.136429 295:0.11807 296:0.071382701 297:0.19235601 298:0.14272299 299:0.136631 300:0.25328699 301:0.271467 302:0.271467 303:0.271467 304:0.178561 305:0.103291 306:0.093569398 307:0.117056 308:0.156387 309:0.089049898 310:0.117342 311:0.102402 312:0.076163001 313:0.097928897 314:0.118251 315:0.095782503 316:0.120303 317:0.140523 318:0.085339703 319:0.093402803 320:0.160983 321:0.175115 322:0.090476803 323:0.137201 324:0.078038096 325:0.14278901 326:0.18086199 327:0.231565 328:0.30288199 329:0.30288199 330:0.30288199 331:0.111851 332:0.112085 333:0.070944399 334:0.13193201 335:0.245811 336:0.18244401 337:0.096845098 338:0.0393233 339:0.057472602 340:0.0135533 341:0.094163999 342:0.116981 343:0.162937 344:0.29092199 345:0.088820398 346:0.116883 347:0.145757 348:0.170267 349:0.061814301 350:0.13290299 351:0.091416799 352:0.30102 353:0.30288199 354:0.119597 355:0.072657697 356:0.035106 357:0.065100402 358:0.026725 359:0.068058603 360:0.106271 361:0.138491 362:0.206551 363:0.15578599 364:0.061149999 365:0.031787001 366:0.0165592 367:0.0220185 368:0.060929298 369:0.125346 370:0.28820699 371:0.32008299 372:0.11918 373:0.051213 374:0.034704398 375:0.025064699 376:0.043196701 377:0.067502797 378:0.30032 379:0.303657 380:0.32008299 381:0.136333 382:0.061558601 383:0.073221602 384:0.0267985 385:0.0086227497 386:0.033263199 387:0.123893 388:0.32008299 389:0.32008299 390:0.14954101 391:0.080793202 392:0.14611501 393:0.0819562 394:0.029740199 395:0.080709897 396:0.27578899 397:0.347426 398:0.347426 399:0.094479099 400:0.0096607199 401:0.029360499 402:0.0415149 403:0.027716501 404:0.0612927 405:0.24315099 406:0.347426 407:0.347426 408:0.155678 409:0.0076820301 410:0.0228529 411:0.028202699 412:0.030403201 413:0.063023299 414:0.15454701 415:0.265174 416:0.347426 417:0.078130603 418:0.032583199 419:0.101531 420:0.086846001 421:0.0387602 422:0.073757 423:0.13977399 424:0.13241801 425:0.343288 426:0.0447306 427:0.0059793298 428:0.023103001 429:0.015592 430:0.020335101 431:0.031476598 432:0.044106599 433:0.42371801 434:0.42371801 435:0.32952499 436:0.022159399 437:0.018216699 438:0.027019599 439:0.047537599 440:0.071752697 441:0.20343401 442:0.378903 443:0.42371801 444:0.193418 445:0.0197175 446:0.022867899 447:0.027605001 448:0.0355299 449:0.027770899 450:0.153364 451:0.141188 452:0.203547 453:0.052993398 454:0.0162019 455:0.021043001 456:0.0068624802 457:0.0152989 458:0.0311084 459:0.082230501 460:0.094364598 461:0.047116801 462:0.022015201 463:0.0209026 464:0.024210701 465:0.0014498601 466:0.0062444699 467:0.0078390902 468:0.066269703 469:0.086010501 470:0.18579701 471:0.042925101 472:0.124412 473:0.287229 474:0.028005 475:0.0317376 476:0.0087350197 477:0.048455 478:0.053357601 479:0.048697799 480:0.0271463 481:0.39604101 482:0.39995399 483:0.077419698 484:0.0472796 485:0.0227363 486:0.0555172 487:0.024180001 488:0.0074915201 489:0.0046671601 490:0.155431 491:0.39995399 492:0.0060872901 493:0.0032243 494:0.0041854 495:0.022415301 496:0.0509637 497:0.010718 498:0.0131818 499:0.39995399 500:0.39995399 501:0.0535344 502:0.0387122 503:0.024206501 504:0.0483496 505:0.29413199 506:0.28832999 507:0.062762901 508:0.0046525798 509:0.019627901 510:0.040963698 511:0.0260185 512:0.052361999 513:0.29413199 514:0.29413199 515:0.29413199 516:0.097810298 517:0.019236401 518:0.102378 519:0.093455203 520:0.145937 521:0.16761 522:0.198305 523:0.27932999 524:0.29413199 525:0.079494298 526:0.0201999 527:0.071023598 528:0.042706899 529:0.034911402 530:0.0607659 531:0.128115 532:0.29413199 533:0.29413199 534:0.122464 535:0.0294919 536:0.13383099 537:0.0605468 538:0.084617898 539:0.128702 540:0.0831175 541:0.178822 542:0.35552201 543:0.175088 544:0.048184901 545:0.075237103 546:0.067790397 547:0.13098501 548:0.152713 549:0.099032603 550:0.23762999 551:0.35552201 552:0.14372499 553:0.045529399 554:0.019775899 555:0.0241886 556:0.0276157 557:0.086585201 558:0.113447 559:0.30876699 560:0.35552201 561:0.179949 562:0.028010501 563:0.073018298 564:0.0440461 565:0.078511797 566:0.087894902 567:0.0927753 568:0.25675201 569:0.35552201 570:0.13653401 571:0.017818799 572:0.0173559 573:0.0180391 574:0.019731401 575:0.0442506 576:0.133927 577:0.235569 578:0.36608401 579:0.072184101 580:0.028084001 581:0.018170901 582:0.026977699 583:0.0152313 584:0.062847503 585:0.095827296 586:0.326626 587:0.36608401 588:0.1038 589:0.045329999 590:0.021023801 591:0.0287703 592:0.0173246 593:0.036582101 594:0.101349 595:0.15959001 596:0.36608401 597:0.13062599 598:0.033867098 599:0.040100198 600:0.019252 601:0.0186285 602:0.029066 603:0.0663459 604:0.18927 605:0.36608401 606:0.36608401 607:0.078849003 608:0.070643798 609:0.040729102 610:0.049594 611:0.027445 612:0.120386 613:0.17876001 614:0.26786301 615:0.0684468 616:0.114227 617:0.172509 618:0.0196124 619:0.00776796 620:0.0143889 621:0.096860901 622:0.200811 623:0.20644601 624:0.059698299 625:0.195445 626:0.26786301 627:0.14756501 628:0.034214899 629:0.0809917 630:0.22003999 631:0.191856 632:0.26786301 633:0.26786301 634:0.12850501 635:0.17896201 636:0.0362189 637:0.0168909 638:0.0113246 639:0.15610801 640:0.219289 641:0.116649 642:0.061216999 643:0.22309101 644:0.26786301 645:0.19235399 646:0.045161899 647:0.094915897 648:0.26786301 649:0.143369 650:0.077558503 651:0.0207438 652:0.087505899 653:0.33496901 654:0.156012 655:0.0416179 656:0.080797598 657:0.211578 658:0.11395 659:0.0105365 660:0.00368846 661:0.0040221 662:0.0202008 663:0.0099998098 664:0.0103953 665:0.0113196 666:0.17341401 667:0.36874199 668:0.026339401 669:0.0133112 670:0.099148102 671:0.344118 672:0.17868701 673:0.051187199 674:0.12924699 675:0.36874199 676:0.36874199 677:0.0435577 678:0.021085201 679:0.0098319296 680:0.02232 681:0.0120257 682:0.011223 683:0.0261769 684:0.36874199 685:0.126123 686:0.0055045802 687:0.0085797403 688:0.00694934 689:0.0096593099 690:0.0029410601 691:0.0099225603 692:0.0115892 693:0.172794 694:0.077729598 695:0.0131467 696:0.011838 697:0.0157152 698:0.0133633 699:0.00923834 700:0.0149441 701:0.0086588599 702:0.103367 703:0.41382301 704:0.19996899 705:0.21810199 706:0.066896901 707:0.0285894 708:0.039496101 709:0.0355638 710:0.025813499 711:0.41382301 712:0.34274301 713:0.209171 714:0.309196 715:0.188591 716:0.069348402 717:0.119005 718:0.097417697 719:0.0286598 720:0.41382301 721:0.0264432 722:0.0090950103 723:0.00755873 724:0.14846399 725:0.35694101 726:0.0087444596 727:0.0087473299 728:0.0067571299 729:0.031150199 730:0.043231301 731:0.0092279799 732:0.0104648 733:0.383019 734:0.383019 735:0.047511902 736:0.026814099 737:0.030064199 738:0.044345301 739:0.059433199 740:0.039307199 741:0.0715051 742:0.244105 743:0.383019 744:0.083139099 745:0.0470214 746:0.0222991 747:0.104953 748:0.043737601 749:0.0154244 750:0.038611598 751:0.383019 752:0.383019 753:0.061437901 754:0.030381599 755:0.034606501 756:0.0577714 757:0.17469899 758:0.144999 759:0.040716 760:0.039630901 761:0.119527 762:0.026643001 763:0.0869653 764:0.13447 765:0.089283697 766:0.162506 767:0.28090799 768:0.073814496 769:0.0320925 770:0.17232201 771:0.0341359 772:0.181888 773:0.28090799 774:0.075462297 775:0.28090799 776:0.103502 777:0.068835102 778:0.059396598 779:0.076628298 780:0.14648101 781:0.264377 782:0.28090799 783:0.28090799 784:0.153496 785:0.099747904 786:0.023926601 787:0.029564399 788:0.088105202 789:0.126463 790:0.28090799 791:0.28090799 792:0.25298101 793:0.138805 794:0.349839 795:0.092392303 796:0.0296716 797:0.091773003 798:0.039049 799:0.17554501 800:0.39564899 801:0.076713398 802:0.065073997 803:0.158787 804:0.0569098 805:0.0184767 806:0.038181599 807:0.0250297 808:0.047584999 809:0.160937 810:0.0585225 811:0.101875 812:0.081809998 813:0.016162099 814:0.0125397 815:0.055198502 816:0.0351445 817:0.30077001 818:0.39564899 819:0.201975 820:0.052356899 821:0.0328518 822:0.0220876 823:0.0106409 824:0.051235098 825:0.0201876 826:0.25642601 827:0.39564899 828:0.189142 829:0.025386799 830:0.087957203 831:0.108942 832:0.054597098 833:0.091904096 834:0.039274 835:0.113426 836:0.0262287 837:0.0180736 838:0.058647901 839:0.35842299 840:0.35842299 841:0.106203 842:0.134593 843:0.091098599 844:0.35842299 845:0.079284601 846:0.040550299 847:0.040079001 848:0.0274584 849:0.0357452 850:0.0264899 851:0.0758982 852:0.037868001 853:0.241468 854:0.35842299 855:0.076061398 856:0.083876498 857:0.069362499 858:0.101348 859:0.046609301 860:0.088162497 861:0.090563402 862:0.35842299 863:0.35842299 864:0.116467 865:0.124834 866:0.240703 867:0.33502299 868:0.0532993 869:0.067738399 870:0.044838998 871:0.25516501 872:0.059361499 873:0.113006 874:0.17673101 875:0.068342097 876:0.048164502 877:0.069015197 878:0.108843 879:0.071567602 880:0.047279701 881:0.0640525 882:0.22992299 883:0.229912 884:0.038374402 885:0.039215699 886:0.0146093 887:0.0287988 888:0.036724102 889:0.33502299 890:0.28984499 891:0.33502299 892:0.33502299 893:0.01678 894:0.0126467 895:0.0141885 896:0.0168416 897:0.0064796298 898:0.048647601 899:0.079498097 900:0.33502299 901:0.217502 902:0.0186377 903:0.0125961 904:0.0263384 905:0.0581556 906:0.037219901 907:0.0300976 908:0.053567901 909:0.347013 910:0.344769 911:0.071083903 912:0.059029199 913:0.023788899 914:0.0699661 915:0.035041898 916:0.066673703 917:0.0421133 918:0.36085799 919:0.36085799 920:0.0075455802 921:0.0093138702 922:0.0066131698 923:0.016821099 924:0.0021302199 925:0.019065401 926:0.0154506 927:0.36085799 928:0.36085799 929:0.047967698 930:0.0367519 931:0.0153747 932:0.065101698 933:0.038116802 934:0.106831 935:0.073863998 936:0.36085799 937:0.219263 938:0.208295 939:0.242539 940:0.054843199 941:0.071550697 942:0.060691401 943:0.173804 944:0.068649299 945:0.267858 946:0.115157 947:0.21045101 948:0.26524901 949:0.108827 950:0.056108799 951:0.068272904 952:0.154891 953:0.064543299 954:0.21245299 955:0.26522899 956:0.110273 957:0.115259 958:0.0265147 959:0.087444603 960:0.105914 961:0.267858 962:0.17414799 963:0.267858 964:0.138345 965:0.103598 966:0.109404 967:0.0417904 968:0.11429 969:0.13884901 970:0.267858 971:0.14406399 972:0.223805 973:0.065913104 974:0.056250401 975:0.072636902 976:0.20416801 977:0.35772201 978:0.089413904 979:0.061477698 980:0.044820901 981:0.064292103 982:0.038706601 983:0.011376 984:0.034150202 985:0.35772201 986:0.35772201 987:0.077052303 988:0.026772801 989:0.023664 990:0.035153698 991:0.087737001 992:0.0377707 993:0.040003002 994:0.26550299 995:0.35772201 996:0.127142 997:0.110324 998:0.038842998 999:0.064240798 1000:0.054278102 1001:0.0184677 1002:0.045592301 1003:0.35772201 1004:0.35772201 1005:0.138197 1006:0.049373701 1007:0.031396098 1008:0.043930098 1009:0.28094301 1010:0.24592701 1011:0.208525 1012:0.099186197 1013:0.065288998 1014:0.1875 1015:0.21154299 1016:0.248467 1017:0.28094301 1018:0.19931 1019:0.168275 1020:0.075314097 1021:0.056801099 1022:0.043488801 1023:0.154678 1024:0.21497101 1025:0.28094301 1026:0.28094301 1027:0.132608 1028:0.157583 1029:0.14675599 1030:0.079424798 1031:0.038917899 1032:0.098339103 1033:0.098715499 1034:0.080309398 1035:0.085799098 1036:0.094861597 1037:0.112771 1038:0.096741997 1039:0.071291201 1040:0.065260299 1041:0.120574 1042:0.152199 1043:0.242764 1044:0.17534301 1045:0.074325003 1046:0.0585825 1047:0.015890401 1048:0.0101476 1049:0.0138972 1050:0.0209134 1051:0.179993 1052:0.35759199 1053:0.17454299 1054:0.046904299 1055:0.0271268 1056:0.011347 1057:0.00392472 1058:0.022167699 1059:0.0155468 1060:0.248641 1061:0.35759199 1062:0.139982 1063:0.082923204 1064:0.057745401 1065:0.0367047 1066:0.028571401 1067:0.057380199 1068:0.117934 1069:0.194105 1070:0.35759199 1071:0.221434 1072:0.115607 1073:0.045001101 1074:0.021040101 1075:0.023442101 1076:0.046963502 1077:0.056967601 1078:0.24680699 1079:0.35759199 1080:0.35759199 1081:0.0445427 1082:0.0124978 1083:0.0104771 1084:0.00404796 1085:0.023556 1086:0.0125082 1087:0.19125301 1088:0.377832 1089:0.091655299 1090:0.062017899 1091:0.0139854 1092:0.0114833 1093:0.0058081099 1094:0.0241943 1095:0.024504101 1096:0.33846 1097:0.377832 1098:0.117775 1099:0.065720402 1100:0.027925501 1101:0.0133331 1102:0.0177294 1103:0.0379267 1104:0.0047212602 1105:0.18959901 1106:0.377832 1107:0.28872699 1108:0.035927601 1109:0.040954798 1110:0.0128578 1111:0.025151599 1112:0.032504499 1113:0.0195053 1114:0.29177499 1115:0.377832 1116:0.163472 1117:0.20739301 1118:0.0142307 1119:0.00369227 1120:0.0042232801 1121:0.020652501 1122:0.022636499 1123:0.238544 1124:0.359063 1125:0.359063 1126:0.359063 1127:0.0116889 1128:0.0042068702 1129:0.0025407299 1130:0.0129059 1131:0.0099696899 1132:0.0299266 1133:0.082176499 1134:0.359063 1135:0.042813402 1136:0.0245542 1137:0.0068123699 1138:0.0177646 1139:0.0225584 1140:0.030236401 1141:0.228544 1142:0.359063 1143:0.13379399 1144:0.058054399 1145:0.019295201 1146:0.0106262 1147:0.0115368 1148:0.0136209 1149:0.0208632 1150:0.154212 1151:0.359063 1152:0.104638 1153:0.46734101 1154:0.0054645301 1155:0.0093350196 1156:0.00089398999 1157:0.0101577 1158:0.0039872602 1159:0.0095006702 1160:0.0093385801 1161:0.46734101 1162:0.46734101 1163:0.0226644 1164:0.0057354299 1165:0 1166:0.0155369 1167:0.010623 1168:0.0434452 1169:0.0465152 1170:0.46734101 1171:0.053732 1172:0.022200501 1173:0.0142659 1174:0.0071005099 1175:0.0195259 1176:0.010244 1177:0.079274297 1178:0.27227101 1179:0.10313 1180:0.074068598 1181:0.0092329904 1182:0.0100243 1183:0.0026191401 1184:0.026970601 1185:0.0055428101 1186:0.023427799 1187:0.031620499 1188:0.114792 1189:0.40206701 1190:0.058225598 1191:0.0251393 1192:0.0064500901 1193:0.060829598 1194:0.101171 1195:0.26259401 1196:0.144915 1197:0.40206701 1198:0.33764401 1199:0.062337302 1200:0.061380599 1201:0.0563379 1202:0.23043799 1203:0.19573 1204:0.328908 1205:0.116567 1206:0.40206701 1207:0.089966297 1208:0.0059679002 1209:0.0090384101 1210:0.00137372 1211:0.030817799 1212:0.00445067 1213:0.0182044 1214:0.0087534897 1215:0.119999 1216:0.059716601 1217:0.00815026 1218:0.0166992 1219:0.048367199 1220:0.166123 1221:0.031293798 1222:0.0221834 1223:0.012382 1224:0.074701399 1225:0.0423133 1226:0.0127244 1227:0.021690501 1228:0.27784801 1229:0.36623001 1230:0.103241 1231:0.051672999 1232:0.016983701 1233:0.057151701 1234:0.033994202 1235:0.0199038 1236:0.044599801 1237:0.36623001 1238:0.36623001 1239:0.124023 1240:0.025766499 1241:0.027172299 1242:0.0423063 1243:0.00792679 1244:0.0028810899 1245:0.0103863 1246:0.248982 1247:0.36623001 1248:0.041077301 1249:0.0153091 1250:0.0095404303 1251:0.0112838 1252:0.019329799 1253:0.018116999 1254:0.032049999 1255:0.36623001 1256:0.36623001 1257:0.076099999 1258:0.0154061 1259:0.017185399 1260:0.024676999 1261:0.101108 1262:0.102054 1263:0.12463 1264:0.0721175 1265:0.0382649 1266:0.123015 1267:0.15202101 1268:0.085932799 1269:0.093797497 1270:0.173788 1271:0.211656 1272:0.112253 1273:0.135965 1274:0.231444 1275:0.222322 1276:0.138926 1277:0.117232 1278:0.21191899 1279:0.159538 1280:0.12729 1281:0.19968399 1282:0.125499 1283:0.0848234 1284:0.106339 1285:0.159796 1286:0.120462 1287:0.172932 1288:0.222844 1289:0.20925499 1290:0.107488 1291:0.16314 1292:0.281997 1293:0.230151 1294:0.22695699 1295:0.17892499 1296:0.281997 1297:0.088249497 1298:0.0751964 1299:0.0217083 1300:0.073933199 1301:0.105799 1302:0.12908199 1303:0.075077601 1304:0.087353103 1305:0.195559 1306:0.108092 1307:0.050788499 1308:0.023361599 1309:0.086409003 1310:0.115349 1311:0.111669 1312:0.134854 1313:0.26357099 1314:0.26357099 1315:0.16886801 1316:0.092712097 1317:0.0385236 1318:0.12329 1319:0.255595 1320:0.147386 1321:0.0828676 1322:0.092324801 1323:0.26357099 1324:0.26158199 1325:0.104707 1326:0.066809997 1327:0.213756 1328:0.26357099 1329:0.26357099 1330:0.245583 1331:0.26357099 1332:0.26357099 1333:0.0711575 1334:0.0314654 1335:0.0353502 1336:0.036475599 1337:0.073109701 1338:0.032446899 1339:0.116072 1340:0.24618 1341:0.19148099 1342:0.066515997 1343:0.031960201 1344:0.037306398 1345:0.039827101 1346:0.054950401 1347:0.0446463 1348:0.18273599 1349:0.24618 1350:0.115672 1351:0.220146 1352:0.14326 1353:0.15467601 1354:0.17879 1355:0.22059301 1356:0.184898 1357:0.217978 1358:0.24618 1359:0.24618 1360:0.24618 1361:0.136562 1362:0.156102 1363:0.24618 1364:0.178159 1365:0.14691301 1366:0.232747 1367:0.205368 1368:0.24618 1369:0.0292066 1370:0.015151 1371:0.016580399 1372:0.035681698 1373:0.036251899 1374:0.070172101 1375:0.23853099 1376:0.27735299 1377:0.097183101 1378:0.0333777 1379:0.0177522 1380:0.0141205 1381:0.018678101 1382:0.0087832799 1383:0.027775999 1384:0.18058001 1385:0.27735299 1386:0.10412 1387:0.216088 1388:0.14329199 1389:0.12594301 1390:0.215101 1391:0.13003699 1392:0.138275 1393:0.27735299 1394:0.25438201 1395:0.27735299 1396:0.165273 1397:0.1885 1398:0.155856 1399:0.16441301 1400:0.080402702 1401:0.122589 1402:0.27735299 1403:0.27735299 1404:0.220079 1405:0.035063099 1406:0.0258222 1407:0.0145208 1408:0.0092361998 1409:0.0098863104 1410:0.021358799 1411:0.196251 1412:0.35846299 1413:0.147499 1414:0.0268177 1415:0.0133444 1416:0.0096606798 1417:0.0061073201 1418:0.017532401 1419:0.0115606 1420:0.123988 1421:0.342522 1422:0.0823882 1423:0.16166601 1424:0.128996 1425:0.110858 1426:0.0665351 1427:0.104652 1428:0.214137 1429:0.30598 1430:0.35846299 1431:0.21524 1432:0.069446698 1433:0.041202702 1434:0.0268691 1435:0.0114516 1436:0.0401798 1437:0.0609704 1438:0.30878901 1439:0.35846299 1440:0.20653699 1441:0.031707399 1442:0.00947564 1443:0.0107792 1444:0.0028758 1445:0.044916201 1446:0.0133926 1447:0.079199202 1448:0.18219 1449:0.0564209 1450:0.0101 1451:0.0105116 1452:0.0192394 1453:0.075794697 1454:0.21512599 1455:0.0519084 1456:0.037726302 1457:0.0163173 1458:0.0125967 1459:0.077532902 1460:0.0355777 1461:0.0111524 1462:0.0081746802 1463:0.0482696 1464:0.016247701 1465:0.42660099 1466:0.42660099 1467:0.331561 1468:0.048689801 1469:0.033394001 1470:0.0347494 1471:0.12991799 1472:0.30503401 1473:0.045238599 1474:0.28966901 1475:0.42660099 1476:0.161217 1477:0.00186514 1478:0.004251 1479:0.0146591 1480:0.218475 1481:0.37823999 1482:0.039308898 1483:0.019665301 1484:0.0063672601 1485:0.00100075 1486:0.0083096698 1487:0.0096963402 1488:0.039043698 1489:0.32877901 1490:0.37823999 1491:0.063579202 1492:0.030278601 1493:0.0143919 1494:0.0117191 1495:0.0090268198 1496:0.0125202 1497:0.0153584 1498:0.294911 1499:0.37823999 1500:0.043880899 1501:0.0456363 1502:0.082347699 1503:0.025734 1504:0.0198489 1505:0.024637301 1506:0.069970198 1507:0.37823999 1508:0.37823999 1509:0.091517501 1510:0.043473698 1511:0.0172027 1512:0.0225778 1513:0.132659 1514:0.107291 1515:0.111362 1516:0.078808099 1517:0.064764403 1518:0.0932886 1519:0.171193 1520:0.114605 1521:0.167007 1522:0.14679401 1523:0.082861498 1524:0.071097203 1525:0.051784702 1526:0.191241 1527:0.13423599 1528:0.274773 1529:0.22121599 1530:0.210951 1531:0.24040399 1532:0.14564499 1533:0.076029301 1534:0.061836701 1535:0.151281 1536:0.095678598 1537:0.179888 1538:0.13078301 1539:0.24752501 1540:0.274773 1541:0.200601 1542:0.066776603 1543:0.0261505 1544:0.207937 1545:0.058868699 1546:0.241649 1547:0.27157801 1548:0.274773 1549:0.14068601 1550:0.043389399 1551:0.039327301 1552:0.0600821 1553:0.15347899 1554:0.092104599 1555:0.117144 1556:0.115486 1557:0.201506 1558:0.257025 1559:0.0906462 1560:0.089812197 1561:0.170858 1562:0.257025 1563:0.23639201 1564:0.20673101 1565:0.23839299 1566:0.257025 1567:0.206696 1568:0.069855496 1569:0.039070301 1570:0.044794701 1571:0.086630099 1572:0.0462384 1573:0.104538 1574:0.151026 1575:0.154852 1576:0.257025 1577:0.103309 1578:0.15689699 1579:0.15009101 1580:0.248695 1581:0.152716 1582:0.19914199 1583:0.196266 1584:0.257025 1585:0.20654801 1586:0.085930198 1587:0.116733 1588:0.14089601 1589:0.170157 1590:0.125664 1591:0.154854 1592:0.188741 1593:0.228818 1594:0.228818 1595:0.092438899 1596:0.105495 1597:0.164252 1598:0.13819 1599:0.112616 1600:0.13380501 1601:0.209185 1602:0.228818 1603:0.202663 1604:0.061160799 1605:0.151622 1606:0.14353999 1607:0.225905 1608:0.126996 1609:0.228818 1610:0.177081 1611:0.228818 1612:0.128547 1613:0.085532203 1614:0.137225 1615:0.127619 1616:0.200681 1617:0.154778 1618:0.168072 1619:0.17588 1620:0.196637 1621:0.238573 1622:0.20424201 1623:0.148065 1624:0.150003 1625:0.139377 1626:0.096055202 1627:0.140477 1628:0.161761 1629:0.238573 1630:0.226151 1631:0.238573 1632:0.234494 1633:0.131689 1634:0.152647 1635:0.115036 1636:0.147251 1637:0.155049 1638:0.19245701 1639:0.136317 1640:0.165049 1641:0.14017799 1642:0.122084 1643:0.201609 1644:0.126849 1645:0.070942402 1646:0.10203 1647:0.16784801 1648:0.223106 1649:0.238573 1650:0.16765501 1651:0.120329 1652:0.201857 1653:0.129347 1654:0.094913401 1655:0.078049898 1656:0.144273 1657:0.15729 1658:0.169038 1659:0.152817 1660:0.0717775 1661:0.184487 1662:0.201437 1663:0.14038099 1664:0.260535 1665:0.094927602 1666:0.0694675 1667:0.048744701 1668:0.074376002 1669:0.0516546 1670:0.087500803 1671:0.106147 1672:0.149058 1673:0.260535 1674:0.13136099 1675:0.143584 1676:0.114848 1677:0.121791 1678:0.13630299 1679:0.260535 1680:0.260535 1681:0.22998001 1682:0.168778 1683:0.084651597 1684:0.10165 1685:0.102586 1686:0.170213 1687:0.16351201 1688:0.24988601 1689:0.260535 1690:0.25888699 1691:0.16769899 1692:0.095602602 1693:0.071658902 1694:0.0390433 1695:0.060716599 1696:0.034562699 1697:0.0286892 1698:0.061815199 1699:0.26449001 1700:0.32444 1701:0.176773 1702:0.052965 1703:0.021823401 1704:0.033730399 1705:0.0603135 1706:0.12722901 1707:0.0217895 1708:0.26335701 1709:0.32444 1710:0.151204 1711:0.18642201 1712:0.143978 1713:0.21788 1714:0.135618 1715:0.14536899 1716:0.248913 1717:0.19615901 1718:0.177857 1719:0.143334 1720:0.170294 1721:0.068450503 1722:0.10939 1723:0.071402401 1724:0.113604 1725:0.052813198 1726:0.16910701 1727:0.32444 1728:0.23772299 1729:0.034305301 1730:0.0226913 1731:0.0272175 1732:0.204147 1733:0.31138 1734:0.0266659 1735:0.094221398 1736:0.31138 1737:0.117943 1738:0.032049298 1739:0.030185999 1740:0.062291101 1741:0.31138 1742:0.31138 1743:0.13242701 1744:0.034932401 1745:0.042378999 1746:0.052211601 1747:0.099183202 1748:0.062196601 1749:0.070232503 1750:0.10871 1751:0.211826 1752:0.019722899 1753:0.096734598 1754:0.31138 1755:0.234727 1756:0.079945996 1757:0.101609 1758:0.18228599 1759:0.31138 1760:0.31138 1761:0.096373297 1762:0.064059503 1763:0.095326498 1764:0.0942792 #
-0.0015261500074273679546793536232485 1:0 2:0 3:0 4:0 5:0 6:0 7:0 8:0 9:0 10:0 11:0 12:0 13:0 14:0 15:0 16:0 17:0 18:0 19:0 20:0 21:0 22:0 23:0 24:0 25:0 26:0 27:0 28:0 29:0 30:0 31:0 32:0 33:0 34:0 35:0 36:0 37:0 38:0 39:0 40:0 41:0 42:0 43:0 44:0 45:0 46:0.067004897 47:0.0127934 48:0.038282499 49:0 50:0.119322 51:0 52:0 53:0 54:0.067004897 55:0 56:0 57:0 58:0 59:0 60:0 61:0 62:0 63:0 64:0.12730099 65:0.048094701 66:0.14305501 67:0 68:0.91969103 69:0 70:0 71:0 72:0.12730099 73:0.037787199 74:0.00321122 75:0.0096091498 76:0 77:0.0207543 78:0 79:0 80:0.000442021 81:0.038396999 82:0.059561599 83:0.0083864601 84:0.0208806 85:0.0043288199 86:0.020255201 87:0 88:0.000515169 89:0.0020927 90:0.061762799 91:0.089063898 92:0.0260773 93:0.04036 94:0.00386018 95:0.201087 96:0.00393746 97:0.00296063 98:0.0128283 99:0.0914101 100:0.55480099 101:0.656385 102:0.148681 103:0.048858698 104:0.204615 105:0.0273012 106:0.0289349 107:0.155772 108:0.29402 109:0.00513857 110:0.0015869 111:0.0044794199 112:0.00134263 113:0.0022136399 114:0 115:0.00020631601 116:0.00048577201 117:0.0049423198 118:0.034325201 119:0.032088399 120:0.0100629 121:0.00168339 122:0.0035276499 123:0.00191196 124:0.00061797001 125:0.00097906997 126:0.0069513302 127:0.17349701 128:0.47181401 129:0.069823697 130:0.0099752797 131:0.0113813 132:0.0030479699 133:0.0054435399 134:0.0145476 135:0.0412657 136:0.56835502 137:0.56835502 138:0.28143701 139:0.020112799 140:0.0082330303 141:0.0053367899 142:0.0063134399 143:0.0069438699 144:0.079048797 145:0.030174701 146:0.095679797 147:0.0281606 148:0.00167712 149:0.00122995 150:0.00066966802 151:0.00064997299 152:0.00056422502 153:0.00130533 154:0.14039899 155:0.447961 156:0.080882698 157:0.0070956498 158:0.0030525599 159:0.00110856 160:0.0034564801 161:0.0020573901 162:0.0112819 163:0.244994 164:0.447961 165:0.19715101 166:0.0056450102 167:0.00087392202 168:0.00120302 169:0.00097914506 170:0.00055822899 171:0.0185013 172:0.37052801 173:0.447961 174:0.34414899 175:0.0188112 176:0.00053018302 177:0.00047355 178:0.0010217699 179:0.00181576 180:0.0289528 181:0.169761 182:0.41158801 183:0.063653998 184:0.00476924 185:0.0020148 186:0.00044963401 187:0.0016514 188:0.0016749999 189:0.016492801 190:0.29083499 191:0.41158801 192:0.120579 193:0.0045123799 194:0.0035432 195:0.00069189997 196:0.0027813199 197:0.00147092 198:0.0223839 199:0.267703 200:0.41158801 201:0.142042 202:0.0140607 203:0.000378264 204:0.00014196101 205:0.000852586 206:0.0037358501 207:0.033723101 208:0.27672601 209:0.41158801 210:0.121921 211:0.0071405801 212:0.0037909001 213:0.00102488 214:0.0038782 215:0.0039386898 216:0.0263936 217:0.31359199 218:0.36300999 219:0.070133701 220:0.0046463399 221:0.066407502 222:0.0141783 223:0.0250962 224:0.021866299 225:0.046387699 226:0.25823501 227:0.32192001 228:0.0152711 229:0.0163729 230:0.36300999 231:0.0652849 232:0.0725931 233:0.076622203 234:0.0961916 235:0.169644 236:0.36300999 237:0.051180799 238:0.0141872 239:0.31304801 240:0.0251824 241:0.0241942 242:0.021293201 243:0.023498001 244:0.0649186 245:0.134551 246:0.0140406 247:0.036739402 248:0.36300999 249:0.057848699 250:0.0393195 251:0.035066999 252:0.028803101 253:0.00156324 254:0 255:0 256:0 257:0.00325493 258:0 259:0 260:0 261:0.00156324 262:0.019104199 263:0.0038705999 264:0.0030097 265:0 266:0.0125528 267:0.00069639803 268:0.000468791 269:0.000156662 270:0.018505899 271:0.105737 272:0.036047898 273:0.0194382 274:0.0089568896 275:0.0215645 276:0.0093474798 277:0.0045580501 278:0.0129874 279:0.095335297 280:0.683406 281:0.65363199 282:0.0540663 283:0.0043884399 284:0.068820901 285:0.022848399 286:0.0130897 287:0.0184041 288:0.248463 289:0.00333158 290:0.00132465 291:0.00064955099 292:0 293:0.00105566 294:0.000351622 295:0.000151673 296:0.00141815 297:0.0033893799 298:0.037896901 299:0.0312762 300:0.00413397 301:0.0046646702 302:0.0103525 303:0.00142588 304:0.000110916 305:0.0023130099 306:0.0128693 307:0.16655099 308:0.469183 309:0.0461183 310:0 311:0.00932799 312:0.00561273 313:0.0025746501 314:0.0040061101 315:0.023305399 316:0.52912098 317:0.52912098 318:0.41723701 319:0.0086416304 320:0.0105264 321:0.0119205 322:0.0083411997 323:0.0052853301 324:0.082588397 325:0.054529 326:0.076687403 327:0.0038616301 328:0.0020684099 329:0.0048757498 330:0.00070513599 331:0.00015534001 332:0.00059369899 333:0.00878633 334:0.151177 335:0.43751901 336:0.040263001 337:0.00294135 338:0.0051950598 339:0.00118949 340:0.0014325799 341:0.0062681902 342:0.015654599 343:0.39485899 344:0.43751901 345:0.13057201 346:0.00324911 347:0.0015435 348:0.0036009999 349:0.004826 350:0.0061277598 351:0.038655002 352:0.43751901 353:0.43751901 354:0.13896801 355:0.00186683 356:0.00103606 357:0.00136523 358:0.0057602399 359:0.019632701 360:0.0434031 361:0.158336 362:0.37940899 363:0.058693599 364:0.00229674 365:0.0019383701 366:0.00088705699 367:0.0012657701 368:0.0043384698 369:0.0156058 370:0.26560599 371:0.37940899 372:0.113381 373:0.0074744201 374:0.00088457501 375:0.00049468101 376:0.0015799199 377:0.0020260899 378:0.034304101 379:0.374111 380:0.37940899 381:0.111717 382:0.00170515 383:0.00049662398 384:0.000441838 385:0.0018894901 386:0.0077553401 387:0.022549 388:0.37940899 389:0.37940899 390:0.090454198 391:0.00713014 392:0.0013496 393:0.00059761701 394:0.0023992399 395:0.0070470702 396:0.041443899 397:0.27968201 398:0.401752 399:0.19788501 400:0.0087874597 401:0.00055728102 402:0.000230612 403:0.00134469 404:0.00170342 405:0.037701599 406:0.25512901 407:0.401752 408:0.25438699 409:0.0098018805 410:0.0016574 411:0.000365221 412:0.000485859 413:0.00144278 414:0.0241617 415:0.254879 416:0.401752 417:0.111013 418:0.0060975198 419:0.0043567601 420:0.000350177 421:0.00253481 422:0.0096785203 423:0.033950701 424:0.107776 425:0.401752 426:0.102837 427:0.00199299 428:0.0062921802 429:0.00112065 430:0.0012641 431:0.00537185 432:0.01151 433:0.459416 434:0.49200201 435:0.28030899 436:0.019092999 437:0.0061054602 438:0.00102271 439:0.0025026 440:0.0040323101 441:0.0597049 442:0.291821 443:0.49200201 444:0.127983 445:0.0078138504 446:0.018122099 447:0.00178714 448:0.0052237301 449:0.00538733 450:0.034871101 451:0.106946 452:0.30827001 453:0.068721399 454:0.0018537299 455:0.0103296 456:0.0024429001 457:0.0030569399 458:0.00186071 459:0.0155291 460:0.0259814 461:0.034175601 462:0.00639138 463:0.00072729099 464:0.0241738 465:0.00097661803 466:0.0028037401 467:0.00083997601 468:0.00921233 469:0.043507401 470:0.13691799 471:0.0155517 472:0.0133845 473:0.45938501 474:0.0114682 475:0.0038499499 476:0.00459636 477:0.0048764399 478:0.0054781102 479:0.0208301 480:0.0048078201 481:0.033375598 482:0.50285298 483:0.039446201 484:0.00453636 485:0.0065327701 486:0.00494663 487:0.0015692 488:0.00074569002 489:0.00056235603 490:0.0055491598 491:0.50285298 492:0.00223004 493:0.000335016 494:0.000154712 495:0.00115575 496:0.00050294801 497:0.00016384901 498:0.00033109399 499:0.020205799 500:0.50285298 501:0.020326899 502:0.00016372401 503:7.0569702e-05 504:0.00047788199 505:0.0369571 506:0.0906495 507:0.0093212305 508:0.0016395299 509:0.00339615 510:0.00168963 511:0.00143045 512:0.00307724 513:0.0073157498 514:0.1665 515:0.46119899 516:0.0495461 517:0.00055132899 518:0.0034159899 519:0.00175744 520:0.0019283399 521:0.00495874 522:0.0167304 523:0.24361899 524:0.46119899 525:0.157634 526:0.022084299 527:0.0199665 528:0.0041811699 529:0.00321519 530:0.00626681 531:0.0153395 532:0.43177199 533:0.46119899 534:0.20502099 535:0.0190931 536:0.020273 537:0.0027308699 538:0.0080863899 539:0.021411801 540:0.0432644 541:0.164206 542:0.40900201 543:0.055446301 544:0.00138726 545:0.0024997899 546:0.00099303504 547:0.00103345 548:0.0024929501 549:0.0099523598 550:0.23112699 551:0.40900201 552:0.180289 553:0.0058177798 554:0.00218827 555:0.0039595799 556:0.0047152201 557:0.00167704 558:0.021156 559:0.28611901 560:0.40900201 561:0.119099 562:0.0049885502 563:0.0065501002 564:0.00062061701 565:0.0032873901 566:0.0095673697 567:0.0239287 568:0.284578 569:0.40900201 570:0.17616101 571:0.0105328 572:0.0115106 573:0.00261388 574:0.0035194 575:0.0038107 576:0.033078302 577:0.299842 578:0.38369 579:0.186683 580:0.00376018 581:0.00099461596 582:0.0048578898 583:0.0074771801 584:0.0071620098 585:0.028989799 586:0.33582699 587:0.38369 588:0.104224 589:0.00247465 590:0.00273533 591:0.00188162 592:0.0048603299 593:0.0163323 594:0.030354301 595:0.233592 596:0.38369 597:0.142533 598:0.0086187804 599:0.0114222 600:0.0032150301 601:0.0040152599 602:0.0049988599 603:0.103948 604:0.1972 605:0.38369 606:0.044916201 607:0.0059567201 608:0.0087549202 609:0.0026243101 610:0.00191654 611:0.016095201 612:0.171616 613:0.41156599 614:0.41156599 615:0.168604 616:0.0072923801 617:0.0047831899 618:0.0019805799 619:0.00409303 620:0.0164741 621:0.040466901 622:0.41156599 623:0.41156599 624:0.059806801 625:0.0090446305 626:0.0046298001 627:0.0029200299 628:0.0056255301 629:0.0143208 630:0.044700801 631:0.181457 632:0.25399801 633:0.038511999 634:0.026923001 635:0.0143375 636:0.00312532 637:0.0021982801 638:0.0588689 639:0.20292 640:0.202475 641:0.277859 642:0.102097 643:0.0604911 644:0.019455301 645:0.0034371 646:0.00244598 647:0.030284701 648:0.062264901 649:0.15406699 650:0.311813 651:0.0254877 652:0.0039138799 653:0.00768292 654:0.00163901 655:0.0042078099 656:0.0123225 657:0.0278426 658:0.0448034 659:0.082086101 660:0.0099316603 661:0.0019712299 662:0.0084793698 663:0.0054618502 664:0.0055268402 665:0.0071254401 666:0.039216202 667:0.341023 668:0.341023 669:0.182944 670:0.041587699 671:0.0324637 672:0.055952199 673:0.036506899 674:0.048631001 675:0.111649 676:0.341023 677:0.341023 678:0.151144 679:0.0335836 680:0.190952 681:0.341023 682:0.19932599 683:0.120796 684:0.33407 685:0.022299601 686:0.0140748 687:0.0045027402 688:0.00242215 689:0.0065577901 690:0.0077820001 691:0.0069092298 692:0.0029871301 693:0.035896402 694:0.0057096798 695:0.0025893601 696:0.0019676499 697:0.000409778 698:0.0306226 699:0.0022018801 700:0.00114441 701:0.000352679 702:0.00457233 703:0.359855 704:0.359855 705:0.0896262 706:0.063280597 707:0.290649 708:0.359855 709:0.23206 710:0.111079 711:0.35106999 712:0.359855 713:0.359855 714:0.138418 715:0.103784 716:0.102833 717:0.037455201 718:0.030622501 719:0.040645801 720:0.12367 721:0.00052820402 722:0.00038521001 723:0.00021169199 724:0.00274664 725:0.47599399 726:0.00193912 727:0.000110404 728:3.68951e-05 729:0.00042694499 730:0.000687388 731:4.2022501e-05 732:1.26676e-05 733:0.0142466 734:0.50344098 735:0.0083599901 736:4.5099099e-05 737:1.50713e-05 738:0.000686732 739:0.062940501 740:0.0274389 741:0.0132755 742:0.0290698 743:0.50344098 744:0.0182522 745:0.0072051398 746:0.0068869302 747:0.0128722 748:0.00247264 749:0.00102861 750:0.00065091898 751:0.0304789 752:0.50344098 753:0.021844501 754:0.0020737001 755:0.00097596401 756:0.0021043899 757:0.152422 758:0.35606501 759:0.139612 760:0.0507586 761:0.058818899 762:0.020667801 763:0.075452603 764:0.127407 765:0.045503698 766:0.195179 767:0.35606501 768:0.118166 769:0.0527413 770:0.055873901 771:0.0124548 772:0.061774898 773:0.208129 774:0.090363897 775:0.081903897 776:0.085870802 777:0.0426035 778:0.036302801 779:0.053416699 780:0.0261264 781:0.14843801 782:0.35606501 783:0.286322 784:0.089346603 785:0.136813 786:0.040337201 787:0.0431577 788:0.051628999 789:0.0193846 790:0.133921 791:0.35606501 792:0.35606501 793:0.175036 794:0.34246901 795:0.085475303 796:0.015970999 797:0.0150305 798:0.0037533699 799:0.031739999 800:0.181527 801:0.088603303 802:0.197706 803:0.34246901 804:0.060054202 805:0.051912598 806:0.148706 807:0.019352701 808:0.0290749 809:0.050714198 810:0.133295 811:0.065437898 812:0.110583 813:0.021178801 814:0.0140523 815:0.017051401 816:0.0089442097 817:0.102805 818:0.34246901 819:0.34246901 820:0.14630499 821:0.066233702 822:0.00542869 823:0.059804201 824:0.206036 825:0.054043401 826:0.143849 827:0.34246901 828:0.34246901 829:0.27095801 830:0.157563 831:0.018532 832:0.047844201 833:0.098756596 834:0.0152315 835:0.028203201 836:0.0089472504 837:0.32000399 838:0.33084801 839:0.042237099 840:0.0143024 841:0.0104703 842:0.0107628 843:0.0093613099 844:0.017794 845:0.032688498 846:0.33084801 847:0.33084801 848:0.047842599 849:0.00101513 850:0.0559071 851:0.135535 852:0.0418512 853:0.10816 854:0.265762 855:0.33084801 856:0.33084801 857:0.0495295 858:0.025618801 859:0.0125742 860:0.0119109 861:0.0133746 862:0.035295099 863:0.096993104 864:0.33084801 865:0.318133 866:0.067753501 867:0.091462202 868:0.041798301 869:0.023778901 870:0.045817301 871:0.052532502 872:0.131694 873:0.318133 874:0.318133 875:0.318133 876:0.19226 877:0.121185 878:0.0437265 879:0.034764402 880:0.0282233 881:0.067390703 882:0.12800699 883:0.318133 884:0.14125399 885:0.16798 886:0.0471287 887:0.027634701 888:0.058666699 889:0.067603402 890:0.117022 891:0.318133 892:0.318133 893:0.17757501 894:0.177641 895:0.109174 896:0.045643199 897:0.046529599 898:0.037110601 899:0.058285698 900:0.13230699 901:0.27391899 902:0.27391899 903:0.130447 904:0.047919098 905:0.048433699 906:0.111727 907:0.034547601 908:0.0573158 909:0.070868298 910:0.27391899 911:0.27391899 912:0.095424697 913:0.028899699 914:0.171647 915:0.27391899 916:0.165057 917:0.118033 918:0.15251601 919:0.27391899 920:0.13101 921:0.050952401 922:0.036497399 923:0.075877599 924:0.15437999 925:0.057312299 926:0.043869399 927:0.072137803 928:0.27391899 929:0.27391899 930:0.097925901 931:0.0238354 932:0.15946899 933:0.27391899 934:0.209167 935:0.085708402 936:0.16343901 937:0.28311601 938:0.28311601 939:0.144284 940:0.030433301 941:0.119064 942:0.28311601 943:0.108219 944:0.057612602 945:0.130439 946:0.28311601 947:0.28311601 948:0.183953 949:0.068679802 950:0.047386602 951:0.0111961 952:0.0105696 953:0.0175061 954:0.044817001 955:0.28311601 956:0.28311601 957:0.25150901 958:0.0252758 959:0.0723463 960:0.176621 961:0.113112 962:0.0415213 963:0.13236099 964:0.25742599 965:0.28311601 966:0.205819 967:0.046515498 968:0.0295926 969:0.0048642298 970:0.00451347 971:0.0082534105 972:0.021704501 973:0.12525 974:0.099113204 975:0.0533874 976:0.0644366 977:0.47720799 978:0.019849399 979:0.0103213 980:0.0125084 981:0.0151852 982:0.0042967801 983:0.0021296099 984:0.00101972 985:0.026286099 986:0.489636 987:0.019676199 988:0.0025501701 989:0.00123742 990:0.0022132201 991:0.063051902 992:0.077304199 993:0.0425389 994:0.034649 995:0.489636 996:0.0080650803 997:0.0030487401 998:0.0049717398 999:0.0043028998 1000:0.00211576 1001:0.00139332 1002:0.000420742 1003:0.015982799 1004:0.489636 1005:0.0171941 1006:0.00055307703 1007:0.00027533199 1008:0.00068633701 1009:0.062720597 1010:0.0065234001 1011:0.003852 1012:0.00132982 1013:0.0122183 1014:0.0127972 1015:0.089712001 1016:0.468981 1017:0.39311099 1018:0.069220699 1019:0.0070689898 1020:0.0078003099 1021:0.0044321101 1022:0.012784 1023:0.0124991 1024:0.165038 1025:0.468981 1026:0.468981 1027:0.0075968001 1028:0.0012056 1029:0.00145281 1030:0 1031:0.0071947901 1032:0.00167184 1033:0.0059476201 1034:0.0296044 1035:0.0235989 1036:0.01355 1037:0.00167506 1038:0.00308681 1039:0 1040:0.0056584999 1041:0.00099907105 1042:0.0393566 1043:0.33884501 1044:0.133938 1045:0.0305524 1046:0.0050670598 1047:0.0036454201 1048:0.00144909 1049:0.00758084 1050:0.0037928901 1051:0.097115897 1052:0.39980099 1053:0.32087001 1054:0.059886198 1055:0.0041342299 1056:0.0053940201 1057:0.0102709 1058:0.035230499 1059:0.0163034 1060:0.19169 1061:0.39980099 1062:0.34275201 1063:0.0093103396 1064:0.000597812 1065:0.00134156 1066:0.00064301799 1067:0.00198499 1068:0.0020437201 1069:0.045592301 1070:0.39980099 1071:0.115409 1072:0.019987401 1073:0.00076722301 1074:0.0044631599 1075:0.0045309402 1076:0.00175572 1077:0.0039823102 1078:0.17653701 1079:0.39980099 1080:0.19136 1081:0.136766 1082:0.00096408598 1083:0.0027344699 1084:0.0096394103 1085:0.0249996 1086:0.0155671 1087:0.14928301 1088:0.379493 1089:0.27241099 1090:0.264777 1091:0.0124649 1092:0.0080922795 1093:0.00273435 1094:0.0029934701 1095:0.0042171502 1096:0.053411301 1097:0.379493 1098:0.29839501 1099:0.0305501 1100:0.00122036 1101:0.0034263099 1102:0.00198363 1103:0.00125972 1104:0.0029672501 1105:0.16823199 1106:0.379493 1107:0.189762 1108:0.042318299 1109:0.0054636099 1110:0.00149981 1111:6.7599998e-05 1112:0.00161693 1113:0.0050029899 1114:0.116258 1115:0.379493 1116:0.247162 1117:0.28992099 1118:0.045416798 1119:0.0451199 1120:0.0081157899 1121:0.0076441201 1122:0.0110698 1123:0.043938901 1124:0.40513101 1125:0.232503 1126:0.103269 1127:0.020681299 1128:0.0319032 1129:0.010866 1130:0.0084276404 1131:0.0097443797 1132:0.0140925 1133:0.089897998 1134:0.0616052 1135:0.058446798 1136:0.0131708 1137:0.00097043999 1138:0.000205737 1139:0.00155006 1140:0.0063636601 1141:0.155696 1142:0.437152 1143:0.36467001 1144:0.038867999 1145:0.0106088 1146:0.00438732 1147:0.00129605 1148:0.00133494 1149:0.0052994699 1150:0.123705 1151:0.437152 1152:0.32032099 1153:0.17075001 1154:0.017751001 1155:0.0055151898 1156:0.0136923 1157:0.0854403 1158:0.141663 1159:0.089875601 1160:0.0210372 1161:0.109718 1162:0.37772399 1163:0.37772399 1164:0.118745 1165:0.0142538 1166:0.14434899 1167:0.29295501 1168:0.26054001 1169:0.024736499 1170:0.302587 1171:0.055114899 1172:0.0124634 1173:0.0056805802 1174:0.00365605 1175:0.00327556 1176:0.00327417 1177:0.125562 1178:0.37772399 1179:0.30323899 1180:0.035925999 1181:0.0118242 1182:0.00202934 1183:0.00203707 1184:0.0123908 1185:0.0060396101 1186:0.052905101 1187:0.296159 1188:0.080322303 1189:0.462502 1190:0.462502 1191:0.414042 1192:0.0197585 1193:0.069820002 1194:0.13150001 1195:0.167161 1196:0.019429799 1197:0.291511 1198:0.27649999 1199:0.36954099 1200:0.19111399 1201:0.0124242 1202:0.037856601 1203:0.0046676402 1204:0.00309134 1205:0.0043081702 1206:0.0270072 1207:0.0262616 1208:0.0083772102 1209:0.00182842 1210:0 1211:0.035953801 1212:0.0100264 1213:0.0174451 1214:0.039029799 1215:0.0336871 1216:0.00482244 1217:0.0027228601 1218:0.00221391 1219:0.0038600501 1220:0.055654898 1221:0.00700237 1222:0.0060185702 1223:0.00177161 1224:0.0042854799 1225:0.0059807501 1226:0.0050786799 1227:0.0027093401 1228:0.0022346601 1229:0.47639799 1230:0.0068591698 1231:0.00033012501 1232:0.00042266501 1233:0.00110995 1234:0.000423146 1235:0.00043336401 1236:0.000766123 1237:0.0087983198 1238:0.50549603 1239:0.021553701 1240:6.0074399e-05 1241:1.84982e-05 1242:0.000364826 1243:0.00048412001 1244:0.00083669799 1245:0.00077349099 1246:0.00543425 1247:0.50549603 1248:0.0061206799 1249:0.00175662 1250:0.00048024699 1251:0.00036301801 1252:0.000469322 1253:0.00049207901 1254:0.0012150001 1255:0.018504599 1256:0.50549603 1257:0.018235501 1258:0.00169047 1259:0.00050655199 1260:0.000414276 1261:0.218293 1262:0.015697001 1263:0.0469715 1264:0 1265:0.236735 1266:0 1267:0.22035199 1268:0.074621297 1269:0.21965 1270:0.269454 1271:0.045108199 1272:0.13498101 1273:0 1274:0.26240501 1275:0.046854898 1276:0.38218501 1277:0.249421 1278:0.60491103 1279:0.031311799 1280:0.00083488598 1281:0.0024983 1282:0 1283:0.0012876 1284:0 1285:0.0100631 1286:0.0033629399 1287:0.031311799 1288:0.035097402 1289:0.00183675 1290:0.00549625 1291:0 1292:0.0055795899 1293:0.0026148099 1294:0.0087916199 1295:0.00904903 1296:0.0364637 1297:0.0064524799 1298:0.00181312 1299:0.0057073799 1300:0.0028059899 1301:0.0048162099 1302:0.0155059 1303:0.050917599 1304:0.24888501 1305:0.114372 1306:0.057313301 1307:0.0034378699 1308:0.016726499 1309:0.0151781 1310:0.0117862 1311:0.0401216 1312:0.467801 1313:0.642407 1314:0.52553499 1315:0.00069753203 1316:6.3257001e-05 1317:0.000189289 1318:0 1319:0.00045048899 1320:0.00057278899 1321:0.0054531 1322:0.0042385901 1323:0.00190187 1324:0.014269 1325:0.00067672302 1326:0.0024659601 1327:0.00020125099 1328:0.0033891799 1329:0.0104724 1330:0.025660301 1331:0.0187684 1332:0.0309697 1333:0.031944301 1334:0.0011198299 1335:0.0042104898 1336:0.00175446 1337:0.00369129 1338:0.0059457701 1339:0.141509 1340:0.479276 1341:0.230151 1342:0.076545604 1343:0.0102673 1344:0.00256386 1345:0.00047038199 1346:0.00270231 1347:0.0063841199 1348:0.195136 1349:0.479276 1350:0.44818699 1351:0.0067321602 1352:0.00037126901 1353:0.0021293201 1354:0.00047038199 1355:0.00235858 1356:0.0025935399 1357:0.0069484198 1358:0.049431 1359:0.029111199 1360:0.019850001 1361:0.000853181 1362:0.0019906 1363:0.000558334 1364:0.00488802 1365:0.0011518199 1366:0.042573001 1367:0.43923101 1368:0.134849 1369:0.042618599 1370:0.0087016402 1371:0.000347958 1372:0.00028680201 1373:0.00057745201 1374:0.00526354 1375:0.114623 1376:0.423278 1377:0.242863 1378:0.0393821 1379:0.0074197301 1380:0.0016983 1381:0.00160242 