SVM-light Version V6.10
0 # kernel type
3 # kernel parameter -d 
1 # kernel parameter -g 
1 # kernel parameter -s 
1 # kernel parameter -r 
0# kernel parameter -u 
1764 # highest feature index 
728 # number of training documents 
57 # number of support vectors plus 1 
1.1132988 # threshold b, each following line is a SV (starting with alpha*y)
-0.0027529716257132662467210781898075 1:0.0876958 2:0.0279337 3:0.087144203 4:0.033286002 5:0.20624299 6:0.16506501 7:0.093916498 8:0.0496554 9:0.098323397 10:0.059953202 11:0.120562 12:0.149114 13:0.15147699 14:0.36172801 15:0.16703101 16:0.089039601 17:0.088844001 18:0.0706359 19:0.103547 20:0.0286908 21:0.0721917 22:0.017755101 23:0.24240001 24:0.085063703 25:0.0751082 26:0.046979699 27:0.117343 28:0.049056798 29:0.0490035 30:0.10439 31:0.088860199 32:0.70312101 33:0.10733 34:0.0580865 35:0.0116131 36:0.0443574 37:0.0103132 38:0.0536923 39:0.074533403 40:0.17084099 41:0.38931501 42:0.075090602 43:0.023541501 44:0.0142465 45:0.0113513 46:0.026904 47:0.030215001 48:0.058992401 49:0.249716 50:0.53222698 51:0.106862 52:0.033451598 53:0.00246333 54:0.0232052 55:0.0054498301 56:0.0132911 57:0.080829702 58:0.125828 59:0.40192899 60:0.109555 61:0.058361501 62:0.0039275102 63:0.0043002898 64:0.092896201 65:0.049376398 66:0.081972197 67:0.160987 68:0.357299 69:0.20457999 70:0.123065 71:0.0269628 72:0.078450002 73:0.0221877 74:0.0107872 75:0.0248696 76:0.059423499 77:0.12802599 78:0.042784199 79:0.015103 80:0.0059997998 81:0.021284601 82:0.0254598 83:0.0124868 84:0.0114706 85:0.0277841 86:0.178473 87:0.063391797 88:0.024613099 89:0.0155955 90:0.021255299 91:0.22889 92:0.26064801 93:0.077057302 94:0.038090002 95:0.097695798 96:0.063502997 97:0.037687 98:0.0218495 99:0.079633303 100:0.55872601 101:0.55872601 102:0.31096801 103:0.0357324 104:0.12837601 105:0.067388996 106:0.031494699 107:0.051186901 108:0.188016 109:0.017297899 110:0.0147896 111:0.0191967 112:0.0203653 113:0.075006798 114:0.0135413 115:0.0069120801 116:0.00448068 117:0.0137003 118:0.157974 119:0.18762299 120:0.32056299 121:0.25381199 122:0.33407399 123:0.0351412 124:0.0512232 125:0.0068729902 126:0.15084299 127:0.33407399 128:0.33407399 129:0.122316 130:0.0104737 131:0.036616001 132:0.0112403 133:0.0044674198 134:0.0125985 135:0.062756501 136:0.33407399 137:0.33407399 138:0.319069 139:0.0608932 140:0.101073 141:0.0187876 142:0.024176201 143:0.0125359 144:0.19947401 145:0.19038001 146:0.28526101 147:0.220175 148:0.165436 149:0.229716 150:0.0121999 151:0.023115 152:0.002749 153:0.101617 154:0.316957 155:0.316957 156:0.150203 157:0.0277385 158:0.0496989 159:0.0019749801 160:0.0011451599 161:0.00199062 162:0.057143699 163:0.316957 164:0.316957 165:0.2253 166:0.039545499 167:0.0494803 168:0.0053407699 169:0.0127236 170:0.0092781596 171:0.128885 172:0.316957 173:0.316957 174:0.157582 175:0.00623583 176:0.0096887397 177:0.0024041301 178:0.00255687 179:0.0120865 180:0.104651 181:0.33764699 182:0.33764699 183:0.176126 184:0.0119718 185:0.0073838402 186:0.0028667201 187:0.00091181498 188:0.0023658101 189:0.064363003 190:0.33764699 191:0.33764699 192:0.185423 193:0.0127158 194:0.016204 195:0.0123773 196:0.0029793901 197:0.0031445201 198:0.088755101 199:0.3371 200:0.33764699 201:0.120098 202:0.0032427399 203:0.0055423998 204:0.0081201196 205:0.0035447299 206:0.0092066601 207:0.102596 208:0.268576 209:0.33764699 210:0.098803803 211:0.0162951 212:0.067617103 213:0.0198371 214:0.0083629098 215:0.00554172 216:0.091358997 217:0.36090401 218:0.36090401 219:0.135912 220:0.027511099 221:0.096730597 222:0.051786199 223:0.0084278602 224:0.0076505598 225:0.107331 226:0.184578 227:0.191064 228:0.045331798 229:0.122692 230:0.36090401 231:0.148544 232:0.0386017 233:0.041214399 234:0.078972898 235:0.206771 236:0.23959599 237:0.054842498 238:0.092800699 239:0.36090401 240:0.068351299 241:0.0095176799 242:0.0064915302 243:0.084432803 244:0.062129799 245:0.0367641 246:0.0116173 247:0.206716 248:0.36090401 249:0.090456598 250:0.0224673 251:0.0144486 252:0.048569001 253:0.0151957 254:0.0071565402 255:0.0090036904 256:0.00643493 257:0.0304169 258:0.00191514 259:0.00337232 260:0.0039174999 261:0.0136792 262:0.0282118 263:0.021175301 264:0.0155204 265:0.0096903704 266:0.0658236 267:0.0130368 268:0.0096075404 269:0.0026054599 270:0.0210908 271:0.325665 272:0.45494601 273:0.091490403 274:0.0185984 275:0.032354299 276:0.00086879398 277:0.0092987604 278:0.0086898804 279:0.071287498 280:0.49773401 281:0.49773401 282:0.33618701 283:0.0203063 284:0.0240431 285:0.00488364 286:0.0089171603 287:0.0127452 288:0.221489 289:0.039828401 290:0.0585449 291:0.0219763 292:0.0067886198 293:0.025660699 294:0.0131229 295:0.0138496 296:0.003391 297:0.0156387 298:0.192614 299:0.34544799 300:0.074895598 301:0.0051384098 302:0.0216353 303:0.0203602 304:0.0202416 305:0.0078874798 306:0.0475263 307:0.40661699 308:0.40661699 309:0.207756 310:0.0068202601 311:0.0077886502 312:0.0058760298 313:0.0103979 314:0.010582 315:0.124302 316:0.40661699 317:0.40661699 318:0.28580099 319:0.0066245999 320:0.0129897 321:0.0082958099 322:0.0131318 323:0.0108456 324:0.14441299 325:0.23427901 326:0.35032201 327:0.082288302 328:0.00178292 329:0.0094773201 330:0.0077645099 331:0.0064539402 332:0.0052708099 333:0.048136 334:0.35032201 335:0.35032201 336:0.13697501 337:0.0039407299 338:0.0096651502 339:0.0039482699 340:0.0030954899 341:0.0075695701 342:0.067728899 343:0.35032201 344:0.35032201 345:0.140515 346:0.00334058 347:0.0068983301 348:0.00319825 349:0.0035041501 350:0.0027693401 351:0.085770696 352:0.35032201 353:0.35032201 354:0.128861 355:0.0026736599 356:0.0051113102 357:0.0026175301 358:0.0026223401 359:0.0055015399 360:0.076230101 361:0.321201 362:0.321201 363:0.14331099 364:0.0043061501 365:0.0069008898 366:0.0019688101 367:0.0016130999 368:0.0088604903 369:0.0716573 370:0.321201 371:0.321201 372:0.241209 373:0.031466499 374:0.035254601 375:0.0154971 376:0.0055734999 377:0.0130774 378:0.092077799 379:0.29371801 380:0.321201 381:0.083401501 382:0.00301827 383:0.0167812 384:0.0023747999 385:0.00298027 386:0.0062074298 387:0.063928299 388:0.235137 389:0.321201 390:0.189649 391:0.110161 392:0.209775 393:0.117096 394:0.098061897 395:0.064648598 396:0.100258 397:0.292117 398:0.292117 399:0.157684 400:0.0281213 401:0.0191718 402:0.0099347597 403:0.0112292 404:0.0170669 405:0.12779 406:0.292117 407:0.292117 408:0.058898602 409:0.0081532598 410:0.00167971 411:0.0039472398 412:0.0110009 413:0.01506 414:0.292117 415:0.274957 416:0.22724301 417:0.152014 418:0.15058599 419:0.127084 420:0.087461099 421:0.125478 422:0.112995 423:0.264725 424:0.292117 425:0.114089 426:0.075998597 427:0.106231 428:0.100565 429:0.032440301 430:0.106283 431:0.070913002 432:0.292117 433:0.29255599 434:0.252662 435:0.034549501 436:0.0092147598 437:0.0086558098 438:0.0233046 439:0.031499598 440:0.050073199 441:0.29255599 442:0.146907 443:0.117955 444:0.025949501 445:0.0302159 446:0.12567 447:0.055785999 448:0.0570256 449:0.095748 450:0.18771701 451:0.29255599 452:0.085529 453:0.126453 454:0.092421703 455:0.126323 456:0.11024 457:0.148862 458:0.110852 459:0.29255599 460:0.23408701 461:0.094933599 462:0.14874899 463:0.208828 464:0.29255599 465:0.19803999 466:0.14566299 467:0.16492 468:0.290977 469:0.042313699 470:0.042477399 471:0.0127467 472:0.105019 473:0.418107 474:0.0451658 475:0.025237599 476:0.037062202 477:0.039332598 478:0.017012199 479:0.0097148297 480:0.0096954703 481:0.18181001 482:0.418107 483:0.136208 484:0.0131156 485:0.00642415 486:0.0117301 487:0.0294888 488:0.0254118 489:0.048962999 490:0.21537399 491:0.418107 492:0.098610401 493:0.047651701 494:0.0566804 495:0.055640999 496:0.0086026601 497:0.0052003101 498:0.0244854 499:0.371984 500:0.418107 501:0.125554 502:0.0145875 503:0.0052529699 504:0.0084298896 505:0.33055401 506:0.33688101 507:0.104839 508:0.00386712 509:0.0056241802 510:0.00038204101 511:0.00333435 512:0.0020660299 513:0.049784899 514:0.33688101 515:0.33688101 516:0.154121 517:0.0062197899 518:0.0039108698 519:0.00073439698 520:0.00119551 521:0.0030734199 522:0.096920498 523:0.33688101 524:0.33688101 525:0.133514 526:0.0079295998 527:0.0053421799 528:0.00176726 529:0.0040957402 530:0.010765 531:0.085574001 532:0.33688101 533:0.33688101 534:0.110326 535:0.00805547 536:0.033311799 537:0.0104063 538:0.00668287 539:0.0079584597 540:0.085212901 541:0.30912799 542:0.30912799 543:0.138831 544:0.0065439399 545:0.0090575702 546:0.00140942 547:0.0015621 548:0.00513638 549:0.102505 550:0.30912799 551:0.30912799 552:0.119759 553:0.00639816 554:0.0087932199 555:0.00113249 556:0.00164987 557:0.0147028 558:0.127785 559:0.24046201 560:0.30912799 561:0.089015201 562:0.051260799 563:0.15891001 564:0.060219102 565:0.064666502 566:0.0123159 567:0.106622 568:0.30912799 569:0.30912799 570:0.079516001 571:0.0656913 572:0.144104 573:0.0692534 574:0.107141 575:0.104157 576:0.30912799 577:0.30759999 578:0.30759999 579:0.069667898 580:0.0046483101 581:0.0029559501 582:0.002628 583:0.00092869299 584:0.031297799 585:0.134812 586:0.247502 587:0.30759999 588:0.052772701 589:0.0070712199 590:0.0049784998 591:0.0079969699 592:0.001665 593:0.0300662 594:0.150784 595:0.30759999 596:0.30759999 597:0.042490002 598:0.015942501 599:0.0096679097 600:0.0112942 601:0.042925201 602:0.207559 603:0.30759999 604:0.30759999 605:0.130683 606:0.056910701 607:0.097400099 608:0.072412603 609:0.0508665 610:0.021989699 611:0.206865 612:0.30759999 613:0.178047 614:0.22009 615:0.0416453 616:0.0111704 617:0.038430698 618:0.0130462 619:0.00492595 620:0.021471599 621:0.109522 622:0.17725401 623:0.157456 624:0.111575 625:0.112413 626:0.28988701 627:0.156022 628:0.13661499 629:0.117715 630:0.156528 631:0.241586 632:0.063427299 633:0.080731899 634:0.18669 635:0.27728099 636:0.133127 637:0.030445 638:0.164134 639:0.28988701 640:0.28988701 641:0.118068 642:0.132727 643:0.119973 644:0.28988701 645:0.167238 646:0.032343499 647:0.130179 648:0.28988701 649:0.22875801 650:0.086566702 651:0.057206798 652:0.107398 653:0.17819899 654:0.0864131 655:0.117343 656:0.123796 657:0.287361 658:0.32503501 659:0.0624552 660:0.059514299 661:0.106987 662:0.106832 663:0.0623466 664:0.103995 665:0.087218098 666:0.32503501 667:0.32503501 668:0.087092303 669:0.050654799 670:0.0522631 671:0.183736 672:0.077380799 673:0.034706298 674:0.078745402 675:0.32503501 676:0.32503501 677:0.0939731 678:0.025419399 679:0.0585737 680:0.033959299 681:0.068401299 682:0.051265899 683:0.057687201 684:0.32503501 685:0.29866999 686:0.073102497 687:0.104309 688:0.061020602 689:0.117512 690:0.0897789 691:0.077206902 692:0.068133198 693:0.29866999 694:0.20488501 695:0.098979503 696:0.131005 697:0.124127 698:0.29866999 699:0.13801201 700:0.052205998 701:0.050934199 702:0.233429 703:0.29866999 704:0.105948 705:0.0482223 706:0.0375879 707:0.106597 708:0.075666197 709:0.041672401 710:0.0504837 711:0.29866999 712:0.279807 713:0.114946 714:0.076009199 715:0.0681815 716:0.29866999 717:0.120802 718:0.0507732 719:0.039129 720:0.29866999 721:0.040264301 722:0.035783499 723:0.053888999 724:0.17395 725:0.44032699 726:0.0908769 727:0.018903 728:0.023081999 729:0.061256502 730:0.0077319401 731:0.0035671601 732:0.015629901 733:0.272789 734:0.44032699 735:0.049998902 736:0.0130397 737:0.00623861 738:0.0104514 739:0.050209802 740:0.047926702 741:0.036373299 742:0.150454 743:0.44032699 744:0.091499403 745:0.026318301 746:0.0402712 747:0.082213603 748:0.038579401 749:0.018366801 750:0.0165726 751:0.135212 752:0.44032699 753:0.114878 754:0.047776099 755:0.064837001 756:0.085123099 757:0.236239 758:0.34006599 759:0.073789701 760:0.019000201 761:0.0105512 762:0.0046118498 763:0.059333101 764:0.25992599 765:0.147092 766:0.16541301 767:0.31245199 768:0.0502773 769:0.0131617 770:0.061813202 771:0.027636699 772:0.0378602 773:0.120649 774:0.095850401 775:0.134224 776:0.057140399 777:0.0119572 778:0.0082501201 779:0.0135361 780:0.0073440098 781:0.213956 782:0.34006599 783:0.34006599 784:0.099258199 785:0.032478701 786:0.0088076703 787:0.0205354 788:0.043840401 789:0.022865999 790:0.15844101 791:0.34006599 792:0.34006599 793:0.120161 794:0.128103 795:0.054772101 796:0.0599938 797:0.183166 798:0.13147099 799:0.125083 800:0.045774601 801:0.107871 802:0.32580101 803:0.170387 804:0.0630375 805:0.068243399 806:0.16077401 807:0.156681 808:0.195971 809:0.12921201 810:0.32580101 811:0.173512 812:0.0297962 813:0.052295201 814:0.055561598 815:0.103463 816:0.080951102 817:0.095893502 818:0.31777501 819:0.26826999 820:0.32580101 821:0.028372901 822:0.063543998 823:0.043988802 824:0.077104896 825:0.083176002 826:0.084552698 827:0.219842 828:0.32580101 829:0.33670801 830:0.105316 831:0.0156193 832:0.00896353 833:0.0077912901 834:0.0151207 835:0.0435539 836:0.096955597 837:0.33670801 838:0.33670801 839:0.12002 840:0.076458 841:0.102835 842:0.0565589 843:0.033765402 844:0.018076699 845:0.106496 846:0.33670801 847:0.33670801 848:0.0122196 849:0.0085683698 850:0.0026599499 851:0.00241065 852:0.0073161898 853:0.0151122 854:0.037544399 855:0.33670801 856:0.33670801 857:0.082466997 858:0.062545501 859:0.050427999 860:0.0292168 861:0.029780401 862:0.0115508 863:0.052567799 864:0.33670801 865:0.17816301 866:0.12548099 867:0.138744 868:0.194756 869:0.250433 870:0.089532502 871:0.0313247 872:0.111385 873:0.250433 874:0.242026 875:0.139404 876:0.113189 877:0.109015 878:0.250433 879:0.079643399 880:0.076540798 881:0.110968 882:0.250433 883:0.250433 884:0.114385 885:0.116276 886:0.120343 887:0.16725101 888:0.075609602 889:0.0355618 890:0.091473803 891:0.250433 892:0.250433 893:0.13943499 894:0.092096701 895:0.190263 896:0.250433 897:0.061954699 898:0.120881 899:0.113009 900:0.250433 901:0.32758799 902:0.093939103 903:0.040155102 904:0.043395501 905:0.090496898 906:0.039597001 907:0.042158399 908:0.079407297 909:0.32758799 910:0.32758799 911:0.093096197 912:0.027311601 913:0.032848299 914:0.061934602 915:0.039398901 916:0.033296298 917:0.094259501 918:0.32758799 919:0.32758799 920:0.090424299 921:0.0320157 922:0.085091896 923:0.076780602 924:0.026133301 925:0.0614627 926:0.115636 927:0.32758799 928:0.32758799 929:0.046496298 930:0.0261687 931:0.031163599 932:0.065296903 933:0.0301464 934:0.0285259 935:0.179462 936:0.32758799 937:0.29594699 938:0.104812 939:0.0506666 940:0.045100398 941:0.116504 942:0.054375902 943:0.0484352 944:0.086071096 945:0.29594699 946:0.247769 947:0.095705897 948:0.076769702 949:0.0583556 950:0.28596199 951:0.123398 952:0.064636998 953:0.101569 954:0.29594699 955:0.29594699 956:0.043845601 957:0.059915401 958:0.041887902 959:0.11357 960:0.0496636 961:0.053169399 962:0.18249699 963:0.29594699 964:0.169892 965:0.0465542 966:0.0884526 967:0.058006398 968:0.286715 969:0.13442101 970:0.075920299 971:0.176917 972:0.29594699 973:0.061174199 974:0.063601598 975:0.056726798 976:0.16277701 977:0.36910999 978:0.164454 979:0.068353198 980:0.12891901 981:0.17054901 982:0.080235802 983:0.037756301 984:0.035586301 985:0.122144 986:0.36910999 987:0.100791 988:0.063142098 989:0.076182403 990:0.13191199 991:0.082796 992:0.0421139 993:0.0590345 994:0.169597 995:0.36910999 996:0.212468 997:0.082659997 998:0.131249 999:0.221671 1000:0.187163 1001:0.0257833 1002:0.12732001 1003:0.18291301 1004:0.36910999 1005:0.075492501 1006:0.048229799 1007:0.0226257 1008:0.147991 1009:0.076693699 1010:0.0042052302 1011:0.0024743699 1012:0.00066656101 1013:0.00546011 1014:0.0027828999 1015:0.18374901 1016:0.35390401 1017:0.35390401 1018:0.071806103 1019:0.00770802 1020:0.0034264899 1021:0.0042822501 1022:0.0089342101 1023:0.0042695701 1024:0.174657 1025:0.35390401 1026:0.35390401 1027:0.030972401 1028:0.0031268799 1029:0.0043204101 1030:0.0027394099 1031:0.0055085602 1032:0.000411952 1033:0.072757199 1034:0.32875299 1035:0.167633 1036:0.046884999 1037:0.0113271 1038:0.0130949 1039:0.0072681499 1040:0.00848612 1041:0.00021175299 1042:0.15746 1043:0.35390401 1044:0.35320601 1045:0.0865658 1046:0.0085909404 1047:0.0120591 1048:0.0118183 1049:0.022407699 1050:0.0119489 1051:0.102245 1052:0.330118 1053:0.263592 1054:0.22399899 1055:0.0065886499 1056:0.0148445 1057:0.0091295503 1058:0.0157071 1059:0.0101281 1060:0.079543702 1061:0.330118 1062:0.330118 1063:0.040578201 1064:0.0113064 1065:0.00972714 1066:0.0070678 1067:0.0052064499 1068:2.6400799e-05 1069:0.177845 1070:0.330118 1071:0.330118 1072:0.053878199 1073:0.0055843201 1074:0.0063404101 1075:0.00542153 1076:0.0042787902 1077:0.00378821 1078:0.22719 1079:0.330118 1080:0.330118 1081:0.31844601 1082:0.0095413905 1083:0.0084111998 1084:0.0038000999 1085:0.0023418099 1086:0.0063342401 1087:0.063164003 1088:0.26280501 1089:0.326805 1090:0.31813201 1091:0.0270456 1092:0.0275943 1093:0.021578001 1094:0.016865101 1095:0.015965801 1096:0.0289384 1097:0.135102 1098:0.326805 1099:0.067744799 1100:0.0077713602 1101:0.0093808901 1102:0.0042515802 1103:0.00365887 1104:0.0131268 1105:0.21500599 1106:0.326805 1107:0.326805 1108:0.063477099 1109:0.0145815 1110:0.0130217 1111:0.0052949302 1112:0.0044660298 1113:0.0082818205 1114:0.143941 1115:0.326805 1116:0.298042 1117:0.15338799 1118:0.025654299 1119:0.032418001 1120:0.050629701 1121:0.073970601 1122:0.0286463 1123:0.0226165 1124:0.052906301 1125:0.16444699 1126:0.279291 1127:0.159593 1128:0.049134798 1129:0.275408 1130:0.25219601 1131:0.075926296 1132:0.148947 1133:0.088218004 1134:0.279291 1135:0.047641002 1136:0.0135748 1137:0.0118999 1138:0.0162517 1139:0.052160401 1140:0.0121817 1141:0.102421 1142:0.279291 1143:0.19482499 1144:0.279291 1145:0.13497899 1146:0.0526186 1147:0.23841 1148:0.279291 1149:0.110833 1150:0.19845501 1151:0.279291 1152:0.279291 1153:0.32405099 1154:0.109118 1155:0.026641499 1156:0.116837 1157:0.080327898 1158:0.028175199 1159:0.068443298 1160:0.096203297 1161:0.32405099 1162:0.32405099 1163:0.056809898 1164:0.027458301 1165:0.031869601 1166:0.074032202 1167:0.0551254 1168:0.0191944 1169:0.114851 1170:0.32405099 1171:0.32405099 1172:0.095907301 1173:0.029172501 1174:0.100338 1175:0.113502 1176:0.054334201 1177:0.079674199 1178:0.11508 1179:0.32405099 1180:0.32405099 1181:0.078029998 1182:0.0282201 1183:0.016842199 1184:0.082456797 1185:0.083167501 1186:0.0237335 1187:0.071880497 1188:0.32405099 1189:0.300679 1190:0.069848202 1191:0.047115002 1192:0.0459176 1193:0.116318 1194:0.066122197 1195:0.051721901 1196:0.16363101 1197:0.300679 1198:0.151399 1199:0.054324199 1200:0.066159897 1201:0.110018 1202:0.300679 1203:0.062736198 1204:0.075933799 1205:0.164711 1206:0.300679 1207:0.300679 1208:0.133359 1209:0.0495876 1210:0.0324912 1211:0.115721 1212:0.098333597 1213:0.062913902 1214:0.099767797 1215:0.300679 1216:0.234074 1217:0.096798398 1218:0.084722102 1219:0.098825797 1220:0.300679 1221:0.088092901 1222:0.073398799 1223:0.0975224 1224:0.257606 1225:0.0303257 1226:0.0124408 1227:0.035999 1228:0.16112299 1229:0.455522 1230:0.088139303 1231:0.039858401 1232:0.0463535 1233:0.060550001 1234:0.0696292 1235:0.0055491002 1236:0.065731503 1237:0.145906 1238:0.455522 1239:0.063440599 1240:0.0211628 1241:0.0066708601 1242:0.043821398 1243:0.0297265 1244:0.025386499 1245:0.0469715 1246:0.19323701 1247:0.455522 1248:0.070792601 1249:0.026843701 1250:0.031823099 1251:0.022324599 1252:0.0141524 1253:0.0153888 1254:0.0168644 1255:0.17017099 1256:0.455522 1257:0.080716699 1258:0.0202133 1259:0.0094594602 1260:0.0030179101 1261:0.034154899 1262:0.0301935 1263:0.035994601 1264:0.024486501 1265:0.053274099 1266:0.0123513 1267:0.041576099 1268:0.093219399 1269:0.089097701 1270:0.080585502 1271:0.18109301 1272:0.218263 1273:0.12984499 1274:0.092132799 1275:0.00712125 1276:0.24941 1277:0.51770103 1278:0.51643598 1279:0.028118299 1280:0.094821297 1281:0.122166 1282:0.106966 1283:0.112269 1284:0.028208099 1285:0.041423202 1286:0.0175064 1287:0.025073901 1288:0.024658401 1289:0.243907 1290:0.28349599 1291:0.21909501 1292:0.12718 1293:0.0109835 1294:0.046856798 1295:0.0286757 1296:0.016526099 1297:0.0501942 1298:0.0427927 1299:0.043447401 1300:0.042339399 1301:0.022745701 1302:0.000300618 1303:0.18121199 1304:0.44018799 1305:0.312684 1306:0.125058 1307:0.0129309 1308:0.0118583 1309:0.021943299 1310:0.025621699 1311:0.0079036402 1312:0.43912801 1313:0.44018799 1314:0.44018799 1315:0.0071547399 1316:0.033046398 1317:0.033459201 1318:0.0395509 1319:0.0405454 1320:0.0026813301 1321:0.0115897 1322:0.015932599 1323:0.0124212 1324:0.035370599 1325:0.0271086 1326:0.022775199 1327:0.0244879 1328:0.051717199 1329:0.0060272198 1330:0.066918097 1331:0.18961801 1332:0.113578 1333:0.066873997 1334:0.0067588198 1335:0.0063133701 1336:0.0039295601 1337:0.0088833701 1338:0.0086152004 1339:0.234997 1340:0.345759 1341:0.345759 1342:0.0796967 1343:0.0099871997 1344:0.0096503003 1345:0.0040671001 1346:0.00729015 1347:0.0089103002 1348:0.24888 1349:0.345759 1350:0.345759 1351:0.0303124 1352:0.026804 1353:0.022666899 1354:0.0160497 1355:0.0196894 1356:0.0031705101 1357:0.089000598 1358:0.259413 1359:0.15444399 1360:0.059742801 1361:0.017710101 1362:0.015842199 1363:0.014676 1364:0.021754799 1365:0.0047259699 1366:0.209627 1367:0.345759 1368:0.345759 1369:0.056260802 1370:0.0048417202 1371:0.0060660299 1372:0.0042783502 1373:0.019216999 1374:0.0091020903 1375:0.132562 1376:0.34108099 1377:0.231071 1378:0.14481901 1379:0.018926401 1380:0.0118424 1381:0.042057399 1382:0.0812582 1383:0.0309902 1384:0.115403 1385:0.34108099 1386:0.34108099 1387:0.0525904 1388:0.00122203 1389:0.0047400901 1390:0.0046975701 1391:0.0144236 1392:0.0066618701 1393:0.182588 1394:0.34108099 1395:0.31196499 1396:0.063896798 1397:0.00147065 1398:0.0072061899 1399:0.0066720298 1400:0.011341 1401:0.0065884902 1402:0.204237 1403:0.34108099 1404:0.34108099 1405:0.31676799 1406:0.025171099 1407:0.0088849198 1408:0.032660302 1409:0.051467098 1410:0.027112 1411:0.0758458 1412:0.27415299 1413:0.32302999 1414:0.32302999 1415:0.022342799 1416:0.0050363201 1417:0.0014693399 1418:0.021914501 1419:0.0245053 1420:0.0274715 1421:0.131263 1422:0.32302999 1423:0.087393798 1424:0.0060922299 1425:0.0029747901 1426:0.0024782999 1427:0.00416457 1428:0.00176019 1429:0.151114 1430:0.32302999 1431:0.32302999 1432:0.10817 1433:0.0143971 1434:0.0022237799 1435:0.00024585499 1436:0.0026910801 1437:0.00201506 1438:0.13362101 1439:0.32302999 1440:0.32302999 1441:0.319121 1442:0.064989202 1443:0.046551 1444:0.0066770599 1445:0.059435301 1446:0.056001101 1447:0.037074801 1448:0.065486804 1449:0.319121 1450:0.27975199 1451:0.0556738 1452:0.101191 1453:0.081477597 1454:0.319121 1455:0.072615899 1456:0.0363263 1457:0.024547899 1458:0.26382801 1459:0.15192901 1460:0.0206542 1461:0.013011 1462:0.0037843201 1463:0.0069657601 1464:0.0041977302 1465:0.13937999 1466:0.319121 1467:0.319121 1468:0.105859 1469:0.017384 1470:0.0283981 1471:0.096705697 1472:0.319121 1473:0.0064714402 1474:0.074438199 1475:0.28821 1476:0.196151 1477:0.022663901 1478:0.0146753 1479:0.024632599 1480:0.13713001 1481:0.462998 1482:0.018919799 1483:0.0104224 1484:0.0086308504 1485:0.0138081 1486:0.0137775 1487:0.0154984 1488:0.0110137 1489:0.14648999 1490:0.462998 1491:0.045444999 1492:0.0117797 1493:0.00574379 1494:0.0048586298 1495:0.024002399 1496:0.0133338 1497:0.0165904 1498:0.18050499 1499:0.462998 1500:0.0153688 1501:0.018068099 1502:0.048138801 1503:0.047712699 1504:0.0174686 1505:0.018780099 1506:0.0147027 1507:0.22434001 1508:0.462998 1509:0.049705502 1510:0.00822677 1511:0.0029764399 1512:0.015697001 1513:0.072090998 1514:0.193565 1515:0.26143 1516:0.210592 1517:0.150943 1518:0.036251899 1519:0.042407699 1520:0.0283927 1521:0.0256518 1522:0.047637001 1523:0.206945 1524:0.234073 1525:0.183373 1526:0.123882 1527:0.014468 1528:0.035695001 1529:0.037342101 1530:0.033913299 1531:0.22676399 1532:0.35300201 1533:0.335641 1534:0.336741 1535:0.312639 1536:0.086058497 1537:0.043285601 1538:0.034727398 1539:0.046467599 1540:0.094076 1541:0.095506802 1542:0.086716898 1543:0.095085397 1544:0.29460299 1545:0.088458903 1546:0.0581019 1547:0.036026798 1548:0.112299 1549:0.0288154 1550:0.0611067 1551:0.056697302 1552:0.0469479 1553:0.0989943 1554:0.019830201 1555:0.032262798 1556:0.0139525 1557:0.022314399 1558:0.048286799 1559:0.16258 1560:0.21471401 1561:0.15267099 1562:0.166023 1563:0.034163699 1564:0.055261798 1565:0.0266132 1566:0.0295811 1567:0.073019601 1568:0.086165197 1569:0.13638 1570:0.081941999 1571:0.25117499 1572:0.0266695 1573:0.051762499 1574:0.050124899 1575:0.077526197 1576:0.14465 1577:0.30878401 1578:0.49548599 1579:0.336537 1580:0.46900401 1581:0.053799901 1582:0.087548897 1583:0.13371301 1584:0.071331702 1585:0.0305211 1586:0.18714599 1587:0.24237999 1588:0.183906 1589:0.142904 1590:0.0224039 1591:0.043150701 1592:0.0594256 1593:0.059990801 1594:0.078124501 1595:0.078516297 1596:0.094718203 1597:0.104946 1598:0.19892199 1599:0.016289899 1600:0.214981 1601:0.45727301 1602:0.420302 1603:0.0590568 1604:0.139037 1605:0.308824 1606:0.203422 1607:0.293807 1608:0.050597101 1609:0.082679696 1610:0.078632496 1611:0.0363244 1612:0.0146398 1613:0.033148799 1614:0.071045302 1615:0.062329601 1616:0.22778299 1617:0.039526001 1618:0.064663 1619:0.043660101 1620:0.018980499 1621:0.043814 1622:0.0076413001 1623:0.0090567702 1624:0.0105143 1625:0.032788102 1626:0.0063243099 1627:0.149416 1628:0.46575901 1629:0.29461899 1630:0.089890599 1631:0.0235982 1632:0.037321098 1633:0.0258835 1634:0.027398299 1635:0.0107852 1636:0.35810101 1637:0.46575901 1638:0.46575901 1639:0.020109801 1640:0.0299209 1641:0.0283466 1642:0.025687501 1643:0.0813099 1644:0.0187758 1645:0.0150702 1646:0.0118378 1647:0.023920599 1648:0.055482101 1649:0.077470899 1650:0.072873399 1651:0.059480801 1652:0.12546 1653:0.032127801 1654:0.050075602 1655:0.165885 1656:0.130183 1657:0.057289701 1658:0.010031 1659:0.0119262 1660:0.0077767 1661:0.0054206699 1662:0.00134454 1663:0.186562 1664:0.357555 1665:0.357555 1666:0.063206904 1667:0.0147885 1668:0.0058136201 1669:0.00229455 1670:0.0033581001 1671:0.0022863899 1672:0.25782299 1673:0.357555 1674:0.357555 1675:0.028793899 1676:0.0157838 1677:0.017982399 1678:0.0128478 1679:0.0216501 1680:0.0048862598 1681:0.064067401 1682:0.242652 1683:0.13341101 1684:0.0425064 1685:0.0080379704 1686:0.0085331099 1687:0.0042450102 1688:0.0050409599 1689:0.00134309 1690:0.19447801 1691:0.357555 1692:0.354094 1693:0.062124401 1694:0.0113314 1695:0.0064912001 1696:0.0041002301 1697:0.0041171098 1698:0.00155283 1699:0.15379301 1700:0.33984199 1701:0.27909699 1702:0.080672003 1703:0.0103063 1704:0.0110418 1705:0.046455201 1706:0.101131 1707:0.0079704402 1708:0.104866 1709:0.33984199 1710:0.243771 1711:0.0534674 1712:0.0058038998 1713:0.0065596001 1714:0.0058856201 1715:0.0040376498 1716:0.0015702799 1717:0.19716001 1718:0.33984199 1719:0.33984199 1720:0.086595699 1721:0.0081383502 1722:0.0075960602 1723:0.021506 1724:0.0184795 1725:0.00922326 1726:0.240949 1727:0.33984199 1728:0.33984199 1729:0.0427249 1730:0.0116283 1731:0.0212886 1732:0.13254701 1733:0.33946499 1734:0.032534 1735:0.043775499 1736:0.14966699 1737:0.164803 1738:0.0109131 1739:0.0136529 1740:0.017808201 1741:0.165429 1742:0.393071 1743:0.047581598 1744:0.0054267198 1745:0.0082881097 1746:0.0306252 1747:0.077840999 1748:0.0205309 1749:0.0211157 1750:0.0484033 1751:0.078326799 1752:0.0279692 1753:0.162104 1754:0.393071 1755:0.393071 1756:0.066771403 1757:0.078407899 1758:0.122583 1759:0.19567101 1760:0.393071 1761:0.057416499 1762:0.036646299 1763:0.169402 1764:0.13888399 #
-0.0035434108597360114249752438553287 1:0.136021 2:0.10548 3:0.20327701 4:0.105624 5:0.15730301 6:0.152077 7:0.12786099 8:0.163747 9:0.132165 10:0.093723901 11:0.11708 12:0.228503 13:0.109954 14:0.225155 15:0.183805 16:0.21811 17:0.146769 18:0.112323 19:0.110863 20:0.099008501 21:0.174704 22:0.105707 23:0.128199 24:0.22855499 25:0.184544 26:0.130367 27:0.110885 28:0.12471 29:0.15153401 30:0.21627501 31:0.082966201 32:0.107397 33:0.33523101 34:0.28086001 35:0.18306801 36:0.159577 37:0.061836399 38:0.113805 39:0.18406799 40:0.099397898 41:0.215479 42:0.18881699 43:0.196659 44:0.145262 45:0.061487701 46:0.12565701 47:0.12723599 48:0.173793 49:0.12564699 50:0.2225 51:0.130611 52:0.185525 53:0.130887 54:0.13410901 55:0.13557801 56:0.13548601 57:0.167695 58:0.072782502 59:0.132727 60:0.230434 61:0.24304099 62:0.20348801 63:0.120702 64:0.240633 65:0.148862 66:0.15616401 67:0.087191202 68:0.189927 69:0.116336 70:0.24879999 71:0.231732 72:0.19932599 73:0.089014001 74:0.0686628 75:0.093257703 76:0.096149102 77:0.24062701 78:0.080344699 79:0.092077903 80:0.050635699 81:0.081432097 82:0.099471897 83:0.10235 84:0.066114001 85:0.052408699 86:0.34270301 87:0.14249 88:0.066313803 89:0.094747901 90:0.081769802 91:0.15584201 92:0.13239101 93:0.0947657 94:0.089060999 95:0.171399 96:0.0873276 97:0.17587399 98:0.152033 99:0.132843 100:0.409722 101:0.33488199 102:0.077811398 103:0.070598699 104:0.156149 105:0.111874 106:0.202976 107:0.30846301 108:0.252327 109:0.042769998 110:0.032476299 111:0.028097 112:0.027913099 113:0.156948 114:0.0561883 115:0.028266201 116:0.0438108 117:0.0546478 118:0.064360298 119:0.0130763 120:0.05297 121:0.039338298 122:0.22156601 123:0.0612294 124:0.045737799 125:0.036839999 126:0.0744908 127:0.23841199 128:0.24524499 129:0.060520701 130:0.0265713 131:0.102424 132:0.114547 133:0.071231499 134:0.143093 135:0.16585501 136:0.40661201 137:0.50845701 138:0.20605899 139:0.059026901 140:0.216709 141:0.222592 142:0.131799 143:0.137018 144:0.29323301 145:0.02634 146:0.0246689 147:0.0276797 148:0.0195179 149:0.054946098 150:0.0139529 151:0.0112087 152:0.016125601 153:0.026267899 154:0.111401 155:0.252386 156:0.063805602 157:0.030125201 158:0.0475615 159:0.0191411 160:0.031897999 161:0.030219801 162:0.041108999 163:0.26344001 164:0.47068 165:0.14329 166:0.0206374 167:0.050951101 168:0.034827601 169:0.021634201 170:0.0358769 171:0.064694501 172:0.47068 173:0.47068 174:0.357934 175:0.049671698 176:0.0185655 177:0.0133512 178:0.019550299 179:0.0393188 180:0.0588305 181:0.107944 182:0.33577201 183:0.057510201 184:0.0105828 185:0.0131348 186:0.0079013202 187:0.018977899 188:0.0153221 189:0.022273799 190:0.21749599 191:0.41048101 192:0.115229 193:0.0114058 194:0.0123921 195:0.0062768101 196:0.011312 197:0.0160283 198:0.055105198 199:0.303763 200:0.41048101 201:0.193718 202:0.0257688 203:0.0024055501 204:0.0022688301 205:0.0106315 206:0.013718 207:0.058713101 208:0.34398699 209:0.41048101 210:0.163142 211:0.028243801 212:0.071858302 213:0.0150733 214:0.0106372 215:0.0235027 216:0.10455 217:0.287714 218:0.331285 219:0.081085503 220:0.0120981 221:0.0268468 222:0.0296693 223:0.032019101 224:0.0278151 225:0.086787 226:0.243626 227:0.214105 228:0.01839 229:0.049950302 230:0.28936699 231:0.20950601 232:0.128069 233:0.096226498 234:0.136039 235:0.220349 236:0.331285 237:0.078128003 238:0.095585898 239:0.302589 240:0.091362201 241:0.046569798 242:0.044351298 243:0.0914132 244:0.066803299 245:0.076526403 246:0.0200227 247:0.191315 248:0.331285 249:0.235691 250:0.073451199 251:0.030491799 252:0.042374201 253:0.0953485 254:0.098829702 255:0.135465 256:0.13246299 257:0.173428 258:0.13067199 259:0.15817399 260:0.103263 261:0.111459 262:0.20487501 263:0.17308301 264:0.12789699 265:0.0611233 266:0.112704 267:0.18580499 268:0.222186 269:0.212161 270:0.201644 271:0.097081698 272:0.0755141 273:0.12056 274:0.091790497 275:0.17495 276:0.0111695 277:0.048135899 278:0.064872898 279:0.115875 280:0.36314201 281:0.235836 282:0.287424 283:0.15310501 284:0.21988501 285:0.047571 286:0.114362 287:0.199737 288:0.28713101 289:0.0775332 290:0.0495083 291:0.033138301 292:0.0241448 293:0.056258101 294:0.052841101 295:0.070815898 296:0.067864701 297:0.060559198 298:0.112819 299:0.050114602 300:0.061815601 301:0.0457366 302:0.072409801 303:0.047234099 304:0.062554598 305:0.071800299 306:0.067566402 307:0.202452 308:0.285759 309:0.19367699 310:0.092542604 311:0.075962298 312:0.037049301 313:0.052685801 314:0.063354 315:0.093867399 316:0.48582199 317:0.55362499 318:0.33462301 319:0.110634 320:0.107617 321:0.110354 322:0.089192301 323:0.100006 324:0.15134899 325:0.0310273 326:0.03475 327:0.019895799 328:0.015931301 329:0.0144005 330:0.0074050501 331:0.0143073 332:0.0190893 333:0.018463301 334:0.13134301 335:0.28927699 336:0.0296306 337:0.0119423 338:0.0059864698 339:0.0068378202 340:0.016737901 341:0.026759 342:0.0443638 343:0.29529101 344:0.49109301 345:0.102107 346:0.0170983 347:0.0173363 348:0.023507999 349:0.0163274 350:0.022389799 351:0.063584402 352:0.49109301 353:0.49109301 354:0.205851 355:0.0100776 356:0.0041732299 357:0.0045696199 358:0.00382415 359:0.0108531 360:0.127914 361:0.103051 362:0.33111501 363:0.0250446 364:0.0044247801 365:0.0042117801 366:0.0098922905 367:0.0065524201 368:0.0125578 369:0.0238297 370:0.167731 371:0.412516 372:0.0623818 373:0.0087398803 374:0.0137349 375:0.020150101 376:0.0100512 377:0.0112688 378:0.032356799 379:0.301153 380:0.412516 381:0.14751001 382:0.0032907401 383:0.00028258501 384:0.0031548601 385:0.0051065302 386:0.0093170796 387:0.066145599 388:0.412516 389:0.412516 390:0.192718 391:0.020572901 392:0.0060202498 393:0.0114052 394:0.00715836 395:0.0082858996 396:0.068044901 397:0.18900301 398:0.35455 399:0.081120402 400:0.0074167498 401:0.0089783203 402:0.0072640502 403:0.0034818 404:0.0086319298 405:0.021535501 406:0.25435901 407:0.35455 408:0.14386199 409:0.0166521 410:0.00252034 411:0.0079852799 412:0.0075259702 413:0.017921301 414:0.0187116 415:0.35455 416:0.35455 417:0.143244 418:0.021445099 419:0.0119081 420:0.0070964601 421:0.00603713 422:0.064227 423:0.18361799 424:0.235759 425:0.35455 426:0.096866503 427:0.0413443 428:0.068548098 429:0.0285812 430:0.030533399 431:0.135452 432:0.296478 433:0.323194 434:0.37057599 435:0.210343 436:0.039929099 437:0.0083274003 438:0.0118748 439:0.018074101 440:0.0300199 441:0.049240299 442:0.25369799 443:0.37057599 444:0.109321 445:0.0579249 446:0.21285801 447:0.034835599 448:0.0135299 449:0.031380501 450:0.069142699 451:0.21122199 452:0.35939601 453:0.079370499 454:0.103041 455:0.119125 456:0.061971601 457:0.050393801 458:0.095468603 459:0.18588001 460:0.112974 461:0.0932163 462:0.0318483 463:0.13515501 464:0.34428301 465:0.071258701 466:0.029146699 467:0.0311266 468:0.119397 469:0.079189397 470:0.19154599 471:0.017940899 472:0.113131 473:0.42249101 474:0.092254199 475:0.0143688 476:0.0186738 477:0.0235468 478:0.0146599 479:0.018585701 480:0.0109892 481:0.201352 482:0.42249101 483:0.196703 484:0.015711701 485:0.0066044498 486:0.0103288 487:0.016225699 488:0.0127941 489:0.0079592103 490:0.145257 491:0.42249101 492:0.104048 493:0.0095655303 494:0.0064382199 495:0.0219623 496:0.0065793502 497:0.0118518 498:0.0090182396 499:0.246648 500:0.42249101 501:0.20364299 502:0.0096191196 503:0.000161599 504:0.0087354695 505:0.022698499 506:0.0340234 507:0.0046081999 508:0.0014197 509:0.0140861 510:0.00091926602 511:0.00098354195 512:0.00203334 513:0.0080755297 514:0.114746 515:0.346183 516:0.068034597 517:0.0213755 518:0.0350345 519:0.0080723297 520:0.0040553901 521:0.00863156 522:0.032423198 523:0.240775 524:0.52068502 525:0.108664 526:0.0066727698 527:0.0104087 528:0.0071785999 529:0.01463 530:0.0067006298 531:0.024998499 532:0.426505 533:0.52068502 534:0.218669 535:0.0277564 536:0.0246739 537:0.0096115796 538:0.0117659 539:0.0069010998 540:0.088486098 541:0.118478 542:0.387279 543:0.073890999 544:0.0173767 545:0.0102945 546:0.0042170901 547:0.0042338199 548:0.0057875798 549:0.0153467 550:0.21272001 551:0.414179 552:0.12062 553:0.0135529 554:0.0113694 555:0.0106131 556:0.0103364 557:0.0109596 558:0.027974101 559:0.276135 560:0.414179 561:0.163697 562:0.018299101 563:0.0060091 564:0.0037400201 565:0.00212707 566:0.00677509 567:0.038915802 568:0.34601501 569:0.414179 570:0.15229701 571:0.00694597 572:0.0057379799 573:0.00187248 574:0.0035691101 575:0.00975243 576:0.041108001 577:0.203886 578:0.36660701 579:0.083440401 580:0.0038803499 581:0.0055384301 582:0.00769069 583:0.0052376501 584:0.00557893 585:0.040502101 586:0.269676 587:0.36660701 588:0.210788 589:0.0145172 590:0.00150256 591:0.00104255 592:0.00057153398 593:0.00250345 594:0.0594486 595:0.170645 596:0.36660701 597:0.080778196 598:0.0292829 599:0.0205679 600:0.0053904499 601:0.00965124 602:0.0108717 603:0.039593801 604:0.114002 605:0.36660701 606:0.36660701 607:0.30244699 608:0.073555604 609:0.0313977 610:0.0351713 611:0.0257149 612:0.039849799 613:0.165392 614:0.33481601 615:0.234808 616:0.00664671 617:0.000130584 618:0.00090403599 619:0.00093648001 620:0.0030815499 621:0.033162899 622:0.33481601 623:0.33481601 624:0.171785 625:0.00858171 626:0.0033624501 627:0.0026120101 628:0.0033536199 629:0.0139647 630:0.062707096 631:0.056740802 632:0.33481601 633:0.33481601 634:0.186194 635:0.0232793 636:0.019522799 637:0.0173853 638:0.0097079799 639:0.0173488 640:0.215313 641:0.33481601 642:0.33481601 643:0.056079298 644:0.00776636 645:0.0083845798 646:0.0142639 647:0.0252448 648:0.067619003 649:0.27546 650:0.27546 651:0.172897 652:0.018993299 653:0.0180376 654:0.0051281499 655:0.0155282 656:0.105818 657:0.27546 658:0.157112 659:0.27546 660:0.211999 661:0.091298103 662:0.139695 663:0.026762599 664:0.042894799 665:0.155093 666:0.27546 667:0.26608801 668:0.27546 669:0.181041 670:0.017835001 671:0.0132806 672:0.0122496 673:0.042006802 674:0.093185 675:0.24052601 676:0.063663803 677:0.27546 678:0.246922 679:0.076842099 680:0.110365 681:0.048163101 682:0.0670956 683:0.0783033 684:0.177145 685:0.136437 686:0.138542 687:0.141111 688:0.138429 689:0.157858 690:0.0523628 691:0.078204803 692:0.095992804 693:0.153056 694:0.115155 695:0.051424999 696:0.048477899 697:0.091797002 698:0.19444001 699:0.063114896 700:0.20721 701:0.109688 702:0.106258 703:0.103433 704:0.14770301 705:0.193473 706:0.14529 707:0.243172 708:0.241119 709:0.31526199 710:0.143158 711:0.063063301 712:0.110741 713:0.054795299 714:0.076111503 715:0.081080399 716:0.31526199 717:0.31526199 718:0.31526199 719:0.235956 720:0.071758598 721:0.018051701 722:0.0109995 723:0.0024163299 724:0.115839 725:0.37717301 726:0.078988597 727:0.086840697 728:0.0299368 729:0.023257799 730:0.0062814201 731:0.0070057898 732:0.00295968 733:0.178397 734:0.37717301 735:0.141334 736:0.00940054 737:0.0023072099 738:0.0106499 739:0.016517499 740:0.0083082505 741:0.00294831 742:0.097841702 743:0.37717301 744:0.37717301 745:0.37119299 746:0.056467202 747:0.0147505 748:0.0057708099 749:0.0043350002 750:0.0067861602 751:0.15175401 752:0.37717301 753:0.169407 754:0.0270936 755:0.0043146699 756:0.0068282802 757:0.14310101 758:0.38594201 759:0.12315 760:0.021045901 761:0.055215299 762:0.0591553 763:0.048395 764:0.101506 765:0.025774799 766:0.21242701 767:0.38594201 768:0.130073 769:0.017168101 770:0.032692701 771:0.067886397 772:0.0407313 773:0.157664 774:0.0846292 775:0.055048902 776:0.209208 777:0.0589987 778:0.025300199 779:0.079207502 780:0.076499403 781:0.13549601 782:0.38594201 783:0.105634 784:0.094779097 785:0.26227099 786:0.0492521 787:0.0138929 788:0.0496465 789:0.087291799 790:0.127627 791:0.38594201 792:0.208266 793:0.274023 794:0.38981599 795:0.19727901 796:0.020826301 797:0.0140541 798:0.0310467 799:0.0199473 800:0.149078 801:0.092836998 802:0.21183001 803:0.38981599 804:0.112195 805:0.0213385 806:0.031261701 807:0.0186089 808:0.0092321597 809:0.036723301 810:0.053190202 811:0.093998298 812:0.18737601 813:0.057139799 814:0.0092254896 815:0.0207307 816:0.0404111 817:0.104648 818:0.38981599 819:0.25527501 820:0.042545099 821:0.039834 822:0.0267483 823:0.0212547 824:0.0439399 825:0.031913798 826:0.086164303 827:0.38981599 828:0.19370601 829:0.091422401 830:0.26757401 831:0.047325999 832:0.072220303 833:0.079924099 834:0.0243547 835:0.035902102 836:0.0228195 837:0.0338553 838:0.130732 839:0.152725 840:0.296918 841:0.296918 842:0.25779 843:0.10864 844:0.156895 845:0.138707 846:0.2349 847:0.0313254 848:0.019101299 849:0.0187198 850:0.052875299 851:0.090707801 852:0.043113001 853:0.074539401 854:0.266074 855:0.080494098 856:0.234723 857:0.125405 858:0.138956 859:0.204522 860:0.296918 861:0.202546 862:0.122925 863:0.20936801 864:0.296918 865:0.111773 866:0.193251 867:0.312846 868:0.312846 869:0.0926136 870:0.055645902 871:0.073045403 872:0.073233597 873:0.190797 874:0.0910822 875:0.27224401 876:0.312846 877:0.189261 878:0.0448297 879:0.0217006 880:0.023415601 881:0.0241332 882:0.087271802 883:0.216159 884:0.111639 885:0.152235 886:0.144913 887:0.14131799 888:0.143318 889:0.109137 890:0.20507701 891:0.312846 892:0.0863778 893:0.0502997 894:0.0718031 895:0.089783996 896:0.067986198 897:0.122553 898:0.14709 899:0.153512 900:0.28533399 901:0.197954 902:0.297497 903:0.25726801 904:0.104896 905:0.075827397 906:0.0928507 907:0.114047 908:0.118912 909:0.297497 910:0.078880303 911:0.219696 912:0.18765 913:0.105208 914:0.157407 915:0.17246 916:0.21334501 917:0.146079 918:0.226879 919:0.102256 920:0.122248 921:0.039542001 922:0.102439 923:0.144749 924:0.14946499 925:0.15211201 926:0.13561399 927:0.146644 928:0.160955 929:0.17971399 930:0.121421 931:0.180843 932:0.249228 933:0.194023 934:0.107187 935:0.090185799 936:0.140322 937:0.0257398 938:0.028043101 939:0.034696799 940:0.0593029 941:0.172416 942:0.234054 943:0.203935 944:0.062912703 945:0.0160829 946:0.0214379 947:0.0107675 948:0.0273102 949:0.148729 950:0.324332 951:0.324332 952:0.324332 953:0.071961902 954:0.0089096297 955:0.052859001 956:0.099062897 957:0.119406 958:0.176374 959:0.22225 960:0.179994 961:0.039827298 962:0.015722301 963:0.0256061 964:0.036678798 965:0.121887 966:0.19745199 967:0.324332 968:0.324332 969:0.324332 970:0.053532701 971:0.0054837898 972:0.0094786398 973:0.00981359 974:0.00376419 975:0.0143603 976:0.14144699 977:0.36644301 978:0.36644301 979:0.182292 980:0.0163485 981:0.00191123 982:0.0071238298 983:0.0062384298 984:0.017077301 985:0.119558 986:0.36644301 987:0.13389 988:0.015057 989:0.0037503501 990:0.00165861 991:0.00948969 992:0.0325366 993:0.074005403 994:0.36644301 995:0.36644301 996:0.243448 997:0.0231022 998:0.00585037 999:0.00141312 1000:0.0084604397 1001:0.0161881 1002:0.0254345 1003:0.14871199 1004:0.36644301 1005:0.119261 1006:0.0094927102 1007:0.0106262 1008:0.0014203 1009:0.0299956 1010:0.0061903899 1011:0.0051966598 1012:0.0121435 1013:0.034549002 1014:0.026658799 1015:0.12508599 1016:0.467338 1017:0.199522 1018:0.0542018 1019:0.0100552 1020:0.017454199 1021:0.0091920104 1022:0.0235657 1023:0.023332899 1024:0.176783 1025:0.467338 1026:0.425192 1027:0.0212247 1028:0.0140956 1029:0.0088752899 1030:0.0071594599 1031:0.0154843 1032:0.0155594 1033:0.047557902 1034:0.135369 1035:0.0671321 1036:0.036123998 1037:0.025730301 1038:0.0182388 1039:0.0140803 1040:0.0167748 1041:0.0095536802 1042:0.068711497 1043:0.467338 1044:0.176439 1045:0.0235998 1046:0.0048761801 1047:0.00602359 1048:0.00233251 1049:0.0094226701 1050:0.0061536198 1051:0.106583 1052:0.40500799 1053:0.24570701 1054:0.0535792 1055:0.00776318 1056:0.00298568 1057:0.0055782902 1058:0.019718399 1059:0.00709337 1060:0.136848 1061:0.40500799 1062:0.24947999 1063:0.033477601 1064:0.0059541999 1065:0.0045889802 1066:0.0052450099 1067:0.0071199602 1068:0.0080867298 1069:0.084207997 1070:0.40500799 1071:0.17208 1072:0.087996997 1073:0.0087367203 1074:0.0024057501 1075:0.00291734 1076:0.0135027 1077:0.0103429 1078:0.174098 1079:0.40500799 1080:0.326361 1081:0.038284302 1082:0.0109799 1083:0.0066505601 1084:0.0162379 1085:0.039944299 1086:0.0249286 1087:0.080517903 1088:0.34844199 1089:0.136951 1090:0.098265298 1091:0.054362498 1092:0.034574699 1093:0.068248302 1094:0.23936599 1095:0.254567 1096:0.088806301 1097:0.34844199 1098:0.26351401 1099:0.059114601 1100:0.0130682 1101:0.00200371 1102:0.0031244601 1103:0.0175862 1104:0.0113395 1105:0.144391 1106:0.34844199 1107:0.26644501 1108:0.109319 1109:0.027386799 1110:0.0136471 1111:0.016028199 1112:0.092670098 1113:0.13129 1114:0.19380701 1115:0.34844199 1116:0.30189899 1117:0.080631398 1118:0.032652698 1119:0.0160884 1120:0.0315722 1121:0.109223 1122:0.17883299 1123:0.167518 1124:0.28446999 1125:0.28942001 1126:0.050526999 1127:0.0109803 1128:0.0026910701 1129:0.0129301 1130:0.025632899 1131:0.119345 1132:0.25787601 1133:0.31264499 1134:0.26103401 1135:0.061440501 1136:0.0111724 1137:0.0090650199 1138:0.0089649996 1139:0.044108201 1140:0.089542203 1141:0.25090799 1142:0.31264499 1143:0.199209 1144:0.0765706 1145:0.0101509 1146:0.0095589804 1147:0.0036140899 1148:0.0048357602 1149:0.0465733 1150:0.28825399 1151:0.31264499 1152:0.31264499 1153:0.17473 1154:0.026674001 1155:0.0069330898 1156:0.0137733 1157:0.024105201 1158:0.039133299 1159:0.082960799 1160:0.190796 1161:0.27557701 1162:0.30715501 1163:0.047683001 1164:0.0225123 1165:0.0433551 1166:0.080681503 1167:0.084596999 1168:0.088646799 1169:0.060872398 1170:0.20633499 1171:0.33137599 1172:0.0503163 1173:0.0138573 1174:0.0126339 1175:0.00352793 1176:0.0149596 1177:0.082391597 1178:0.33137599 1179:0.33137599 1180:0.33137599 1181:0.24049 1182:0.0264649 1183:0.063771904 1184:0.065535501 1185:0.089930803 1186:0.13795599 1187:0.155191 1188:0.33137599 1189:0.13714901 1190:0.12519699 1191:0.118575 1192:0.126506 1193:0.191108 1194:0.25349501 1195:0.13531999 1196:0.042943802 1197:0.082072496 1198:0.108431 1199:0.25349501 1200:0.25349501 1201:0.25349501 1202:0.25349501 1203:0.25349501 1204:0.071132101 1205:0.0156727 1206:0.033027001 1207:0.25349501 1208:0.218927 1209:0.073279403 1210:0.068779603 1211:0.12850299 1212:0.237582 1213:0.19754 1214:0.072879903 1215:0.124031 1216:0.16393501 1217:0.20524999 1218:0.20342401 1219:0.084093302 1220:0.211697 1221:0.18743999 1222:0.088905603 1223:0.039491601 1224:0.062923297 1225:0.046891998 1226:0.135837 1227:0.15467501 1228:0.351612 1229:0.38428101 1230:0.17703 1231:0.017929399 1232:0.0043180301 1233:0.0089472197 1234:0.0051524602 1235:0.022721499 1236:0.024697401 1237:0.15399399 1238:0.38428101 1239:0.14887901 1240:0.016164299 1241:0.00459712 1242:0.00127554 1243:0.071232699 1244:0.112998 1245:0.122454 1246:0.16302299 1247:0.38428101 1248:0.16002899 1249:0.0176176 1250:0.0095122699 1251:0.019983601 1252:0.0069915699 1253:0.0154278 1254:0.018722899 1255:0.188274 1256:0.38428101 1257:0.18977199 1258:0.0163018 1259:0.00069185899 1260:0.0023217599 1261:0.093888797 1262:0.0833712 1263:0.072712399 1264:0.0290966 1265:0.238058 1266:0.237866 1267:0.246204 1268:0.24160101 1269:0.13287801 1270:0.197299 1271:0.18637501 1272:0.11002 1273:0.061922099 1274:0.172077 1275:0.102545 1276:0.164819 1277:0.22958601 1278:0.264494 1279:0.103904 1280:0.082353801 1281:0.14463501 1282:0.057894401 1283:0.204998 1284:0.313297 1285:0.196318 1286:0.186112 1287:0.112291 1288:0.207128 1289:0.120735 1290:0.114757 1291:0.085263103 1292:0.151742 1293:0.129164 1294:0.069933198 1295:0.15087999 1296:0.16770101 1297:0.103905 1298:0.0302175 1299:0.0170715 1300:0.0137314 1301:0.0259794 1302:0.0316521 1303:0.113259 1304:0.31025699 1305:0.25812 1306:0.214048 1307:0.0475582 1308:0.0244711 1309:0.0096317399 1310:0.0204206 1311:0.051504299 1312:0.307964 1313:0.55059701 1314:0.55059701 1315:0.071939103 1316:0.037459198 1317:0.0269897 1318:0.0267956 1319:0.043814301 1320:0.0220349 1321:0.0195358 1322:0.033601899 1323:0.0624348 1324:0.104188 1325:0.042388801 1326:0.035786401 1327:0.039938498 1328:0.051283199 1329:0.025600901 1330:0.032457501 1331:0.077603303 1332:0.100993 1333:0.051154099 1334:0.017543601 1335:0.00656544 1336:0.0032015301 1337:0.0096438602 1338:0.0108498 1339:0.13883799 1340:0.44380501 1341:0.29047 1342:0.107429 1343:0.027450999 1344:0.025841201 1345:0.00549684 1346:0.0170935 1347:0.0080930404 1348:0.21145201 1349:0.44380501 1350:0.44380501 1351:0.0390963 1352:0.0117289 1353:0.0080266101 1354:0.0112123 1355:0.021474799 1356:0.0189522 1357:0.015740599 1358:0.080403499 1359:0.062485199 1360:0.031386599 1361:0.0161789 1362:0.0145882 1363:0.0127089 1364:0.026590001 1365:0.0278021 1366:0.0497787 1367:0.44380501 1368:0.154732 1369:0.0500446 1370:0.00842671 1371:0.0131383 1372:0.0026501601 1373:0.0045999698 1374:0.0042459099 1375:0.153431 1376:0.407873 1377:0.204345 1378:0.054738801 1379:0.0066412198 1380:0.0141057 1381:0.0012638 1382:0.00025997899 1383:0.0086216303 1384:0.16201 1385:0.407873 1386:0.40561399 1387:0.018173 1388:0.0100513 1389:0.0085122203 1390:0.00778405 1391:0.0093674697 1392:0.0053193402 1393:0.041295201 1394:0.407873 1395:0.105946 1396:0.020266 1397:0.0106364 1398:0.0057682102 1399:0.0028137099 1400:0.0103736 1401:0.00189011 1402:0.0516067 1403:0.407873 1404:0.226621 1405:0.236918 1406:0.0290202 1407:0.0107578 1408:0.0052545001 1409:0.00131895 1410:0.00300573 1411:0.055058401 1412:0.34038001 1413:0.34038001 1414:0.34038001 1415:0.16277 1416:0.0190765 1417:0.029889001 1418:0.0189247 1419:0.0217498 1420:0.063462399 1421:0.34038001 1422:0.26567101 1423:0.016921701 1424:0.0118951 1425:0.00556642 1426:0.0023552401 1427:0.0078307698 1428:0.000388863 1429:0.0681329 1430:0.34038001 1431:0.21849599 1432:0.048527401 1433:0.024825601 1434:0.0102565 1435:0.0158423 1436:0.011405 1437:0.00064438698 1438:0.124327 1439:0.34038001 1440:0.25744 1441:0.30695999 1442:0.25296399 1443:0.0695467 1444:0.060064498 1445:0.0611514 1446:0.073808499 1447:0.113783 1448:0.25046501 1449:0.145298 1450:0.090406202 1451:0.058976602 1452:0.079248101 1453:0.061008599 1454:0.25356799 1455:0.080262899 1456:0.052956302 1457:0.070784003 1458:0.060823601 1459:0.101598 1460:0.028508 1461:0.019104499 1462:0.037144698 1463:0.018482801 1464:0.0023724299 1465:0.238805 1466:0.35432899 1467:0.35432899 1468:0.067192398 1469:0.030874001 1470:0.031386901 1471:0.0623722 1472:0.221591 1473:0.053627402 1474:0.165251 1475:0.35432899 1476:0.288762 1477:0.021531601 1478:0.015695199 1479:0.024131401 1480:0.104585 1481:0.43204901 1482:0.13731 1483:0.0112087 1484:0.01069 1485:0.0112255 1486:0.00263102 1487:0.0066080401 1488:0.0094063897 1489:0.17493699 1490:0.43204901 1491:0.159398 1492:0.0116769 1493:0.0058125802 1494:0.00256242 1495:0.0196764 1496:0.0185029 1497:0.0150987 1498:0.118004 1499:0.43204901 1500:0.153983 1501:0.0320892 1502:0.166749 1503:0.080081202 1504:0.0069056898 1505:0.0059454502 1506:0.0092137698 1507:0.208921 1508:0.43204901 1509:0.20725 1510:0.0132447 1511:0.01952 1512:0.0086609796 1513:0.15343501 1514:0.097782299 1515:0.17203499 1516:0.071755402 1517:0.116212 1518:0.12464 1519:0.121315 1520:0.18610799 1521:0.126883 1522:0.167697 1523:0.104052 1524:0.25270101 1525:0.199127 1526:0.167944 1527:0.120149 1528:0.067611098 1529:0.205856 1530:0.180748 1531:0.109841 1532:0.059936699 1533:0.158224 1534:0.053510301 1535:0.230726 1536:0.0649141 1537:0.16148099 1538:0.089513898 1539:0.105838 1540:0.070822902 1541:0.045619301 1542:0.42011699 1543:0.24080899 1544:0.27918899 1545:0.141969 1546:0.19357599 1547:0.153721 1548:0.130989 1549:0.10998 1550:0.061279599 1551:0.129179 1552:0.20602401 1553:0.182163 1554:0.086865403 1555:0.052477501 1556:0.097340301 1557:0.112979 1558:0.137321 1559:0.052960198 1560:0.102286 1561:0.22262201 1562:0.22751901 1563:0.14785901 1564:0.085306197 1565:0.14099699 1566:0.115237 1567:0.072364502 1568:0.0439904 1569:0.239604 1570:0.257548 1571:0.26001599 1572:0.12966201 1573:0.14338601 1574:0.091934502 1575:0.0933218 1576:0.195151 1577:0.157866 1578:0.113093 1579:0.24365801 1580:0.36172301 1581:0.249571 1582:0.158334 1583:0.151765 1584:0.164021 1585:0.167134 1586:0.057645898 1587:0.111458 1588:0.148258 1589:0.20566501 1590:0.214338 1591:0.087392598 1592:0.123855 1593:0.183788 1594:0.131898 1595:0.125036 1596:0.215624 1597:0.142039 1598:0.243986 1599:0.229435 1600:0.14613999 1601:0.21774 1602:0.22318301 1603:0.109975 1604:0.089563198 1605:0.111092 1606:0.17769299 1607:0.29817101 1608:0.239033 1609:0.121616 1610:0.093830399 1611:0.087319002 1612:0.0208811 1613:0.033476401 1614:0.161972 1615:0.19927099 1616:0.297223 1617:0.161513 1618:0.16156401 1619:0.035967801 1620:0.0256464 1621:0.048682299 1622:0.061645299 1623:0.070590198 1624:0.045537598 1625:0.127804 1626:0.0394358 1627:0.058394101 1628:0.36322799 1629:0.127224 1630:0.077546202 1631:0.069052704 1632:0.037470501 1633:0.018996401 1634:0.216711 1635:0.00591905 1636:0.083608001 1637:0.58726603 1638:0.51598197 1639:0.0091745099 1640:0.0099037299 1641:0.0402398 1642:0.048788399 1643:0.176145 1644:0.0283197 1645:0.0265004 1646:0.0068510198 1647:0.0082776304 1648:0.018914901 1649:0.016267199 1650:0.017703099 1651:0.018247001 1652:0.307722 1653:0.0149981 1654:0.0083082598 1655:0.021110799 1656:0.017445499 1657:0.025510199 1658:0.0161197 1659:0.0079637403 1660:0.0039117201 1661:0.044665001 1662:0.00165895 1663:0.094495602 1664:0.44740099 1665:0.266541 1666:0.066173904 1667:0.0276467 1668:0.0136989 1669:0.0241432 1670:0.033892602 1671:0.0061416002 1672:0.240226 1673:0.44740099 1674:0.44740099 1675:0.0159097 1676:0.0090465397 1677:0.0078532696 1678:0.0042812498 1679:0.069103703 1680:0.0156818 1681:0.011061 1682:0.080654599 1683:0.031663701 1684:0.035311501 1685:0.021212701 1686:0.015844399 1687:0.0112459 1688:0.041122001 1689:0.041281998 1690:0.057180099 1691:0.44740099 1692:0.159012 1693:0.0682768 1694:0.0101242 1695:0.0151687 1696:0.027287999 1697:0.0148259 1698:0.00158028 1699:0.17728101 1700:0.39740801 1701:0.27338001 1702:0.068446301 1703:0.0229553 1704:0.033947099 1705:0.062961601 1706:0.077806696 1707:0.0139753 1708:0.158601 1709:0.39740801 1710:0.298565 1711:0.029253701 1712:0.0081535503 1713:0.010817 1714:0.013953 1715:0.0125566 1716:0.0100411 1717:0.068724804 1718:0.39740801 1719:0.14797901 1720:0.049732599 1721:0.012124 1722:0.0253301 1723:0.039661098 1724:0.0210726 1725:0.00188016 1726:0.131806 1727:0.39740801 1728:0.26557201 1729:0.0555696 1730:0.037594602 1731:0.044042598 1732:0.144494 1733:0.271947 1734:0.080490701 1735:0.0586996 1736:0.32618001 1737:0.15482099 1738:0.0290328 1739:0.022610201 1740:0.050448898 1741:0.253874 1742:0.32618001 1743:0.157745 1744:0.014733 1745:0.048574898 1746:0.024887901 1747:0.090649404 1748:0.046925198 1749:0.0595592 1750:0.0871282 1751:0.042308498 1752:0.0110804 1753:0.113369 1754:0.32618001 1755:0.28792101 1756:0.109702 1757:0.14368799 1758:0.158133 1759:0.26980799 1760:0.32618001 1761:0.0772027 1762:0.033821899 1763:0.20300101 1764:0.203833 #
-0.00012055521789166006446647472216682 1:0 2:0 3:0 4:0 5:0 6:0 7:0 8:0 9:0 10:0 11:0 12:0 13:0 14:0 15:0 16:0 17:0 18:0 19:0.26742801 20:0 21:0 22:0 23:0 24:0 25:0 26:0 27:0.26742801 28:0.466344 29:0.077311397 30:0.060115699 31:0 32:0 33:0 34:0 35:0 36:0.454393 37:0.011123 38:0.0158302 39:0.047369901 40:0 41:0.136443 42:0 43:0.00143709 44:0.000480252 45:0.011123 46:0.181669 47:0.042102698 48:0.12598699 49:0 50:0.22584 51:0 52:0.00373991 53:0.0031050099 54:0.182051 55:0.073485002 56:0.029286999 57:0.039109599 58:0 59:0.239228 60:0 61:0.0215564 62:0.0072037899 63:0.067112297 64:0.55416 65:0.0991349 66:0.083724298 67:0 68:0.42309701 69:0 70:0.075800903 71:0.0531932 72:0.48850301 73:0.139291 74:0.0066998401 75:0.0200484 76:0 77:0.0251684 78:0 79:0.0052913702 80:0.00428756 81:0.139809 82:0.13922399 83:0.0246695 84:0.070521601 85:0 86:0.0416715 87:0.0168152 88:0.037053701 89:0.0123673 90:0.137918 91:0.32517201 92:0.101725 93:0.061868299 94:0 95:0.079049103 96:0 97:0.073366001 98:0.064736404 99:0.25691801 100:0.42933801 101:0.543549 102:0.264411 103:0.056915499 104:0.19409899 105:0.094486997 106:0.12625401 107:0.084632799 108:0.27419499 109:0.018662101 110:0.018321 111:0.032457899 112:0.00173865 113:0.0088975299 114:0.0054961802 115:0.0064363899 116:0.0051708501 117:0.016359599 118:0.044256501 119:0.082970001 120:0.036063701 121:0.00889144 122:0.010777 123:0.0119463 124:0.0142542 125:0.031127 126:0.0300689 127:0.132745 128:0.51737303 129:0.107363 130:0.018581601 131:0.051255599 132:0.037652198 133:0.0206798 134:0.0084832003 135:0.039654899 136:0.38733301 137:0.66045201 138:0.27749699 139:0.0253815 140:0.051164102 141:0.038927902 142:0.0246883 143:0.045105498 144:0.068764403 145:0.0343276 146:0.15279 147:0.021630101 148:0.0066811899 149:0.0020534699 150:0.00174387 151:0.0042741899 152:0.0088852504 153:0.014746 154:0.115361 155:0.517748 156:0.078006297 157:0.0090118302 158:0.00191763 159:0.00061873399 160:0.00250405 161:0.0097217299 162:0.0415265 163:0.15022101 164:0.517748 165:0.122005 166:0.0060590901 167:0.0036823801 168:0.0044010999 169:0.0109757 170:0.0139999 171:0.035170902 172:0.23881701 173:0.517748 174:0.203665 175:0.0025875201 176:0.00103688 177:0.0077606202 178:0.0151783 179:0.0166653 180:0.076266997 181:0.103603 182:0.45939901 183:0.092787102 184:0.0072268802 185:0.00387683 186:0.00123831 187:0.00146948 188:0.0061779199 189:0.022519501 190:0.16487101 191:0.45939901 192:0.138998 193:0.0055457102 194:0.0104493 195:0.0056167399 196:0.0021758201 197:0.00556086 198:0.024964601 199:0.147182 200:0.45939901 201:0.13706701 202:0.0021871501 203:0.0039168899 204:0.0082862005 205:0.0049715601 206:0.0107273 207:0.0393815 208:0.15758 209:0.45939901 210:0.124072 211:0.00362984 212:0.0209867 213:0.0110466 214:0.0040768199 215:0.0052822498 216:0.029237101 217:0.181776 218:0.398929 219:0.089662902 220:0.00461976 221:0.082354702 222:0.043510702 223:0.0068548899 224:0.035371799 225:0.062179901 226:0.121617 227:0.23388 228:0.0384892 229:0.0172491 230:0.398929 231:0.14840101 232:0.039403599 233:0.070740402 234:0.079339102 235:0.108041 236:0.398929 237:0.0542279 238:0.0062648202 239:0.38804701 240:0.074225597 241:0.00594611 242:0.0241776 243:0.039555401 244:0.0357306 245:0.084260903 246:0.0078776702 247:0.0144415 248:0.398929 249:0.123575 250:0.0051437202 251:0.026952701 252:0.027457301 253:0.062921703 254:0.0066384301 255:0.0198646 256:0 257:0.065067098 258:0 259:0.0015446499 260:0.00051619502 261:0.062921703 262:0.105556 263:0.0165016 264:0.0284888 265:0.0103793 266:0.128069 267:0 268:0.0231697 269:0.00774292 270:0.103745 271:0.176788 272:0.0250836 273:0.063508302 274:0.0131101 275:0.30106801 276:0.0039241598 277:0.0078853304 278:0.018229701 279:0.183204 280:0.556934 281:0.28281 282:0.129914 283:0.071244203 284:0.49746001 285:0.0086331395 286:0.039119601 287:0.086694203 288:0.31589901 289:0.01533 290:0.0111315 291:0.0148996 292:0.0053245798 293:0.0301388 294:0 295:0.0033189901 296:0.0011059101 297:0.0126609 298:0.089267597 299:0.058435999 300:0.031580999 301:0.0098058302 302:0.0315562 303:0 304:0.0082783503 305:0.0042983899 306:0.0598181 307:0.180204 308:0.35652399 309:0.074845299 310:0.0133341 311:0.080506504 312:0.000241923 313:0.0047502499 314:0.0060912999 315:0.035511602 316:0.49885899 317:0.66309601 318:0.32098201 319:0.018417301 320:0.067656502 321:4.56868e-05 322:0.0149588 323:0.0058526001 324:0.068022802 325:0.048482001 326:0.087875903 327:0.013839 328:0.0020979501 329:0.0029541601 330:0 331:0.00317105 332:0.0025798499 333:0.0196309 334:0.111994 335:0.49632099 336:0.054303601 337:0.0037709901 338:0.0058521298 339:0.00216503 340:0.0037130199 341:0.00426707 342:0.0254742 343:0.21786 344:0.49632099 345:0.13039599 346:0.0056855502 347:0.0051295101 348:0.00041025499 349:0.0044599902 350:0.0035491099 351:0.028609101 352:0.333202 353:0.49632099 354:0.224492 355:0.015691699 356:0.00097836903 357:0.00089247403 358:0.0056498498 359:0.0105971 360:0.044126399 361:0.084785096 362:0.39399701 363:0.0636627 364:0.0038197699 365:0.0062804301 366:0.0041052899 367:0.0024753499 368:0.0020474701 369:0.0161331 370:0.135657 371:0.39399701 372:0.12531701 373:0.00378245 374:0.0056593302 375:0.0037531301 376:0.00301986 377:0.0079344697 378:0.030768801 379:0.200188 380:0.39399701 381:0.148637 382:0.023015 383:0.0036258399 384:0.0113894 385:0.0065700002 386:0.022233199 387:0.067304999 388:0.39399701 389:0.39399701 390:0.249942 391:0.0532897 392:0.057350598 393:0.113726 394:0.041776001 395:0.066974796 396:0.13211399 397:0.110638 398:0.35718 399:0.077872999 400:0.00147904 401:0.00131489 402:0.00108328 403:0.00509131 404:0.00750549 405:0.0421069 406:0.123168 407:0.35718 408:0.067867197 409:0.00210463 410:0.00266516 411:0.0065905401 412:0.0078571504 413:0.0082644597 414:0.083814196 415:0.35718 416:0.35718 417:0.126634 418:0.0202138 419:0.030724499 420:0.063142903 421:0.023850599 422:0.033012699 423:0.242658 424:0.35718 425:0.27072501 426:0.029415 427:0.0025322 428:0.0049442602 429:0.0096851801 430:0.0082302801 431:0.165979 432:0.35718 433:0.123829 434:0.39391699 435:0.073641904 436:0.0035759001 437:0.0093947602 438:0.0158669 439:0.00784411 440:0.0175156 441:0.086421199 442:0.0756822 443:0.39059299 444:0.0419439 445:0.0075027002 446:0.0339063 447:0.0143213 448:0.0101237 449:0.0106316 450:0.026978301 451:0.24983799 452:0.125341 453:0.0137369 454:0.00557 455:0.0109339 456:0.0123432 457:0.059895098 458:0.39391699 459:0.39391699 460:0.0281322 461:0.016364301 462:0.0076965499 463:0.0133648 464:0.042626899 465:0.0151586 466:0.177264 467:0.39391699 468:0.25895199 469:0.0300528 470:0.112411 471:0.0140796 472:0.0111344 473:0.485618 474:0.033900399 475:0.0069296602 476:0.0041475901 477:0.0089453002 478:0.0041489899 479:0.0102808 480:0.00107377 481:0.013042 482:0.485618 483:0.0612594 484:0.00102988 485:0.00060557597 486:0.0023070001 487:0.0113157 488:0.00284777 489:0.0031546 490:0.019978801 491:0.485618 492:0.035794199 493:0.084089503 494:0.137817 495:0.022254899 496:0.0019284 497:0.00049212901 498:0.00057313999 499:0.022898201 500:0.485618 501:0.060884502 502:0.0034384399 503:0.0020135399 504:0.0013906501 505:0.0272898 506:0.046306301 507:0.0136833 508:0.0093010804 509:0.0116137 510:0.00251875 511:0.0037652799 512:0.0095909704 513:0.0145696 514:0.114106 515:0.44036001 516:0.043585099 517:0.017797001 518:0.014569 519:0.00249133 520:0.0049565602 521:0.0121775 522:0.0209959 523:0.15030301 524:0.53425097 525:0.190273 526:0.047992799 527:0.0188886 528:0.0115889 529:0.010978 530:0.029070299 531:0.032706998 532:0.31129801 533:0.53425097 534:0.206494 535:0.0486008 536:0.018197101 537:0.0070512001 538:0.0111318 539:0.023080099 540:0.060316399 541:0.113825 542:0.45313701 543:0.0552531 544:0.0052740201 545:0.0080319997 546:0.0024002499 547:0.0030625099 548:0.00181859 549:0.0118433 550:0.179832 551:0.45313701 552:0.12879901 553:0.00249372 554:0.0072879102 555:0.0031202701 556:0.0125847 557:0.0041685901 558:0.015733 559:0.181905 560:0.45313701 561:0.11293 562:0.0088481503 563:0.0141394 564:0.0071281702 565:0.00773359 566:0.00411611 567:0.033349302 568:0.19219901 569:0.45313701 570:0.150491 571:0.0059483298 572:0.0117485 573:0.0128302 574:0.02279 575:0.0080810497 576:0.024248401 577:0.152513 578:0.361361 579:0.098189697 580:0.0044395602 581:0.0036675199 582:0.0019628899 583:0.00808632 584:0.0054888101 585:0.0124205 586:0.17129201 587:0.361361 588:0.29027 589:0.081148997 590:0.0151828 591:0.00340552 592:0.0052851802 593:0.0076830299 594:0.0205708 595:0.108422 596:0.361361 597:0.077147096 598:0.0305192 599:0.0305376 600:0.0129295 601:0.0142 602:0.0071255802 603:0.0133535 604:0.085544698 605:0.355766 606:0.361361 607:0.361361 608:0.18500499 609:0.028490299 610:0.0087054698 611:0.0071144998 612:0.0116702 613:0.138809 614:0.28720301 615:0.28720301 616:0.110349 617:0.0258229 618:0.017559599 619:0.0148193 620:0.0303111 621:0.079291001 622:0.27182701 623:0.28720301 624:0.231059 625:0.12463 626:0.139047 627:0.141344 628:0.079764597 629:0.105903 630:0.17016201 631:0.069602497 632:0.168075 633:0.28720301 634:0.28720301 635:0.13555001 636:0.023619801 637:0.0117155 638:0.019621 639:0.036042199 640:0.119931 641:0.19482499 642:0.28720301 643:0.28720301 644:0.168199 645:0.066138498 646:0.0473244 647:0.0583499 648:0.082047597 649:0.361164 650:0.235608 651:0.092851304 652:0.0518867 653:0.105678 654:0.12931199 655:0.071889803 656:0.085098699 657:0.350079 658:0.361164 659:0.063254602 660:0.0058634998 661:0.00220955 662:0.0030488099 663:0.012461 664:0.0211934 665:0.32043999 666:0.361164 667:0.236201 668:0.0813912 669:0.065252401 670:0.0540113 671:0.093204498 672:0.046278499 673:0.039244 674:0.046352301 675:0.13361 676:0.204303 677:0.0144829 678:0.00175956 679:0.0040265699 680:0.00461363 681:0.0087389201 682:0.0193546 683:0.146585 684:0.31964099 685:0.0823633 686:0.0022899699 687:0.00042742901 688:0.00124724 689:0.0011878 690:0.0041655302 691:0.132359 692:0.33549699 693:0.33549699 694:0.00620843 695:0.0021715399 696:0.0037110001 697:0.00467761 698:0.0098451003 699:0.044997599 700:0.33549699 701:0.33549699 702:0.12892801 703:0.0283262 704:0.0033567599 705:0.0035005901 706:0.0052844398 707:0.0102294 708:0.031076601 709:0.202786 710:0.31132001 711:0.168556 712:0.0086311996 713:0.0079782503 714:0.0207508 715:0.0145845 716:0.089111403 717:0.31416801 718:0.33549699 719:0.33549699 720:0.048434898 721:0.0055105402 722:0.00183023 723:0.00349279 724:0.023437001 725:0.25731701 726:0.103259 727:0.35294801 728:0.22545201 729:0.0141908 730:0.0013164399 731:0.00161971 732:0.00077746599 733:0.032113001 734:0.35294801 735:0.072596997 736:0.049326401 737:0.00467083 738:0.00108245 739:0.016012801 740:0.0143605 741:0.058034401 742:0.066382103 743:0.314475 744:0.35294801 745:0.35294801 746:0.19355799 747:0.036068901 748:0.0094623296 749:0.0100882 750:0.034739401 751:0.086789697 752:0.35294801 753:0.171756 754:0.22735199 755:0.0138931 756:0.0118282 757:0.073654696 758:0.39820999 759:0.195273 760:0.087942198 761:0.048838001 762:0.065110102 763:0.0642533 764:0.117745 765:0.0393744 766:0.122571 767:0.39820999 768:0.135786 769:0.085411899 770:0.025238801 771:0.019908899 772:0.072501101 773:0.18148801 774:0.056585699 775:0.032690998 776:0.122402 777:0.083843 778:0.068779401 779:0.056708898 780:0.089497298 781:0.174877 782:0.39820999 783:0.146725 784:0.0505643 785:0.17014 786:0.073180497 787:0.080099598 788:0.0232944 789:0.0232924 790:0.167154 791:0.39820999 792:0.19402499 793:0.136372 794:0.42846301 795:0.112676 796:0.031596001 797:0.0158871 798:0.0141686 799:0.059803899 800:0.217623 801:0.050579399 802:0.116527 803:0.42846301 804:0.0793529 805:0.0112924 806:0.015657401 807:0.0275674 808:0.0253247 809:0.081453502 810:0.027819 811:0.069351003 812:0.188283 813:0.054731101 814:0.036682598 815:0.0072782398 816:0.0122973 817:0.15271699 818:0.42846301 819:0.169462 820:0.052868601 821:0.064434797 822:0.0130401 823:0.0072991801 824:0.0147095 825:0.020378999 826:0.103582 827:0.42846301 828:0.175281 829:0.037164599 830:0.16997901 831:0.029598201 832:0.0430656 833:0.104345 834:0.0267004 835:0.011097 836:0.0105931 837:0.0109534 838:0.0144175 839:0.041113701 840:0.17020699 841:0.41517401 842:0.41517401 843:0.21583299 844:0.0065205102 845:0.0041978299 846:0.0056600198 847:0.0227996 848:0.0114298 849:0.0078003202 850:0.016167101 851:0.119773 852:0.0540778 853:0.0264199 854:0.249313 855:0.086073197 856:0.017531799 857:0.0058672 858:0.010498 859:0.241283 860:0.41517401 861:0.41517401 862:0.172344 863:0.077892102 864:0.0304101 865:0.0062643499 866:0.032769699 867:0.241064 868:0.330818 869:0.330818 870:0.179588 871:0.0033233501 872:0.0028411599 873:0.0028111599 874:0.016136199 875:0.058940701 876:0.16920701 877:0.279865 878:0.162975 879:0.067676 880:0.0057555302 881:0.0025967299 882:0.0046402598 883:0.0087456703 884:0.00251293 885:0.0106483 886:0.19784001 887:0.330818 888:0.330818 889:0.30102199 890:0.0248845 891:0.0051662 892:0.0102523 893:0.0067659798 894:0.0119508 895:0.075950399 896:0.165857 897:0.30502799 898:0.259372 899:0.032052498 900:0.0050768401 901:0.180961 902:0.30401501 903:0.373781 904:0.21504501 905:0.25488701 906:0.059482101 907:0.054669 908:0.028794101 909:0.082336202 910:0.095297903 911:0.033419799 912:0.0287751 913:0.035003699 914:0.081810698 915:0.048161201 916:0.0513267 917:0.083020099 918:0.086917199 919:0.198174 920:0.107075 921:0.0770327 922:0.069007203 923:0.116086 924:0.194665 925:0.59334701 926:0.12757599 927:0.0952852 928:0.16106001 929:0.123723 930:0.058145698 931:0.0394619 932:0.097608902 933:0.0284058 934:0.033837099 935:0.024542101 936:0.13043 937:0.00974386 938:0.0053306101 939:0.0116928 940:0.020280899 941:0.043353699 942:0.054697201 943:0.117132 944:0.050452001 945:0.0121258 946:0.0876083 947:0.090425 948:0.10792 949:0.12503 950:0.29948401 951:0.358953 952:0.358953 953:0.32181001 954:0.11546 955:0.0146395 956:0.057661299 957:0.133141 958:0.056127001 959:0.031482998 960:0.0131933 961:0.0084525803 962:0.0059952098 963:0.013542 964:0.15260699 965:0.26693201 966:0.358953 967:0.358953 968:0.141863 969:0.094606102 970:0.075176798 971:0.206855 972:0.106891 973:0.090074398 974:0.084724702 975:0.154 976:0.108612 977:0.281589 978:0.28315499 979:0.305327 980:0.182556 981:0.115456 982:0.034930699 983:0.029507101 984:0.093255498 985:0.084802598 986:0.305327 987:0.098731302 988:0.122388 989:0.0384835 990:0.040838201 991:0.146478 992:0.15750299 993:0.305327 994:0.305327 995:0.23139 996:0.076508999 997:0.047459099 998:0.169128 999:0.120804 1000:0.046707999 1001:0.036208 1002:0.13855501 1003:0.208481 1004:0.305327 1005:0.0722109 1006:0.0140295 1007:0.053997699 1008:0.049531002 1009:0.042778298 1010:0.0093211001 1011:0.0091140196 1012:0.0108674 1013:0.025438299 1014:0.048166599 1015:0.13742299 1016:0.50180399 1017:0.188566 1018:0.073675297 1019:0.028679401 1020:0.029597901 1021:0.0234154 1022:0.0129746 1023:0.0161018 1024:0.16280501 1025:0.50180399 1026:0.44512001 1027:0.0171468 1028:0.0055855499 1029:0.0077728699 1030:0.00402604 1031:0.0124663 1032:0.0154388 1033:0.0217485 1034:0.066558897 1035:0.0326441 1036:0.042767402 1037:0.0116926 1038:0.016832899 1039:0.0070386799 1040:0.0097541697 1041:0.0086590098 1042:0.0472521 1043:0.39624399 1044:0.17502099 1045:0.047120199 1046:0.0120985 1047:0.0107963 1048:0.0081651397 1049:0.0024017401 1050:0.00259981 1051:0.093876302 1052:0.443075 1053:0.216281 1054:0.055718601 1055:0.0143871 1056:0.0043288502 1057:0.00281795 1058:0.0053185201 1059:0.00234701 1060:0.117517 1061:0.443075 1062:0.243016 1063:0.032877199 1064:0.0044790399 1065:0.0044373302 1066:0.0023137 1067:0.0053686402 1068:0.0032258399 1069:0.0437668 1070:0.443075 1071:0.12997 1072:0.044461001 1073:0.0149335 1074:0.00351086 1075:0.00284039 1076:0.0092477603 1077:0.0031123499 1078:0.086149298 1079:0.443075 1080:0.21496899 1081:0.027771801 1082:0.0125798 1083:0.0023838901 1084:0.004344 1085:0.027255001 1086:0.0220741 1087:0.0410842 1088:0.35989001 1089:0.136464 1090:0.019442899 1091:0.0046079098 1092:0.0014898099 1093:0.017431701 1094:0.16714101 1095:0.35989001 1096:0.35989001 1097:0.35989001 1098:0.082183197 1099:0.025098 1100:0.019099601 1101:0.00178505 1102:0.00332886 1103:0.0120063 1104:0.0040061702 1105:0.062831603 1106:0.35989001 1107:0.157436 1108:0.0254752 1109:0.0092102401 1110:0.000300288 1111:0.00413372 1112:0.016021 1113:0.104178 1114:0.29747099 1115:0.35989001 1116:0.176456 1117:0.016106499 1118:0.0093732001 1119:0.018795401 1120:0.0171337 1121:0.11626 1122:0.30883899 1123:0.30883899 1124:0.166159 1125:0.0361435 1126:0.0713057 1127:0.062722601 1128:0.075332798 1129:0.052224699 1130:0.098085001 1131:0.218089 1132:0.30883899 1133:0.108785 1134:0.043364801 1135:0.033705398 1136:0.024158601 1137:0.0427492 1138:0.0179746 1139:0.022327 1140:0.118399 1141:0.30883899 1142:0.30883899 1143:0.132303 1144:0.157717 1145:0.16289 1146:0.197025 1147:0.115403 1148:0.095145904 1149:0.17155901 1150:0.30883899 1151:0.28589901 1152:0.18227001 1153:0.14363 1154:0.075358599 1155:0.0468124 1156:0.028529 1157:0.042346399 1158:0.036868598 1159:0.109068 1160:0.0728084 1161:0.13969301 1162:0.26808599 1163:0.123154 1164:0.0136622 1165:0.0033082999 1166:0.0042457902 1167:0.00205579 1168:0.0026921099 1169:0.0423702 1170:0.162533 1171:0.34668201 1172:0.210914 1173:0.13049901 1174:0.0722377 1175:0.054423399 1176:0.111246 1177:0.22064 1178:0.24841601 1179:0.34668201 1180:0.34668201 1181:0.34668201 1182:0.015776999 1183:0.00180677 1184:0.00179158 1185:0.0053064399 1186:0.0226177 1187:0.132975 1188:0.34668201 1189:0.148678 1190:0.28098699 1191:0.176073 1192:0.018613599 1193:0.0051290998 1194:0.00120177 1195:0.000815698 1196:0.00154139 1197:0.0279611 1198:0.045617901 1199:0.35068101 1200:0.35068101 1201:0.27066299 1202:0.0176071 1203:0.0035685201 1204:0.00346791 1205:0.00650466 1206:0.0089116599 1207:0.35068101 1208:0.35068101 1209:0.138496 1210:0.0039898599 1211:0.00198438 1212:0.00103849 1213:0.00063661498 1214:0.0063881199 1215:0.101092 1216:0.136372 1217:0.35068101 1218:0.35068101 1219:0.036625601 1220:0.0081225103 1221:0.0026736599 1222:0.00159378 1223:0.00122121 1224:0.0117168 1225:0.034714699 1226:0.19171999 1227:0.360632 1228:0.360632 1229:0.210871 1230:0.032723799 1231:0.0085209999 1232:0.0238478 1233:0.0199019 1234:0.0102055 1235:0.0132801 1236:0.170818 1237:0.201692 1238:0.360632 1239:0.0608682 1240:0.0042415801 1241:0.0130748 1242:0.0101499 1243:0.0086604096 1244:0.28495699 1245:0.360632 1246:0.083891504 1247:0.29995501 1248:0.022034699 1249:0.00184524 1250:0.00179225 1251:0.0039576502 1252:0.0013736699 1253:0.0067713698 1254:0.067576602 1255:0.0460338 1256:0.360632 1257:0.043789301 1258:0.00127164 1259:0.00066877902 1260:0.00109484 1261:0.071902901 1262:0.084450401 1263:0.110516 1264:0.00323427 1265:0.342778 1266:0.065119497 1267:0.125751 1268:0.119437 1269:0.097732 1270:0.31894001 1271:0.113904 1272:0.224479 1273:0.059645701 1274:0.23056801 1275:0.050366402 1276:0.206999 1277:0.25628501 1278:0.41036299 1279:0.102122 1280:0.0084811999 1281:0.0164322 1282:0.00147012 1283:0.306178 1284:0.018851001 1285:0.0699834 1286:0.0203915 1287:0.101455 1288:0.27192301 1289:0.0138677 1290:0.047793198 1291:0.0220518 1292:0.141458 1293:0.0090891896 1294:0.0422641 1295:0.0162005 1296:0.27235901 1297:0.0999927 1298:0.0129047 1299:0.026595799 1300:0.0097793704 1301:0.03892 1302:0.0127332 1303:0.063352697 1304:0.276586 1305:0.153649 1306:0.125809 1307:0.024906101 1308:0.037083 1309:0.021087199 1310:0.097565599 1311:0.0352345 1312:0.208823 1313:0.73266101 1314:0.49456799 1315:0.043498602 1316:0.0038312401 1317:0.0139551 1318:0.0026827999 1319:0.0224545 1320:0.00042305299 1321:0.0106453 1322:0.00631725 1323:0.044091899 1324:0.034927901 1325:0.0058891699 1326:0.0234152 1327:0.0040316498 1328:0.062136199 1329:0.016392799 1330:0.081868902 1331:0.053523 1332:0.040844299 1333:0.0266192 1334:0.0139449 1335:0.0049961102 1336:0.0101911 1337:0.031838398 1338:0.018060699 1339:0.088721201 1340:0.50442499 1341:0.196539 1342:0.040030599 1343:0.0129703 1344:0.00377848 1345:0.0099436501 1346:0.0281906 1347:0.028051499 1348:0.260194 1349:0.50442499 1350:0.36927101 1351:0.0111744 1352:0.00592724 1353:0.0050937599 1354:0.0060048499 1355:0.020467101 1356:0.0154632 1357:0.0262194 1358:0.064820498 1359:0.030250199 1360:0.0319371 1361:0.0147458 1362:0.0099081602 1363:0.0101594 1364:0.0249043 1365:0.024157099 1366:0.073036402 1367:0.44431701 1368:0.13264699 1369:0.0366311 1370:0.0151037 1371:0.0224187 1372:0.0087476401 1373:0.0088962903 1374:0.0294102 1375:0.180272 1376:0.375532 1377:0.22359701 1378:0.127948 1379:0.119957 1380:0.109327 1381:0.072058901 1382:0.0298928 1383:0.140357 1384:0.309091 1385:0.375532 1386:0.32699001 1387:0.024346599 1388:0.0072324402 1389:0.0069395802 1390:0.0039301799 1391:0.0113026 1392:0.0061123199 1393:0.047834799 1394:0.375532 1395:0.116795 1396:0.0283067 1397:0.017802199 1398:0.0058454098 1399:0.0072466899 1400:0.0140921 1401:0.0097069498 1402:0.086410902 1403:0.375532 1404:0.223242 1405:0.245105 1406:0.110274 1407:0.041170999 1408:0.026311001 1409:0.0099477302 1410:0.067981802 1411:0.166888 1412:0.32904801 1413:0.32904801 1414:0.32904801 1415:0.18685301 1416:0.0041830302 1417:0.00110362 1418:0.00155377 1419:0.00717291 1420:0.0558566 1421:0.30581099 1422:0.32904801 1423:0.033731401 1424:0.017842799 1425:0.00230953 1426:0.0024409599 1427:0.0048840102 1428:0.0087138098 1429:0.072105698 1430:0.32904801 1431:0.17543 1432:0.085056201 1433:0.0202816 1434:0.00276515 1435:0.0015405 1436:0.0037637299 1437:0.0046933899 1438:0.087854601 1439:0.32904801 1440:0.235158 1441:0.37967101 1442:0.37967101 1443:0.0380315 1444:0.0052457498 1445:0.0060954299 1446:0.0079603298 1447:0.0242595 1448:0.211768 1449:0.222498 1450:0.187821 1451:0.37967101 1452:0.14862999 1453:0.0106237 1454:0.0200286 1455:0.0092315199 1456:0.0156851 1457:0.0538637 1458:0.051875699 1459:0.093746297 1460:0.033358201 1461:0.00584814 1462:0.0053823702 1463:0.0087957801 1464:0.0089280102 1465:0.112516 1466:0.37967101 1467:0.241229 1468:0.0340029 1469:0.020523399 1470:0.00772944 1471:0.0085456101 1472:0.0150944 1473:0.0069279699 1474:0.079265803 1475:0.37967101 1476:0.160919 1477:0.0131818 1478:0.139524 1479:0.088804103 1480:0.0217782 1481:0.457257 1482:0.026308 1483:0.0071572801 1484:0.0094958302 1485:0.0129783 1486:0.00179081 1487:0.0021087001 1488:0.00404657 1489:0.034965001 1490:0.457257 1491:0.061127 1492:0.0030570801 1493:0.0015884 1494:0.00177023 1495:0.0221164 1496:0.0108439 1497:0.016229 1498:0.058294401 1499:0.457257 1500:0.032784998 1501:0.0283227 1502:0.298168 1503:0.089037202 1504:0.012928 1505:0.00574366 1506:0.0183762 1507:0.101923 1508:0.457257 1509:0.093147799 1510:0.0083672795 1511:0.045336898 1512:0.0197482 1513:0.248961 1514:0 1515:0 1516:0 1517:0.232546 1518:0 1519:0.0746985 1520:0.024963001 1521:0.248961 1522:0.61028999 1523:0 1524:0 1525:0 1526:0.071615502 1527:0 1528:0.033953801 1529:0.0113468 1530:0.61028999 1531:0.0107967 1532:0 1533:0 1534:0 1535:0 1536:0 1537:0 1538:0 1539:0.0107967 1540:0.0237935 1541:0 1542:0 1543:0 1544:0 1545:0 1546:0 1547:0 1548:0.0237935 1549:0.50247902 1550:0.0234848 1551:0.0702755 1552:0 1553:0.112184 1554:0 1555:0.0132998 1556:0.0044445698 1557:0.50247902 1558:0.25604299 1559:0.044011701 1560:0.13169999 1561:0 1562:0.249695 1563:0.0294913 1564:0.38746101 1565:0.20445099 1566:0.26366901 1567:0.0199122 1568:0 1569:0 1570:0 1571:0 1572:0 1573:0 1574:0 1575:0.0199122 1576:0.0109944 1577:0 1578:0 1579:0 1580:0.0013132 1581:0 1582:0 1583:0 1584:0.0109944 1585:0.109302 1586:0.069222003 1587:0.038627099 1588:0.0086801099 1589:0.064730503 1590:0.046804398 1591:0.17265999 1592:0.167064 1593:0.14920001 1594:0.35518199 1595:0.17148501 1596:0.095688403 1597:0.048219401 1598:0.361788 1599:0.121147 1600:0.19911601 1601:0.39045 1602:0.50140703 1603:0.0065718899 1604:0.00169541 1605:0 1606:0 1607:0.00164851 1608:0 1609:0 1610:0 1611:0.0062178201 1612:0.0486749 1613:0.0114946 1614:0.037817899 1615:0.029679099 1616:0.33105001 1617:0.00055322598 1618:0.0418077 1619:0.019258801 1620:0.049001802 1621:0.065687999 1622:0.0249341 1623:0.0276297 1624:0.019143 1625:0.118078 1626:0.016294399 1627:0.0468808 1628:0.30188501 1629:0.158519 1630:0.065214403 1631:0.039148699 1632:0.0318004 1633:0.055578701 1634:0.152753 1635:0.0198457 1636:0.135353 1637:0.69280201 1638:0.53203499 1639:0.034295801 1640:0.0033068401 1641:0.0131838 1642:0.0077723898 1643:0.082296997 1644:0.00080015301 1645:0.0152554 1646:0.0075087799 1647:0.037103999 1648:0.097146802 1649:0.017244499 1650:0.015819799 1651:0.0129076 1652:0.065275401 1653:0.0043701399 1654:0.0192899 1655:0.050772902 1656:0.110167 1657:0.0202212 1658:0.0111612 1659:0.0064454 1660:0.0132159 1661:0.0236424 1662:0.00651502 1663:0.069641702 1664:0.48200101 1665:0.227347 1666:0.039563201 1667:0.0125169 1668:0.0098540699 1669:0.0086688604 1670:0.021621499 1671:0.0084926402 1672:0.184223 1673:0.48200101 1674:0.43402401 1675:0.0246854 1676:0.0115311 1677:0.0072531002 1678:0.0073973201 1679:0.016469 1680:0.0031824301 1681:0.0090699 1682:0.061256502 1683:0.045705002 1684:0.0401075 1685:0.0138192 1686:0.0134408 1687:0.0081485799 1688:0.0187614 1689:0.00486123 1690:0.044227399 1691:0.463736 1692:0.14634 1693:0.028383801 1694:0.0110678 1695:0.0078228796 1696:0.0028474899 1697:0.0073744301 1698:0.0036011001 1699:0.11248 1700:0.439814 1701:0.215036 1702:0.030293301 1703:0.0141755 1704:0.0075713098 1705:0.0052272398 1706:0.0036674901 1707:0.00188595 1708:0.10096 1709:0.439814 1710:0.24373899 1711:0.021314099 1712:0.00603395 1713:0.0066494602 1714:0.0019652899 1715:0.0050248899 1716:0.0041285502 1717:0.042911801 1718:0.439814 1719:0.129219 1720:0.028653299 1721:0.00602401 1722:0.0047327299 1723:0.00313088 1724:0.0061292602 1725:0.0051673702 1726:0.093690798 1727:0.439814 1728:0.24946 1729:0.056295201 1730:0.0106363 1731:0.037601098 1732:0.062946998 1733:0.18285 1734:0.0137148 1735:0.047397401 1736:0.35956699 1737:0.177701 1738:0.061046999 1739:0.0108395 1740:0.054835699 1741:0.131254 1742:0.35956699 1743:0.056175198 1744:0.0100096 1745:0.118841 1746:0.067425497 1747:0.069475703 1748:0.0108806 1749:0.0255666 1750:0.025805799 1751:0.026689401 1752:0.00158591 1753:0.0838181 1754:0.35956699 1755:0.27012399 1756:0.138026 1757:0.0604968 1758:0.101311 1759:0.151289 1760:0.35956699 1761:0.0244858 1762:0.028566601 1763:0.35956699 1764:0.28914699 #
