SVM-light Version V6.10
0 # kernel type
3 # kernel parameter -d 
1 # kernel parameter -g 
1 # kernel parameter -s 
1 # kernel parameter -r 
0# kernel parameter -u 
1764 # highest feature index 
728 # number of training documents 
110 # number of support vectors plus 1 
0.67620541 # threshold b, each following line is a SV (starting with alpha*y)
-0.0043583118473561749395273068330425 1:0 2:0 3:0 4:0 5:0 6:0 7:0 8:0 9:0 10:0 11:0 12:0 13:0 14:0 15:0 16:0 17:0 18:0 19:0.48846799 20:0 21:0 22:0 23:0 24:0 25:0 26:0 27:0.48846799 28:0.132084 29:0 30:0 31:0 32:0 33:0 34:0 35:0 36:0.132084 37:0 38:0 39:0 40:0 41:0 42:0 43:0 44:0 45:0 46:0 47:0 48:0 49:0 50:0 51:0 52:0 53:0 54:0 55:0 56:0 57:0 58:0 59:0 60:0 61:0 62:0 63:0 64:0.059036002 65:0 66:0 67:0 68:0 69:0 70:0 71:0 72:0.059036002 73:0.00024312 74:0 75:0 76:0 77:0 78:0 79:0 80:0 81:0.00024312 82:0.00241816 83:0 84:0 85:0 86:0 87:0 88:0 89:0 90:0.00241816 91:0.0080786301 92:0.0068991198 93:0.0072505199 94:0.00110898 95:0.023652099 96:0 97:0.00137822 98:0.00046057499 99:0.0069699702 100:0.59827203 101:0.75071597 102:0.224335 103:0.020240201 104:0.0660441 105:0 106:0.037284601 107:0.018685499 108:0.088271402 109:0.00044946099 110:0.00035522901 111:0.000545652 112:0.000144586 113:0.000162618 114:0 115:0 116:0 117:0.00033604301 118:0.0311842 119:0.045582902 120:0.0123144 121:0.00062653999 122:0.0030112299 123:0 124:0.00024659 125:0.00112213 126:0.0060425899 127:0.215184 128:0.39347801 129:0.128803 130:0.0025961001 131:0.00152782 132:0 133:0.0021096 134:0.0030449401 135:0.0146595 136:0.506818 137:0.506818 138:0.506818 139:0.0031399999 140:0.0031842 141:0 142:0.00027193601 143:0.0039866799 144:0.055709999 145:0.047320198 146:0.099232897 147:0.028275199 148:0.000903879 149:0.00238304 150:2.0109501e-05 151:0.00032972699 152:0.00106164 153:0.0058728899 154:0.185192 155:0.38681701 156:0.13743401 157:0.00154446 158:0.00300953 159:0.00030164301 160:0.00052434398 161:0.00161894 162:0.027793599 163:0.32980099 164:0.38681701 165:0.25540999 166:0.00094034302 167:0.00112742 168:8.7141198e-05 169:0.00033349 170:0.00127772 171:0.034617599 172:0.38681701 173:0.38681701 174:0.38681701 175:0.00101059 176:0.00123545 177:0.00130712 178:0.001256 179:0.0022009599 180:0.076710299 181:0.21715499 182:0.33688 183:0.18010999 184:0.00068342302 185:0.00051634299 186:0.000167915 187:0.00024451499 188:0.0016521 189:0.033659 190:0.33526701 191:0.33688 192:0.28004101 193:0.00065256102 194:0.00030854199 195:0.000123808 196:9.8524499e-05 197:0.00137372 198:0.045903899 199:0.313494 200:0.33688 201:0.27658299 202:0.00021184501 203:0.000646414 204:0.00060382299 205:0.00073238101 206:0.00172121 207:0.0550698 208:0.231144 209:0.33688 210:0.190981 211:0.000498707 212:0.00052955397 213:0 214:9.8189397e-05 215:0.000609971 216:0.0360374 217:0.302385 218:0.42999399 219:0.220323 220:0.00173134 221:0.126671 222:0.0115808 223:0.00060738198 224:0.0212254 225:0.047741301 226:0.167862 227:0.26857501 228:0.082621403 229:0.0084330197 230:0.42999399 231:0.0523513 232:0.0139263 233:0.052966598 234:0.045404799 235:0.112847 236:0.26590499 237:0.078986101 238:0.00151089 239:0.26935101 240:0.0056986702 241:3.8893399e-05 242:0.0042639999 243:0.0155188 244:0.029106 245:0.054894499 246:0.0164677 247:0.0046035801 248:0.42999399 249:0.0175812 250:0.000168538 251:0.0093617998 252:0.0068484698 253:0.153975 254:0.0094190501 255:0.028185399 256:0 257:0.032765999 258:0 259:0 260:0 261:0.153975 262:0.030797601 263:0.00671707 264:0.0212234 265:0.0023095801 266:0.037387099 267:0 268:0 269:0 270:0.030797601 271:0.26852199 272:0.034746598 273:0.080513 274:0 275:0.078356497 276:0 277:0.0140745 278:0.0047034398 279:0.26380801 280:0.66393101 281:0.49444601 282:0.205066 283:0.0179218 284:0.123353 285:0 286:0.041571699 287:0.0138926 288:0.164004 289:0.00212049 290:0.00151466 291:0.00143971 292:0.00061207899 293:0.00105679 294:0 295:0 296:0 297:0.00188961 298:0.031045699 299:0.0209486 300:0.0065398701 301:0.00082835997 302:0.00056460802 303:0 304:0 305:0 306:0.0105918 307:0.20150299 308:0.31855801 309:0.113165 310:0.0070211799 311:0.0108374 312:0 313:0.00073294999 314:0.000244939 315:0.017208699 316:0.52683002 317:0.52683002 318:0.52683002 319:0.0094667198 320:0.00741548 321:0 322:0 323:0 324:0.070837498 325:0.0376908 326:0.067976899 327:0.018117201 328:0.000350063 329:0.00094207801 330:0 331:3.1596799e-05 332:1.5809001e-05 333:0.0048783701 334:0.17045601 335:0.36943999 336:0.121448 337:0.00095493702 338:0.00278077 339:0 340:0.000937137 341:0.00082512398 342:0.0178241 343:0.33305299 344:0.39858001 345:0.23856699 346:0.00088302803 347:0.000364559 348:0 349:2.10646e-06 350:7.9453101e-05 351:0.032501198 352:0.39858001 353:0.39858001 354:0.39858001 355:0.00064374303 356:0.00088970998 357:0 358:0.000238162 359:0.00119259 360:0.068140402 361:0.196849 362:0.33704901 363:0.157749 364:0.00057339901 365:0.00058428699 366:0 367:0.00061040802 368:0.00160331 369:0.020661199 370:0.32139701 371:0.33704901 372:0.261233 373:0.00030859801 374:0.000211437 375:0 376:8.69902e-05 377:0.0020218799 378:0.033793401 379:0.33117601 380:0.33704901 381:0.28017399 382:0.00043000499 383:0.00042913199 384:0 385:0.000372421 386:0.00189948 387:0.044344801 388:0.26050001 389:0.33704901 390:0.21508799 391:0.00040051099 392:0.00140881 393:0 394:0.000229019 395:0.00179368 396:0.0346555 397:0.374385 398:0.374385 399:0.34399799 400:0.000121599 401:0.00066419301 402:3.6634901e-05 403:0.00041129699 404:0.00104691 405:0.047098201 406:0.37151799 407:0.374385 408:0.29674 409:0 410:0.0025202399 411:0.00054952397 412:0.00147365 413:0.00094701699 414:0.046851002 415:0.190586 416:0.374385 417:0.139163 418:8.1491999e-05 419:0.00204223 420:0 421:0.000464518 422:0.000746048 423:0.02211 424:0.073532298 425:0.151784 426:0.045554198 427:0 428:0.00192091 429:0 430:0.00107964 431:0.00036144501 432:0.0074901399 433:0.47161201 434:0.47161201 435:0.47161201 436:0 437:0.0091936104 438:0.0012336 439:0.0034016101 440:0.00287123 441:0.094813801 442:0.248156 443:0.47161201 444:0.159274 445:0.00058908301 446:0.00337548 447:0 448:0.000482762 449:0.00056861102 450:0.027018201 451:0.053272799 452:0.073587298 453:0.0220144 454:0 455:0.0047590001 456:0 457:0.0019990499 458:0.000660558 459:0.0076068998 460:0.0019899299 461:0.00096748199 462:0.000295954 463:0 464:0.00112044 465:0 466:0.000295565 467:9.6630698e-05 468:0.00055659597 469:0.0130144 470:0.019805601 471:0.0052066902 472:0.00015498701 473:0.336961 474:0.00060368603 475:0 476:0 477:0.00123114 478:0.000490128 479:0.000110658 480:5.0210801e-06 481:0.000127247 482:0.60434699 483:0.00192097 484:0 485:0 486:0.000215287 487:7.8413696e-06 488:0 489:0 490:0 491:0.38646901 492:0 493:0 494:0 495:7.8413696e-06 496:0 497:0 498:0 499:0 500:0.60434699 501:0 502:0 503:0 504:0 505:0.0295012 506:0.047024298 507:0.0133632 508:0.00052554399 509:0.00191936 510:0 511:0.00038795499 512:0.000235182 513:0.0034032799 514:0.16111501 515:0.326727 516:0.102085 517:0.00126477 518:0.0021591301 519:0 520:0.00120681 521:0.00056968001 522:0.0124838 523:0.30991 524:0.415526 525:0.243513 526:0.0130639 527:0.0074525499 528:0 529:0.000172399 530:0.00104607 531:0.0241847 532:0.415526 533:0.415526 534:0.415526 535:0.00591355 536:0.0033782099 537:0 538:0.00164073 539:0.00135367 540:0.049260002 541:0.177471 542:0.33553699 543:0.132117 544:0.0010385 545:0.00118931 546:0 547:0.00022999301 548:0.000469027 549:0.016891001 550:0.30913699 551:0.33553699 552:0.250521 553:0.00138139 554:0.000822781 555:0 556:1.73399e-05 557:0.00032990301 558:0.03517 559:0.33553699 560:0.33553699 561:0.27886301 562:0.000233158 563:0.00036405501 564:0 565:0.00062350702 566:0.00112784 567:0.034336001 568:0.29353201 569:0.33553699 570:0.241586 571:0.00057308702 572:0.00037176401 573:0 574:0.000115033 575:0.00103981 576:0.038026702 577:0.36022699 578:0.36022699 579:0.31150201 580:0.00083850999 581:0.00033353499 582:0.00022039301 583:0.000273818 584:0.000110515 585:0.042935599 586:0.36022699 587:0.36022699 588:0.284491 589:0.00046869501 590:0.00081216497 591:0.00028336301 592:0.00038980899 593:0.00043273799 594:0.042180799 595:0.210852 596:0.36022699 597:0.154375 598:0.0011083001 599:0.00097653101 600:0.00048486501 601:0.00103301 602:0.00043392999 603:0.0256953 604:0.17949399 605:0.24304201 606:0.070973501 607:0.00057170901 608:0.0030899399 609:0.00062339799 610:0.0012897199 611:0.00032480899 612:0.026427601 613:0.236454 614:0.341636 615:0.18125001 616:0.0020392099 617:0.016943401 618:0.00040549299 619:0.00032804301 620:0.00066928001 621:0.036826398 622:0.22304299 623:0.207752 624:0.107333 625:0.0089940401 626:0.057950199 627:0.0034371 628:0.022779901 629:0.0068961 630:0.137936 631:0.27071801 632:0.129706 633:0.078248203 634:0.062072001 635:0.230168 636:0.0020508801 637:0.00048827799 638:0.000144417 639:0.116436 640:0.341636 641:0.101856 642:0.226742 643:0.239575 644:0.341636 645:0.092690997 646:0.122692 647:0.048878498 648:0.341636 649:0.159412 650:0.0568217 651:0.036572199 652:0.0050512902 653:0.067170203 654:0.00609814 655:0.045979399 656:0.0137409 657:0.145013 658:0.0117608 659:0.00125174 660:0.00056657899 661:6.1347499e-05 662:0.022529099 663:0.00145971 664:0.0101778 665:0.00312499 666:0.0131261 667:0.370886 668:0.044563401 669:0.117918 670:0.119843 671:0.370886 672:0.214954 673:0.23920199 674:0.126239 675:0.370886 676:0.370886 677:0.000133061 678:0.00039817 679:0.00122314 680:0.30236501 681:0.065314896 682:0.050813202 683:0.042514399 684:0.370886 685:0.000393686 686:0.000110396 687:0.000330348 688:0 689:2.37763e-05 690:0 691:4.9223101e-05 692:1.64495e-05 693:0.000393686 694:6.7121997e-05 695:4.1939802e-06 696:1.255e-05 697:0 698:0 699:0 700:0 701:0 702:6.7121997e-05 703:0.49745801 704:0 705:0 706:0 707:0 708:0 709:0 710:0 711:0.49745801 712:0.49745801 713:0.00052345701 714:0 715:0.0137299 716:0.069669701 717:0.00771649 718:0.0085308095 719:0 720:0.49745801 721:4.6493598e-05 722:0 723:0 724:0 725:0.322772 726:0 727:0 728:0 729:4.6493598e-05 730:3.0785199e-05 731:0 732:0 733:0 734:0.58379102 735:0 736:0 737:0 738:3.0785199e-05 739:0.117631 740:0.00066606101 741:0 742:0.0109163 743:0.41283101 744:0.00612933 745:0.0065837801 746:0 747:0.153403 748:0.0099652 749:0.00051804702 750:0 751:0.00522481 752:0.58379102 753:0.00292901 754:0.00299263 755:0 756:0.0149139 757:0.19994 758:0.32099 759:0.20436899 760:0.031338502 761:0.0332123 762:0.028274 763:0.069416396 764:0.13126899 765:0.068510301 766:0.268116 767:0.32099 768:0.220029 769:0.0118919 770:0.0127634 771:0.0132383 772:0.049675498 773:0.132898 774:0.077041402 775:0.065859199 776:0.11722 777:0.0728475 778:0.024175201 779:0.034532499 780:0.036393099 781:0.22470801 782:0.32099 783:0.23497801 784:0.092715003 785:0.121098 786:0.0514175 787:0.0091537898 788:0.0132973 789:0.017184099 790:0.26785901 791:0.32099 792:0.30989599 793:0.34041801 794:0.343734 795:0.247852 796:4.7826801e-05 797:0.0023443899 798:0.000431141 799:0.0270903 800:0.084089503 801:0.069514297 802:0.14934 803:0.32863399 804:0.107645 805:0.00126565 806:0.016363399 807:0.0015628299 808:0.0014401 809:0.0049137701 810:0.0206929 811:0.098297097 812:0.075086303 813:0.0235691 814:0 815:0.002571 816:0.00098786305 817:0.330259 818:0.343734 819:0.343734 820:0.029066199 821:0.0096673304 822:0.0143168 823:0.00201025 824:0.064766601 825:0.0064603402 826:0.139985 827:0.343734 828:0.20363 829:0.077046603 830:0.15996701 831:0.074355401 832:0.00190329 833:0.0346274 834:0.015641401 835:0.0055026901 836:0.0125171 837:0.0154752 838:0.31472901 839:0.31472901 840:0.191329 841:0.00081815 842:0.0240451 843:0.018575599 844:0.0095636798 845:0.0241649 846:0.072252698 847:0.079019703 848:0.195636 849:0.121167 850:0.00356981 851:0.145858 852:0.067660898 853:0.075855002 854:0.29876399 855:0.127152 856:0.31472901 857:0.31472901 858:0.263652 859:0.00169161 860:0.095439397 861:0.079121597 862:0.19759899 863:0.31472901 864:0.31472901 865:0.28480199 866:0.28189501 867:0.090624496 868:0.054503601 869:0.106111 870:0.00271882 871:0.00161887 872:0.00417607 873:0.174503 874:0.28480199 875:0.118501 876:0.066198803 877:0.192728 878:0.28480199 879:0.071056403 880:0.035429999 881:0.035560101 882:0.25309399 883:0.28480199 884:0.25427699 885:0.080074303 886:0.0147669 887:0.0085085901 888:0.0076612299 889:0.068232201 890:0.28480199 891:0.28480199 892:0.28480199 893:0.0568862 894:0.0099420296 895:0.051942401 896:0.070072502 897:0.0186412 898:0.0071151499 899:0.035511199 900:0.28480199 901:0.29672799 902:0.0256135 903:0.025962301 904:0.071425498 905:0.32929701 906:0.137279 907:0.058823299 908:0.091618903 909:0.29600501 910:0.32929701 911:2.14503e-05 912:6.4187298e-05 913:0.00054697797 914:0.115291 915:0.04352 916:0.0152275 917:0.038949601 918:0.32929701 919:0.32929701 920:0.0095873298 921:0.0020526401 922:0.0187649 923:0.065587498 924:0.035052098 925:0.0074660601 926:0.036699101 927:0.32929701 928:0.32929701 929:7.4831703e-05 930:3.67211e-05 931:9.8946999e-05 932:0.011368 933:0.0107597 934:0.0036243401 935:0.0167585 936:0.32929701 937:0.31821501 938:0.00022694599 939:0.00088719203 940:0.00137907 941:0.0031977801 942:0.000222705 943:1.6066e-05 944:5.3689901e-06 945:0.31821501 946:0.31821501 947:0.0132333 948:0.135693 949:0.034226801 950:0.0894076 951:0.0214624 952:0.0119205 953:0.0013596599 954:0.31821501 955:0.31821501 956:0.00040106001 957:0.0012075501 958:0.00294891 959:0.0122566 960:0.0028857 961:0.00024928999 962:0.000108884 963:0.31821501 964:0.31821501 965:0.021104701 966:0.23308 967:0.061860401 968:0.20132799 969:0.149156 970:0.190768 971:0.020563699 972:0.31821501 973:0.183044 974:0.0183737 975:0.168014 976:0.050965801 977:0.325452 978:0.0279049 979:0.0203488 980:0.00137239 981:0.25878999 982:0.0119075 983:0.0035728 984:0.0254349 985:0.017306199 986:0.39547101 987:0.00642992 988:0.0061466298 989:9.5439304e-05 990:0.0219214 991:0.193968 992:0.027404301 993:0.289902 994:0.072764002 995:0.39547101 996:0.157508 997:0.26355401 998:0.020695999 999:0.241721 1000:0.0110299 1001:0.0045286701 1002:0.0436997 1003:0.018726399 1004:0.39547101 1005:0.0220578 1006:0.049647 1007:0.00145083 1008:0.015670501 1009:0.023819501 1010:0.000478167 1011:0.00026255101 1012:0 1013:0.0097848801 1014:0.0104241 1015:0.22151799 1016:0.411336 1017:0.28621101 1018:0.068991899 1019:0.00188616 1020:0.0022113901 1021:0 1022:0.00321696 1023:0.0057393801 1024:0.411336 1025:0.411336 1026:0.411336 1027:0.0051237 1028:0.00087125797 1029:9.7941502e-06 1030:0 1031:0.00384507 1032:0.00029031001 1033:0.0138811 1034:0.046615601 1035:0.032972801 1036:0.0145539 1037:0.0026094599 1038:0.000146912 1039:0 1040:0.0016343 1041:0.0013322 1042:0.114068 1043:0.36084601 1044:0.188656 1045:0.0383665 1046:0.00041499801 1047:0.00069276599 1048:0 1049:0.00041235 1050:0.00043440799 1051:0.25651199 1052:0.337726 1053:0.31019601 1054:0.0337926 1055:0.00083303102 1056:0.00164364 1057:0.000241521 1058:0.0130612 1059:0.00142181 1060:0.22944 1061:0.337726 1062:0.28857899 1063:0.016222799 1064:0.000456757 1065:0.000139394 1066:0 1067:0.00200586 1068:0.00107158 1069:0.134251 1070:0.337726 1071:0.185049 1072:0.032330502 1073:0.000427903 1074:0.000205062 1075:0 1076:0.00159464 1077:0.00080597203 1078:0.26835701 1079:0.337726 1080:0.337726 1081:0.0260022 1082:0.028090101 1083:0.0190401 1084:0.00059501402 1085:0.040500298 1086:0.0188911 1087:0.129766 1088:0.33810899 1089:0.192316 1090:0.100631 1091:0.065207697 1092:0.030252 1093:0.00054352701 1094:0.0268385 1095:0.021985499 1096:0.16417401 1097:0.33810899 1098:0.31225201 1099:0.028738201 1100:0.00026373001 1101:5.7587698e-05 1102:0 1103:0.00030516001 1104:0.00044394101 1105:0.240237 1106:0.33810899 1107:0.32023901 1108:0.053600799 1109:0.00030221001 1110:0.00063290203 1111:0.00027238199 1112:0.00052612298 1113:0.00052903302 1114:0.249928 1115:0.33810899 1116:0.33810899 1117:0.32372901 1118:0.023963099 1119:0.0083697503 1120:0.00067086902 1121:0.00055133598 1122:0.0034215499 1123:0.097122401 1124:0.32372901 1125:0.32372901 1126:0.32372901 1127:0.00053022901 1128:0.00043454699 1129:0.00027659701 1130:0.00036625701 1131:0.000139786 1132:0.0083346097 1133:0.043246102 1134:0.32372901 1135:0.129998 1136:0.000566701 1137:0.000885599 1138:0.00083841698 1139:0.00063879002 1140:0.00057531102 1141:0.166887 1142:0.32372901 1143:0.32372901 1144:0.23538999 1145:0.000232697 1146:0.00036662401 1147:0.00046139801 1148:0.00064883201 1149:0.000127575 1150:0.0608075 1151:0.209047 1152:0.321823 1153:0.40272999 1154:6.6592402e-06 1155:1.99269e-05 1156:0 1157:0.000197399 1158:0 1159:0.000145379 1160:4.8583101e-05 1161:0.40272999 1162:0.40272999 1163:0.00042202201 1164:0 1165:0 1166:0.00025623199 1167:0 1168:0.000232429 1169:7.6808697e-05 1170:0.40272999 1171:0.268038 1172:0.000213987 1173:0.00064032897 1174:0 1175:0.00032631299 1176:0 1177:0.0130226 1178:0.0510052 1179:0.29266399 1180:0.305004 1181:0.00048517701 1182:0.00046961501 1183:0 1184:0.000584063 1185:0 1186:0.00058911502 1187:0.0013644201 1188:0.30645299 1189:0.384819 1190:0.00101526 1191:0.00069368299 1192:0.00108354 1193:0.00758006 1194:0.00285516 1195:0.00063180999 1196:0.00040059601 1197:0.384819 1198:0.384819 1199:0.0069086701 1200:0.108989 1201:0.030088499 1202:0.12827399 1203:0.149822 1204:0.237785 1205:0.0220147 1206:0.384819 1207:0.267281 1208:0.00081102102 1209:0.00053057401 1210:0 1211:0.000460332 1212:0 1213:0.000541193 1214:0.000395321 1215:0.264974 1216:0.27682501 1217:0.00069466903 1218:0.0113866 1219:0.00282768 1220:0.00981222 1221:0.0047297501 1222:0.0085394196 1223:0.00104653 1224:0.27634901 1225:0.28396901 1226:0.0062961099 1227:0.117265 1228:0.029391199 1229:0.39230099 1230:0.130778 1231:0.264074 1232:0.0169516 1233:0.28199199 1234:0.022825699 1235:0.000969655 1236:0.021355201 1237:0.00742426 1238:0.478398 1239:0.0227754 1240:0.052174699 1241:0.00124664 1242:0.019242501 1243:0.100279 1244:0.000319213 1245:0.013899 1246:0.0043071299 1247:0.31086901 1248:0.0070316601 1249:0.0103086 1250:0.000501531 1251:0.098728999 1252:0.0099011101 1253:0.000101653 1254:0.0032905899 1255:0.00161103 1256:0.478398 1257:0.0032446301 1258:0.0024744701 1259:8.7594301e-05 1260:0.0083106104 1261:0.084755599 1262:0.017625701 1263:0 1264:0 1265:0.0365851 1266:0 1267:0.0132158 1268:0.0050757299 1269:0.081971601 1270:0.112319 1271:0.052060898 1272:0 1273:0 1274:0.073578097 1275:0.023211099 1276:0.175984 1277:0.56715602 1278:0.759682 1279:0 1280:0 1281:0 1282:0 1283:0 1284:0 1285:0 1286:0 1287:0 1288:0 1289:0 1290:0 1291:0 1292:0.0096624698 1293:0 1294:0.0048621502 1295:0.00162485 1296:0 1297:0.0142214 1298:0.00136871 1299:0.0011617 1300:0 1301:0.0145799 1302:0.0029742301 1303:0.0959775 1304:0.294651 1305:0.178133 1306:0.066383399 1307:0.0082386797 1308:0.0025557401 1309:0 1310:0.0127749 1311:0.0057225102 1312:0.513515 1313:0.54595602 1314:0.54595602 1315:0.00195223 1316:0.00023141201 1317:0.000268084 1318:0 1319:0.0020977501 1320:5.9309601e-05 1321:0.00106133 1322:0.0016605899 1323:0.00219727 1324:0.011108 1325:0.00355373 1326:0.00058978598 1327:0 1328:0.0026332501 1329:0.0011770501 1330:0.0068203402 1331:0.0246436 1332:0.0321416 1333:0.028843701 1334:0.00128993 1335:0.000126413 1336:0 1337:0.000861332 1338:0.0023641801 1339:0.216674 1340:0.396422 1341:0.30253401 1342:0.0627454 1343:0.00054138398 1344:8.3094099e-05 1345:3.8288701e-05 1346:0.000882591 1347:0.00281278 1348:0.396422 1349:0.396422 1350:0.396422 1351:0.0052532302 1352:0.00065027201 1353:2.9172201e-05 1354:0 1355:0.00110023 1356:0.002204 1357:0.020362999 1358:0.071227796 1359:0.038545098 1360:0.019486999 1361:0.0019595199 1362:0 1363:0 1364:0.00170482 1365:0.0044831401 1366:0.14006799 1367:0.396422 1368:0.199984 1369:0.0374313 1370:0.00026255101 1371:8.73471e-05 1372:0.000101359 1373:0.000228688 1374:0.00055504602 1375:0.248703 1376:0.34153101 1377:0.29689699 1378:0.0269753 1379:0.000220794 1380:0.000226962 1381:7.8835001e-05 1382:0.000319296 1383:0.000127516 1384:0.20322099 1385:0.34153101 1386:0.25812301 1387:0.0197651 1388:0.00104835 1389:7.98049e-05 1390:0 1391:0.00120621 1392:0.00197689 1393:0.15611599 1394:0.34153101 1395:0.21190199 1396:0.033941701 1397:0.00124032 1398:0.00014555499 1399:0 1400:0.00131016 1401:0.0015167299 1402:0.2872 1403:0.34153101 1404:0.34153101 1405:0.0144526 1406:0.00073466299 1407:0.0011208 1408:0 1409:0.00077299401 1410:1.7673399e-05 1411:0.12443 1412:0.373169 1413:0.174548 1414:0.0075542 1415:0.000749456 1416:0.0011192299 1417:0 1418:0.0020041901 1419:6.88574e-05 1420:0.043225098 1421:0.137521 1422:0.067503497 1423:0.045851499 1424:0.0032744999 1425:0.00040740299 1426:0 1427:0.00088129001 1428:0.00026510199 1429:0.35229 1430:0.373169 1431:0.373169 1432:0.050648902 1433:0.0032174899 1434:0.0013475301 1435:0 1436:0.0023590899 1437:0.00039668 1438:0.31564099 1439:0.373169 1440:0.373169 1441:0.0093358196 1442:0.00102718 1443:0.00089230802 1444:0 1445:0.00387803 1446:0.00068608002 1447:0.018301601 1448:0.0661835 1449:0.042541001 1450:0.0019894401 1451:0.000233749 1452:0.00056153297 1453:0 1454:0.00111793 1455:0.000356879 1456:0.00043363799 1457:0.00067439798 1458:0.00318592 1459:0.0880173 1460:0.0041417698 1461:0.0030024401 1462:0 1463:0.00921275 1464:0.0044588102 1465:0.468842 1466:0.468842 1467:0.468842 1468:0.022113301 1469:0.00092172 1470:0.00163295 1471:0 1472:0.0065173302 1473:0.00270209 1474:0.168556 1475:0.468842 1476:0.26942301 1477:0.00021915699 1478:4.39252e-05 1479:0.00013192301 1480:0.00087507698 1481:0.33738801 1482:0.000117199 1483:0 1484:0 1485:0.00021915699 1486:2.8460299e-05 1487:1.52027e-05 1488:4.5492299e-05 1489:0.0027218401 1490:0.60400301 1491:0.00015068499 1492:0 1493:0 1494:2.8460299e-05 1495:0.00179165 1496:0.000234552 1497:0.000207444 1498:0.0031162801 1499:0.38605699 1500:0.00063748 1501:0.0066933599 1502:0.031515099 1503:0.0177538 1504:0.000407955 1505:7.5786702e-05 1506:0 1507:0.0087229498 1508:0.60400301 1509:0.0027528801 1510:0 1511:7.3801901e-05 1512:0.00064776698 1513:0 1514:0 1515:0 1516:0 1517:0 1518:0 1519:0 1520:0 1521:0 1522:0 1523:0 1524:0 1525:0 1526:0 1527:0 1528:0 1529:0 1530:0 1531:0 1532:0 1533:0 1534:0 1535:0 1536:0 1537:0 1538:0 1539:0 1540:0 1541:0 1542:0 1543:0 1544:0 1545:0 1546:0 1547:0 1548:0 1549:0 1550:0 1551:0 1552:0 1553:0 1554:0 1555:0 1556:0 1557:0 1558:0 1559:0 1560:0 1561:0 1562:0.19227099 1563:0 1564:0 1565:0 1566:0 1567:0 1568:0 1569:0 1570:0 1571:0 1572:0 1573:0 1574:0 1575:0 1576:0 1577:0 1578:0 1579:0 1580:0 1581:0 1582:0 1583:0 1584:0 1585:0.0133214 1586:0.00154776 1587:0 1588:0 1589:0.0098601803 1590:0.0165128 1591:0.0126703 1592:0.0055077602 1593:0.0180018 1594:0.112872 1595:0.036646701 1596:0 1597:0 1598:0.0414083 1599:0.051700499 1600:0.199884 1601:0.69225901 1602:0.66627401 1603:0 1604:0 1605:0 1606:0 1607:0 1608:0 1609:0 1610:0 1611:0 1612:0.00172751 1613:0 1614:0 1615:0 1616:0.00770067 1617:0 1618:0.00298251 1619:0.00099670503 1620:0.00172751 1621:0.0159618 1622:0.00387883 1623:0.00128596 1624:0 1625:0.0101872 1626:0.0054686102 1627:0.107132 1628:0.35776201 1629:0.20360599 1630:0.065626398 1631:0.0063450299 1632:0.00165338 1633:0 1634:0.0160088 1635:0.00570691 1636:0.51783103 1637:0.51783103 1638:0.51783103 1639:0.00129455 1640:0.00055804499 1641:0.00058452901 1642:0 1643:0.0026768399 1644:0 1645:0.00090459897 1646:0.00044243201 1647:0.0015543899 1648:0.0080365296 1649:0.0010491 1650:0.00075153698 1651:0 1652:0.0079498403 1653:0.00055777299 1654:0.0152738 1655:0.0506492 1656:0.038355 1657:0.032866299 1658:0.0021633599 1659:0.00024503001 1660:0.00023593 1661:0.00183135 1662:0.00051183498 1663:0.24138901 1664:0.385849 1665:0.311719 1666:0.066755302 1667:0.0021068 1668:0.00149594 1669:0.00030333799 1670:0.0021788599 1671:0.00071054097 1672:0.385849 1673:0.385849 1674:0.385849 1675:0.0062118801 1676:5.95538e-05 1677:0.00029563199 1678:0.00051904598 1679:0.00244422 1680:0.00103033 1681:0.032558698 1682:0.10291 1683:0.053091399 1684:0.026472799 1685:0.000137724 1686:0.00075974799 1687:0.00066734402 1688:0.0039650998 1689:0.0022632601 1690:0.157833 1691:0.385849 1692:0.224957 1693:0.036302298 1694:0.000669036 1695:0.00127281 1696:2.65688e-05 1697:0.0017735499 1698:0.000723315 1699:0.244113 1700:0.344246 1701:0.29263401 1702:0.024220901 1703:0.000531214 1704:0.00101658 1705:0 1706:0.00110136 1707:0.000368087 1708:0.172599 1709:0.344246 1710:0.227074 1711:0.0250683 1712:0.000231028 1713:0.00075290003 1714:5.8451202e-05 1715:0.0017244701 1716:0.0012863301 1717:0.178554 1718:0.344246 1719:0.239728 1720:0.038547501 1721:0.00033106701 1722:0.00058177102 1723:0 1724:0.00054894801 1725:0.00074729498 1726:0.289947 1727:0.344246 1728:0.344246 1729:0.0143125 1730:0.0058435202 1731:0.000321561 1732:0.00665408 1733:0.22199 1734:0.00138165 1735:0.075069599 1736:0.26684499 1737:0.110612 1738:0.0076059802 1739:0.0122579 1740:0.000351019 1741:0.020619299 1742:0.40725499 1743:0.0067094499 1744:0.0184249 1745:0.055359699 1746:0.029607 1747:0.0518318 1748:0.025601599 1749:0.00129545 1750:0.0140674 1751:0.1228 1752:0.00154897 1753:0.245819 1754:0.40725499 1755:0.33789 1756:0.053194899 1757:0.063117802 1758:0.023182999 1759:0.068909399 1760:0.40725499 1761:0.0133676 1762:0.104765 1763:0.32017699 1764:0.189143 #
-0.0039532956642408427841428597560025 1:0.136021 2:0.10548 3:0.20327701 4:0.105624 5:0.15730301 6:0.152077 7:0.12786099 8:0.163747 9:0.132165 10:0.093723901 11:0.11708 12:0.228503 13:0.109954 14:0.225155 15:0.183805 16:0.21811 17:0.146769 18:0.112323 19:0.110863 20:0.099008501 21:0.174704 22:0.105707 23:0.128199 24:0.22855499 25:0.184544 26:0.130367 27:0.110885 28:0.12471 29:0.15153401 30:0.21627501 31:0.082966201 32:0.107397 33:0.33523101 34:0.28086001 35:0.18306801 36:0.159577 37:0.061836399 38:0.113805 39:0.18406799 40:0.099397898 41:0.215479 42:0.18881699 43:0.196659 44:0.145262 45:0.061487701 46:0.12565701 47:0.12723599 48:0.173793 49:0.12564699 50:0.2225 51:0.130611 52:0.185525 53:0.130887 54:0.13410901 55:0.13557801 56:0.13548601 57:0.167695 58:0.072782502 59:0.132727 60:0.230434 61:0.24304099 62:0.20348801 63:0.120702 64:0.240633 65:0.148862 66:0.15616401 67:0.087191202 68:0.189927 69:0.116336 70:0.24879999 71:0.231732 72:0.19932599 73:0.089014001 74:0.0686628 75:0.093257703 76:0.096149102 77:0.24062701 78:0.080344699 79:0.092077903 80:0.050635699 81:0.081432097 82:0.099471897 83:0.10235 84:0.066114001 85:0.052408699 86:0.34270301 87:0.14249 88:0.066313803 89:0.094747901 90:0.081769802 91:0.15584201 92:0.13239101 93:0.0947657 94:0.089060999 95:0.171399 96:0.0873276 97:0.17587399 98:0.152033 99:0.132843 100:0.409722 101:0.33488199 102:0.077811398 103:0.070598699 104:0.156149 105:0.111874 106:0.202976 107:0.30846301 108:0.252327 109:0.042769998 110:0.032476299 111:0.028097 112:0.027913099 113:0.156948 114:0.0561883 115:0.028266201 116:0.0438108 117:0.0546478 118:0.064360298 119:0.0130763 120:0.05297 121:0.039338298 122:0.22156601 123:0.0612294 124:0.045737799 125:0.036839999 126:0.0744908 127:0.23841199 128:0.24524499 129:0.060520701 130:0.0265713 131:0.102424 132:0.114547 133:0.071231499 134:0.143093 135:0.16585501 136:0.40661201 137:0.50845701 138:0.20605899 139:0.059026901 140:0.216709 141:0.222592 142:0.131799 143:0.137018 144:0.29323301 145:0.02634 146:0.0246689 147:0.0276797 148:0.0195179 149:0.054946098 150:0.0139529 151:0.0112087 152:0.016125601 153:0.026267899 154:0.111401 155:0.252386 156:0.063805602 157:0.030125201 158:0.0475615 159:0.0191411 160:0.031897999 161:0.030219801 162:0.041108999 163:0.26344001 164:0.47068 165:0.14329 166:0.0206374 167:0.050951101 168:0.034827601 169:0.021634201 170:0.0358769 171:0.064694501 172:0.47068 173:0.47068 174:0.357934 175:0.049671698 176:0.0185655 177:0.0133512 178:0.019550299 179:0.0393188 180:0.0588305 181:0.107944 182:0.33577201 183:0.057510201 184:0.0105828 185:0.0131348 186:0.0079013202 187:0.018977899 188:0.0153221 189:0.022273799 190:0.21749599 191:0.41048101 192:0.115229 193:0.0114058 194:0.0123921 195:0.0062768101 196:0.011312 197:0.0160283 198:0.055105198 199:0.303763 200:0.41048101 201:0.193718 202:0.0257688 203:0.0024055501 204:0.0022688301 205:0.0106315 206:0.013718 207:0.058713101 208:0.34398699 209:0.41048101 210:0.163142 211:0.028243801 212:0.071858302 213:0.0150733 214:0.0106372 215:0.0235027 216:0.10455 217:0.287714 218:0.331285 219:0.081085503 220:0.0120981 221:0.0268468 222:0.0296693 223:0.032019101 224:0.0278151 225:0.086787 226:0.243626 227:0.214105 228:0.01839 229:0.049950302 230:0.28936699 231:0.20950601 232:0.128069 233:0.096226498 234:0.136039 235:0.220349 236:0.331285 237:0.078128003 238:0.095585898 239:0.302589 240:0.091362201 241:0.046569798 242:0.044351298 243:0.0914132 244:0.066803299 245:0.076526403 246:0.0200227 247:0.191315 248:0.331285 249:0.235691 250:0.073451199 251:0.030491799 252:0.042374201 253:0.0953485 254:0.098829702 255:0.135465 256:0.13246299 257:0.173428 258:0.13067199 259:0.15817399 260:0.103263 261:0.111459 262:0.20487501 263:0.17308301 264:0.12789699 265:0.0611233 266:0.112704 267:0.18580499 268:0.222186 269:0.212161 270:0.201644 271:0.097081698 272:0.0755141 273:0.12056 274:0.091790497 275:0.17495 276:0.0111695 277:0.048135899 278:0.064872898 279:0.115875 280:0.36314201 281:0.235836 282:0.287424 283:0.15310501 284:0.21988501 285:0.047571 286:0.114362 287:0.199737 288:0.28713101 289:0.0775332 290:0.0495083 291:0.033138301 292:0.0241448 293:0.056258101 294:0.052841101 295:0.070815898 296:0.067864701 297:0.060559198 298:0.112819 299:0.050114602 300:0.061815601 301:0.0457366 302:0.072409801 303:0.047234099 304:0.062554598 305:0.071800299 306:0.067566402 307:0.202452 308:0.285759 309:0.19367699 310:0.092542604 311:0.075962298 312:0.037049301 313:0.052685801 314:0.063354 315:0.093867399 316:0.48582199 317:0.55362499 318:0.33462301 319:0.110634 320:0.107617 321:0.110354 322:0.089192301 323:0.100006 324:0.15134899 325:0.0310273 326:0.03475 327:0.019895799 328:0.015931301 329:0.0144005 330:0.0074050501 331:0.0143073 332:0.0190893 333:0.018463301 334:0.13134301 335:0.28927699 336:0.0296306 337:0.0119423 338:0.0059864698 339:0.0068378202 340:0.016737901 341:0.026759 342:0.0443638 343:0.29529101 344:0.49109301 345:0.102107 346:0.0170983 347:0.0173363 348:0.023507999 349:0.0163274 350:0.022389799 351:0.063584402 352:0.49109301 353:0.49109301 354:0.205851 355:0.0100776 356:0.0041732299 357:0.0045696199 358:0.00382415 359:0.0108531 360:0.127914 361:0.103051 362:0.33111501 363:0.0250446 364:0.0044247801 365:0.0042117801 366:0.0098922905 367:0.0065524201 368:0.0125578 369:0.0238297 370:0.167731 371:0.412516 372:0.0623818 373:0.0087398803 374:0.0137349 375:0.020150101 376:0.0100512 377:0.0112688 378:0.032356799 379:0.301153 380:0.412516 381:0.14751001 382:0.0032907401 383:0.00028258501 384:0.0031548601 385:0.0051065302 386:0.0093170796 387:0.066145599 388:0.412516 389:0.412516 390:0.192718 391:0.020572901 392:0.0060202498 393:0.0114052 394:0.00715836 395:0.0082858996 396:0.068044901 397:0.18900301 398:0.35455 399:0.081120402 400:0.0074167498 401:0.0089783203 402:0.0072640502 403:0.0034818 404:0.0086319298 405:0.021535501 406:0.25435901 407:0.35455 408:0.14386199 409:0.0166521 410:0.00252034 411:0.0079852799 412:0.0075259702 413:0.017921301 414:0.0187116 415:0.35455 416:0.35455 417:0.143244 418:0.021445099 419:0.0119081 420:0.0070964601 421:0.00603713 422:0.064227 423:0.18361799 424:0.235759 425:0.35455 426:0.096866503 427:0.0413443 428:0.068548098 429:0.0285812 430:0.030533399 431:0.135452 432:0.296478 433:0.323194 434:0.37057599 435:0.210343 436:0.039929099 437:0.0083274003 438:0.0118748 439:0.018074101 440:0.0300199 441:0.049240299 442:0.25369799 443:0.37057599 444:0.109321 445:0.0579249 446:0.21285801 447:0.034835599 448:0.0135299 449:0.031380501 450:0.069142699 451:0.21122199 452:0.35939601 453:0.079370499 454:0.103041 455:0.119125 456:0.061971601 457:0.050393801 458:0.095468603 459:0.18588001 460:0.112974 461:0.0932163 462:0.0318483 463:0.13515501 464:0.34428301 465:0.071258701 466:0.029146699 467:0.0311266 468:0.119397 469:0.079189397 470:0.19154599 471:0.017940899 472:0.113131 473:0.42249101 474:0.092254199 475:0.0143688 476:0.0186738 477:0.0235468 478:0.0146599 479:0.018585701 480:0.0109892 481:0.201352 482:0.42249101 483:0.196703 484:0.015711701 485:0.0066044498 486:0.0103288 487:0.016225699 488:0.0127941 489:0.0079592103 490:0.145257 491:0.42249101 492:0.104048 493:0.0095655303 494:0.0064382199 495:0.0219623 496:0.0065793502 497:0.0118518 498:0.0090182396 499:0.246648 500:0.42249101 501:0.20364299 502:0.0096191196 503:0.000161599 504:0.0087354695 505:0.022698499 506:0.0340234 507:0.0046081999 508:0.0014197 509:0.0140861 510:0.00091926602 511:0.00098354195 512:0.00203334 513:0.0080755297 514:0.114746 515:0.346183 516:0.068034597 517:0.0213755 518:0.0350345 519:0.0080723297 520:0.0040553901 521:0.00863156 522:0.032423198 523:0.240775 524:0.52068502 525:0.108664 526:0.0066727698 527:0.0104087 528:0.0071785999 529:0.01463 530:0.0067006298 531:0.024998499 532:0.426505 533:0.52068502 534:0.218669 535:0.0277564 536:0.0246739 537:0.0096115796 538:0.0117659 539:0.0069010998 540:0.088486098 541:0.118478 542:0.387279 543:0.073890999 544:0.0173767 545:0.0102945 546:0.0042170901 547:0.0042338199 548:0.0057875798 549:0.0153467 550:0.21272001 551:0.414179 552:0.12062 553:0.0135529 554:0.0113694 555:0.0106131 556:0.0103364 557:0.0109596 558:0.027974101 559:0.276135 560:0.414179 561:0.163697 562:0.018299101 563:0.0060091 564:0.0037400201 565:0.00212707 566:0.00677509 567:0.038915802 568:0.34601501 569:0.414179 570:0.15229701 571:0.00694597 572:0.0057379799 573:0.00187248 574:0.0035691101 575:0.00975243 576:0.041108001 577:0.203886 578:0.36660701 579:0.083440401 580:0.0038803499 581:0.0055384301 582:0.00769069 583:0.0052376501 584:0.00557893 585:0.040502101 586:0.269676 587:0.36660701 588:0.210788 589:0.0145172 590:0.00150256 591:0.00104255 592:0.00057153398 593:0.00250345 594:0.0594486 595:0.170645 596:0.36660701 597:0.080778196 598:0.0292829 599:0.0205679 600:0.0053904499 601:0.00965124 602:0.0108717 603:0.039593801 604:0.114002 605:0.36660701 606:0.36660701 607:0.30244699 608:0.073555604 609:0.0313977 610:0.0351713 611:0.0257149 612:0.039849799 613:0.165392 614:0.33481601 615:0.234808 616:0.00664671 617:0.000130584 618:0.00090403599 619:0.00093648001 620:0.0030815499 621:0.033162899 622:0.33481601 623:0.33481601 624:0.171785 625:0.00858171 626:0.0033624501 627:0.0026120101 628:0.0033536199 629:0.0139647 630:0.062707096 631:0.056740802 632:0.33481601 633:0.33481601 634:0.186194 635:0.0232793 636:0.019522799 637:0.0173853 638:0.0097079799 639:0.0173488 640:0.215313 641:0.33481601 642:0.33481601 643:0.056079298 644:0.00776636 645:0.0083845798 646:0.0142639 647:0.0252448 648:0.067619003 649:0.27546 650:0.27546 651:0.172897 652:0.018993299 653:0.0180376 654:0.0051281499 655:0.0155282 656:0.105818 657:0.27546 658:0.157112 659:0.27546 660:0.211999 661:0.091298103 662:0.139695 663:0.026762599 664:0.042894799 665:0.155093 666:0.27546 667:0.26608801 668:0.27546 669:0.181041 670:0.017835001 671:0.0132806 672:0.0122496 673:0.042006802 674:0.093185 675:0.24052601 676:0.063663803 677:0.27546 678:0.246922 679:0.076842099 680:0.110365 681:0.048163101 682:0.0670956 683:0.0783033 684:0.177145 685:0.136437 686:0.138542 687:0.141111 688:0.138429 689:0.157858 690:0.0523628 691:0.078204803 692:0.095992804 693:0.153056 694:0.115155 695:0.051424999 696:0.048477899 697:0.091797002 698:0.19444001 699:0.063114896 700:0.20721 701:0.109688 702:0.106258 703:0.103433 704:0.14770301 705:0.193473 706:0.14529 707:0.243172 708:0.241119 709:0.31526199 710:0.143158 711:0.063063301 712:0.110741 713:0.054795299 714:0.076111503 715:0.081080399 716:0.31526199 717:0.31526199 718:0.31526199 719:0.235956 720:0.071758598 721:0.018051701 722:0.0109995 723:0.0024163299 724:0.115839 725:0.37717301 726:0.078988597 727:0.086840697 728:0.0299368 729:0.023257799 730:0.0062814201 731:0.0070057898 732:0.00295968 733:0.178397 734:0.37717301 735:0.141334 736:0.00940054 737:0.0023072099 738:0.0106499 739:0.016517499 740:0.0083082505 741:0.00294831 742:0.097841702 743:0.37717301 744:0.37717301 745:0.37119299 746:0.056467202 747:0.0147505 748:0.0057708099 749:0.0043350002 750:0.0067861602 751:0.15175401 752:0.37717301 753:0.169407 754:0.0270936 755:0.0043146699 756:0.0068282802 757:0.14310101 758:0.38594201 759:0.12315 760:0.021045901 761:0.055215299 762:0.0591553 763:0.048395 764:0.101506 765:0.025774799 766:0.21242701 767:0.38594201 768:0.130073 769:0.017168101 770:0.032692701 771:0.067886397 772:0.0407313 773:0.157664 774:0.0846292 775:0.055048902 776:0.209208 777:0.0589987 778:0.025300199 779:0.079207502 780:0.076499403 781:0.13549601 782:0.38594201 783:0.105634 784:0.094779097 785:0.26227099 786:0.0492521 787:0.0138929 788:0.0496465 789:0.087291799 790:0.127627 791:0.38594201 792:0.208266 793:0.274023 794:0.38981599 795:0.19727901 796:0.020826301 797:0.0140541 798:0.0310467 799:0.0199473 800:0.149078 801:0.092836998 802:0.21183001 803:0.38981599 804:0.112195 805:0.0213385 806:0.031261701 807:0.0186089 808:0.0092321597 809:0.036723301 810:0.053190202 811:0.093998298 812:0.18737601 813:0.057139799 814:0.0092254896 815:0.0207307 816:0.0404111 817:0.104648 818:0.38981599 819:0.25527501 820:0.042545099 821:0.039834 822:0.0267483 823:0.0212547 824:0.0439399 825:0.031913798 826:0.086164303 827:0.38981599 828:0.19370601 829:0.091422401 830:0.26757401 831:0.047325999 832:0.072220303 833:0.079924099 834:0.0243547 835:0.035902102 836:0.0228195 837:0.0338553 838:0.130732 839:0.152725 840:0.296918 841:0.296918 842:0.25779 843:0.10864 844:0.156895 845:0.138707 846:0.2349 847:0.0313254 848:0.019101299 849:0.0187198 850:0.052875299 851:0.090707801 852:0.043113001 853:0.074539401 854:0.266074 855:0.080494098 856:0.234723 857:0.125405 858:0.138956 859:0.204522 860:0.296918 861:0.202546 862:0.122925 863:0.20936801 864:0.296918 865:0.111773 866:0.193251 867:0.312846 868:0.312846 869:0.0926136 870:0.055645902 871:0.073045403 872:0.073233597 873:0.190797 874:0.0910822 875:0.27224401 876:0.312846 877:0.189261 878:0.0448297 879:0.0217006 880:0.023415601 881:0.0241332 882:0.087271802 883:0.216159 884:0.111639 885:0.152235 886:0.144913 887:0.14131799 888:0.143318 889:0.109137 890:0.20507701 891:0.312846 892:0.0863778 893:0.0502997 894:0.0718031 895:0.089783996 896:0.067986198 897:0.122553 898:0.14709 899:0.153512 900:0.28533399 901:0.197954 902:0.297497 903:0.25726801 904:0.104896 905:0.075827397 906:0.0928507 907:0.114047 908:0.118912 909:0.297497 910:0.078880303 911:0.219696 912:0.18765 913:0.105208 914:0.157407 915:0.17246 916:0.21334501 917:0.146079 918:0.226879 919:0.102256 920:0.122248 921:0.039542001 922:0.102439 923:0.144749 924:0.14946499 925:0.15211201 926:0.13561399 927:0.146644 928:0.160955 929:0.17971399 930:0.121421 931:0.180843 932:0.249228 933:0.194023 934:0.107187 935:0.090185799 936:0.140322 937:0.0257398 938:0.028043101 939:0.034696799 940:0.0593029 941:0.172416 942:0.234054 943:0.203935 944:0.062912703 945:0.0160829 946:0.0214379 947:0.0107675 948:0.0273102 949:0.148729 950:0.324332 951:0.324332 952:0.324332 953:0.071961902 954:0.0089096297 955:0.052859001 956:0.099062897 957:0.119406 958:0.176374 959:0.22225 960:0.179994 961:0.039827298 962:0.015722301 963:0.0256061 964:0.036678798 965:0.121887 966:0.19745199 967:0.324332 968:0.324332 969:0.324332 970:0.053532701 971:0.0054837898 972:0.0094786398 973:0.00981359 974:0.00376419 975:0.0143603 976:0.14144699 977:0.36644301 978:0.36644301 979:0.182292 980:0.0163485 981:0.00191123 982:0.0071238298 983:0.0062384298 984:0.017077301 985:0.119558 986:0.36644301 987:0.13389 988:0.015057 989:0.0037503501 990:0.00165861 991:0.00948969 992:0.0325366 993:0.074005403 994:0.36644301 995:0.36644301 996:0.243448 997:0.0231022 998:0.00585037 999:0.00141312 1000:0.0084604397 1001:0.0161881 1002:0.0254345 1003:0.14871199 1004:0.36644301 1005:0.119261 1006:0.0094927102 1007:0.0106262 1008:0.0014203 1009:0.0299956 1010:0.0061903899 1011:0.0051966598 1012:0.0121435 1013:0.034549002 1014:0.026658799 1015:0.12508599 1016:0.467338 1017:0.199522 1018:0.0542018 1019:0.0100552 1020:0.017454199 1021:0.0091920104 1022:0.0235657 1023:0.023332899 1024:0.176783 1025:0.467338 1026:0.425192 1027:0.0212247 1028:0.0140956 1029:0.0088752899 1030:0.0071594599 1031:0.0154843 1032:0.0155594 1033:0.047557902 1034:0.135369 1035:0.0671321 1036:0.036123998 1037:0.025730301 1038:0.0182388 1039:0.0140803 1040:0.0167748 1041:0.0095536802 1042:0.068711497 1043:0.467338 1044:0.176439 1045:0.0235998 1046:0.0048761801 1047:0.00602359 1048:0.00233251 1049:0.0094226701 1050:0.0061536198 1051:0.106583 1052:0.40500799 1053:0.24570701 1054:0.0535792 1055:0.00776318 1056:0.00298568 1057:0.0055782902 1058:0.019718399 1059:0.00709337 1060:0.136848 1061:0.40500799 1062:0.24947999 1063:0.033477601 1064:0.0059541999 1065:0.0045889802 1066:0.0052450099 1067:0.0071199602 1068:0.0080867298 1069:0.084207997 1070:0.40500799 1071:0.17208 1072:0.087996997 1073:0.0087367203 1074:0.0024057501 1075:0.00291734 1076:0.0135027 1077:0.0103429 1078:0.174098 1079:0.40500799 1080:0.326361 1081:0.038284302 1082:0.0109799 1083:0.0066505601 1084:0.0162379 1085:0.039944299 1086:0.0249286 1087:0.080517903 1088:0.34844199 1089:0.136951 1090:0.098265298 1091:0.054362498 1092:0.034574699 1093:0.068248302 1094:0.23936599 1095:0.254567 1096:0.088806301 1097:0.34844199 1098:0.26351401 1099:0.059114601 1100:0.0130682 1101:0.00200371 1102:0.0031244601 1103:0.0175862 1104:0.0113395 1105:0.144391 1106:0.34844199 1107:0.26644501 1108:0.109319 1109:0.027386799 1110:0.0136471 1111:0.016028199 1112:0.092670098 1113:0.13129 1114:0.19380701 1115:0.34844199 1116:0.30189899 1117:0.080631398 1118:0.032652698 1119:0.0160884 1120:0.0315722 1121:0.109223 1122:0.17883299 1123:0.167518 1124:0.28446999 1125:0.28942001 1126:0.050526999 1127:0.0109803 1128:0.0026910701 1129:0.0129301 1130:0.025632899 1131:0.119345 1132:0.25787601 1133:0.31264499 1134:0.26103401 1135:0.061440501 1136:0.0111724 1137:0.0090650199 1138:0.0089649996 1139:0.044108201 1140:0.089542203 1141:0.25090799 1142:0.31264499 1143:0.199209 1144:0.0765706 1145:0.0101509 1146:0.0095589804 1147:0.0036140899 1148:0.0048357602 1149:0.0465733 1150:0.28825399 1151:0.31264499 1152:0.31264499 1153:0.17473 1154:0.026674001 1155:0.0069330898 1156:0.0137733 1157:0.024105201 1158:0.039133299 1159:0.082960799 1160:0.190796 1161:0.27557701 1162:0.30715501 1163:0.047683001 1164:0.0225123 1165:0.0433551 1166:0.080681503 1167:0.084596999 1168:0.088646799 1169:0.060872398 1170:0.20633499 1171:0.33137599 1172:0.0503163 1173:0.0138573 1174:0.0126339 1175:0.00352793 1176:0.0149596 1177:0.082391597 1178:0.33137599 1179:0.33137599 1180:0.33137599 1181:0.24049 1182:0.0264649 1183:0.063771904 1184:0.065535501 1185:0.089930803 1186:0.13795599 1187:0.155191 1188:0.33137599 1189:0.13714901 1190:0.12519699 1191:0.118575 1192:0.126506 1193:0.191108 1194:0.25349501 1195:0.13531999 1196:0.042943802 1197:0.082072496 1198:0.108431 1199:0.25349501 1200:0.25349501 1201:0.25349501 1202:0.25349501 1203:0.25349501 1204:0.071132101 1205:0.0156727 1206:0.033027001 1207:0.25349501 1208:0.218927 1209:0.073279403 1210:0.068779603 1211:0.12850299 1212:0.237582 1213:0.19754 1214:0.072879903 1215:0.124031 1216:0.16393501 1217:0.20524999 1218:0.20342401 1219:0.084093302 1220:0.211697 1221:0.18743999 1222:0.088905603 1223:0.039491601 1224:0.062923297 1225:0.046891998 1226:0.135837 1227:0.15467501 1228:0.351612 1229:0.38428101 1230:0.17703 1231:0.017929399 1232:0.0043180301 1233:0.0089472197 1234:0.0051524602 1235:0.022721499 1236:0.024697401 1237:0.15399399 1238:0.38428101 1239:0.14887901 1240:0.016164299 1241:0.00459712 1242:0.00127554 1243:0.071232699 1244:0.112998 1245:0.122454 1246:0.16302299 1247:0.38428101 1248:0.16002899 1249:0.0176176 1250:0.0095122699 1251:0.019983601 1252:0.0069915699 1253:0.0154278 1254:0.018722899 1255:0.188274 1256:0.38428101 1257:0.18977199 1258:0.0163018 1259:0.00069185899 1260:0.0023217599 1261:0.093888797 1262:0.0833712 1263:0.072712399 1264:0.0290966 1265:0.238058 1266:0.237866 1267:0.246204 1268:0.24160101 1269:0.13287801 1270:0.197299 1271:0.18637501 1272:0.11002 1273:0.061922099 1274:0.172077 1275:0.102545 1276:0.164819 1277:0.22958601 1278:0.264494 1279:0.103904 1280:0.082353801 1281:0.14463501 1282:0.057894401 1283:0.204998 1284:0.313297 1285:0.196318 1286:0.186112 1287:0.112291 1288:0.207128 1289:0.120735 1290:0.114757 1291:0.085263103 1292:0.151742 1293:0.129164 1294:0.069933198 1295:0.15087999 1296:0.16770101 1297:0.103905 1298:0.0302175 1299:0.0170715 1300:0.0137314 1301:0.0259794 1302:0.0316521 1303:0.113259 1304:0.31025699 1305:0.25812 1306:0.214048 1307:0.0475582 1308:0.0244711 1309:0.0096317399 1310:0.0204206 1311:0.051504299 1312:0.307964 1313:0.55059701 1314:0.55059701 1315:0.071939103 1316:0.037459198 1317:0.0269897 1318:0.0267956 1319:0.043814301 1320:0.0220349 1321:0.0195358 1322:0.033601899 1323:0.0624348 1324:0.104188 1325:0.042388801 1326:0.035786401 1327:0.039938498 1328:0.051283199 1329:0.025600901 1330:0.032457501 1331:0.077603303 1332:0.100993 1333:0.051154099 1334:0.017543601 1335:0.00656544 1336:0.0032015301 1337:0.0096438602 1338:0.0108498 1339:0.13883799 1340:0.44380501 1341:0.29047 1342:0.107429 1343:0.027450999 1344:0.025841201 1345:0.00549684 1346:0.0170935 1347:0.0080930404 1348:0.21145201 1349:0.44380501 1350:0.44380501 1351:0.0390963 1352:0.0117289 1353:0.0080266101 1354:0.0112123 1355:0.021474799 1356:0.0189522 1357:0.015740599 1358:0.080403499 1359:0.062485199 1360:0.031386599 1361:0.0161789 1362:0.0145882 1363:0.0127089 1364:0.026590001 1365:0.0278021 1366:0.0497787 1367:0.44380501 1368:0.154732 1369:0.0500446 1370:0.00842671 1371:0.0131383 1372:0.0026501601 1373:0.0045999698 1374:0.0042459099 1375:0.153431 1376:0.407873 1377:0.204345 1378:0.054738801 1379:0.0066412198 1380:0.0141057 1381:0.0012638 1382:0.00025997899 1383:0.0086216303 1384:0.16201 1385:0.407873 1386:0.40561399 1387:0.018173 1388:0.0100513 1389:0.0085122203 1390:0.00778405 1391:0.0093674697 1392:0.0053193402 1393:0.041295201 1394:0.407873 1395:0.105946 1396:0.020266 1397:0.0106364 1398:0.0057682102 1399:0.0028137099 1400:0.0103736 1401:0.00189011 1402:0.0516067 1403:0.407873 1404:0.226621 1405:0.236918 1406:0.0290202 1407:0.0107578 1408:0.0052545001 1409:0.00131895 1410:0.00300573 1411:0.055058401 1412:0.34038001 1413:0.34038001 1414:0.34038001 1415:0.16277 1416:0.0190765 1417:0.029889001 1418:0.0189247 1419:0.0217498 1420:0.063462399 1421:0.34038001 1422:0.26567101 1423:0.016921701 1424:0.0118951 1425:0.00556642 1426:0.0023552401 1427:0.0078307698 1428:0.000388863 1429:0.0681329 1430:0.34038001 1431:0.21849599 1432:0.048527401 1433:0.024825601 1434:0.0102565 1435:0.0158423 1436:0.011405 1437:0.00064438698 1438:0.124327 1439:0.34038001 1440:0.25744 1441:0.30695999 1442:0.25296399 1443:0.0695467 1444:0.060064498 1445:0.0611514 1446:0.073808499 1447:0.113783 1448:0.25046501 1449:0.145298 1450:0.090406202 1451:0.058976602 1452:0.079248101 1453:0.061008599 1454:0.25356799 1455:0.080262899 1456:0.052956302 1457:0.070784003 1458:0.060823601 1459:0.101598 1460:0.028508 1461:0.019104499 1462:0.037144698 1463:0.018482801 1464:0.0023724299 1465:0.238805 1466:0.35432899 1467:0.35432899 1468:0.067192398 1469:0.030874001 1470:0.031386901 1471:0.0623722 1472:0.221591 1473:0.053627402 1474:0.165251 1475:0.35432899 1476:0.288762 1477:0.021531601 1478:0.015695199 1479:0.024131401 1480:0.104585 1481:0.43204901 1482:0.13731 1483:0.0112087 1484:0.01069 1485:0.0112255 1486:0.00263102 1487:0.0066080401 1488:0.0094063897 1489:0.17493699 1490:0.43204901 1491:0.159398 1492:0.0116769 1493:0.0058125802 1494:0.00256242 1495:0.0196764 1496:0.0185029 1497:0.0150987 1498:0.118004 1499:0.43204901 1500:0.153983 1501:0.0320892 1502:0.166749 1503:0.080081202 1504:0.0069056898 1505:0.0059454502 1506:0.0092137698 1507:0.208921 1508:0.43204901 1509:0.20725 1510:0.0132447 1511:0.01952 1512:0.0086609796 1513:0.15343501 1514:0.097782299 1515:0.17203499 1516:0.071755402 1517:0.116212 1518:0.12464 1519:0.121315 1520:0.18610799 1521:0.126883 1522:0.167697 1523:0.104052 1524:0.25270101 1525:0.199127 1526:0.167944 1527:0.120149 1528:0.067611098 1529:0.205856 1530:0.180748 1531:0.109841 1532:0.059936699 1533:0.158224 1534:0.053510301 1535:0.230726 1536:0.0649141 1537:0.16148099 1538:0.089513898 1539:0.105838 1540:0.070822902 1541:0.045619301 1542:0.42011699 1543:0.24080899 1544:0.27918899 1545:0.141969 1546:0.19357599 1547:0.153721 1548:0.130989 1549:0.10998 1550:0.061279599 1551:0.129179 1552:0.20602401 1553:0.182163 1554:0.086865403 1555:0.052477501 1556:0.097340301 1557:0.112979 1558:0.137321 1559:0.052960198 1560:0.102286 1561:0.22262201 1562:0.22751901 1563:0.14785901 1564:0.085306197 1565:0.14099699 1566:0.115237 1567:0.072364502 1568:0.0439904 1569:0.239604 1570:0.257548 1571:0.26001599 1572:0.12966201 1573:0.14338601 1574:0.091934502 1575:0.0933218 1576:0.195151 1577:0.157866 1578:0.113093 1579:0.24365801 1580:0.36172301 1581:0.249571 1582:0.158334 1583:0.151765 1584:0.164021 1585:0.167134 1586:0.057645898 1587:0.111458 1588:0.148258 1589:0.20566501 1590:0.214338 1591:0.087392598 1592:0.123855 1593:0.183788 1594:0.131898 1595:0.125036 1596:0.215624 1597:0.142039 1598:0.243986 1599:0.229435 1600:0.14613999 1601:0.21774 1602:0.22318301 1603:0.109975 1604:0.089563198 1605:0.111092 1606:0.17769299 1607:0.29817101 1608:0.239033 1609:0.121616 1610:0.093830399 1611:0.087319002 1612:0.0208811 1613:0.033476401 1614:0.161972 1615:0.19927099 1616:0.297223 1617:0.161513 1618:0.16156401 1619:0.035967801 1620:0.0256464 1621:0.048682299 1622:0.061645299 1623:0.070590198 1624:0.045537598 1625:0.127804 1626:0.0394358 1627:0.058394101 1628:0.36322799 1629:0.127224 1630:0.077546202 1631:0.069052704 1632:0.037470501 1633:0.018996401 1634:0.216711 1635:0.00591905 1636:0.083608001 1637:0.58726603 1638:0.51598197 1639:0.0091745099 1640:0.0099037299 1641:0.0402398 1642:0.048788399 1643:0.176145 1644:0.0283197 1645:0.0265004 1646:0.0068510198 1647:0.0082776304 1648:0.018914901 1649:0.016267199 1650:0.017703099 1651:0.018247001 1652:0.307722 1653:0.0149981 1654:0.0083082598 1655:0.021110799 1656:0.017445499 1657:0.025510199 1658:0.0161197 1659:0.0079637403 1660:0.0039117201 1661:0.044665001 1662:0.00165895 1663:0.094495602 1664:0.44740099 1665:0.266541 1666:0.066173904 1667:0.0276467 1668:0.0136989 1669:0.0241432 1670:0.033892602 1671:0.0061416002 1672:0.240226 1673:0.44740099 1674:0.44740099 1675:0.0159097 1676:0.0090465397 1677:0.0078532696 1678:0.0042812498 1679:0.069103703 1680:0.0156818 1681:0.011061 1682:0.080654599 1683:0.031663701 1684:0.035311501 1685:0.021212701 1686:0.015844399 1687:0.0112459 1688:0.041122001 1689:0.041281998 1690:0.057180099 1691:0.44740099 1692:0.159012 1693:0.0682768 1694:0.0101242 1695:0.0151687 1696:0.027287999 1697:0.0148259 1698:0.00158028 1699:0.17728101 1700:0.39740801 1701:0.27338001 1702:0.068446301 1703:0.0229553 1704:0.033947099 1705:0.062961601 1706:0.077806696 1707:0.0139753 1708:0.158601 1709:0.39740801 1710:0.298565 1711:0.029253701 1712:0.0081535503 1713:0.010817 1714:0.013953 1715:0.0125566 1716:0.0100411 1717:0.068724804 1718:0.39740801 1719:0.14797901 1720:0.049732599 1721:0.012124 1722:0.0253301 1723:0.039661098 1724:0.0210726 1725:0.00188016 1726:0.131806 1727:0.39740801 1728:0.26557201 1729:0.0555696 1730:0.037594602 1731:0.044042598 1732:0.144494 1733:0.271947 1734:0.080490701 1735:0.0586996 1736:0.32618001 1737:0.15482099 1738:0.0290328 1739:0.022610201 1740:0.050448898 1741:0.253874 1742:0.32618001 1743:0.157745 1744:0.014733 1745:0.048574898 1746:0.024887901 1747:0.090649404 1748:0.046925198 1749:0.0595592 1750:0.0871282 1751:0.042308498 1752:0.0110804 1753:0.113369 1754:0.32618001 1755:0.28792101 1756:0.109702 1757:0.14368799 1758:0.158133 1759:0.26980799 1760:0.32618001 1761:0.0772027 1762:0.033821899 1763:0.20300101 1764:0.203833 #
-0.0073859975582282882955453828799364 1:0.135539 2:0.25482899 3:0.21736901 4:0.092695802 5:0.170545 6:0.169948 7:0.090117298 8:0.130878 9:0.155479 10:0.26542699 11:0.26542699 12:0.25106499 13:0.218182 14:0.15930299 15:0.26542699 16:0.18475901 17:0.144233 18:0.26542699 19:0.109897 20:0.089099102 21:0.076142401 22:0.047660701 23:0.073263802 24:0.050652102 25:0.0151832 26:0.0259776 27:0.109145 28:0.26542699 29:0.175005 30:0.105429 31:0.145778 32:0.095712997 33:0.110622 34:0.0316539 35:0.053959198 36:0.26542699 37:0.235792 38:0.22458901 39:0.088411704 40:0.163574 41:0.085101902 42:0.133742 43:0.089653097 44:0.17950501 45:0.202748 46:0.21899 47:0.178948 48:0.13838901 49:0.138412 50:0.14868499 51:0.085112602 52:0.036997799 53:0.219381 54:0.154902 55:0.235792 56:0.097412601 57:0.0984843 58:0.145594 59:0.111829 60:0.043307401 61:0.075092196 62:0.186997 63:0.20822801 64:0.235792 65:0.101382 66:0.160229 67:0.191277 68:0.187057 69:0.136344 70:0.22758999 71:0.235792 72:0.21438999 73:0.17605799 74:0.146631 75:0.142527 76:0.107078 77:0.27280101 78:0.112251 79:0.0301484 80:0.14326601 81:0.154333 82:0.0129904 83:0.0113109 84:0.023127301 85:0.0199013 86:0.0583276 87:0.0076137302 88:0.0101435 89:0.0059391102 90:0.0060840398 91:0.303592 92:0.140802 93:0.150326 94:0.200791 95:0.303592 96:0.303592 97:0.303592 98:0.303592 99:0.25556099 100:0.045858301 101:0.0584061 102:0.136748 103:0.15573099 104:0.303592 105:0.143749 106:0.069079697 107:0.0115203 108:0.021426899 109:0.050757099 110:0.0259833 111:0.0382457 112:0.0162114 113:0.035677999 114:0.0135373 115:0.0055920002 116:0.0039185402 117:0.0331745 118:0.135795 119:0.17977799 120:0.108319 121:0.0100033 122:0.033573799 123:0.0294939 124:0.0199547 125:0.0090169003 126:0.081132203 127:0.19533899 128:0.188593 129:0.31381199 130:0.233832 131:0.28599799 132:0.17104501 133:0.0245893 134:0.0149321 135:0.112172 136:0.31381199 137:0.31381199 138:0.31381199 139:0.25128201 140:0.192251 141:0.27703199 142:0.075123496 143:0.031822901 144:0.29554999 145:0.16486301 146:0.183148 147:0.124117 148:0.021211701 149:0.050507199 150:0.0098592602 151:0.0427141 152:0.026731901 153:0.059062701 154:0.245905 155:0.30955601 156:0.175239 157:0.0282246 158:0.090320401 159:0.028009299 160:0.092737101 161:0.095099702 162:0.087691799 163:0.30955601 164:0.30955601 165:0.30955601 166:0.17151301 167:0.0903612 168:0.047694799 169:0.092997603 170:0.053969301 171:0.159822 172:0.30955601 173:0.30955601 174:0.29728299 175:0.070745602 176:0.100275 177:0.0039400202 178:0.0837809 179:0.083251603 180:0.12685101 181:0.26008499 182:0.327786 183:0.225348 184:0.0076743402 185:0.040238701 186:0.035438102 187:0.063237399 188:0.069235303 189:0.091245897 190:0.327786 191:0.327786 192:0.30713001 193:0.0019699801 194:0.0178094 195:0.0189163 196:0.0311005 197:0.042677201 198:0.081757203 199:0.307394 200:0.327786 201:0.23940399 202:0.00519562 203:0.0221214 204:0.00429573 205:0.01152 206:0.0245861 207:0.066398203 208:0.170176 209:0.327786 210:0.167758 211:0.00056911202 212:0.0112189 213:0.00141214 214:0.0032998 215:0.00544383 216:0.042297401 217:0.355616 218:0.355616 219:0.355616 220:0.0068504899 221:0.038909499 222:0.0163061 223:0.0138553 224:0.0287915 225:0.091168903 226:0.239122 227:0.355616 228:0.168346 229:0.0215424 230:0.355616 231:0.0892727 232:0.077471301 233:0.051544201 234:0.104837 235:0.109751 236:0.235625 237:0.118897 238:0.016880199 239:0.124945 240:0.0112222 241:0.0071455301 242:0.0067043402 243:0.0368049 244:0.045400999 245:0.049955901 246:0.025555501 247:0.0597868 248:0.355616 249:0.057379398 250:0.017758099 251:0.0099138897 252:0.035248902 253:0.278294 254:0.17026199 255:0.114994 256:0.037664901 257:0.074942 258:0.0907083 259:0.047066499 260:0.11056 261:0.225353 262:0.33749899 263:0.242971 264:0.233234 265:0.119502 266:0.12502301 267:0.19257399 268:0.089791201 269:0.12878799 270:0.33749899 271:0.21001101 272:0.125883 273:0.122028 274:0.030208901 275:0.115713 276:0.039096698 277:0.0403268 278:0.14528701 279:0.218602 280:0.2366 281:0.110484 282:0.085980199 283:0.025266999 284:0.038842902 285:0.088055298 286:0.068421699 287:0.194712 288:0.272625 289:0.19273201 290:0.067277297 291:0.091109097 292:0.064609803 293:0.084806502 294:0.033935402 295:0.13723201 296:0.21446501 297:0.224282 298:0.29367 299:0.058692001 300:0.096619897 301:0.108984 302:0.29367 303:0.29367 304:0.29367 305:0.29367 306:0.29367 307:0.058911499 308:0.024236999 309:0.0246625 310:0.011118 311:0.017028701 312:0.028736901 313:0.0430553 314:0.085694097 315:0.090981901 316:0.0700242 317:0.015780199 318:0.030462701 319:0.040682901 320:0.24412601 321:0.25802901 322:0.211577 323:0.244588 324:0.124308 325:0.134087 326:0.045777999 327:0.0238118 328:0.028463401 329:0.266956 330:0.266956 331:0.266956 332:0.141903 333:0.083588697 334:0.092029303 335:0.22603001 336:0.167942 337:0.075895302 338:0.219587 339:0.13431001 340:0.076372303 341:0.0417706 342:0.0319378 343:0.14174999 344:0.150635 345:0.042001002 346:0.0161612 347:0.23312999 348:0.266956 349:0.20006099 350:0.22757 351:0.086528301 352:0.266956 353:0.266956 354:0.266956 355:0.028227899 356:0.12537301 357:0.159234 358:0.098539703 359:0.14184999 360:0.106582 361:0.167592 362:0.278393 363:0.278393 364:0.195692 365:0.23876999 366:0.13218001 367:0.0131962 368:0.0127069 369:0.0511274 370:0.278393 371:0.278393 372:0.278393 373:0.179446 374:0.140017 375:0.162811 376:0.0252505 377:0.0143342 378:0.103497 379:0.239804 380:0.278393 381:0.278393 382:0.066501603 383:0.059568599 384:0.034084499 385:0.00252862 386:0.0130544 387:0.051224899 388:0.16270199 389:0.278393 390:0.207619 391:0.039336398 392:0.030018499 393:0.0260839 394:0.0023088499 395:0.0073459898 396:0.036170099 397:0.33287299 398:0.33287299 399:0.33287299 400:0.279228 401:0.081468001 402:0.0799108 403:0.059464701 404:0.042605702 405:0.15659501 406:0.33287299 407:0.33287299 408:0.232521 409:0.070953801 410:0.037291698 411:0.0046014702 412:0.044041201 413:0.044878699 414:0.105069 415:0.21318699 416:0.33141601 417:0.173117 418:0.0161283 419:0.0102556 420:0.0075543202 421:0.0045766602 422:0.017614501 423:0.061085299 424:0.136879 425:0.16771699 426:0.066518404 427:0.0024850699 428:0.00689709 429:0.0043427302 430:0.0095572602 431:0.0161437 432:0.069484003 433:0.409179 434:0.409179 435:0.35027999 436:0.0044174301 437:0.0342681 438:0.0129972 439:0.022340201 440:0.033744 441:0.122335 442:0.145804 443:0.39547101 444:0.17331301 445:0 446:0.075406201 447:0.0067754299 448:0.0295143 449:0.028593101 450:0.076871999 451:0.341295 452:0.14557201 453:0.063482702 454:0 455:0.0238663 456:0.0141433 457:0.032823902 458:0.032908 459:0.171947 460:0.271175 461:0.0330652 462:0.038931601 463:0 464:0.052050699 465:0.041985501 466:0.052220501 467:0.075975902 468:0.18988299 469:0.042212602 470:0.068811901 471:0.048755001 472:0.046831299 473:0.28092301 474:0.0085781701 475:0.0191116 476:0.0195002 477:0.036168098 478:0.027297899 479:0.0122695 480:0.0175108 481:0.14574499 482:0.59290898 483:0.096269198 484:0.0428803 485:0.018594399 486:0.0267375 487:0.045741599 488:0.0141244 489:0.0285908 490:0.040272702 491:0.34546101 492:0.022770001 493:0.027239 494:0.035771798 495:0.050057199 496:0.022602599 497:0.00995751 498:0.0236877 499:0.133681 500:0.59290898 501:0.115923 502:0.0388133 503:0.022295101 504:0.0254991 505:0.212071 506:0.18436199 507:0.210536 508:0.0389397 509:0.118235 510:0.021877401 511:0.021820899 512:0.0697053 513:0.15222301 514:0.17470101 515:0.063427299 516:0.0883165 517:0.055951301 518:0.0432778 519:0.057579499 520:0.064072199 521:0.186049 522:0.202555 523:0.331604 524:0.331604 525:0.331604 526:0.0580603 527:0.043507401 528:0.0301333 529:0.016784299 530:0.035493501 531:0.161722 532:0.268895 533:0.331604 534:0.331604 535:0.083480202 536:0.052956201 537:0.034086101 538:0.037384499 539:0.086889699 540:0.15049 541:0.082669303 542:0.0424366 543:0.045177601 544:0.058306798 545:0.0582073 546:0.075580202 547:0.066200398 548:0.183596 549:0.138651 550:0.19383501 551:0.22501101 552:0.118938 553:0.082497403 554:0.12853099 555:0.161707 556:0.10804 557:0.21502 558:0.130393 559:0.204347 560:0.38674 561:0.26223299 562:0.049675599 563:0.049179301 564:0.0366924 565:0.023534801 566:0.070780203 567:0.120461 568:0.35793599 569:0.38674 570:0.338157 571:0.036354002 572:0.0243991 573:0.0115267 574:0.0079053501 575:0.036231 576:0.083982803 577:0.274414 578:0.309533 579:0.111103 580:0.0129776 581:0.063713603 582:0.15955 583:0.097735196 584:0.184514 585:0.11409 586:0.309533 587:0.309533 588:0.294972 589:0.00119379 590:0.0286857 591:0.096127003 592:0.061553501 593:0.138851 594:0.169313 595:0.148368 596:0.309533 597:0.129462 598:0.032034501 599:0.0603755 600:0.0085743703 601:0.0040200301 602:0.0094958004 603:0.043180302 604:0.309533 605:0.25181299 606:0.107737 607:0.057807401 608:0.131745 609:0.0252188 610:0.0064281099 611:0.026515299 612:0.229159 613:0.225464 614:0.32266399 615:0.243826 616:0.000321306 617:0.0041599101 618:0 619:0.00194611 620:0.016897799 621:0.076553397 622:0.146567 623:0.32266399 624:0.206021 625:0.00041714901 626:0.0062516402 627:0.00034821601 628:0.00176915 629:0.00822616 630:0.066505 631:0.32266399 632:0.176643 633:0.085437603 634:0.0141935 635:0.0375496 636:0.00833927 637:0.0039593498 638:0.0153358 639:0.32266399 640:0.32266399 641:0.32266399 642:0.32266399 643:0.0026944401 644:0.0049724602 645:0.00180438 646:0.0054893498 647:0.0028199099 648:0.20632599 649:0.28902099 650:0.15967 651:0.092487298 652:0.00037820099 653:0.00321852 654:0.00085817301 655:0.0038152901 656:0.010119 657:0.13445 658:0.35592899 659:0.0297981 660:0.0083095804 661:2.52134e-05 662:0.00156757 663:0.00062373502 664:0.0038453599 665:0.0118273 666:0.24287599 667:0.35592899 668:0.35391301 669:0.35592899 670:0.0024428701 671:0.0035627701 672:0.00491923 673:0.0051425402 674:0.0040757102 675:0.17824601 676:0.35592899 677:0.088997498 678:0.0444404 679:0.00136402 680:0.0045311898 681:0.00262405 682:0.0045803101 683:0.0083687203 684:0.35592899 685:0.372554 686:0.022740001 687:0.0092677996 688:0.0035635901 689:0.0071322401 690:0.013573 691:0.0072689299 692:0.021193501 693:0.25312299 694:0.372554 695:0.031371102 696:0.014909 697:0.0250895 698:0.095430501 699:0.13284899 700:0.032865401 701:0.072754197 702:0.202953 703:0.372554 704:0.0603645 705:0.0095491204 706:0.0111613 707:0.0140073 708:0.016488001 709:0.0040317699 710:0.0155094 711:0.372554 712:0.372554 713:0.102329 714:0.030290199 715:0.084968202 716:0.188491 717:0.155136 718:0.0226252 719:0.0544465 720:0.27285701 721:0.0824458 722:0.019678099 723:0.0142676 724:0.042680498 725:0.34574899 726:0.111601 727:0.037804101 728:0.052434999 729:0.071138397 730:0.0103811 731:0.00779498 732:0.0146353 733:0.087221302 734:0.49185401 735:0.104133 736:0.0199103 737:0.0147046 738:0.0108289 739:0.156409 740:0.056589 741:0.034056 742:0.12269 743:0.464858 744:0.126403 745:0.0356699 746:0.0481732 747:0.079792999 748:0.051321398 749:0.0186945 750:0.032568201 751:0.177347 752:0.49185401 753:0.123181 754:0.0355515 755:0.024864901 756:0.052675001 757:0.17127199 758:0.274286 759:0.15813801 760:0.033038601 761:0.067533299 762:0.014923 763:0.022765599 764:0.046764899 765:0.084686503 766:0.174578 767:0.307008 768:0.295145 769:0.045890901 770:0.0946251 771:0.014892 772:0.040090401 773:0.051050398 774:0.094917797 775:0.091808699 776:0.193214 777:0.088547297 778:0.0478689 779:0.14648201 780:0.067534402 781:0.125646 782:0.25382501 783:0.21758801 784:0.136364 785:0.307008 786:0.154415 787:0.062734097 788:0.183879 789:0.049502902 790:0.200976 791:0.307008 792:0.307008 793:0.220092 794:0.37733701 795:0.28325599 796:0.021554001 797:0.089077502 798:0.021885401 799:0.031264801 800:0.031080101 801:0.091723897 802:0.21310499 803:0.37733701 804:0.174031 805:0.0031766801 806:0.0233867 807:0.0102968 808:0.0040770201 809:0.0073834402 810:0.052760798 811:0.131707 812:0.263724 813:0.091201797 814:0.027571101 815:0.177599 816:0.044416901 817:0.161681 818:0.37733701 819:0.302641 820:0.099652402 821:0.063643597 822:0.032046501 823:0.0155765 824:0.062549502 825:0.0323436 826:0.050605301 827:0.23333199 828:0.13235401 829:0.101757 830:0.129218 831:0.0455193 832:0.049743298 833:0.14852799 834:0.042636301 835:0.00132444 836:0.0207233 837:0.049279299 838:0.36944401 839:0.104139 840:0.0399471 841:0.10092 842:0.31796199 843:0.114694 844:0.00148064 845:0.089676701 846:0.36944401 847:0.092750199 848:0.045965601 849:0.028468 850:0.076320902 851:0.19538 852:0.057150502 853:0.0086820498 854:0.0409339 855:0.0684871 856:0.36944401 857:0.13672499 858:0.029001299 859:0.171965 860:0.32971999 861:0.124864 862:0.0108068 863:0.091271996 864:0.36944401 865:0.31644601 866:0.059572302 867:0.0230956 868:0.0120779 869:0.040725 870:0.017200099 871:0.00155623 872:0.020464201 873:0.31644601 874:0.31644601 875:0.26149699 876:0.25693399 877:0.00300611 878:0.00153916 879:0.00067531801 880:0.0094019398 881:0.0226807 882:0.212387 883:0.31644601 884:0.035408501 885:0.00550225 886:0.023508601 887:0.037223399 888:0.017677801 889:0.0075579798 890:0.046113901 891:0.31644601 892:0.31644601 893:0.071700498 894:0.061220702 895:0.0020029501 896:0.007673 897:7.2837902e-05 898:0.14449801 899:0.271292 900:0.31644601 901:0.311432 902:0.311432 903:0.311432 904:0.0053803301 905:0.0066466099 906:0.0042817099 907:0.0119296 908:0.0255505 909:0.118269 910:0.311432 911:0.077365004 912:0.059953202 913:0.00289189 914:0.0127915 915:0.0027645801 916:0.0030334699 917:0.00258173 918:0.193427 919:0.291655 920:0.086683802 921:0.094382003 922:0.0035848699 923:0.0097279102 924:0.00058425398 925:0.231475 926:0.311432 927:0.311432 928:0.311432 929:0.0079338001 930:0.0094774999 931:0.000823576 932:0.0099812802 933:0.00045441999 934:0.0225075 935:0.054518301 936:0.311432 937:0.37105 938:0.0434913 939:0.0098352497 940:0.0084708799 941:0.0297122 942:0.0035758 943:0.0041888398 944:0.0027099799 945:0.26662299 946:0.37105 947:0.065217599 948:0.0289007 949:0.056227699 950:0.104929 951:0.0315588 952:0.0102477 953:0.0130211 954:0.162515 955:0.37105 956:0.0036108801 957:0.00775962 958:0.0017222899 959:0.035161201 960:0.0046355999 961:0.0105674 962:0.0067455298 963:0.37105 964:0.37105 965:0.0045493199 966:0.019499101 967:0.0155803 968:0.17772999 969:0.049050398 970:0.109041 971:0.034556001 972:0.37105 973:0.106371 974:0.039308801 975:0.0551732 976:0.12614501 977:0.35884801 978:0.036087502 979:0.018169399 980:0.033024602 981:0.066619702 982:0.095110103 983:0.025384501 984:0.057351001 985:0.219548 986:0.44487101 987:0.113884 988:0.035894699 989:0.0285316 990:0.107568 991:0.091518298 992:0.0116783 993:0.039933302 994:0.081272103 995:0.44487101 996:0.082975201 997:0.076630697 998:0.040434401 999:0.172363 1000:0.096939698 1001:0.0232793 1002:0.0513351 1003:0.18666799 1004:0.44487101 1005:0.15183701 1006:0.018408 1007:0.0275787 1008:0.117752 1009:0.100033 1010:0.067630097 1011:0.046933699 1012:0.065599002 1013:0.105473 1014:0.168516 1015:0.120021 1016:0.25731099 1017:0.31941599 1018:0.12549099 1019:0.046677899 1020:0.031745799 1021:0.049750999 1022:0.118726 1023:0.0590095 1024:0.196049 1025:0.31941599 1026:0.31941599 1027:0.096007302 1028:0.0691038 1029:0.0547163 1030:0.115165 1031:0.139236 1032:0.17666399 1033:0.127417 1034:0.178734 1035:0.239283 1036:0.15131401 1037:0.047668699 1038:0.0279753 1039:0.080443203 1040:0.175754 1041:0.106054 1042:0.18271901 1043:0.29928699 1044:0.297122 1045:0.082404897 1046:0.023162199 1047:0.0130471 1048:0.011968 1049:0.049781401 1050:0.0135649 1051:0.140535 1052:0.34918499 1053:0.24141499 1054:0.098193303 1055:0.020289199 1056:0.0149123 1057:0.0139507 1058:0.021478601 1059:0.0120954 1060:0.105011 1061:0.34918499 1062:0.212586 1063:0.12127 1064:0.042358998 1065:0.0187981 1066:0.040673599 1067:0.098710999 1068:0.025275899 1069:0.141462 1070:0.34918499 1071:0.20992599 1072:0.29280201 1073:0.1175 1074:0.034821302 1075:0.0216929 1076:0.056968998 1077:0.00383849 1078:0.183781 1079:0.34918499 1080:0.34918499 1081:0.073288597 1082:0.029535901 1083:0.019019401 1084:0.046068199 1085:0.12885299 1086:0.038376998 1087:0.048591401 1088:0.240238 1089:0.114839 1090:0.309214 1091:0.067466602 1092:0.0152825 1093:0.104516 1094:0.222959 1095:0.084347598 1096:0.0382015 1097:0.123613 1098:0.309214 1099:0.309214 1100:0.074462198 1101:0.019403201 1102:0.0089608999 1103:0.045940202 1104:0.027244201 1105:0.103321 1106:0.309214 1107:0.309214 1108:0.309214 1109:0.01419 1110:0.0076395799 1111:0.0082131503 1112:0.075458899 1113:0.061400998 1114:0.115503 1115:0.309214 1116:0.309214 1117:0.297528 1118:0.0241834 1119:0.0027554899 1120:0.024437901 1121:0.0451065 1122:0.019777499 1123:0.028198799 1124:0.084884398 1125:0.297528 1126:0.297528 1127:0.0058184401 1128:0.0036106801 1129:0 1130:0.0122577 1131:0 1132:0.297528 1133:0.297528 1134:0.297528 1135:0.22259501 1136:0.0026107701 1137:0.0027127501 1138:0.0014277 1139:0.0246039 1140:0.0131259 1141:0.077019103 1142:0.28369501 1143:0.28362799 1144:0.17205399 1145:0.0037209799 1146:0.0013512 1147:0 1148:0.0113721 1149:0 1150:0.21992099 1151:0.29427099 1152:0.268641 1153:0.32191801 1154:0.0058735101 1155:0.00189749 1156:0 1157:0.00665644 1158:0 1159:0.224748 1160:0.30047601 1161:0.32191801 1162:0.32191801 1163:0.0022947199 1164:0.00034881901 1165:0 1166:0.0041139098 1167:0.00039580901 1168:0.0167989 1169:0.044056501 1170:0.32191801 1171:0.31254399 1172:0.0051828399 1173:0.00079851999 1174:0 1175:0.0066804099 1176:0.00018599701 1177:0.124948 1178:0.127399 1179:0.31919801 1180:0.32191801 1181:0.0024057899 1182:0.000241138 1183:0 1184:0.00702686 1185:0.0030610501 1186:0.0091739297 1187:0.0153927 1188:0.32191801 1189:0.33904201 1190:0.0055014598 1191:0.0080721602 1192:0.00185602 1193:0.0116248 1194:0.0067628701 1195:0.0083416495 1196:0.00566136 1197:0.33904201 1198:0.33904201 1199:0.0105183 1200:0.0706449 1201:0.0122355 1202:0.23701 1203:0.0595989 1204:0.0849372 1205:0.0230089 1206:0.33904201 1207:0.33904201 1208:0.0049389699 1209:0.0079434495 1210:0.00144357 1211:0.0165966 1212:0.0077441498 1213:0.0095120398 1214:0.0059641101 1215:0.33904201 1216:0.33904201 1217:0.0123679 1218:0.083368801 1219:0.0092077795 1220:0.178284 1221:0.026049601 1222:0.027475201 1223:0.0114773 1224:0.27888501 1225:0.12789901 1226:0.00597568 1227:0.061717998 1228:0.030414499 1229:0.46165499 1230:0.077985197 1231:0.078431301 1232:0.018349901 1233:0.15295 1234:0.056196202 1235:0.010357 1236:0.0159043 1237:0.090785898 1238:0.46165499 1239:0.079102099 1240:0.0095230099 1241:0.0056113601 1242:0.0583556 1243:0.128857 1244:0.0072878399 1245:0.073246904 1246:0.046955399 1247:0.46165499 1248:0.031836301 1249:0.0238497 1250:0.0085785901 1251:0.0950718 1252:0.032612398 1253:0.0062954901 1254:0.017296201 1255:0.138731 1256:0.46165499 1257:0.0871002 1258:0.0081639597 1259:0.00120581 1260:0.032031901 1261:0.113538 1262:0.148532 1263:0.115523 1264:0.087638803 1265:0.206448 1266:0.143317 1267:0.129502 1268:0.14866801 1269:0.106667 1270:0.16277499 1271:0.148433 1272:0.158994 1273:0.111109 1274:0.20599701 1275:0.12862501 1276:0.12523501 1277:0.199828 1278:0.182496 1279:0.28799999 1280:0.29329699 1281:0.232427 1282:0.052394699 1283:0.171298 1284:0.069798604 1285:0.060673799 1286:0.134543 1287:0.19042 1288:0.217876 1289:0.247982 1290:0.29329699 1291:0.107409 1292:0.179896 1293:0.0562049 1294:0.048730001 1295:0.118769 1296:0.130796 1297:0.073072702 1298:0.0522612 1299:0.036971699 1300:0.044205099 1301:0.107971 1302:0.035634801 1303:0.053215299 1304:0.101025 1305:0.089157403 1306:0.32599801 1307:0.32599801 1308:0.082250297 1309:0.044978298 1310:0.201609 1311:0.123626 1312:0.163958 1313:0.26260501 1314:0.32599801 1315:0.055243202 1316:0.063595101 1317:0.058419898 1318:0.037753899 1319:0.099063396 1320:0.029811 1321:0.0281255 1322:0.034710001 1323:0.045806602 1324:0.32599801 1325:0.28202799 1326:0.0675622 1327:0.0352103 1328:0.21105701 1329:0.157278 1330:0.13529401 1331:0.244625 1332:0.32599801 1333:0.28208101 1334:0.229302 1335:0.079249799 1336:0.0185488 1337:0.049584702 1338:0.058728602 1339:0.051046301 1340:0.18624 1341:0.28208101 1342:0.246539 1343:0.108312 1344:0.095325202 1345:0.037047599 1346:0.057621401 1347:0.066423602 1348:0.042086799 1349:0.22527599 1350:0.28208101 1351:0.28208101 1352:0.25799301 1353:0.094296902 1354:0.0213014 1355:0.0508986 1356:0.061313301 1357:0.042899899 1358:0.17416 1359:0.28208101 1360:0.27913001 1361:0.19769301 1362:0.137494 1363:0.0615054 1364:0.057376701 1365:0.060891598 1366:0.0274057 1367:0.13643099 1368:0.27060699 1369:0.087524801 1370:0.0256934 1371:0.057137702 1372:0.0343749 1373:0.064854801 1374:0.050311599 1375:0.137942 1376:0.32568601 1377:0.32568601 1378:0.066425599 1379:0.00360324 1380:0.0052294298 1381:0.0021480301 1382:0.015946399 1383:0.0025538299 1384:0.160834 1385:0.32568601 1386:0.30732501 1387:0.150363 1388:0.185096 1389:0.118211 1390:0.102377 1391:0.106264 1392:0.109597 1393:0.151547 1394:0.32568601 1395:0.18547 1396:0.126836 1397:0.073426202 1398:0.106734 1399:0.063431203 1400:0.059829701 1401:0.054037001 1402:0.181077 1403:0.32568601 1404:0.254255 1405:0.14513899 1406:0.0073180501 1407:0.0078230798 1408:0.00197969 1409:0.0125791 1410:0.00178453 1411:0.12740199 1412:0.36420399 1413:0.28881401 1414:0.214656 1415:0.0049879099 1416:0.0046065999 1417:0.00035300499 1418:0.0162265 1419:0.0066874102 1420:0.0459092 1421:0.16321599 1422:0.21319599 1423:0.116577 1424:0.052104902 1425:0.120517 1426:0.041980401 1427:0.024781501 1428:0.0132567 1429:0.188429 1430:0.36420399 1431:0.30710599 1432:0.084334701 1433:0.026373001 1434:0.041395899 1435:0.0104965 1436:0.025589099 1437:0.0082519399 1438:0.22496 1439:0.36420399 1440:0.36420399 1441:0.33167699 1442:0.0024427599 1443:0.0069368202 1444:0 1445:0.047151301 1446:0.0101618 1447:0.039994799 1448:0.0496943 1449:0.231407 1450:0.25376701 1451:0.0107012 1452:0.044526599 1453:0 1454:0.1198 1455:0.0032234001 1456:0.050920598 1457:0.029754899 1458:0.18287501 1459:0.093765996 1460:0.0055581802 1461:0.0064970199 1462:0.00065961701 1463:0.0287196 1464:0.0022086201 1465:0.28568801 1466:0.412999 1467:0.412999 1468:0.0668258 1469:0.0147425 1470:0.012223 1471:0 1472:0.0296316 1473:0.0066474602 1474:0.165225 1475:0.412999 1476:0.26835501 1477:0.046305001 1478:0.0041165999 1479:0.016303601 1480:0.055640101 1481:0.36977601 1482:0.0063706501 1483:0.016544901 1484:0.0103952 1485:0.040143199 1486:0.0299863 1487:0.00154949 1488:0.0130385 1489:0.15758801 1490:0.56358701 1491:0.0857348 1492:0.0204648 1493:0.0021404701 1494:0.030029399 1495:0.026117601 1496:0.0102225 1497:0.0124824 1498:0.044292901 1499:0.39047599 1500:0.028394699 1501:0.032541599 1502:0.048616301 1503:0.045120399 1504:0.022380499 1505:0.0028577901 1506:0.0105833 1507:0.103711 1508:0.56358701 1509:0.078474797 1510:0.023000499 1511:0.0033037299 1512:0.0228722 1513:0.219908 1514:0.230774 1515:0.16201299 1516:0.058529802 1517:0.096325599 1518:0.075281598 1519:0.070656396 1520:0.124382 1521:0.221863 1522:0.177779 1523:0.165305 1524:0.151793 1525:0.064282604 1526:0.103215 1527:0.087529503 1528:0.139843 1529:0.13065501 1530:0.25903299 1531:0.204191 1532:0.110923 1533:0.119989 1534:0.123444 1535:0.152248 1536:0.059339602 1537:0.121496 1538:0.19107801 1539:0.30528 1540:0.19746201 1541:0.12917399 1542:0.094314799 1543:0.0766984 1544:0.16217101 1545:0.12874299 1546:0.20271599 1547:0.26544699 1548:0.30528 1549:0.12497 1550:0.110208 1551:0.12887999 1552:0.0658402 1553:0.15453 1554:0.076945603 1555:0.15127701 1556:0.097999297 1557:0.16329999 1558:0.29871199 1559:0.108261 1560:0.095442303 1561:0.042967599 1562:0.187252 1563:0.067503303 1564:0.0960683 1565:0.17172299 1566:0.35234001 1567:0.16901299 1568:0.123335 1569:0.124676 1570:0.104773 1571:0.197016 1572:0.158595 1573:0.209327 1574:0.24404401 1575:0.33714399 1576:0.226762 1577:0.13199399 1578:0.145945 1579:0.119049 1580:0.24451999 1581:0.0352709 1582:0.048522402 1583:0.0727029 1584:0.14188699 1585:0.25022799 1586:0.128547 1587:0.0738317 1588:0.0283345 1589:0.068051703 1590:0.041860301 1591:0.037820902 1592:0.10757 1593:0.294348 1594:0.247686 1595:0.294348 1596:0.185719 1597:0.23068599 1598:0.22436801 1599:0.159962 1600:0.080470301 1601:0.102685 1602:0.15807199 1603:0.079696499 1604:0.058568802 1605:0.085780703 1606:0.057449199 1607:0.13361301 1608:0.073352501 1609:0.026757499 1610:0.016716501 1611:0.060612399 1612:0.086738899 1613:0.215653 1614:0.26203299 1615:0.287319 1616:0.294348 1617:0.294348 1618:0.102396 1619:0.047288001 1620:0.111443 1621:0.124873 1622:0.26708999 1623:0.15312199 1624:0.14314 1625:0.160726 1626:0.14837199 1627:0.114795 1628:0.103084 1629:0.066740602 1630:0.16721299 1631:0.17879 1632:0.26708999 1633:0.088761002 1634:0.077513598 1635:0.122935 1636:0.121402 1637:0.116165 1638:0.105909 1639:0.10684 1640:0.26708999 1641:0.21943 1642:0.179913 1643:0.26708999 1644:0.191837 1645:0.0923976 1646:0.074496999 1647:0.10877 1648:0.21901 1649:0.26708999 1650:0.265237 1651:0.121646 1652:0.155377 1653:0.144861 1654:0.133733 1655:0.113452 1656:0.113956 1657:0.12495 1658:0.146244 1659:0.273491 1660:0.076250501 1661:0.044524699 1662:0.057285 1663:0.074778199 1664:0.168061 1665:0.121886 1666:0.091698602 1667:0.12786099 1668:0.174679 1669:0.067112103 1670:0.050795399 1671:0.047436699 1672:0.13643 1673:0.273491 1674:0.26853299 1675:0.17633501 1676:0.229646 1677:0.273491 1678:0.112508 1679:0.125879 1680:0.079502597 1681:0.086232401 1682:0.109684 1683:0.156515 1684:0.163259 1685:0.26640999 1686:0.25512701 1687:0.18266401 1688:0.165383 1689:0.12813801 1690:0.127397 1691:0.185324 1692:0.260245 1693:0.0783187 1694:0.0429716 1695:0.0275121 1696:0.0248046 1697:0.020214099 1698:0.052870698 1699:0.18866099 1700:0.304634 1701:0.304634 1702:0.052140702 1703:0.0078587905 1704:0.0025736301 1705:0.00058468501 1706:0.0083169797 1707:0.021899801 1708:0.191164 1709:0.304634 1710:0.29615399 1711:0.118577 1712:0.124161 1713:0.071633101 1714:0.115196 1715:0.122169 1716:0.16910601 1717:0.225126 1718:0.26244199 1719:0.28600201 1720:0.084238999 1721:0.0269334 1722:0.0183011 1723:0.0455212 1724:0.079773404 1725:0.092940897 1726:0.23817199 1727:0.304634 1728:0.274409 1729:0.034035999 1730:0.0071880198 1731:0.0133754 1732:0.045320101 1733:0.232134 1734:0.0103163 1735:0.101811 1736:0.28957701 1737:0.177698 1738:0.0299062 1739:0.0030164099 1740:0.0249185 1741:0.119286 1742:0.41435099 1743:0.040056601 1744:0.0403938 1745:0.075279497 1746:0.082784504 1747:0.093772799 1748:0.017097799 1749:0.033440098 1750:0.061922599 1751:0.15926699 1752:0.0196259 1753:0.149976 1754:0.39118099 1755:0.294056 1756:0.107579 1757:0.023480199 1758:0.098778099 1759:0.180857 1760:0.41435099 1761:0.055260099 1762:0.063763201 1763:0.15628199 1764:0.223242 #
-0.0047828808917423143096114834804666 1:0.033610899 2:0.0194332 3:0.028509101 4:0.0060651698 5:0.216525 6:0.14210901 7:0.107972 8:0.055190299 9:0.036321901 10:0.00407456 11:0.0128577 12:0.028268101 13:0.023760401 14:0.51416397 15:0.167281 16:0.042938799 17:0.0116723 18:0.00212096 19:0.0241978 20:0.0165867 21:0.0231784 22:0.0383409 23:0.347541 24:0.28876901 25:0.152447 26:0.087930597 27:0.026606601 28:0.0013814 29:0.0042516999 30:0.041458402 31:0.12688699 32:0.56408602 33:0.192524 34:0.0295638 35:0.0184351 36:0.00054069998 37:0.0187064 38:0.0404534 39:0.073499702 40:0.076842703 41:0.46949199 42:0.055649601 43:0.0220969 44:0.0035647 45:0.00625965 46:0.030237401 47:0.050913699 48:0.109597 49:0.121238 50:0.33820501 51:0.0123421 52:0.028717499 53:0.00754706 54:0.013819 55:0.0183104 56:0.016313899 57:0.0991657 58:0.189667 59:0.64810902 60:0.056678701 61:0.036441501 62:0.0086688297 63:0.0122593 64:0.052337501 65:0.067158297 66:0.091126002 67:0.0941604 68:0.32154 69:0.0261658 70:0.094624199 71:0.0270599 72:0.030878801 73:0.035374399 74:0.064326599 75:0.140186 76:0.170873 77:0.307064 78:0.0276537 79:0.029314701 80:0.0139902 81:0.021674599 82:0.0286809 83:0.033081502 84:0.0561755 85:0.0692764 86:0.460852 87:0.39641899 88:0.134414 89:0.027737301 90:0.0255962 91:0.067483597 92:0.092481002 93:0.115172 94:0.0869129 95:0.252606 96:0.0146323 97:0.060219999 98:0.033509001 99:0.0407358 100:0.111964 101:0.099478103 102:0.075318798 103:0.047289401 104:0.41467899 105:0.31130999 106:0.178022 107:0.054768499 108:0.0638882 109:0.0020655899 110:0.00167423 111:0.0038759301 112:0.00162212 113:0.151438 114:0.099483803 115:0.029482201 116:0.0063306601 117:0.0025128699 118:0.0192181 119:0.0152684 120:0.0129322 121:0.00322808 122:0.121322 123:0.022548599 124:0.0105014 125:0.0060453899 126:0.0104277 127:0.151209 128:0.262759 129:0.0893986 130:0.0025979099 131:0.145942 132:0.097599201 133:0.067722604 134:0.028436899 135:0.042543199 136:0.51036799 137:0.51036799 138:0.51036799 139:0.00952983 140:0.093984202 141:0.0308684 142:0.037140701 143:0.0310505 144:0.115267 145:0.0352946 146:0.063525997 147:0.020429799 148:0.00035724 149:0.0237152 150:0.00033974001 151:0.00087446702 152:0.00114202 153:0.00849625 154:0.164902 155:0.39382601 156:0.115712 157:0.0010117 158:0.0127215 159:0.000455092 160:0.00301982 161:0.0023129301 162:0.026588401 163:0.34995401 164:0.39382601 165:0.25115299 166:0.00105463 167:0.0111777 168:0.00120781 169:0.00209746 170:0.0034612899 171:0.038412999 172:0.39382601 173:0.39382601 174:0.372125 175:0.00023346901 176:0.0063923998 177:0 178:0.00230516 179:0.00231086 180:0.046643302 181:0.19742601 182:0.33440199 183:0.149075 184:0.00096460601 185:0.0079167001 186:0.00066846301 187:0.0034620501 188:0.0029686301 189:0.021002101 190:0.33122501 191:0.33440199 192:0.28592899 193:0.000422346 194:0.0080351699 195:0.00115391 196:0.00266319 197:0.00749258 198:0.027263099 199:0.32357901 200:0.33440199 201:0.222838 202:0.00045055 203:0.0052741598 204:0 205:0.0021303201 206:0.00523896 207:0.029611001 208:0.28759399 209:0.33440199 210:0.235367 211:0.00278741 212:0.0086377803 213:0.00124806 214:0.0031930699 215:0.016356699 216:0.039118599 217:0.336144 218:0.33960801 219:0.27838099 220:0.0137145 221:0.057137702 222:0.0075468202 223:0.022357799 224:0.0119652 225:0.039410599 226:0.187497 227:0.336891 228:0.119712 229:0.081730701 230:0.33960801 231:0.042935502 232:0.046301302 233:0.022429001 234:0.035732601 235:0.17667 236:0.31435201 237:0.151004 238:0.065620102 239:0.26591 240:0.0084586004 241:0.0310825 242:0.017191701 243:0.037962601 244:0.062010899 245:0.075375803 246:0.031076999 247:0.186975 248:0.33960801 249:0.0227172 250:0.042234901 251:0.016303301 252:0.018567 253:0.0092403702 254:0.0044522798 255:0.0059078601 256:0.068613797 257:0.32914701 258:0.18571299 259:0.058423199 260:0.0518208 261:0.015828799 262:0.00038455299 263:0.00180308 264:0.035303 265:0.211457 266:0.45544899 267:0.056970902 268:0.00715385 269:0.0030092299 270:0.00046985201 271:0.0055770101 272:0.00192215 273:0.0056632501 274:0.080918401 275:0.45544899 276:0.30523399 277:0.040334102 278:0.025031 279:0.0094341002 280:0.028103299 281:0.0259929 282:0.036927599 283:0.221651 284:0.45544899 285:0.125181 286:0.00591031 287:0.0037535999 288:0.0073154499 289:0.0044584102 290:0.0045578298 291:0.033776499 292:0.092070498 293:0.188154 294:0.0036156699 295:0.0060767201 296:0.0018281901 297:0.0041622599 298:0.021677701 299:0.021819999 300:0.024038199 301:0.0243754 302:0.085609101 303:0.00363624 304:0.0205603 305:0.0062189898 306:0.0121131 307:0.16147301 308:0.27178201 309:0.104056 310:0.075344898 311:0.175046 312:0.012533 313:0.0041947202 314:0.00840782 315:0.034100801 316:0.526025 317:0.526025 318:0.47215101 319:0.019366199 320:0.065957397 321:0.0048819501 322:0.0150759 323:0.0080469996 324:0.098399498 325:0.032062098 326:0.046337899 327:0.016578101 328:0.0025838199 329:0.0203625 330:0.00101931 331:0.00335184 332:0.00143156 333:0.0083874902 334:0.169447 335:0.32337299 336:0.115389 337:0.00124447 338:0.0205436 339:0.0110796 340:0.0116558 341:0.00273868 342:0.0304328 343:0.37988001 344:0.39589101 345:0.25625801 346:0.00489857 347:0.0118031 348:0.00239928 349:0.0032943899 350:0.00199598 351:0.038776401 352:0.39589101 353:0.39589101 354:0.39589101 355:0.00827887 356:0.0096092802 357:0.0054068598 358:0.0041826102 359:0.00177357 360:0.071290098 361:0.18656801 362:0.33283901 363:0.133779 364:0.000136829 365:0.0111495 366:0.0101491 367:0.012902 368:0.0042942399 369:0.028277099 370:0.318905 371:0.33283901 372:0.229571 373:0.00059292401 374:0.0073643699 375:0.0042205402 376:0.0073813102 377:0.0047547002 378:0.041997299 379:0.33283901 380:0.33283901 381:0.244002 382:0.0073916898 383:0.0195328 384:0.0099652102 385:0.0061294301 386:0.00104086 387:0.0376013 388:0.33283901 389:0.33283901 390:0.225968 391:0.022070801 392:0.0449774 393:0.039190799 394:0.024643499 395:0.0077769398 396:0.066705696 397:0.284522 398:0.33024299 399:0.193248 400:0.00024553301 401:0.00185474 402:0.000462625 403:0.0024348199 404:0.0031532899 405:0.041006301 406:0.265183 407:0.33024299 408:0.169403 409:0.00128533 410:0.0019638101 411:0 412:0.0025977199 413:0.0047351499 414:0.054749999 415:0.33024299 416:0.33024299 417:0.116968 418:0.0074985502 419:0.0134737 420:0.017404299 421:0.013021 422:0.00774193 423:0.19049001 424:0.33024299 425:0.240435 426:0.057858899 427:0.00282773 428:0.00339085 429:0.0023400399 430:0.0128588 431:0.090567999 432:0.33024299 433:0.308539 434:0.33796301 435:0.19510201 436:0.00279412 437:0.0090415096 438:0 439:0.0048796502 440:0.0089260498 441:0.075081304 442:0.177175 443:0.30869901 444:0.137484 445:0.0080829402 446:0.0299026 447:0.0023844 448:0.0073657199 449:0.0140121 450:0.047644898 451:0.33535099 452:0.13325199 453:0.043416198 454:0.0058418899 455:0.0086807702 456:0.0146435 457:0.124755 458:0.33796301 459:0.33796301 460:0.097873501 461:0.028439 462:0.0255912 463:0.0087197004 464:0.0530129 465:0.0485898 466:0.27057001 467:0.228505 468:0.275861 469:0.044602402 470:0.078748196 471:0.045710899 472:0.088923097 473:0.39744499 474:0.0121631 475:0.0114389 476:0.0080189798 477:0.0152221 478:0.0111726 479:0.017616799 480:0.0092962403 481:0.23026399 482:0.45535499 483:0.026508801 484:0.012617 485:0.0082724802 486:0.0056817401 487:0.0085408203 488:0.0071520102 489:0.0098719401 490:0.11577 491:0.45535499 492:0.039504498 493:0.070993401 494:0.0287653 495:0.0152328 496:0.00442761 497:0.0056283101 498:0.0048116399 499:0.34423101 500:0.45535499 501:0.048008699 502:0.0017014201 503:0.00115223 504:0.00364835 505:0.033689801 506:0.051228601 507:0.015813701 508:0.022094799 509:0.113226 510:0.044661898 511:0.00199294 512:0.00032661401 513:0.0014285099 514:0.174437 515:0.31296399 516:0.102954 517:0.0245841 518:0.113109 519:0.035131902 520:0.00099837605 521:0.00093006302 522:0.0100368 523:0.37234199 524:0.38779399 525:0.25778499 526:0.0600475 527:0.058592699 528:0.014493 529:5.5975201e-05 530:0.00258729 531:0.0319256 532:0.38779399 533:0.38779399 534:0.38779399 535:0.041958898 536:0.053226799 537:0.021716701 538:0.00093547202 539:0.0026332301 540:0.0558681 541:0.214974 542:0.33068299 543:0.12583201 544:0.0040904302 545:0.0216456 546:0.0060774698 547:0.00144105 548:0.00231743 549:0.018427201 550:0.33068299 551:0.33068299 552:0.216259 553:0.00076106598 554:0.0053041698 555:0.000487226 556:0.0027503599 557:0.00220995 558:0.041883498 559:0.33068299 560:0.33068299 561:0.244734 562:0.0060157101 563:0.0076946602 564:0.0043893699 565:0.0030483699 566:0.0025319301 567:0.032581799 568:0.33068299 569:0.33068299 570:0.23908301 571:0.00292743 572:0.0083953897 573:0.00064332201 574:0.0052863699 575:0.00354879 576:0.037269 577:0.31310901 578:0.31310901 579:0.241083 580:0.0024624299 581:0.0020423201 582:0.00052314397 583:0.00150718 584:0.0029299599 585:0.040360998 586:0.31310901 587:0.31310901 588:0.280619 589:0.026892301 590:0.0060212198 591:0.0054554301 592:0.0129533 593:0.011505 594:0.053844001 595:0.240695 596:0.31310901 597:0.18606 598:0.0229799 599:0.0308022 600:0.0084274504 601:0.00401808 602:0.0049008699 603:0.039407302 604:0.17591199 605:0.26977801 606:0.31310901 607:0.2025 608:0.115051 609:0.068925701 610:0.072179101 611:0.0255975 612:0.043151598 613:0.28385901 614:0.28385901 615:0.21819399 616:0.0351234 617:0.043828499 618:0.044377699 619:0.051941901 620:0.0307438 621:0.051162101 622:0.28385901 623:0.28385901 624:0.140791 625:0.049397599 626:0.103504 627:0.165382 628:0.120909 629:0.0547649 630:0.138448 631:0.159389 632:0.178257 633:0.28385901 634:0.175018 635:0.149482 636:0.190869 637:0.28385901 638:0.075479098 639:0.043975599 640:0.173748 641:0.12534501 642:0.055022299 643:0.035990998 644:0.133102 645:0.21441101 646:0.268639 647:0.075144596 648:0.107981 649:0.350481 650:0.350481 651:0.066821098 652:0.0163687 653:0.0323206 654:0.069174796 655:0.053142 656:0.030944999 657:0.344926 658:0.350481 659:0.084814198 660:0.0099194804 661:0.00112468 662:0.0268724 663:0.055629499 664:0.0511242 665:0.21648601 666:0.350481 667:0.27084699 668:0.098107003 669:0.0168336 670:0.00654339 671:0.034767799 672:0.0460179 673:0.044316702 674:0.0262278 675:0.16300499 676:0.230737 677:0.0288876 678:0.00621153 679:0.0029292 680:0.0595681 681:0.077770703 682:0.048698999 683:0.122438 684:0.33809 685:0.27253199 686:0.0096645597 687:0.0031411899 688:0.00121753 689:0.032133501 690:0.107612 691:0.17016 692:0.28402901 693:0.28402901 694:0.25377101 695:0.027418399 696:0.0061852299 697:0.00458261 698:0.12109 699:0.116916 700:0.28402901 701:0.19217899 702:0.230231 703:0.28402901 704:0.0149204 705:0.010417 706:0.0113146 707:0.065622501 708:0.135456 709:0.096988499 710:0.135903 711:0.28402901 712:0.28402901 713:0.058751401 714:0.0250329 715:0.0357849 716:0.17058299 717:0.104556 718:0.223204 719:0.0813668 720:0.24673501 721:0.072430603 722:0.0141424 723:0.003791 724:0.0990429 725:0.41332901 726:0.073192999 727:0.173059 728:0.040525202 729:0.026717801 730:0.00170278 731:0.00125363 732:0.00277004 733:0.28966501 734:0.41332901 735:0.0405454 736:0.0021206799 737:0.00069911103 738:0.00165071 739:0.182916 740:0.039104 741:0.0121735 742:0.13852599 743:0.41332901 744:0.061171599 745:0.130678 746:0.0474304 747:0.090530097 748:0.0067209001 749:0.0053801099 750:0.0055878502 751:0.25817299 752:0.41332901 753:0.14013299 754:0.0389538 755:0.01957 756:0.0109172 757:0.26043999 758:0.323208 759:0.196748 760:0.062995501 761:0.023242099 762:0.032723598 763:0.066940702 764:0.102305 765:0.054482799 766:0.27846599 767:0.323208 768:0.169884 769:0.042653602 770:0.034162 771:0.0207715 772:0.062393401 773:0.091283798 774:0.073451497 775:0.051825799 776:0.087554097 777:0.0414702 778:0.043565199 779:0.0218026 780:0.0417687 781:0.323208 782:0.323208 783:0.226807 784:0.074139401 785:0.073991299 786:0.0299701 787:0.034287602 788:0.030288599 789:0.018664001 790:0.285514 791:0.323208 792:0.231334 793:0.32834399 794:0.32834399 795:0.2026 796:0.024852 797:0.017341601 798:0.0076717101 799:0.068304703 800:0.142507 801:0.096515901 802:0.24392299 803:0.32834399 804:0.17334899 805:0.032249302 806:0.043212902 807:0.0040994398 808:0.022185501 809:0.0442716 810:0.062719397 811:0.112228 812:0.105109 813:0.040501401 814:0.023725601 815:0.017939599 816:0.0064868801 817:0.285184 818:0.32834399 819:0.27096501 820:0.066265799 821:0.041023001 822:0.0359083 823:0.0352505 824:0.039521798 825:0.0061995001 826:0.20850299 827:0.32834399 828:0.21876299 829:0.098327503 830:0.135149 831:0.114187 832:0.070813403 833:0.154072 834:0.0427972 835:0.0095958496 836:0.0105173 837:0.055423301 838:0.049305901 839:0.082327098 840:0.35934499 841:0.31781301 842:0.35934499 843:0.285927 844:0.064778097 845:0.0133232 846:0.026474301 847:0.039279599 848:0.0298407 849:0.0439067 850:0.050750099 851:0.166465 852:0.054843102 853:0.089549303 854:0.18846001 855:0.116458 856:0.0185419 857:0.0257039 858:0.033009902 859:0.105055 860:0.35934499 861:0.35934499 862:0.31033701 863:0.045469999 864:0.0419452 865:0.0598718 866:0.118876 867:0.248971 868:0.22336 869:0.315386 870:0.27923799 871:0.19510201 872:0.0236212 873:0.0156406 874:0.049165402 875:0.082208402 876:0.0441094 877:0.055171199 878:0.240078 879:0.143341 880:0.151971 881:0.0177224 882:0.027002901 883:0.016072599 884:0.037547398 885:0.037944 886:0.085428201 887:0.315386 888:0.315386 889:0.315386 890:0.057162602 891:0.0086444598 892:0.018250201 893:0.0299975 894:0.0472009 895:0.0394595 896:0.238178 897:0.23570099 898:0.315386 899:0.073534399 900:0.0113377 901:0.071782999 902:0.014833 903:0.021769499 904:0.0282885 905:0.1728 906:0.050351199 907:0.063534603 908:0.019666299 909:0.066752501 910:0.088211298 911:0.0131456 912:0.021947401 913:0.0298911 914:0.15094499 915:0.083031997 916:0.084008098 917:0.045989901 918:0.106738 919:0.078959703 920:0.040563699 921:0.15733901 922:0.13664199 923:0.178435 924:0.089152798 925:0.194857 926:0.081600703 927:0.069875598 928:0.39373401 929:0.426815 930:0.426815 931:0.239703 932:0.147 933:0.032652501 934:0.057054602 935:0.219099 936:0.31125 937:0.103517 938:0.0142602 939:0.083663002 940:0.115326 941:0.061763301 942:0.028610799 943:0.0103821 944:0.0087291496 945:0.0685267 946:0.28385401 947:0.070139997 948:0.20904601 949:0.328529 950:0.19591101 951:0.050548699 952:0.088168599 953:0.069232598 954:0.19920801 955:0.062793396 956:0.229167 957:0.34988901 958:0.218402 959:0.068410598 960:0.0053375 961:0.00439465 962:0.026278401 963:0.036453702 964:0.077317402 965:0.15682299 966:0.34988901 967:0.34988901 968:0.32579899 969:0.033931199 970:0.062187999 971:0.0344477 972:0.0660678 973:0.117492 974:0.0578776 975:0.071652599 976:0.27868399 977:0.32532099 978:0.064756997 979:0.106568 980:0.075700402 981:0.114693 982:0.0173382 983:0.028454 984:0.0098274397 985:0.17484 986:0.32532099 987:0.198145 988:0.084738299 989:0.0256768 990:0.0208176 991:0.040861201 992:0.050715201 993:0.32532099 994:0.32532099 995:0.32532099 996:0.065230303 997:0.075452298 998:0.036946699 999:0.045971401 1000:0.061965901 1001:0.097550198 1002:0.076937303 1003:0.298334 1004:0.32532099 1005:0.125278 1006:0.066486798 1007:0.0099861203 1008:0.0434216 1009:0.0126399 1010:0.0072220298 1011:0.0095313201 1012:0.0100795 1013:0.016605601 1014:0.0189595 1015:0.30361101 1016:0.39169899 1017:0.24620999 1018:0.0300314 1019:0.0053931102 1020:0.011694 1021:0.0117084 1022:0.015661201 1023:0.0138715 1024:0.39169899 1025:0.39169899 1026:0.39169899 1027:0.0036201901 1028:0.0108132 1029:0.022468301 1030:0.026802501 1031:0.025875 1032:0.0119885 1033:0.0279037 1034:0.071943901 1035:0.031746801 1036:0.0120212 1037:0.00364917 1038:0.0112247 1039:0.0209732 1040:0.041258201 1041:0.016235 1042:0.18227901 1043:0.39169899 1044:0.16859099 1045:0.0324363 1046:0.00372207 1047:0.0044261701 1048:0.00442026 1049:0.0059660398 1050:0.0040031499 1051:0.259354 1052:0.339194 1053:0.237524 1054:0.034008302 1055:0.00634029 1056:0.00364659 1057:0.0068312301 1058:0.0063712499 1059:0.0033624701 1060:0.221172 1061:0.339194 1062:0.224911 1063:0.020230399 1064:0.00133017 1065:0.00156294 1066:0.0028148401 1067:0.0191311 1068:0.0100068 1069:0.210099 1070:0.339194 1071:0.197502 1072:0.0233982 1073:0.00310783 1074:0.00115601 1075:0.00339976 1076:0.0133399 1077:0.0081019504 1078:0.339194 1079:0.339194 1080:0.33293799 1081:0.033978902 1082:0.0106554 1083:0.0061378898 1084:0.0085204002 1085:0.0268724 1086:0.0156816 1087:0.139121 1088:0.31229901 1089:0.146054 1090:0.0275777 1091:0.0107759 1092:0.0068634399 1093:0.0099090002 1094:0.160055 1095:0.293396 1096:0.31229901 1097:0.26950601 1098:0.108027 1099:0.03396 1100:0.0051260898 1101:0.0037201401 1102:0.0047897198 1103:0.0086375698 1104:0.0080960896 1105:0.303848 1106:0.31229901 1107:0.293309 1108:0.049644101 1109:0.0086571798 1110:0.00756237 1111:0.0041386699 1112:0.00798064 1113:0.043219801 1114:0.31229901 1115:0.31229901 1116:0.29139999 1117:0.024347801 1118:0.032070599 1119:0.097156398 1120:0.0169759 1121:0.154117 1122:0.30083701 1123:0.30083701 1124:0.25966299 1125:0.074608602 1126:0.021249 1127:0.039461799 1128:0.18116599 1129:0.057662301 1130:0.120123 1131:0.159288 1132:0.30083701 1133:0.16418999 1134:0.041216601 1135:0.0669991 1136:0.040052701 1137:0.097842701 1138:0.0146636 1139:0.0130415 1140:0.051669002 1141:0.30083701 1142:0.30083701 1143:0.26747099 1144:0.066902697 1145:0.050228901 1146:0.18156201 1147:0.058172099 1148:0.0676433 1149:0.036664002 1150:0.23712 1151:0.30083701 1152:0.208598 1153:0.047170699 1154:0.0239299 1155:0.205626 1156:0.136227 1157:0.082912199 1158:0.0288075 1159:0.060922101 1160:0.0300998 1161:0.029423 1162:0.297829 1163:0.297829 1164:0.297829 1165:0.20261 1166:0.062435102 1167:0.0118914 1168:0.0156134 1169:0.091993503 1170:0.16972999 1171:0.19296201 1172:0.020434501 1173:0.24374799 1174:0.149544 1175:0.147199 1176:0.019808101 1177:0.092793703 1178:0.138818 1179:0.14692201 1180:0.297829 1181:0.21744099 1182:0.297829 1183:0.209676 1184:0.117915 1185:0.019166401 1186:0.052061699 1187:0.078725398 1188:0.297829 1189:0.179052 1190:0.317911 1191:0.317911 1192:0.096050099 1193:0.023293 1194:0.00327282 1195:0.00354239 1196:0.043504801 1197:0.077984802 1198:0.0319122 1199:0.29800099 1200:0.317911 1201:0.226611 1202:0.14464501 1203:0.0054579698 1204:0.0024457099 1205:0.0020302299 1206:0.0058295699 1207:0.317911 1208:0.317911 1209:0.308916 1210:0.077241004 1211:0.0199055 1212:0.0053497502 1213:0.0100148 1214:0.019300001 1215:0.135482 1216:0.051256701 1217:0.22234499 1218:0.28716201 1219:0.064047702 1220:0.140642 1221:0.00821828 1222:0.0064344001 1223:0.0028246299 1224:0.017763801 1225:0.0045450199 1226:0.0406822 1227:0.31544101 1228:0.246527 1229:0.38746199 1230:0.020914599 1231:0.0028786201 1232:0.00083314901 1233:0.00204147 1234:0.032639001 1235:0.041774999 1236:0.0524267 1237:0.309885 1238:0.38746199 1239:0.035830699 1240:0.00936794 1241:0.001083 1242:0.0241489 1243:0.0055560302 1244:0.0244695 1245:0.0646175 1246:0.141835 1247:0.38746199 1248:0.023300599 1249:0.0047475002 1250:0.00166514 1251:0.0038977901 1252:0.00142331 1253:0.00064262399 1254:0.00343336 1255:0.31918299 1256:0.38746199 1257:0.0472981 1258:0.0058387201 1259:0.00142019 1260:0.00168273 1261:0.036855102 1262:0.115774 1263:0.23632801 1264:0.268821 1265:0.30128899 1266:0.066579998 1267:0.032460999 1268:0.0085678296 1269:0.025751701 1270:0.036192901 1271:0.047406498 1272:0.13762701 1273:0.16226301 1274:0.46067101 1275:0.063417599 1276:0.106012 1277:0.182202 1278:0.110207 1279:0.038055301 1280:0.0584969 1281:0.208453 1282:0.24347501 1283:0.31359199 1284:0.060334399 1285:0.050528198 1286:0.0108758 1287:0.032492101 1288:0.0270293 1289:0.0422193 1290:0.147633 1291:0.098448597 1292:0.40404999 1293:0.104517 1294:0.0901815 1295:0.019593701 1296:0.020429799 1297:0.0197307 1298:0.0046143499 1299:0.0121118 1300:0.0113635 1301:0.094992302 1302:0.0218856 1303:0.133246 1304:0.33124101 1305:0.14903501 1306:0.044503499 1307:0.0017886 1308:0.00555924 1309:0.0079214098 1310:0.10617 1311:0.0246656 1312:0.51197702 1313:0.51197702 1314:0.51197702 1315:0.0081996899 1316:0.0111364 1317:0.0229249 1318:0.0175403 1319:0.092191897 1320:0.0275704 1321:0.0235947 1322:0.0098403497 1323:0.00419894 1324:0.0173981 1325:0.0137784 1326:0.0227443 1327:0.0245203 1328:0.128922 1329:0.0171475 1330:0.038367201 1331:0.0484914 1332:0.037233301 1333:0.031119 1334:0.000577225 1335:0.00281098 1336:0.0027290499 1337:0.0179548 1338:0.0060714302 1339:0.323526 1340:0.368191 1341:0.294346 1342:0.045409899 1343:0.00369879 1344:0.0063334401 1345:0.00399529 1346:0.00946551 1347:0.0059311902 1348:0.368191 1349:0.368191 1350:0.368191 1351:0.0132028 1352:0.0028154899 1353:0.0057326001 1354:0.0049565001 1355:0.0305443 1356:0.00187604 1357:0.0565238 1358:0.114085 1359:0.058972798 1360:0.027602701 1361:0.00253105 1362:0.0064382898 1363:0.00227097 1364:0.015882701 1365:0.00054350501 1366:0.221682 1367:0.368191 1368:0.229159 1369:0.0375835 1370:0.00849823 1371:0.0108533 1372:0.00383011 1373:0.0031492801 1374:0.00407193 1375:0.23821101 1376:0.333671 1377:0.25498801 1378:0.052453499 1379:0.0132981 1380:0.017546101 1381:0.0062321899 1382:0.0129489 1383:0.0075920098 1384:0.206203 1385:0.333671 1386:0.233161 1387:0.032667499 1388:0.00314825 1389:0.00318958 1390:0.0008408 1391:0.0030698001 1392:0.00268583 1393:0.230647 1394:0.333671 1395:0.217545 1396:0.055768602 1397:0.0064049801 1398:0.00328513 1399:0.00100296 1400:0.0040672501 1401:0.00710194 1402:0.333671 1403:0.333671 1404:0.333671 1405:0.121138 1406:0.0084859701 1407:0.036535598 1408:0.021706 1409:0.046197802 1410:0.0058520399 1411:0.156818 1412:0.323805 1413:0.214182 1414:0.323805 1415:0.037452701 1416:0.0576373 1417:0.0324325 1418:0.0363952 1419:0.0061644102 1420:0.098033004 1421:0.24360301 1422:0.226679 1423:0.0418671 1424:0.0098594399 1425:0.0075994199 1426:0.0035124901 1427:0.00308899 1428:0.00295265 1429:0.313297 1430:0.323805 1431:0.323805 1432:0.0377356 1433:0.01922 1434:0.0127577 1435:0.00619527 1436:0.0152544 1437:0.0152732 1438:0.246288 1439:0.323805 1440:0.304373 1441:0.317251 1442:0.124603 1443:0.0938043 1444:0.047258299 1445:0.0246606 1446:0.0089006098 1447:0.061962701 1448:0.129645 