<?xml version="1.0"?>
<opencv_storage>
<cascade type_id="opencv-haar-classifier">
  <size>
    50 50</size>
  <stages>
    <_>
      <trees>
        <_>
          <_>
            <feature>
              <rects>
                <_>
                  10 3 30 7 -1.</_>
                <_>
                  20 3 10 7 3.</_></rects>
              <tilted>0</tilted></feature>
            <threshold>-5.7900778949260712e-002</threshold>
            <left_val>7.8187406063079834e-001</left_val>
            <right_val>-9.6156483888626099e-001</right_val></_></_>
        <_>
          <_>
            <feature>
              <rects>
                <_>
                  4 22 10 8 -1.</_>
                <_>
                  9 22 5 8 2.</_></rects>
              <tilted>0</tilted></feature>
            <threshold>-1.2116124853491783e-002</threshold>
            <left_val>7.3209625482559204e-001</left_val>
            <right_val>-9.4936257600784302e-001</right_val></_></_></trees>
      <stage_threshold>-2.2946858406066895e-001</stage_threshold>
      <parent>-1</parent>
      <next>-1</next></_>
    <_>
      <trees>
        <_>
          <_>
            <feature>
              <rects>
                <_>
                  32 16 6 12 -1.</_>
                <_>
                  32 16 3 6 2.</_>
                <_>
                  35 22 3 6 2.</_></rects>
              <tilted>0</tilted></feature>
            <threshold>-8.0372402444481850e-003</threshold>
            <left_val>8.4642857313156128e-001</left_val>
            <right_val>-8.8242894411087036e-001</right_val></_></_>
        <_>
          <_>
            <feature>
              <rects>
                <_>
                  0 39 6 6 -1.</_>
                <_>
                  3 39 3 6 2.</_></rects>
              <tilted>0</tilted></feature>
            <threshold>-6.4075589179992676e-003</threshold>
            <left_val>8.0435752868652344e-001</left_val>
            <right_val>-8.4938335418701172e-001</right_val></_></_>
        <_>
          <_>
            <feature>
              <rects>
                <_>
                  2 0 43 48 -1.</_>
                <_>
                  2 24 43 24 2.</_></rects>
              <tilted>0</tilted></feature>
            <threshold>-2.6773422956466675e-001</threshold>
            <left_val>6.8462067842483521e-001</left_val>
            <right_val>-9.3393409252166748e-001</right_val></_></_></trees>
      <stage_threshold>-1.0471916198730469e+000</stage_threshold>
      <parent>0</parent>
      <next>-1</next></_>
    <_>
      <trees>
        <_>
          <_>
            <feature>
              <rects>
                <_>
                  37 26 8 16 -1.</_>
                <_>
                  37 26 4 8 2.</_>
                <_>
                  41 34 4 8 2.</_></rects>
              <tilted>0</tilted></feature>
            <threshold>-1.3605223968625069e-002</threshold>
            <left_val>7.9930794239044189e-001</left_val>
            <right_val>-8.8496732711791992e-001</right_val></_></_>
        <_>
          <_>
            <feature>
              <rects>
                <_>
                  4 22 6 14 -1.</_>
                <_>
                  4 22 3 7 2.</_>
                <_>
                  7 29 3 7 2.</_></rects>
              <tilted>0</tilted></feature>
            <threshold>-6.9479341618716717e-003</threshold>
            <left_val>7.7026569843292236e-001</left_val>
            <right_val>-8.2156074047088623e-001</right_val></_></_>
        <_>
          <_>
            <feature>
              <rects>
                <_>
                  2 5 48 36 -1.</_>
                <_>
                  18 5 16 36 3.</_></rects>
              <tilted>0</tilted></feature>
            <threshold>-3.1306147575378418e-001</threshold>
            <left_val>6.8831312656402588e-001</left_val>
            <right_val>-8.2656228542327881e-001</right_val></_></_></trees>
      <stage_threshold>-1.0182149410247803e+000</stage_threshold>
      <parent>1</parent>
      <next>-1</next></_>
    <_>
      <trees>
        <_>
          <_>
            <feature>
              <rects>
                <_>
                  15 10 6 12 -1.</_>
                <_>
                  15 10 3 6 2.</_>
                <_>
                  18 16 3 6 2.</_></rects>
              <tilted>0</tilted></feature>
            <threshold>8.6929332464933395e-003</threshold>
            <left_val>-8.8529992103576660e-001</left_val>
            <right_val>7.3733586072921753e-001</right_val></_></_>
        <_>
          <_>
            <feature>
              <rects>
                <_>
                  29 12 8 12 -1.</_>
                <_>
                  29 12 4 6 2.</_>
                <_>
                  33 18 4 6 2.</_></rects>
              <tilted>0</tilted></feature>
            <threshold>-1.0834435932338238e-002</threshold>
            <left_val>6.8446099758148193e-001</left_val>
            <right_val>-8.1510055065155029e-001</right_val></_></_>
        <_>
          <_>
            <feature>
              <rects>
                <_>
                  8 43 7 6 -1.</_>
                <_>
                  8 45 7 2 3.</_></rects>
              <tilted>0</tilted></feature>
            <threshold>-1.9887443631887436e-003</threshold>
            <left_val>6.7268645763397217e-001</left_val>
            <right_val>-7.6228445768356323e-001</right_val></_></_></trees>
      <stage_threshold>-1.0277140140533447e+000</stage_threshold>
      <parent>2</parent>
      <next>-1</next></_>
    <_>
      <trees>
        <_>
          <_>
            <feature>
              <rects>
                <_>
                  3 36 4 10 -1.</_>
                <_>
                  3 36 2 5 2.</_>
                <_>
                  5 41 2 5 2.</_></rects>
              <tilted>0</tilted></feature>
            <threshold>4.1175689548254013e-003</threshold>
            <left_val>-8.6576271057128906e-001</left_val>
            <right_val>5.6869566440582275e-001</right_val></_></_>
        <_>
          <_>
            <feature>
              <rects>
                <_>
                  22 43 28 6 -1.</_>
                <_>
                  22 45 28 2 3.</_></rects>
              <tilted>0</tilted></feature>
            <threshold>-1.0140852071344852e-002</threshold>
            <left_val>7.1680510044097900e-001</left_val>
            <right_val>-7.0820289850234985e-001</right_val></_></_>
        <_>
          <_>
            <feature>
              <rects>
                <_>
                  8 12 12 10 -1.</_>
                <_>
                  14 12 6 10 2.</_></rects>
              <tilted>0</tilted></feature>
            <threshold>-1.9055332988500595e-002</threshold>
            <left_val>5.1731467247009277e-001</left_val>
            <right_val>-9.1132920980453491e-001</right_val></_></_></trees>
      <stage_threshold>-1.0602868795394897e+000</stage_threshold>
      <parent>3</parent>
      <next>-1</next></_>
    <_>
      <trees>
        <_>
          <_>
            <feature>
              <rects>
                <_>
                  27 7 6 12 -1.</_>
                <_>
                  27 7 3 6 2.</_>
                <_>
                  30 13 3 6 2.</_></rects>
              <tilted>0</tilted></feature>
            <threshold>-8.7586995214223862e-003</threshold>
            <left_val>6.1552029848098755e-001</left_val>
            <right_val>-8.7592715024948120e-001</right_val></_></_>
        <_>
          <_>
            <feature>
              <rects>
                <_>
                  39 6 10 34 -1.</_>
                <_>
                  39 6 5 17 2.</_>
                <_>
                  44 23 5 17 2.</_></rects>
              <tilted>0</tilted></feature>
            <threshold>1.6453098505735397e-002</threshold>
            <left_val>-8.9372235536575317e-001</left_val>
            <right_val>4.1702663898468018e-001</right_val></_></_>
        <_>
          <_>
            <feature>
              <rects>
                <_>
                  5 31 6 10 -1.</_>
                <_>
                  5 31 3 5 2.</_>
                <_>
                  8 36 3 5 2.</_></rects>
              <tilted>0</tilted></feature>
            <threshold>7.0390123873949051e-003</threshold>
            <left_val>-7.6105070114135742e-001</left_val>
            <right_val>5.2086603641510010e-001</right_val></_></_></trees>
      <stage_threshold>-1.2487834692001343e+000</stage_threshold>
      <parent>4</parent>
      <next>-1</next></_>
    <_>
      <trees>
        <_>
          <_>
            <feature>
              <rects>
                <_>
                  45 30 1 16 -1.</_>
                <_>
                  45 38 1 8 2.</_></rects>
              <tilted>0</tilted></feature>
            <threshold>-3.3214790746569633e-003</threshold>
            <left_val>4.7826087474822998e-001</left_val>
            <right_val>-8.7263822555541992e-001</right_val></_></_>
        <_>
          <_>
            <feature>
              <rects>
                <_>
                  0 44 13 6 -1.</_>
                <_>
                  0 46 13 2 3.</_></rects>
              <tilted>0</tilted></feature>
            <threshold>-6.3799573108553886e-003</threshold>
            <left_val>5.8505266904830933e-001</left_val>
            <right_val>-7.4533873796463013e-001</right_val></_></_>
        <_>
          <_>
            <feature>
              <rects>
                <_>
                  29 1 1 14 -1.</_>
                <_>
                  29 8 1 7 2.</_></rects>
              <tilted>0</tilted></feature>
            <threshold>-2.1270443685352802e-003</threshold>
            <left_val>5.3408539295196533e-001</left_val>
            <right_val>-7.9533576965332031e-001</right_val></_></_></trees>
      <stage_threshold>-1.0838916301727295e+000</stage_threshold>
      <parent>5</parent>
      <next>-1</next></_>
    <_>
      <trees>
        <_>
          <_>
            <feature>
              <rects>
                <_>
                  17 2 15 5 -1.</_>
                <_>
                  22 2 5 5 3.</_></rects>
              <tilted>0</tilted></feature>
            <threshold>-2.6525504887104034e-002</threshold>
            <left_val>4.8226949572563171e-001</left_val>
            <right_val>-8.2234185934066772e-001</right_val></_></_>
        <_>
          <_>
            <feature>
              <rects>
                <_>
                  2 5 48 44 -1.</_>
                <_>
                  2 27 48 22 2.</_></rects>
              <tilted>0</tilted></feature>
            <threshold>-2.5527319312095642e-001</threshold>
            <left_val>4.2010393738746643e-001</left_val>
            <right_val>-7.9523229598999023e-001</right_val></_></_>
        <_>
          <_>
            <feature>
              <rects>
                <_>
                  3 24 2 20 -1.</_>
                <_>
                  4 24 1 20 2.</_></rects>
              <tilted>0</tilted></feature>
            <threshold>-1.4614737592637539e-003</threshold>
            <left_val>4.9701681733131409e-001</left_val>
            <right_val>-8.3235681056976318e-001</right_val></_></_>
        <_>
          <_>
            <feature>
              <rects>
                <_>
                  36 24 8 14 -1.</_>
                <_>
                  36 24 4 7 2.</_>
                <_>
                  40 31 4 7 2.</_></rects>
              <tilted>0</tilted></feature>
            <threshold>-1.0067179799079895e-002</threshold>
            <left_val>5.1913827657699585e-001</left_val>
            <right_val>-7.3547333478927612e-001</right_val></_></_>
        <_>
          <_>
            <feature>
              <rects>
                <_>
                  10 32 16 7 -1.</_>
                <_>
                  18 32 8 7 2.</_></rects>
              <tilted>0</tilted></feature>
            <threshold>-2.8116875328123569e-003</threshold>
            <left_val>4.7772994637489319e-001</left_val>
            <right_val>-8.1493413448333740e-001</right_val></_></_></trees>
      <stage_threshold>-1.4923380613327026e+000</stage_threshold>
      <parent>6</parent>
      <next>-1</next></_>
    <_>
      <trees>
        <_>
          <_>
            <feature>
              <rects>
                <_>
                  0 41 4 6 -1.</_>
                <_>
                  2 41 2 6 2.</_></rects>
              <tilted>0</tilted></feature>
            <threshold>-5.3088106215000153e-003</threshold>
            <left_val>3.9184951782226563e-001</left_val>
            <right_val>-8.4985834360122681e-001</right_val></_></_>
        <_>
          <_>
            <feature>
              <rects>
                <_>
                  36 19 2 14 -1.</_>
                <_>
                  36 19 1 7 2.</_>
                <_>
                  37 26 1 7 2.</_></rects>
              <tilted>0</tilted></feature>
            <threshold>-1.5835121739655733e-003</threshold>
            <left_val>4.5743420720100403e-001</left_val>
            <right_val>-7.3934686183929443e-001</right_val></_></_>
        <_>
          <_>
            <feature>
              <rects>
                <_>
                  9 0 9 32 -1.</_>
                <_>
                  9 16 9 16 2.</_></rects>
              <tilted>0</tilted></feature>
            <threshold>-4.3673023581504822e-002</threshold>
            <left_val>4.1001912951469421e-001</left_val>
            <right_val>-9.0852051973342896e-001</right_val></_></_>
        <_>
          <_>
            <feature>
              <rects>
                <_>
                  15 21 6 4 -1.</_>
                <_>
                  17 21 2 4 3.</_></rects>
              <tilted>0</tilted></feature>
            <threshold>4.4376568985171616e-004</threshold>
            <left_val>-8.6834740638732910e-001</left_val>
            <right_val>3.1521067023277283e-001</right_val></_></_></trees>
      <stage_threshold>-9.8573398590087891e-001</stage_threshold>
      <parent>7</parent>
      <next>-1</next></_>
    <_>
      <trees>
        <_>
          <_>
            <feature>
              <rects>
                <_>
                  0 1 48 42 -1.</_>
                <_>
                  16 1 16 42 3.</_></rects>
              <tilted>0</tilted></feature>
            <threshold>-4.7016051411628723e-001</threshold>
            <left_val>3.8378378748893738e-001</left_val>
            <right_val>-7.7792644500732422e-001</right_val></_></_>
        <_>
          <_>
            <feature>
              <rects>
                <_>
                  41 39 4 4 -1.</_>
                <_>
                  43 39 2 4 2.</_></rects>
              <tilted>0</tilted></feature>
            <threshold>-7.5341679621487856e-004</threshold>
            <left_val>4.2888990044593811e-001</left_val>
            <right_val>-7.6082390546798706e-001</right_val></_></_>
        <_>
          <_>
            <feature>
              <rects>
                <_>
                  8 40 1 8 -1.</_>
                <_>
                  8 44 1 4 2.</_></rects>
              <tilted>0</tilted></feature>
            <threshold>-4.3663880205713212e-004</threshold>
            <left_val>4.3443962931632996e-001</left_val>
            <right_val>-7.7537566423416138e-001</right_val></_></_>
        <_>
          <_>
            <feature>
              <rects>
                <_>
                  20 0 9 6 -1.</_>
                <_>
                  20 3 9 3 2.</_></rects>
              <tilted>0</tilted></feature>
            <threshold>-5.8207688853144646e-003</threshold>
            <left_val>5.0449806451797485e-001</left_val>
            <right_val>-6.4081305265426636e-001</right_val></_></_>
        <_>
          <_>
            <feature>
              <rects>
                <_>
                  0 10 27 38 -1.</_>
                <_>
                  0 29 27 19 2.</_></rects>
              <tilted>0</tilted></feature>
            <threshold>-7.2692736983299255e-002</threshold>
            <left_val>3.5517778992652893e-001</left_val>
            <right_val>-8.7083923816680908e-001</right_val></_></_></trees>
      <stage_threshold>-1.4380509853363037e+000</stage_threshold>
      <parent>8</parent>
      <next>-1</next></_>
    <_>
      <trees>
        <_>
          <_>
            <feature>
              <rects>
                <_>
                  13 3 24 5 -1.</_>
                <_>
                  21 3 8 5 3.</_></rects>
              <tilted>0</tilted></feature>
            <threshold>-4.2988367378711700e-002</threshold>
            <left_val>1.4456391875746710e-001</left_val>
            <right_val>-8.8293487221764211e-001</right_val></_></_>
        <_>
          <_>
            <feature>
              <rects>
                <_>
                  0 45 2 2 -1.</_>
                <_>
                  1 45 1 2 2.</_></rects>
              <tilted>0</tilted></feature>
            <threshold>-6.2826444627717137e-004</threshold>
            <left_val>4.7367045905706429e-001</left_val>
            <right_val>-5.9512238711391796e-001</right_val></_></_>
        <_>
          <_>
            <feature>
              <rects>
                <_>
                  0 1 28 49 -1.</_>
                <_>
                  14 1 14 49 2.</_></rects>
              <tilted>0</tilted></feature>
            <threshold>-2.1589654684066772e-001</threshold>
            <left_val>4.7784024322173735e-001</left_val>
            <right_val>-5.5322642886133599e-001</right_val></_></_>
        <_>
          <_>
            <feature>
              <rects>
                <_>
                  43 30 4 10 -1.</_>
                <_>
                  43 30 2 5 2.</_>
                <_>
                  45 35 2 5 2.</_></rects>
              <tilted>0</tilted></feature>
            <threshold>5.9046555543318391e-004</threshold>
            <left_val>-6.9314024938611540e-001</left_val>
            <right_val>4.0388346708542316e-001</right_val></_></_>
        <_>
          <_>
            <feature>
              <rects>
                <_>
                  32 9 7 14 -1.</_>
                <_>
                  32 16 7 7 2.</_></rects>
              <tilted>0</tilted></feature>
            <threshold>-6.7258477210998535e-003</threshold>
            <left_val>2.6575680818267539e-001</left_val>
            <right_val>-9.9012918812639261e-001</right_val></_></_></trees>
      <stage_threshold>-1.4276005029678345e+000</stage_threshold>
      <parent>9</parent>
      <next>-1</next></_>
    <_>
      <trees>
        <_>
          <_>
            <feature>
              <rects>
                <_>
                  3 35 9 3 -1.</_>
                <_>
                  6 35 3 3 3.</_></rects>
              <tilted>0</tilted></feature>
            <threshold>-7.2569502517580986e-003</threshold>
            <left_val>2.4463519313304716e-001</left_val>
            <right_val>-8.2975573649148782e-001</right_val></_></_>
        <_>
          <_>
            <feature>
              <rects>
                <_>
                  0 48 49 2 -1.</_>
                <_>
                  0 49 49 1 2.</_></rects>
              <tilted>0</tilted></feature>
            <threshold>4.0375953540205956e-003</threshold>
            <left_val>-6.0716085296835665e-001</left_val>
            <right_val>5.1515245589207925e-001</right_val></_></_>
        <_>
          <_>
            <feature>
              <rects>
                <_>
                  22 3 12 1 -1.</_>
                <_>
                  28 3 6 1 2.</_></rects>
              <tilted>0</tilted></feature>
            <threshold>2.5028465315699577e-003</threshold>
            <left_val>-6.6080038822124276e-001</left_val>
            <right_val>3.5965074683639603e-001</right_val></_></_>
        <_>
          <_>
            <feature>
              <rects>
                <_>
                  2 37 4 9 -1.</_>
                <_>
                  4 37 2 9 2.</_></rects>
              <tilted>0</tilted></feature>
            <threshold>-8.1067311111837626e-004</threshold>
            <left_val>2.2606773476031033e-001</left_val>
            <right_val>-9.2858087892536723e-001</right_val></_></_>
        <_>
          <_>
            <feature>
              <rects>
                <_>
                  3 12 39 26 -1.</_>
                <_>
                  3 25 39 13 2.</_></rects>
              <tilted>0</tilted></feature>
            <threshold>-1.1843775212764740e-001</threshold>
            <left_val>3.9402066001529684e-001</left_val>
            <right_val>-5.2564842043512028e-001</right_val></_></_></trees>
      <stage_threshold>-1.4776285886764526e+000</stage_threshold>
      <parent>10</parent>
      <next>-1</next></_></stages></cascade>
</opencv_storage>
