SVM-light Version V6.10
0 # kernel type
3 # kernel parameter -d 
1 # kernel parameter -g 
1 # kernel parameter -s 
1 # kernel parameter -r 
0# kernel parameter -u 
1764 # highest feature index 
728 # number of training documents 
138 # number of support vectors plus 1 
0.51943484 # threshold b, each following line is a SV (starting with alpha*y)
-0.0097451228702385341712277622150395 1:0.095012397 2:0.072872698 3:0.122638 4:0.11227 5:0.244672 6:0.051513299 7:0.030322099 8:0.066182896 9:0.103487 10:0.122687 11:0.23706201 12:0.24878301 13:0.29413 14:0.26226699 15:0.060227901 16:0.0313043 17:0.068287 18:0.096316099 19:0.069530301 20:0.039398398 21:0.101189 22:0.0264971 23:0.50657302 24:0.087580197 25:0.059505701 26:0.073002301 27:0.082872897 28:0.13580699 29:0.112563 30:0.187437 31:0.106418 32:0.37194201 33:0.093333602 34:0.078936502 35:0.119147 36:0.14143901 37:0.129879 38:0.24909 39:0.26180899 40:0.308716 41:0.26124999 42:0.070418604 43:0.0274613 44:0.0213672 45:0.0713889 46:0.159319 47:0.216157 48:0.20751999 49:0.199224 50:0.302964 51:0.092365697 52:0.067119896 53:0.057770502 54:0.085504301 55:0.154255 56:0.110537 57:0.138909 58:0.154434 59:0.25832599 60:0.138438 61:0.114303 62:0.0714055 63:0.12795401 64:0.15356401 65:0.126738 66:0.131896 67:0.145959 68:0.29889199 69:0.093088403 70:0.105772 71:0.067867398 72:0.076636501 73:0.0580507 74:0.040075701 75:0.044012699 76:0.022281099 77:0.133313 78:0.0231739 79:0.047566399 80:0.035805199 81:0.0448846 82:0.047758602 83:0.040229101 84:0.089724898 85:0.043737501 86:0.19423699 87:0.015613 88:0.052241199 89:0.034669898 90:0.0449977 91:0.075094797 92:0.034489099 93:0.033244502 94:0.026166899 95:0.109134 96:0.014863 97:0.037174098 98:0.0330116 99:0.053095099 100:0.61669803 101:0.61669803 102:0.22310799 103:0.053292502 104:0.128583 105:0.022693601 106:0.083349302 107:0.044033401 108:0.19886801 109:0.0141814 110:0.0106068 111:0.0127843 112:0.0036243999 113:0.016225699 114:0.00138302 115:0.00342973 116:0.0030113601 117:0.0118241 118:0.048110802 119:0.046128299 120:0.0106542 121:0.00194286 122:0.011237 123:0.00133052 124:0.0043579699 125:0.0017824 126:0.024194 127:0.32275301 128:0.48703 129:0.12736601 130:0.0066242302 131:0.0162268 132:0.0021877501 133:0.00668285 134:0.00388296 135:0.069431603 136:0.48703 137:0.48703 138:0.35555401 139:0.0074295402 140:0.0139183 141:0.0036383199 142:0.0036110401 143:0.00185464 144:0.15827 145:0.063563198 146:0.107265 147:0.023546699 148:0.0022519701 149:0.0044669099 150:0.0012895199 151:0.0034227499 152:0.000876882 153:0.0191424 154:0.23547199 155:0.39744499 156:0.113735 157:0.0062390799 158:0.0055082901 159:0.0030116499 160:0.00406106 161:0.00090028899 162:0.043731101 163:0.39744499 164:0.39744499 165:0.182741 166:0.00208236 167:0.0029424201 168:0.00177735 169:0.0021768501 170:0.0014254201 171:0.080878504 172:0.39744499 173:0.39744499 174:0.264615 175:0.00173747 176:0.0051246602 177:0.00215846 178:0.00326131 179:0.00209335 180:0.096389703 181:0.26733699 182:0.340271 183:0.12780599 184:0.00344944 185:0.0038832901 186:0.0016378399 187:0.00084321201 188:0.00055609999 189:0.042486899 190:0.340271 191:0.340271 192:0.192994 193:0.0024681699 194:0.00153925 195:0.00169512 196:0.00067112199 197:0.0058871601 198:0.068692997 199:0.340271 200:0.340271 201:0.179138 202:0.00084378198 203:0.00459697 204:0.00221571 205:0.00158573 206:0.00089601299 207:0.055521101 208:0.325463 209:0.340271 210:0.15663899 211:0.00323602 212:0.0042522601 213:0.0029477901 214:0.0028268101 215:0.0108627 216:0.066441499 217:0.33639801 218:0.33639801 219:0.19041599 220:0.0049250601 221:0.031171801 222:0.0195363 223:0.0100246 224:0.0102067 225:0.080799296 226:0.28879601 227:0.33639801 228:0.099408902 229:0.0145546 230:0.33639801 231:0.102014 232:0.0516891 233:0.028312599 234:0.109444 235:0.221163 236:0.33639801 237:0.0913992 238:0.021123201 239:0.24948099 240:0.0394531 241:0.022211401 242:0.0128736 243:0.066085599 244:0.080378003 245:0.100629 246:0.0198224 247:0.049957599 248:0.33639801 249:0.075092599 250:0.032669701 251:0.0070604901 252:0.0341454 253:0.030872099 254:0.0139489 255:0.0174741 256:7.3794203e-05 257:0.14518601 258:0.0134783 259:0.022833901 260:0.0114414 261:0.0305124 262:0.052422099 263:0.023488 264:0.035603601 265:0.0121277 266:0.18207 267:0.0189032 268:0.040384401 269:0.0421068 270:0.056002401 271:0.120738 272:0.053910699 273:0.018232601 274:0 275:0.146448 276:0.016901899 277:0.046246901 278:0.036635801 279:0.080515198 280:0.58924001 281:0.58924001 282:0.276346 283:0.0135282 284:0.23043101 285:0.0165764 286:0.070156403 287:0.093970701 288:0.193547 289:0.0109089 290:0.0042433701 291:0.00395517 292:0.0061603398 293:0.0184657 294:0.0103537 295:0.0127371 296:0.0058735898 297:0.0104206 298:0.059889302 299:0.069648199 300:0.019360499 301:0.0077435998 302:0.0121559 303:0.0081207696 304:0.0095312204 305:0.00220858 306:0.0177733 307:0.350072 308:0.461788 309:0.15600599 310:0.0049862298 311:0.024948301 312:0.00950782 313:0.0104826 314:0.0087454598 315:0.079091601 316:0.461788 317:0.461788 318:0.40088201 319:0.0062179398 320:0.0162264 321:0.0116032 322:0.0071400399 323:0.0028168899 324:0.17300899 325:0.096052401 326:0.15598001 327:0.036814999 328:0.0016993301 329:0.0030477401 330:0.00132612 331:0.00146311 332:0.00131233 333:0.020592799 334:0.29814899 335:0.38279399 336:0.120429 337:0.00095574302 338:0.0035137599 339:0.00187811 340:0.0032337999 341:0.0024622399 342:0.0425159 343:0.38279399 344:0.38279399 345:0.211963 346:0.0042521898 347:0.0032476999 348:0.0033608 349:0.0020343999 350:0.0023362001 351:0.091564797 352:0.38279399 353:0.38279399 354:0.249651 355:0.0050291498 356:0.0017492099 357:0.00268026 358:0.0037388401 359:0.00386515 360:0.084726296 361:0.311858 362:0.333662 363:0.127281 364:0.00114236 365:0.0027407601 366:0.000649733 367:0.00137915 368:0.00075568899 369:0.041320901 370:0.333662 371:0.333662 372:0.17432299 373:0.0029929799 374:0.00318535 375:0.00039495001 376:0.00058030902 377:0.000457305 378:0.0622731 379:0.333662 380:0.333662 381:0.155902 382:0.0053999699 383:0.0103819 384:0.00201603 385:0.0051053399 386:0.0042363 387:0.048672099 388:0.333662 389:0.333662 390:0.173152 391:0.0166768 392:0.0220923 393:0.0032540199 394:0.0188276 395:0.027440101 396:0.095738098 397:0.31505901 398:0.31505901 399:0.161292 400:0.00242929 401:0.00206987 402:0.00056324899 403:0.000345265 404:0.0033800199 405:0.060752299 406:0.31505901 407:0.31505901 408:0.13815901 409:0.00053276698 410:0.0042704898 411:0.00179155 412:0.00093574799 413:0.0051050899 414:0.059111498 415:0.31505901 416:0.31505901 417:0.139579 418:0.0077634398 419:0.0101088 420:0.0037966 421:0.049926002 422:0.059363399 423:0.20687599 424:0.30767 425:0.28321701 426:0.063390501 427:0.00109475 428:0.0089489501 429:0.00528801 430:0.0438301 431:0.0455699 432:0.31216699 433:0.32758799 434:0.32758799 435:0.18221299 436:0.0015647 437:0.0153832 438:0.0045635002 439:0.0037670601 440:0.00420911 441:0.083742604 442:0.240789 443:0.32758799 444:0.12543599 445:0.0067389701 446:0.0261162 447:0.00534308 448:0.0087957801 449:0.0145605 450:0.071900301 451:0.32758799 452:0.26594001 453:0.059898101 454:0.0058686198 455:0.0226181 456:0.0042943 457:0.0119388 458:0.0152843 459:0.32758799 460:0.32329199 461:0.187131 462:0.048579101 463:0.023155799 464:0.054264899 465:0.013221 466:0.093303896 467:0.115711 468:0.311167 469:0.068997703 470:0.16905899 471:0.034114499 472:0.038148299 473:0.445667 474:0.0219453 475:0.0099592796 476:0.0085794097 477:0.026204901 478:0.018758601 479:0.0270062 480:0.0061424002 481:0.085352398 482:0.48656601 483:0.043136999 484:0.0112383 485:0.00438277 486:0.00822677 487:0.066558897 488:0.031310301 489:0.0087627098 490:0.052042201 491:0.48656601 492:0.025183801 493:0.079989702 494:0.070789598 495:0.084083803 496:0.00256323 497:0.0012666601 498:0.00390644 499:0.0985061 500:0.48656601 501:0.034011502 502:0.0145264 503:0.0057036602 504:0.0081181098 505:0.13368399 506:0.23499601 507:0.050793301 508:4.06728e-05 509:0.0090957005 510:0.00174435 511:0.0064533399 512:0.0045099002 513:0.029969599 514:0.328154 515:0.37031299 516:0.13678899 517:0.0012505 518:0.00689947 519:0.00150079 520:0.0065073501 521:0.0068345899 522:0.049084801 523:0.37031299 524:0.37031299 525:0.206001 526:0.0099801803 527:0.0167173 528:0.0099481 529:0.0145064 530:0.0147324 531:0.075067401 532:0.37031299 533:0.37031299 534:0.22026099 535:0.0172194 536:0.015972201 537:0.0041356399 538:0.021642599 539:0.022129901 540:0.0771778 541:0.33829501 542:0.33829501 543:0.14499401 544:0.0015912401 545:0.00274368 546:0.00292249 547:0.00286385 548:0.0032571 549:0.051123802 550:0.33829501 551:0.33829501 552:0.19400699 553:0.00136027 554:0.0028754801 555:0.0049278401 556:0.0021806899 557:0.00359946 558:0.066806197 559:0.33829501 560:0.33829501 561:0.13801999 562:0.0072637098 563:0.0035719001 564:0.0022954 565:0.0076615498 566:0.0111529 567:0.048449099 568:0.29672399 569:0.33829501 570:0.135232 571:0.0044487799 572:0.0107354 573:0.00998847 574:0.0101995 575:0.0057619498 576:0.036478002 577:0.36348599 578:0.36348599 579:0.22414599 580:0.0045866398 581:0.0057123001 582:0.0045099999 583:0.0029174199 584:0.00478689 585:0.094491601 586:0.36348599 587:0.36348599 588:0.171912 589:0.0080708303 590:0.0085956501 591:0.0046845898 592:0.0051675602 593:0.0064918799 594:0.070251197 595:0.280981 596:0.36348599 597:0.140329 598:0.0060380599 599:0.0235718 600:0.017645599 601:0.0143188 602:0.0096518602 603:0.049648002 604:0.163469 605:0.32605001 606:0.064496003 607:0.0069975099 608:0.023302199 609:0.01195 610:0.0071194698 611:0.0117359 612:0.036637101 613:0.27520299 614:0.27520299 615:0.114404 616:0.0249834 617:0.047380701 618:0.0119688 619:0.0232196 620:0.0183492 621:0.049565401 622:0.27520299 623:0.27520299 624:0.19701201 625:0.092986502 626:0.127584 627:0.061352901 628:0.145741 629:0.174446 630:0.18267 631:0.092969403 632:0.120232 633:0.043352202 634:0.043637302 635:0.069448903 636:0.039657701 637:0.034701198 638:0.0235608 639:0.038616899 640:0.27520299 641:0.22400101 642:0.221301 643:0.18309499 644:0.227486 645:0.167638 646:0.27520299 647:0.26693001 648:0.224822 649:0.26501301 650:0.18505 651:0.104122 652:0.038548201 653:0.072006799 654:0.047758602 655:0.118605 656:0.114234 657:0.27398399 658:0.33042601 659:0.045687299 660:0.0296841 661:0.0127305 662:0.0336379 663:0.018418301 664:0.074882098 665:0.053656101 666:0.33042601 667:0.24540199 668:0.13592599 669:0.13046101 670:0.111675 671:0.174199 672:0.102083 673:0.199874 674:0.13259301 675:0.29565099 676:0.33042601 677:0.065765098 678:0.040157199 679:0.048064802 680:0.075214103 681:0.038580399 682:0.098839097 683:0.037086401 684:0.33042601 685:0.31823099 686:0.0513971 687:0.0215389 688:0.0106778 689:0.021061201 690:0.00224608 691:0.0247286 692:0.0170458 693:0.31823099 694:0.245974 695:0.121883 696:0.070936203 697:0.0735185 698:0.15272599 699:0.019401999 700:0.12630101 701:0.092027597 702:0.292889 703:0.31823099 704:0.033919901 705:0.037861601 706:0.026472099 707:0.066121899 708:0.0041981498 709:0.047658298 710:0.040366299 711:0.31823099 712:0.23028401 713:0.068714403 714:0.156469 715:0.14443401 716:0.31823099 717:0.096907601 718:0.186563 719:0.077812903 720:0.31823099 721:0.073002703 722:0.055530701 723:0.073867202 724:0.133949 725:0.41714799 726:0.037547302 727:0.163811 728:0.097551003 729:0.107107 730:0.0058140899 731:0.0070084701 732:0.0126056 733:0.098489799 734:0.41714799 735:0.033619799 736:0.0269468 737:0.0075146798 738:0.018250801 739:0.040034 740:0.050668001 741:0.184048 742:0.229809 743:0.41714799 744:0.167713 745:0.204202 746:0.055166699 747:0.048401698 748:0.0195198 749:0.017715201 750:0.0283664 751:0.137265 752:0.41714799 753:0.133453 754:0.0416959 755:0.0100606 756:0.0221981 757:0.19266701 758:0.31121501 759:0.095609903 760:0.0184644 761:0.027802501 762:0.0244151 763:0.113112 764:0.241347 765:0.14512201 766:0.183107 767:0.31121501 768:0.0822341 769:0.029070299 770:0.031120401 771:0.0135142 772:0.091661103 773:0.213855 774:0.109135 775:0.0418403 776:0.0115781 777:0.0108602 778:0.00863331 779:0.0145932 780:0.0154679 781:0.26442301 782:0.31121501 783:0.31121501 784:0.057600301 785:0.039730899 786:0.0185418 787:0.0132773 788:0.016591599 789:0.0157123 790:0.298269 791:0.31121501 792:0.31121501 793:0.21349099 794:0.33313501 795:0.084534898 796:0.0137521 797:0.0102268 798:0.00638123 799:0.082299501 800:0.249042 801:0.115184 802:0.15373001 803:0.27925599 804:0.077669598 805:0.017186301 806:0.037548199 807:0.031098699 808:0.0570332 809:0.083835803 810:0.067830697 811:0.080553301 812:0.0469607 813:0.0144941 814:0.00666956 815:0.011711 816:0.0131749 817:0.332315 818:0.33313501 819:0.33313501 820:0.066692099 821:0.0151194 822:0.0202136 823:0.0177981 824:0.024399901 825:0.018540099 826:0.27383801 827:0.33313501 828:0.30233899 829:0.27152601 830:0.311241 831:0.212888 832:0.053027298 833:0.165979 834:0.118355 835:0.112074 836:0.067055799 837:0.136373 838:0.082161598 839:0.064479202 840:0.069009401 841:0.028607501 842:0.122221 843:0.052612301 844:0.033002201 845:0.045346301 846:0.0664417 847:0.144345 848:0.044205502 849:0.113445 850:0.058079999 851:0.0985687 852:0.062583297 853:0.366963 854:0.366963 855:0.366963 856:0.069418199 857:0.030949 858:0.056801699 859:0.0377638 860:0.097960196 861:0.045815501 862:0.13007 863:0.358064 864:0.18637 865:0.042352598 866:0.0159609 867:0.0231476 868:0.036036398 869:0.068628997 870:0.052667301 871:0.0274499 872:0.018480301 873:0.0399753 874:0.24780101 875:0.19965599 876:0.209552 877:0.189403 878:0.236773 879:0.18739 880:0.24780101 881:0.204641 882:0.24615601 883:0.0520151 884:0.0232004 885:0.034210902 886:0.053233001 887:0.061748002 888:0.068700798 889:0.0408732 890:0.0312098 891:0.050676201 892:0.24780101 893:0.24780101 894:0.228825 895:0.24780101 896:0.244363 897:0.225261 898:0.24780101 899:0.23774 900:0.24780101 901:0.19076701 902:0.126895 903:0.0929159 904:0.122222 905:0.16382401 906:0.092591502 907:0.17923699 908:0.091311298 909:0.250985 910:0.33546001 911:0.075612403 912:0.016618701 913:0.0553669 914:0.064074896 915:0.038198002 916:0.084285498 917:0.027342699 918:0.33546001 919:0.202281 920:0.16109399 921:0.087194197 922:0.155201 923:0.18122 924:0.116885 925:0.205549 926:0.114421 927:0.281596 928:0.33546001 929:0.089671403 930:0.0133816 931:0.062279899 932:0.065955602 933:0.057489999 934:0.088734202 935:0.042136099 936:0.33546001 937:0.31715301 938:0.021261901 939:0.029985201 940:0.0194727 941:0.077380002 942:0.0051292502 943:0.0417559 944:0.035798099 945:0.31715301 946:0.16416299 947:0.0281191 948:0.14983 949:0.13293 950:0.31715301 951:0.110215 952:0.16053499 953:0.048517998 954:0.22772101 955:0.31715301 956:0.030592199 957:0.032977398 958:0.022228399 959:0.087804697 960:0.0140032 961:0.046241499 962:0.044491298 963:0.31715301 964:0.182043 965:0.0311918 966:0.170588 967:0.175026 968:0.31715301 969:0.14784101 970:0.187133 971:0.049877301 972:0.234107 973:0.020421101 974:0.0270328 975:0.16399699 976:0.25525701 977:0.34353799 978:0.199119 979:0.166504 980:0.024720199 981:0.0103986 982:0.018033201 983:0.0133871 984:0.032311201 985:0.16092101 986:0.34353799 987:0.157408 988:0.0362252 989:0.0134876 990:0.0152289 991:0.024795299 992:0.017673399 993:0.184329 994:0.31100699 995:0.34353799 996:0.25330901 997:0.19735301 998:0.0210269 999:0.0115356 1000:0.0239389 1001:0.0184879 1002:0.068658903 1003:0.187419 1004:0.34353799 1005:0.174777 1006:0.042263199 1007:0.017494701 1008:0.0233397 1009:0.043512601 1010:0.0087499497 1011:0.00390544 1012:0.0025649799 1013:0.0064417198 1014:0.0024727001 1015:0.215464 1016:0.435588 1017:0.32064301 1018:0.072715499 1019:0.017887499 1020:0.0056523602 1021:0.00490411 1022:0.00965684 1023:0.0089708501 1024:0.435588 1025:0.435588 1026:0.435588 1027:0.0121985 1028:0.00565443 1029:0.00527367 1030:0.0066817799 1031:0.0112662 1032:0.00226739 1033:0.0091681601 1034:0.0154318 1035:0.017802199 1036:0.0233014 1037:0.0077918102 1038:0.0099186804 1039:0.0133732 1040:0.033603799 1041:0.00143032 1042:0.066559903 1043:0.24364001 1044:0.112966 1045:0.051513601 1046:0.0063652098 1047:0.00182842 1048:0.0010712401 1049:0.0051614102 1050:0.0048261001 1051:0.248962 1052:0.33875099 1053:0.31980199 1054:0.066240102 1055:0.0045669801 1056:0.00164203 1057:0.0039256602 1058:0.0046244198 1059:0.00115805 1060:0.291648 1061:0.33875099 1062:0.33061001 1063:0.0290266 1064:0.0041921199 1065:0.0029118999 1066:0.0029746301 1067:0.0106051 1068:0.000144595 1069:0.092051402 1070:0.321679 1071:0.119569 1072:0.0608146 1073:0.0034365901 1074:0.00167391 1075:0.0028824999 1076:0.0055198902 1077:6.5724802e-05 1078:0.25823101 1079:0.33875099 1080:0.298114 1081:0.0286816 1082:0.00453314 1083:0.00288473 1084:0.0051532299 1085:0.0031640299 1086:0.00016978499 1087:0.18928701 1088:0.33019799 1089:0.232474 1090:0.0251198 1091:0.00753177 1092:0.00431654 1093:0.0082942098 1094:0.0082249697 1095:0.0046727299 1096:0.111743 1097:0.33019799 1098:0.14614999 1099:0.0518503 1100:0.0057996898 1101:0.00200273 1102:0.0059664301 1103:0.0045659798 1104:3.53947e-05 1105:0.31817099 1106:0.33019799 1107:0.33019799 1108:0.060544301 1109:0.0109848 1110:0.00364056 1111:0.0128964 1112:0.00411906 1113:0.0040429798 1114:0.33019799 1115:0.33019799 1116:0.33019799 1117:0.045650698 1118:0.018570499 1119:0.025637999 1120:0.040098101 1121:0.036398899 1122:0.0418749 1123:0.088935196 1124:0.212126 1125:0.111706 1126:0.18802799 1127:0.17522299 1128:0.130018 1129:0.147347 1130:0.13232 1131:0.124172 1132:0.268525 1133:0.23576801 1134:0.244385 1135:0.060920902 1136:0.0115895 1137:0.0126541 1138:0.0211493 1139:0.0155939 1140:0.0206262 1141:0.306187 1142:0.306187 1143:0.306187 1144:0.139302 1145:0.065989599 1146:0.0475551 1147:0.036670499 1148:0.035740599 1149:0.049967099 1150:0.306187 1151:0.306187 1152:0.306187 1153:0.236472 1154:0.194911 1155:0.090007201 1156:0.122044 1157:0.150075 1158:0.090544596 1159:0.217466 1160:0.159639 1161:0.30614299 1162:0.30614299 1163:0.120163 1164:0.032177702 1165:0.043029498 1166:0.055114999 1167:0.0488359 1168:0.0732648 1169:0.052941799 1170:0.30614299 1171:0.192151 1172:0.117067 1173:0.048034001 1174:0.019820301 1175:0.027663801 1176:0.024683001 1177:0.17722701 1178:0.29209101 1179:0.30614299 1180:0.296698 1181:0.093775503 1182:0.0271865 1183:0.00536273 1184:0.0157212 1185:0.0149978 1186:0.040794902 1187:0.076451696 1188:0.30614299 1189:0.30069301 1190:0.0439214 1191:0.030557999 1192:0.026375899 1193:0.072112598 1194:0.021061201 1195:0.051038001 1196:0.094209701 1197:0.30069301 1198:0.202885 1199:0.11177 1200:0.19647101 1201:0.18082599 1202:0.30069301 1203:0.16320001 1204:0.21413399 1205:0.157506 1206:0.30069301 1207:0.228836 1208:0.0284428 1209:0.0113267 1210:0.0103478 1211:0.022480899 1212:0.0105714 1213:0.037687302 1214:0.104183 1215:0.30069301 1216:0.18956999 1217:0.15158001 1218:0.111553 1219:0.0616506 1220:0.104333 1221:0.0621683 1222:0.117733 1223:0.20370001 1224:0.30069301 1225:0.046656899 1226:0.092817999 1227:0.21073499 1228:0.238537 1229:0.39247099 1230:0.21697 1231:0.19108599 1232:0.0593336 1233:0.032990701 1234:0.0254659 1235:0.0268966 1236:0.085952401 1237:0.166978 1238:0.39247099 1239:0.129279 1240:0.046511199 1241:0.0273556 1242:0.0252904 1243:0.097136199 1244:0.14927 1245:0.134413 1246:0.082718901 1247:0.39247099 1248:0.11868 1249:0.082301103 1250:0.071374796 1251:0.083966501 1252:0.0347532 1253:0.032582399 1254:0.0784555 1255:0.114452 1256:0.39247099 1257:0.094270602 1258:0.0308678 1259:0.0305571 1260:0.028486799 1261:0.0925567 1262:0.101357 1263:0.170329 1264:0.199837 1265:0.22387099 1266:0.0254639 1267:0.0394178 1268:0.0327175 1269:0.063619897 1270:0.054461502 1271:0.074434899 1272:0.21724901 1273:0.21298701 1274:0.49183401 1275:0.016040601 1276:0.0249703 1277:0.0232714 1278:0.043182202 1279:0.113816 1280:0.159591 1281:0.217232 1282:0.273911 1283:0.30022901 1284:0.00092112098 1285:0.023283301 1286:0.0076294998 1287:0.080381699 1288:0.092205897 1289:0.104115 1290:0.203477 1291:0.204513 1292:0.363235 1293:0.00071642798 1294:0.036802601 1295:0.012181 1296:0.080003202 1297:0.042532299 1298:0.01234 1299:0.0328045 1300:0.029089 1301:0.123691 1302:0 1303:0.037035201 1304:0.116739 1305:0.088282399 1306:0.190227 1307:0.0177991 1308:0.0211026 1309:0.022235701 1310:0.061425701 1311:0 1312:0.54326701 1313:0.543504 1314:0.543504 1315:0.0189304 1316:0.0089138104 1317:0.032450601 1318:0.0263544 1319:0.102729 1320:0.000403543 1321:0.013488 1322:0.00717007 1323:0.019293999 1324:0.042553999 1325:0.017383499 1326:0.018565699 1327:0.015847901 1328:0.081555702 1329:0.0092236102 1330:0.0201299 1331:0.021746101 1332:0.042186402 1333:0.062305 1334:0.0079605402 1335:0.0037516099 1336:0.0069626002 1337:0.0103649 1338:0.00034361001 1339:0.27952299 1340:0.415804 1341:0.30597299 1342:0.087723903 1343:0.0134128 1344:0.0041681901 1345:0.0118609 1346:0.0064506298 1347:0.0048619998 1348:0.415804 1349:0.415804 1350:0.415804 1351:0.0121707 1352:0.0071829101 1353:0.0041278601 1354:0.0025948801 1355:0.0118839 1356:0.00154919 1357:0.0099028703 1358:0.024036599 1359:0.020482199 1360:0.0251438 1361:0.0078546796 1362:0.0045376299 1363:0.00474498 1364:0.0165441 1365:0.0030785799 1366:0.104517 1367:0.29464301 1368:0.141727 1369:0.034630299 1370:0.00340735 1371:0.00171843 1372:0.00287758 1373:0.00085507397 1374:0.0040861401 1375:0.260144 1376:0.33001301 1377:0.30553299 1378:0.055155799 1379:0.00300334 1380:0.0030142199 1381:0.00082488102 1382:0.00094668497 1383:0.0107315 1384:0.286356 1385:0.33001301 1386:0.33001301 1387:0.0225359 1388:0.0032429299 1389:0.00100699 1390:0.00160959 1391:0.0074118199 1392:0.0027497399 1393:0.116859 1394:0.33001301 1395:0.13863701 1396:0.0494803 1397:0.00218151 1398:0.00229517 1399:0.00109024 1400:0.0056302999 1401:0.0091048498 1402:0.280772 1403:0.33001301 1404:0.29974899 1405:0.057069499 1406:0.0139407 1407:0.0068199299 1408:0.0012742199 1409:0.0017011201 1410:0.0076385699 1411:0.181914 1412:0.336835 1413:0.24043 1414:0.050109599 1415:0.0155332 1416:0.0048213 1417:0.00159366 1418:0.0058367699 1419:0.0054272399 1420:0.0955064 1421:0.32789299 1422:0.17525101 1423:0.051164199 1424:0.00122376 1425:0.0025682901 1426:0.00061322498 1427:0.0032562199 1428:0.0095605599 1429:0.306907 1430:0.336835 1431:0.33412001 1432:0.0473473 1433:0.00150985 1434:0.00122498 1435:0.00061945198 1436:0.0024047301 1437:0.0077991602 1438:0.295441 1439:0.336835 1440:0.336835 1441:0.062914997 1442:0.0111635 1443:0.0036718999 1444:0.0042473702 1445:0.020605201 1446:0.0102496 1447:0.099969 1448:0.31081501 1449:0.21765999 1450:0.088938102 1451:0.055539601 1452:0.033131599 1453:0.0131176 1454:0.0529791 1455:0.0081066899 1456:0.045995001 1457:0.13243 1458:0.150396 1459:0.070934303 1460:0.00212173 1461:0.0031195499 1462:0.0047077201 1463:0.0077660899 1464:0.0156224 1465:0.38634399 1466:0.38634399 1467:0.38634399 1468:0.073013499 1469:0.0052668601 1470:0.0065362402 1471:0.0056856498 1472:0.053840201 1473:0.00919622 1474:0.26931199 1475:0.38634399 1476:0.311039 1477:0.034681801 1478:0.032586802 1479:0.024293199 1480:0.0177326 1481:0.47544 1482:0.029779401 1483:0.0076054502 1484:0.020856701 1485:0.035364401 1486:0.0217424 1487:0.0127898 1488:0.032489099 1489:0.072876498 1490:0.47544 1491:0.059964702 1492:0.0167877 1493:0.0131733 1494:0.019306401 1495:0.037268199 1496:0.0116409 1497:0.00287956 1498:0.0220144 1499:0.47544 1500:0.020618699 1501:0.064619802 1502:0.22184999 1503:0.080300398 1504:0.0156295 1505:0.0126952 1506:0.0112986 1507:0.084372602 1508:0.47544 1509:0.046391901 1510:0.0153048 1511:0.0368682 1512:0.0131211 1513:0.124989 1514:0.15075099 1515:0.209736 1516:0.186997 1517:0.40590101 1518:0.00661238 1519:0.037285399 1520:0.0113678 1521:0.101371 1522:0.069100499 1523:0.094962902 1524:0.145496 1525:0.112057 1526:0.42982501 1527:0.0065613901 1528:0.040472701 1529:0.0124514 1530:0.0566204 1531:0.147714 1532:0.208326 1533:0.26828799 1534:0.098028697 1535:0.29505101 1536:0.0286537 1537:0.0387129 1538:0.0082925996 1539:0.11961 1540:0.115015 1541:0.144963 1542:0.167973 1543:0.075708799 1544:0.35417601 1545:0.0175961 1546:0.062811799 1547:0.018208301 1548:0.0938804 1549:0.073010698 1550:0.0214688 1551:0.047383402 1552:0.0358698 1553:0.424734 1554:0.021571601 1555:0.072086103 1556:0.0462256 1557:0.083655201 1558:0.172025 1559:0.029811 1560:0.066827103 1561:0.062088698 1562:0.39989701 1563:0.096086398 1564:0.152044 1565:0.119403 1566:0.20205399 1567:0.085897103 1568:0.045161199 1569:0.033443201 1570:0.016806901 1571:0.36504799 1572:0.0262169 1573:0.107736 1574:0.049416099 1575:0.0980689 1576:0.137393 1577:0.016939601 1578:0.069508098 1579:0.068570502 1580:0.44453999 1581:0.142892 1582:0.20135701 1583:0.090672597 1584:0.18105599 1585:0.149055 1586:0.057298802 1587:0.092565499 1588:0.0423907 1589:0.26756799 1590:0.059937399 1591:0.104251 1592:0.065900303 1593:0.151537 1594:0.0992992 1595:0.066634104 1596:0.113767 1597:0.045095898 1598:0.485838 1599:0.080043003 1600:0.084236898 1601:0.0418749 1602:0.119512 1603:0.109369 1604:0.034982499 1605:0.120793 1606:0.062316701 1607:0.32829201 1608:0.103988 1609:0.13034201 1610:0.042261999 1611:0.118635 1612:0.072745003 1613:0.076754399 1614:0.241328 1615:0.0303833 1616:0.52055699 1617:0.0812319 1618:0.0850472 1619:0.0169408 1620:0.072658099 1621:0.036325298 1622:0.0141938 1623:0.0118122 1624:0.01237 1625:0.089859098 1626:0.0234145 1627:0.080383599 1628:0.18952499 1629:0.102031 1630:0.15131401 1631:0.012016 1632:0.024103699 1633:0.026656199 1634:0.083786398 1635:0.0227923 1636:0.53787398 1637:0.53787398 1638:0.53787398 1639:0.0056398702 1640:0.0100532 1641:0.0351304 1642:0.0137968 1643:0.117958 1644:0.015774701 1645:0.012868 1646:0.0020665401 1647:0.0055446201 1648:0.015869001 1649:0.010448 1650:0.036374301 1651:0.0289928 1652:0.108373 1653:0.0064573199 1654:0.029114399 1655:0.0136614 1656:0.018334201 1657:0.049311601 1658:0.00272598 1659:0.00398792 1660:0.0031036099 1661:0.0097720297 1662:0.0064000902 1663:0.257276 1664:0.40404001 1665:0.27738601 1666:0.084635504 1667:0.0070561599 1668:0.0045084702 1669:0.0031664099 1670:0.0059020398 1671:0.0115817 1672:0.40404001 1673:0.40404001 1674:0.40404001 1675:0.0101097 1676:0.0040596002 1677:0.0077945702 1678:0.0031199499 1679:0.0146615 1680:0.00312594 1681:0.016085301 1682:0.039301399 1683:0.0246522 1684:0.035715401 1685:0.0105741 1686:0.017542999 1687:0.0060266601 1688:0.013883 1689:0.0090549802 1690:0.102445 1691:0.39015901 1692:0.149242 1693:0.040238298 1694:0.0022698201 1695:0.00230138 1696:0.00325189 1697:0.00185031 1698:0.0063915402 1699:0.23006099 1700:0.34154999 1701:0.294698 1702:0.0511875 1703:0.00286429 1704:0.00198544 1705:0.00288933 1706:0.0121279 1707:0.00283903 1708:0.23341399 1709:0.34154999 1710:0.28866801 1711:0.027266501 1712:0.0036270299 1713:0.0048896801 1714:0.00223759 1715:0.0049589402 1716:0.0031894599 1717:0.128291 1718:0.34154999 1719:0.171763 1720:0.054347899 1721:0.0040677302 1722:0.0027772801 1723:0.00160422 1724:0.0060673598 1725:0.00095523102 1726:0.28537801 1727:0.34154999 1728:0.34154999 1729:0.067170203 1730:0.0276231 1731:0.0038492801 1732:0.027433399 1733:0.224437 1734:0.0107543 1735:0.114091 1736:0.33278999 1737:0.156537 1738:0.037280399 1739:0.032134201 1740:0.0117449 1741:0.078627802 1742:0.33278999 1743:0.0263179 1744:0.0150252 1745:0.086028203 1746:0.034540899 1747:0.084647998 1748:0.0238331 1749:0.0051679099 1750:0.0139706 1751:0.0414625 1752:0.00108471 1753:0.28241199 1754:0.33278999 1755:0.33278999 1756:0.105589 1757:0.082005598 1758:0.086714998 1759:0.080692001 1760:0.33278999 1761:0.0154971 1762:0.13471 1763:0.33278999 1764:0.28311199 #
-0.0099999997733671228128393693168618 1:0 2:0 3:0 4:0 5:0 6:0 7:0 8:0 9:0 10:0.036214702 11:0.0121778 12:0.036440499 13:0 14:0.283676 15:0 16:0 17:0 18:0.036214702 19:0.153138 20:0.018237799 21:0.0545743 22:0 23:0.158141 24:0 25:0 26:0 27:0.153138 28:0.44333601 29:0.038741902 30:0.11593 31:0 32:0.61059201 33:0 34:0 35:0 36:0.44333601 37:0.1285 38:0.0154333 39:0.046182301 40:0 41:0.26369601 42:0 43:0.00359107 44:0.00120007 45:0.1285 46:0.24484 47:0.0135534 48:0.040556598 49:0 50:0.17780399 51:0 52:0.144389 53:0.048252098 54:0.24484 55:0.137557 56:0.0216366 57:0.064744703 58:0 59:0.51753098 60:0 61:0.00163231 62:0.00054548797 63:0.137557 64:0.21376701 65:0.0469089 66:0.13581599 67:0.0025063299 68:0.48028699 69:0.0111703 70:0.177533 71:0.073459499 72:0.21257199 73:0.036313199 74:0.00152541 75:0.0046857502 76:0.00022852499 77:0.0126442 78:0 79:0.022260001 80:0.0074388999 81:0.036313199 82:0.064758003 83:0.0037962601 84:0.0108029 85:0.0034278701 86:0.0260233 87:0.0091153104 88:0.0151624 89:0.0110909 90:0.064371102 91:0.132018 92:0.0137755 93:0.0403313 94:0.0061985902 95:0.0446635 96:0.0089190099 97:0.0408802 98:0.019802099 99:0.095691398 100:0.64189398 101:0.66244698 102:0.22594699 103:0.0469376 104:0.041926101 105:0.036746498 106:0.0467664 107:0.028287601 108:0.19397999 109:0.0123706 110:0.00585608 111:0.00326143 112:0.00096476497 113:0.0171165 114:0.0034954301 115:0.00409962 116:0.0033378601 117:0.0095370496 118:0.0573899 119:0.116617 120:0.017298199 121:0.0109985 122:0.033744499 123:0.00173537 124:0.00465735 125:0.00221309 126:0.0106136 127:0.201527 128:0.53705502 129:0.096639 130:0.0091345301 131:0.018077901 132:0.0056002201 133:0.0077041602 134:0.0058891 135:0.0253732 136:0.53705502 137:0.53705502 138:0.23815601 139:0.0146192 140:0.031527098 141:0.0017108599 142:0.0068674302 143:0.0060528801 144:0.031463299 145:0.0423363 146:0.197441 147:0.0257285 148:0.0045117 149:0.0082449 150:0.0011581799 151:0.00048759201 152:0.00093724299 153:0.0104367 154:0.17457099 155:0.448145 156:0.109732 157:0.0135151 158:0.0068806401 159:0.0025561401 160:0 161:0.0032513801 162:0.020135401 163:0.28616601 164:0.448145 165:0.157562 166:0.0065234802 167:0.0056155501 168:0.00040464901 169:0.00068496598 170:0.0049393498 171:0.0195593 172:0.33935401 173:0.448145 174:0.28799 175:0.024028299 176:0.0018370399 177:0.00114087 178:0.00088346697 179:0.016139399 180:0.045541499 181:0.199472 182:0.40944901 183:0.138157 184:0.0112362 185:0.0027886599 186:0.00163144 187:0.00129748 188:0.0076060598 189:0.0195111 190:0.289078 191:0.40944901 192:0.214936 193:0.0113657 194:0.0147239 195:0.00100248 196:0.00353826 197:0.0137314 198:0.026958801 199:0.228522 200:0.40944901 201:0.181523 202:0.020783 203:0.0044497699 204:0.00060574902 205:0.00195602 206:0.0151688 207:0.0311302 208:0.171841 209:0.40944901 210:0.12556501 211:0.020361099 212:0.029740199 213:0.0031242101 214:0.0043958598 215:0.0181465 216:0.032285299 217:0.247299 218:0.39156899 219:0.14248601 220:0.0228929 221:0.159573 222:0.045314599 223:0.034042899 224:0.018360101 225:0.037855402 226:0.115731 227:0.16887601 228:0.048044 229:0.094651498 230:0.39156899 231:0.179451 232:0.073375203 233:0.042713799 234:0.052958701 235:0.094614297 236:0.278301 237:0.060795698 238:0.066257998 239:0.39156899 240:0.0609635 241:0.0198144 242:0.0114559 243:0.0243754 244:0.0253083 245:0.032284901 246:0.0205773 247:0.17756 248:0.39156899 249:0.20304801 250:0.0250689 251:0.0057279398 252:0.0104941 253:0.021163 254:0.0085334303 255:0.0119201 256:0.000157136 257:0.064468503 258:0.00056704198 259:0.0012356699 260:0 261:0.0203078 262:0.063965097 263:0.010159 264:0.015825201 265:0.00246465 266:0.0538099 267:0.00072905398 268:0.0032415199 269:0.00171952 270:0.063299902 271:0.072064802 272:0.0545712 273:0.036281399 274:0.0105693 275:0.178844 276:0.043549299 277:0.025764801 278:0.0086079296 279:0.064208902 280:0.47327 281:0.78102201 282:0.14045601 283:0.040702701 284:0.202264 285:0.0448751 286:0.084612101 287:0.068687797 288:0.130753 289:0.0069025801 290:0.00192646 291:0.0018522 292:0.000240066 293:0.0056897998 294:1.37542e-05 295:0.00058205798 296:0.00045214599 297:0.0056090201 298:0.0375259 299:0.0941284 300:0.0120627 301:0.00021247 302:0.0154358 303:0.000864339 304:0.0040047099 305:0.0036110301 306:0.00714252 307:0.181383 308:0.52694798 309:0.105969 310:0.0036009899 311:0.0091564199 312:0.00052679499 313:0.0121274 314:0.0152082 315:0.0186818 316:0.52694798 317:0.52694798 318:0.32414299 319:0.0075672702 320:0.0116123 321:0.00039288099 322:0.00773538 323:0.0083736498 324:0.0227612 325:0.041882001 326:0.179794 327:0.0177125 328:0.00089015201 329:0.0049560699 330:0.0013152 331:0.0027086099 332:0.0020022499 333:0.0072968202 334:0.183101 335:0.46489301 336:0.076342702 337:0.0044241101 338:0.00337973 339:0.0042406302 340:0.00306135 341:0.00131736 342:0.0165239 343:0.24372 344:0.46489301 345:0.1587 346:0.0045655202 347:0.0033080899 348:0.00059660198 349:0.0035582499 350:0.0016457899 351:0.0211509 352:0.36721799 353:0.46489301 354:0.222849 355:0.0035583901 356:0.0028605601 357:0.0026780199 358:0.0061337901 359:0.0026489201 360:0.056061499 361:0.16726699 362:0.38486001 363:0.112258 364:0.0052181301 365:0.0041217101 366:0.0050876299 367:0.001006 368:0.00041846 369:0.0082384497 370:0.25713301 371:0.38486001 372:0.148261 373:0.0093367798 374:0.0066279601 375:0.0037179501 376:0.00045615601 377:0.0013737601 378:0.0134433 379:0.263064 380:0.38486001 381:0.178441 382:0.0069498201 383:0.0060855001 384:0.0063720602 385:0.0019898999 386:0.0058207298 387:0.043097802 388:0.216278 389:0.38486001 390:0.32370201 391:0.131083 392:0.020829 393:0.0110777 394:0.0043821801 395:0.010993 396:0.0451423 397:0.211283 398:0.32294899 399:0.157085 400:0.0281967 401:0.00753826 402:0.00075865502 403:0.0010432201 404:0.0084155602 405:0.0152655 406:0.19162101 407:0.32294899 408:0.165337 409:0.052673601 410:0.038715299 411:0.0086062001 412:0.0056540798 413:0.030485401 414:0.032125998 415:0.118165 416:0.32294899 417:0.32294899 418:0.24581701 419:0.041957099 420:0.033172499 421:0.0049599698 422:0.044944599 423:0.0453921 424:0.16680799 425:0.32294899 426:0.32294899 427:0.294117 428:0.130602 429:0.0523296 430:0.0151374 431:0.086791903 432:0.082984403 433:0.189446 434:0.32105401 435:0.085305199 436:0.030372901 437:0.032388899 438:0.00785824 439:0.0052207899 440:0.0274284 441:0.035287999 442:0.217159 443:0.212457 444:0.0275848 445:0.0200158 446:0.040895 447:0.0172559 448:0.0098555498 449:0.0205536 450:0.116517 451:0.32105401 452:0.32105401 453:0.32105401 454:0.164948 455:0.149629 456:0.0261031 457:0.025078099 458:0.0571112 459:0.071181603 460:0.32105401 461:0.32105401 462:0.209047 463:0.068500802 464:0.108587 465:0.0603735 466:0.034151699 467:0.0420454 468:0.309176 469:0.070322402 470:0.035828799 471:0.0099662403 472:0.061809 473:0.38925701 474:0.064575203 475:0.0121904 476:0.0146944 477:0.074435502 478:0.00194911 479:0.00061351998 480:0.00371864 481:0.14054701 482:0.43805701 483:0.15020099 484:0.0033469601 485:0.0032602199 486:0.0049983501 487:0.26648 488:0.120715 489:0.039734401 490:0.091952801 491:0.43805701 492:0.116389 493:0.0306978 494:0.0253809 495:0.19042601 496:0.00605478 497:0.0044681402 498:0.017222701 499:0.180461 500:0.43805701 501:0.160436 502:0.0068862499 503:0.0054351599 504:0.0083912602 505:0.044577502 506:0.15382101 507:0.0078464998 508:0.00081981102 509:0.0087697096 510:0.0042548301 511:0.0020765599 512:0.00128056 513:0.0076284199 514:0.132901 515:0.48701799 516:0.068051897 517:0.00156509 518:0.0123259 519:0.00452663 520:0.0054993802 521:0.0067799198 522:0.0126146 523:0.22643 524:0.48701799 525:0.12461 526:0.023810299 527:0.018863801 528:0.017572399 529:0.0080434 530:0.0048739398 531:0.0136144 532:0.34015599 533:0.48701799 534:0.222569 535:0.0198867 536:0.0178994 537:0.01551 538:0.0150944 539:0.0084437001 540:0.0141192 541:0.153318 542:0.41990599 543:0.118448 544:0.0063011399 545:0.0041323998 546:0.000387746 547:0.00303094 548:0.0103985 549:0.016161099 550:0.26969501 551:0.41990599 552:0.196141 553:0.0107017 554:0.0034531001 555:0 556:0.0011686001 557:0.0066508502 558:0.016797001 559:0.20809101 560:0.41990599 561:0.17225499 562:0.0097327298 563:0.0051224702 564:0.0025312901 565:0.0034576701 566:0.0099688796 567:0.026319601 568:0.192013 569:0.41990599 570:0.170517 571:0.0145089 572:0.0080933804 573:0.00107093 574:0.00160918 575:0.0099299699 576:0.025713099 577:0.29399601 578:0.41196999 579:0.194141 580:0.0103797 581:0.0049783099 582:0.00023673 583:0.0021283999 584:0.0018432901 585:0.016920701 586:0.272908 587:0.41196999 588:0.203566 589:0.099121198 590:0.055595599 591:0.027830301 592:0.0136976 593:0.010852 594:0.065978996 595:0.148421 596:0.41196999 597:0.0952015 598:0.0081834197 599:0.0129659 600:0.000829814 601:0.00140362 602:0.00339462 603:0.0102165 604:0.13603 605:0.26215601 606:0.099472903 607:0.17973199 608:0.150409 609:0.140541 610:0.091398902 611:0.108538 612:0.0672713 613:0.172221 614:0.24728499 615:0.129925 616:0.097282901 617:0.047491599 618:0.056946501 619:0.047865398 620:0.044742901 621:0.128618 622:0.092991702 623:0.14438801 624:0.24728499 625:0.24728499 626:0.212935 627:0.0973773 628:0.071547002 629:0.052985299 630:0.126164 631:0.185453 632:0.173077 633:0.156893 634:0.199417 635:0.117432 636:0.176863 637:0.139705 638:0.18204001 639:0.167035 640:0.14294399 641:0.159043 642:0.19517501 643:0.24728499 644:0.24728499 645:0.24728499 646:0.190718 647:0.188264 648:0.173583 649:0.056218602 650:0.097878397 651:0.25515601 652:0.25515601 653:0.18160599 654:0.073705897 655:0.0209659 656:0.061659001 657:0.064702101 658:0.1605 659:0.25515601 660:0.25515601 661:0.19781899 662:0.12780599 663:0.068537302 664:0.039826401 665:0.122775 666:0.158535 667:0.091158003 668:0.081586801 669:0.098656401 670:0.25515601 671:0.25515601 672:0.178424 673:0.136391 674:0.17129099 675:0.164996 676:0.22967599 677:0.161705 678:0.095289201 679:0.14717799 680:0.17472801 681:0.107268 682:0.13681901 683:0.228738 684:0.25515601 685:0.15211099 686:0.264101 687:0.264101 688:0.084027499 689:0.149753 690:0.0240316 691:0.078414701 692:0.18839499 693:0.121399 694:0.262557 695:0.195751 696:0.12889899 697:0.039519701 698:0.083661802 699:0.020588201 700:0.117302 701:0.26404101 702:0.163819 703:0.13297001 704:0.115545 705:0.082188703 706:0.115007 707:0.187943 708:0.107595 709:0.156911 710:0.264101 711:0.264101 712:0.084969997 713:0.0591834 714:0.033389099 715:0.086469397 716:0.14169499 717:0.0688067 718:0.264101 719:0.264101 720:0.243835 721:0.13902199 722:0.062845901 723:0.0214711 724:0.064084299 725:0.36618099 726:0.056623701 727:0.079135701 728:0.093827203 729:0.091093399 730:0.0045243902 731:0.00246547 732:0.0109422 733:0.138661 734:0.392537 735:0.113263 736:0.0110263 737:0.00253339 738:0.0041899099 739:0.041135401 740:0.0105815 741:0.0089287404 742:0.067050703 743:0.392537 744:0.102136 745:0.345768 746:0.34461299 747:0.0947375 748:0.0065775299 749:0.00132328 750:0.0104354 751:0.17672899 752:0.392537 753:0.123515 754:0.046113301 755:0.0083771199 756:0.0055640601 757:0.123811 758:0.38372099 759:0.122473 760:0.044478599 761:0.051483601 762:0.0447153 763:0.074547596 764:0.20324001 765:0.039699201 766:0.17090601 767:0.38372099 768:0.13130701 769:0.03053 770:0.036699802 771:0.0368734 772:0.090647198 773:0.26712701 774:0.045550998 775:0.0331541 776:0.072548203 777:0.036286201 778:0.022930199 779:0.0433021 780:0.0391571 781:0.177213 782:0.38372099 783:0.161121 784:0.089009002 785:0.093239799 786:0.028987899 787:0.0149866 788:0.030949 789:0.042510699 790:0.24709301 791:0.38372099 792:0.19896001 793:0.17651901 794:0.43012401 795:0.107799 796:0.0113569 797:0.0092921099 798:0.0104308 799:0.054704498 800:0.229629 801:0.0643095 802:0.072856598 803:0.34772301 804:0.057532299 805:0.022018399 806:0.0202887 807:0.00293762 808:0.0075380201 809:0.042088099 810:0.0328729 811:0.096861698 812:0.066690497 813:0.0147227 814:0.0131935 815:0.0078378702 816:0.0192175 817:0.246589 818:0.43012401 819:0.25892499 820:0.030557601 821:0.0105496 822:0.0098950798 823:0.021048499 824:0.018978599 825:0.0047885301 826:0.143324 827:0.43012401 828:0.198413 829:0.042690501 830:0.099175498 831:0.026911 832:0.019808 833:0.026417 834:0.0044557098 835:0.0063160202 836:0.00879825 837:0.0150553 838:0.17529801 839:0.089837201 840:0.0532065 841:0.0992295 842:0.101385 843:0.12091 844:0.119382 845:0.160633 846:0.118353 847:0.020791201 848:0.0176931 849:0.022788201 850:0.059382599 851:0.097799398 852:0.025214899 853:0.087035298 854:0.30413699 855:0.107013 856:0.30413699 857:0.30413699 858:0.30413699 859:0.30413699 860:0.30413699 861:0.202893 862:0.26459599 863:0.30413699 864:0.24494199 865:0.155589 866:0.097972102 867:0.067978397 868:0.071979597 869:0.054296602 870:0.0765099 871:0.083164103 872:0.133518 873:0.108232 874:0.160936 875:0.113691 876:0.14270499 877:0.16353101 878:0.22677501 879:0.17212801 880:0.14055499 881:0.242052 882:0.176239 883:0.225679 884:0.173783 885:0.214266 886:0.153023 887:0.168432 888:0.133405 889:0.202986 890:0.162698 891:0.132313 892:0.14864101 893:0.098751798 894:0.242052 895:0.242052 896:0.242052 897:0.16016001 898:0.196647 899:0.229756 900:0.16059799 901:0.175704 902:0.046185199 903:0.053165801 904:0.118267 905:0.15773401 906:0.101743 907:0.13015901 908:0.27376801 909:0.27376801 910:0.27376801 911:0.083701499 912:0.044914201 913:0.090232298 914:0.098451197 915:0.066047497 916:0.094302498 917:0.23239 918:0.27376801 919:0.27376801 920:0.095863499 921:0.186847 922:0.153643 923:0.0754527 924:0.0349342 925:0.0642635 926:0.238511 927:0.27376801 928:0.27376801 929:0.101526 930:0.081055798 931:0.0783289 932:0.077802598 933:0.0864622 934:0.093778998 935:0.14348499 936:0.27376801 937:0.27560699 938:0.077653699 939:0.045322601 940:0.13074601 941:0.17230999 942:0.109546 943:0.086618803 944:0.25815499 945:0.27560699 946:0.178177 947:0.046040699 948:0.022101 949:0.12800799 950:0.17313001 951:0.101108 952:0.19665401 953:0.27560699 954:0.27560699 955:0.27560699 956:0.099688902 957:0.068883702 958:0.0882219 959:0.107601 960:0.118864 961:0.154471 962:0.128563 963:0.27560699 964:0.27560699 965:0.053937498 966:0.0200286 967:0.113057 968:0.099638902 969:0.070203498 970:0.073239297 971:0.099152498 972:0.245355 973:0.067322701 974:0.0105913 975:0.0139185 976:0.058401201 977:0.43252099 978:0.13267501 979:0.186195 980:0.25709599 981:0.100884 982:0.0146198 983:0.0023093901 984:0.0077609899 985:0.122347 986:0.43752599 987:0.163661 988:0.025380099 989:0.0086236401 990:0.0092107197 991:0.046010599 992:0.0116617 993:0.0133446 994:0.077665798 995:0.43752599 996:0.074905701 997:0.015393 998:0.040270898 999:0.050627001 1000:0.00614285 1001:0.00089372799 1002:0.00312002 1003:0.122404 1004:0.43752599 1005:0.14519399 1006:0.00045640199 1007:0.00248338 1008:0.00453691 1009:0.024958201 1010:0.0044641201 1011:0.001289 1012:0.00045202099 1013:0.0077474499 1014:0.0069863899 1015:0.140439 1016:0.477083 1017:0.218018 1018:0.0994789 1019:0.0074809701 1020:0.00365548 1021:0.0061611002 1022:0.0089069698 1023:0.0183172 1024:0.300165 1025:0.477083 1026:0.338958 1027:0.0109199 1028:0.0027965601 1029:0.00276965 1030:0.0038302301 1031:0.0067144101 1032:0.0027481001 1033:0.0082564102 1034:0.075836502 1035:0.033180099 1036:0.0250063 1037:0.0076490901 1038:0.0075049698 1039:0.0114039 1040:0.0171733 1041:0.0084659597 1042:0.064533897 1043:0.477083 1044:0.128323 1045:0.054283299 1046:0.0050916402 1047:0.0065825302 1048:0.0089452304 1049:0.00394218 1050:0.0091233402 1051:0.15457299 1052:0.44433999 1053:0.19322699 1054:0.038208202 1055:0.00636817 1056:0.0065517002 1057:0.0098556504 1058:0.0081622303 1059:0.0058909701 1060:0.17364401 1061:0.44433999 1062:0.183698 1063:0.022523699 1064:0.00515708 1065:0.0047933799 1066:0.0078047402 1067:0.0102043 1068:0.0046799001 1069:0.053828601 1070:0.44433999 1071:0.118464 1072:0.030144099 1073:0.0049684099 1074:0.00251657 1075:0.0067593101 1076:0.0081445295 1077:0.0077400198 1078:0.169485 1079:0.44433999 1080:0.168035 1081:0.0172497 1082:0.0036516101 1083:0.0046781101 1084:0.0124235 1085:0.034896001 1086:0.018383799 1087:0.092478499 1088:0.40316799 1089:0.098710299 1090:0.123911 1091:0.118078 1092:0.120208 1093:0.091764703 1094:0.184683 1095:0.119344 1096:0.15514 1097:0.40316799 1098:0.176099 1099:0.031221 1100:0.00161947 1101:0.000122835 1102:0.00125685 1103:0.0099921199 1104:0.018384799 1105:0.16016001 1106:0.40316799 1107:0.180785 1108:0.069870003 1109:0.024594 1110:0.0099216802 1111:0.0057332902 1112:0.0265503 1113:0.036309499 1114:0.178093 1115:0.40316799 1116:0.26598999 1117:0.162653 1118:0.15203699 1119:0.172864 1120:0.118232 1121:0.14662901 1122:0.167511 1123:0.17236599 1124:0.228763 1125:0.13783599 1126:0.118625 1127:0.15417799 1128:0.26038501 1129:0.22414 1130:0.182409 1131:0.27386799 1132:0.27386799 1133:0.072389998 1134:0.0488948 1135:0.080618903 1136:0.050731398 1137:0.027946301 1138:0.0148723 1139:0.026959701 1140:0.071184501 1141:0.104413 1142:0.27386799 1143:0.16913299 1144:0.093233101 1145:0.077085704 1146:0.050728198 1147:0.057936899 1148:0.115726 1149:0.27386799 1150:0.27386799 1151:0.27386799 1152:0.130725 1153:0.241658 1154:0.216602 1155:0.147489 1156:0.147324 1157:0.109345 1158:0.20558 1159:0.17972501 1160:0.064619303 1161:0.12905601 1162:0.241658 1163:0.14966901 1164:0.0806804 1165:0.083717197 1166:0.116128 1167:0.16267601 1168:0.241658 1169:0.105121 1170:0.241658 1171:0.17126501 1172:0.121061 1173:0.086165503 1174:0.122759 1175:0.218073 1176:0.241658 1177:0.241658 1178:0.154387 1179:0.155416 1180:0.20235699 1181:0.0892419 1182:0.049329001 1183:0.064475201 1184:0.14444201 1185:0.128719 1186:0.23826601 1187:0.086631797 1188:0.20811801 1189:0.29852101 1190:0.091097102 1191:0.062030099 1192:0.059042901 1193:0.163877 1194:0.29852101 1195:0.29852101 1196:0.18186601 1197:0.29852101 1198:0.19052801 1199:0.055192702 1200:0.017344199 1201:0.062920198 1202:0.124055 1203:0.160771 1204:0.241836 1205:0.053768001 1206:0.123032 1207:0.15850601 1208:0.071680702 1209:0.0095724398 1210:0.014245 1211:0.136288 1212:0.28553799 1213:0.29852101 1214:0.187866 1215:0.158308 1216:0.064448401 1217:0.058235701 1218:0.0114125 1219:0.0269248 1220:0.16622201 1221:0.17231999 1222:0.230214 1223:0.059983298 1224:0.0344483 1225:0.017877299 1226:0.00939117 1227:0.0076169502 1228:0.071987703 1229:0.45407999 1230:0.045678601 1231:0.0056096599 1232:0.0070795198 1233:0.0209319 1234:0.0010292 1235:0.000249609 1236:0.00139991 1237:0.15901799 1238:0.48745301 1239:0.087738402 1240:0.00028044399 1241:0.00106808 1242:0.0018886901 1243:0.0053175902 1244:0.0072509302 1245:0.0038837299 1246:0.056038901 1247:0.48745301 1248:0.052518699 1249:0.0046489402 1250:0.00313791 1251:0.0070865699 1252:0.0010141101 1253:0.00042499899 1254:0.00060286 1255:0.153493 1256:0.48745301 1257:0.072238497 1258:0.0023737301 1259:0.00122084 1260:0.00093418401 1261:0.244067 1262:0.058364801 1263:0.047454499 1264:0.085417002 1265:0.11619 1266:0.073893301 1267:0.0253828 1268:0.037281699 1269:0.190016 1270:0.374769 1271:0.17302699 1272:0.1367 1273:0.21981101 1274:0.37667 1275:0.125122 1276:0.128516 1277:0.40451401 1278:0.51246798 1279:0.030122699 1280:0.0027625 1281:0.00157513 1282:0.00325513 1283:0.0020804501 1284:0.0043551102 1285:0.00086463999 1286:0.00028894801 1287:0.029541099 1288:0.045259099 1289:0.00982669 1290:0.0057699 1291:0.0041851699 1292:0.098353103 1293:0.0019795899 1294:0.0147663 1295:0.0118197 1296:0.0422539 1297:0.043350201 1298:0.019393099 1299:0.0114919 1300:0.018631199 1301:0.048365299 1302:0.0099593 1303:0.0307636 1304:0.43235001 1305:0.12437 1306:0.046039801 1307:0.0148798 1308:0.0055306 1309:0.0103151 1310:0.036151499 1311:0.025764501 1312:0.37137401 1313:0.64998603 1314:0.45938599 1315:0.0116616 1316:0.00090641202 1317:0.00095651398 1318:6.1743602e-05 1319:0.0212692 1320:0 1321:0.00373076 1322:0.00292549 1323:0.0110227 1324:0.0216858 1325:0.0056012999 1326:0.00376519 1327:0.0019781301 1328:0.0397924 1329:0.0106389 1330:0.0244164 1331:0.0539966 1332:0.051479898 1333:0.023768401 1334:0.00411411 1335:0.00152401 1336:0.00182324 1337:0.0107411 1338:0.0147488 1339:0.132405 1340:0.476904 1341:0.20822901 1342:0.0559473 1343:0.019432699 1344:0.0016364401 1345:0.0038304301 1346:0.0123477 1347:0.0130063 1348:0.259105 1349:0.476904 1350:0.356038 1351:0.0099057704 1352:0.0036832299 1353:0.0016632701 1354:0.00180217 1355:0.0102685 1356:0.0072888401 1357:0.0179566 1358:0.114296 1359:0.03751 1360:0.0215277 1361:0.0080088302 1362:0.0024635899 1363:0.00552982 1364:0.0052361898 1365:0.0109855 1366:0.100492 1367:0.476904 1368:0.165794 1369:0.032863699 1370:0.0123486 1371:0.00178958 1372:0.0055916598 1373:0.0052492102 1374:0.0129999 1375:0.12794501 1376:0.41714999 1377:0.217555 1378:0.059621099 1379:0.0098711401 1380:0.017366299 1381:0.024723999 1382:0.0401338 1383:0.13861001 1384:0.243266 1385:0.41714999 1386:0.237913 1387:0.010052 1388:0.0035216401 1389:0.00153288 1390:0.0042035501 1391:0.00076466298 1392:0.0038570201 1393:0.074947797 1394:0.41714999 1395:0.154938 1396:0.016578799 1397:0.0070753102 1398:0.0016199599 1399:0.0037757801 1400:0.00166944 1401:0.00798079 1402:0.13782901 1403:0.41714999 1404:0.210394 1405:0.112483 1406:0.0079256399 1407:0.050711699 1408:0.0622661 1409:0.108351 1410:0.129402 1411:0.21563201 1412:0.42093101 1413:0.22416 1414:0.065437801 1415:0.0151652 1416:0.029886199 1417:0.034988798 1418:0.073736399 1419:0.045954499 1420:0.090311103 1421:0.30743799 1422:0.115254 1423:0.033750799 1424:0.0073475898 1425:0.0012602 1426:0.00066517101 1427:0.00370002 1428:0.0064240498 1429:0.176374 1430:0.42093101 1431:0.238304 1432:0.032611098 1433:0.0081032095 1434:0.0024902399 1435:0.0023038201 1436:0.0169497 1437:0.00439846 1438:0.20793401 1439:0.42093101 1440:0.236404 1441:0.129489 1442:0.070943996 1443:0.0138052 1444:0.0177454 1445:0.079227202 1446:0.112778 1447:0.225815 1448:0.270576 1449:0.113815 1450:0.089789703 1451:0.0558374 1452:0.0167947 1453:0.0308083 1454:0.132925 1455:0.069991298 1456:0.082160696 1457:0.053153399 1458:0.0462109 1459:0.045748301 1460:0.0270829 1461:0.0121669 1462:0.0079023903 1463:0.0327246 1464:0.00278337 1465:0.29968801 1466:0.474244 1467:0.39195901 1468:0.031653401 1469:0.0186747 1470:0.023581401 1471:0.0132365 1472:0.056742501 1473:0.00617661 1474:0.157014 1475:0.474244 1476:0.20675001 1477:0.00256445 1478:0.00371056 1479:0.00418759 1480:0.039179701 1481:0.46084899 1482:0.04428 1483:0.0049129999 1484:0.00160496 1485:0.0017903399 1486:0.000249159 1487:0.00056128198 1488:0.00348501 1489:0.106045 1490:0.48384899 1491:0.089653596 1492:0.0099353399 1493:0.0021480401 1494:0.000224559 1495:0.0047111199 1496:0.0059840102 1497:0.0106283 1498:0.0424673 1499:0.48384899 1500:0.058670498 1501:0.017607 1502:0.074681498 1503:0.023253599 1504:0.00085302501 1505:0.00144127 1506:0.00622128 1507:0.128194 1508:0.48384899 1509:0.17026199 1510:0.0123807 1511:0.0045157801 1512:0.0031037601 1513:0 1514:0 1515:0 1516:0 1517:0 1518:0 1519:0 1520:0 1521:0 1522:0.23222201 1523:0 1524:0 1525:0 1526:0.59808397 1527:0 1528:0.160933 1529:0.053780999 1530:0.23222201 1531:0 1532:0 1533:0 1534:0 1535:0 1536:0 1537:0 1538:0 1539:0 1540:0 1541:0 1542:0 1543:0 1544:0 1545:0 1546:0 1547:0 1548:0 1549:0.118621 1550:0 1551:0 1552:0 1553:0.106519 1554:0 1555:0.035463698 1556:0.0118514 1557:0.118621 1558:0.24528 1559:0.0111092 1560:0.0109246 1561:0.0047047702 1562:0.74963999 1563:0.0153818 1564:0.278534 1565:0.12708899 1566:0.266179 1567:0 1568:0 1569:0 1570:0 1571:0.0126224 1572:0 1573:0 1574:0 1575:0 1576:0.069012798 1577:0 1578:0 1579:0 1580:0.282116 1581:0 1582:0.186205 1583:0.062226702 1584:0.069012798 1585:0.101272 1586:0.0075336099 1587:0.00637845 1588:0.0069369199 1589:0.183006 1590:0.031293299 1591:0.112665 1592:0.079043701 1593:0.13174701 1594:0.188336 1595:0.0303137 1596:0.0169874 1597:0.0394108 1598:0.052982401 1599:0.083301097 1600:0.120527 1601:0.68265003 1602:0.55078 1603:0.083343796 1604:0 1605:0 1606:0 1607:0.055336598 1608:0 1609:0.0580598 1610:0.019402601 1611:0.083343796 1612:0.162613 1613:0 1614:0 1615:0 1616:0.00164859 1617:0 1618:0.0073866998 1619:0.0024685101 1620:0.162613 1621:0.020051099 1622:0.007677 1623:0.0041571599 1624:0.0031804601 1625:0.0075453902 1626:0.0087195598 1627:0.034982 1628:0.53558397 1629:0.14501201 1630:0.058820002 1631:0.034531102 1632:0.018000299 1633:0.00155268 1634:0.0343947 1635:0.021023801 1636:0.202583 1637:0.62280399 1638:0.487261 1639:0.0181592 1640:0.0023056001 1641:0.0025104601 1642:0 1643:0.0049640499 1644:0.00031656399 1645:3.02959e-05 1646:0.00092993898 1647:0.0167921 1648:0.037297901 1649:0.018913301 1650:0.0175812 1651:0.00304248 1652:0.0253854 1653:0.0055479398 1654:0.0129421 1655:0.068769403 1656:0.0530953 1657:0.027206499 1658:0.0073192702 1659:0.0043880399 1660:0.0015855799 1661:0.00899712 1662:0.0049852198 1663:0.13594 1664:0.44791099 1665:0.202098 1666:0.0470789 1667:0.0133278 1668:0.0070251399 1669:0.0054584099 1670:0.031050101 1671:0.0047371001 1672:0.34318599 1673:0.44791099 1674:0.36025599 1675:0.011267 1676:0.00443797 1677:0.0051342198 1678:0.0027175599 1679:0.0046757702 1680:0.0027223199 1681:0.0255371 1682:0.14207201 1683:0.038109899 1684:0.026108401 1685:0.0049507301 1686:0.0048211101 1687:0.0043200902 1688:0.0071899602 1689:0.00628665 1690:0.15081599 1691:0.44791099 1692:0.190539 1693:0.030505501 1694:0.0159647 1695:0.0114387 1696:0.0054534501 1697:0.0148138 1698:0.00098035997 1699:0.230905 1700:0.40060899 1701:0.23351 1702:0.0265198 1703:0.0134626 1704:0.0146504 1705:0.00689852 1706:0.0113944 1707:0.0048597902 1708:0.18097299 1709:0.40060899 1710:0.193784 1711:0.0198722 1712:0.0084666498 1713:0.0068357899 1714:0.0035532401 1715:0.0041096401 1716:0.0031674199 1717:0.163947 1718:0.40060899 1719:0.18615501 1720:0.024346501 1721:0.011999 1722:0.0094143199 1723:0.0060832798 1724:0.0041980301 1725:0.0102931 1726:0.185525 1727:0.40060899 1728:0.274847 1729:0.025409101 1730:0.0082059102 1731:0.039213099 1732:0.044823099 1733:0.310173 1734:0.033751801 1735:0.054520201 1736:0.367174 1737:0.12500501 1738:0.021234799 1739:0.0057245898 1740:0.045190498 1741:0.120166 1742:0.37750599 1743:0.121196 1744:0.0063344999 1745:0.064290702 1746:0.036633499 1747:0.064607099 1748:0.0178362 1749:0.058079801 1750:0.036153801 1751:0.099277303 1752:0.0198339 1753:0.083680198 1754:0.37750599 1755:0.257853 1756:0.083166897 1757:0.057902701 1758:0.15151601 1759:0.232187 1760:0.37750599 1761:0.066225797 1762:0.020900499 1763:0.278146 1764:0.119444 #
-0.0084331397676763574650093957529862 1:0.021913501 2:0.00613683 3:0.0262157 4:0.0372741 5:0.384967 6:0.00410735 7:0.0132647 8:0.0080111604 9:0.022786601 10:0.0015387 11:0.0061330702 12:0.039558701 13:0.060123201 14:0.61966401 15:0.0104461 16:0.0052913399 17:0.000237941 18:0.0015387 19:0.0113638 20:0.0033565201 21:0.041942 22:0.064795598 23:0.38878801 24:0.0095408903 25:0.022598499 26:0.011454 27:0.0124863 28:0.0051776799 29:0.0028472201 30:0.0450112 31:0.074352302 32:0.53011602 33:0.0683496 34:0.036926899 35:0.0084773898 36:0.0061713699 37:0.0105507 38:0.0144927 39:0.064950697 40:0.043929301 41:0.68889999 42:0.0201775 43:0.027308401 44:0.022109499 45:0.013788 46:0.0188093 47:0.0090596601 48:0.0289205 49:0.0033841699 50:0.234477 51:0.00306755 52:0.031984299 53:0.0336948 54:0.0236088 55:0.067269698 56:0.0133765 57:0.048420198 58:0.0166065 59:0.52737302 60:0.16153701 61:0.088470899 62:0.045512699 63:0.074532799 64:0.150668 65:0.0214018 66:0.0526844 67:0.0044366 68:0.224961 69:0.069816202 70:0.073649801 71:0.088507801 72:0.164685 73:0.0066580502 74:0.0011840099 75:0.00355439 76:0 77:0.0152168 78:0 79:0.00320144 80:0.0069149099 81:0.00785725 82:0.0107076 83:0.000321509 84:0.00096207601 85:0 86:0.0201439 87:0 88:0 89:0.0026527401 90:0.0112518 91:0.078451604 92:0.0223461 93:0.022001499 94:0.0067210398 95:0.093158297 96:0.0151597 97:0.0177863 98:0.047338501 99:0.074126601 100:0.65593201 101:0.65593201 102:0.20290101 103:0.00305502 104:0.077885501 105:0.00120165 106:0.0039536399 107:0.021105399 108:0.24503499 109:0.0036188699 110:0.00094149797 111:0.00029197399 112:0.0039671301 113:0.0078400802 114:0.0024387599 115:0.00090601097 116:0.000626928 117:0.0042873598 118:0.071906902 119:0.25433499 120:0.086281396 121:0.25705901 122:0.136305 123:0.017566999 124:0.00604987 125:0.0050483299 126:0.0110421 127:0.243139 128:0.382213 129:0.122803 130:0.0228878 131:0.0137063 132:0.00348477 133:0.0020397401 134:0.0033919499 135:0.043776501 136:0.382213 137:0.382213 138:0.382213 139:0.382213 140:0.133323 141:0.0164866 142:0.0086960904 143:0.049524501 144:0.075830303 145:0.105475 146:0.33260801 147:0.108236 148:0.23854899 149:0.125089 150:0.0130853 151:0.0042157299 152:0.00219329 153:0.0147717 154:0.218613 155:0.33321899 156:0.1088 157:0.13984901 158:0.088312402 159:0.0080899196 160:0.0047566802 161:0.0025383499 162:0.0467855 163:0.33321899 164:0.33321899 165:0.20512301 166:0.222454 167:0.078398198 168:0.0103489 169:0.0045185201 170:0.0225068 171:0.060917299 172:0.33321899 173:0.33321899 174:0.172653 175:0.052467 176:0.035121702 177:0.0076082498 178:0.0101914 179:0.012766 180:0.098083898 181:0.306072 182:0.340065 183:0.091361798 184:0.0157097 185:0.016715899 186:0.00190496 187:0.0062367199 188:0.0052159699 189:0.067432299 190:0.340065 191:0.340065 192:0.150691 193:0.019645501 194:0.100549 195:0.0297704 196:0.0360712 197:0.016969601 198:0.116673 199:0.340065 200:0.340065 201:0.118612 202:0.0024232501 203:0.0051703299 204:0.00341229 205:0.0105968 206:0.0090165697 207:0.088823803 208:0.33096901 209:0.340065 210:0.092516601 211:0.0042981799 212:0.0126965 213:0.0066732001 214:0.0040231701 215:0.0049854801 216:0.075591803 217:0.29960299 218:0.29960299 219:0.15342399 220:0.118607 221:0.28790799 222:0.119134 223:0.071045801 224:0.034249701 225:0.161084 226:0.29960299 227:0.29960299 228:0.103785 229:0.203132 230:0.18582401 231:0.10245 232:0.031566899 233:0.020187501 234:0.210779 235:0.24826799 236:0.29960299 237:0.074112199 238:0.057235401 239:0.055844702 240:0.0142703 241:0.0087556196 242:0.0063410602 243:0.053925499 244:0.13465799 245:0.10878 246:0.046895102 247:0.26589 248:0.22838999 249:0.0498343 250:0.0201382 251:0.0062249498 252:0.061163601 253:0.0077691302 254:0.0066931001 255:0.026187601 256:0.0340738 257:0.183304 258:0.0027399501 259:0.0146597 260:0.0066467398 261:0.0073487801 262:0.0054087401 263:0.0032804201 264:0.023626801 265:0.0297658 266:0.20443 267:0.0220118 268:0.0145282 269:0.0075652902 270:0.0063786302 271:0.109815 272:0.109181 273:0.061749902 274:0.0235177 275:0.12797099 276:0.0072761802 277:0.043044001 278:0.0377586 279:0.037618399 280:0.56833303 281:0.56833303 282:0.40399799 283:0.020490199 284:0.14055499 285:0.020697 286:0.0604183 287:0.0586036 288:0.167349 289:0.00805174 290:0.0037498099 291:0.0027793499 292:0.00182278 293:0.0239776 294:0.00715343 295:0.00392156 296:0.00201581 297:0.0065335599 298:0.084777601 299:0.112501 300:0.026161799 301:0.0027757799 302:0.0185687 303:0.0083419597 304:0.0056761601 305:0.0038699401 306:0.031600501 307:0.418879 308:0.44381499 309:0.176199 310:0.00246171 311:0.016480099 312:0.00529155 313:0.00496872 314:0.010683 315:0.069669999 316:0.44381499 317:0.44381499 318:0.38022199 319:0.0072606602 320:0.0151685 321:0.0063295201 322:0.0038485799 323:0.0077550798 324:0.158453 325:0.127639 326:0.22381499 327:0.0475307 328:0.00149103 329:0.0068946099 330:0.0030118199 331:0.0025209901 332:0.0026388499 333:0.036095802 334:0.34824499 335:0.36739799 336:0.133458 337:0.00244815 338:0.0057813199 339:0.00104051 340:0.00131064 341:0.00170494 342:0.082766198 343:0.36739799 344:0.36739799 345:0.19979499 346:0.0026567399 347:0.0040149302 348:0.0029526099 349:0.00368928 350:0.00309374 351:0.10349 352:0.36739799 353:0.36739799 354:0.20315599 355:0.00789594 356:0.00630097 357:0.0050139502 358:0.0045982301 359:0.0025132201 360:0.115385 361:0.32846901 362:0.32846901 363:0.16639701 364:0.0092542795 365:0.00380293 366:0.00244902 367:0.00154758 368:0.00182823 369:0.069347702 370:0.32846901 371:0.32846901 372:0.28192401 373:0.0695685 374:0.0138909 375:0.0043943198 376:0.0052821501 377:0.019018 378:0.051877301 379:0.32846901 380:0.32846901 381:0.142217 382:0.0328722 383:0.0172826 384:0.0081395498 385:0.0031195399 386:0.0029919301 387:0.066500701 388:0.26217201 389:0.32846901 390:0.090670399 391:0.089611501 392:0.057999998 393:0.0102806 394:0.025178799 395:0.016785501 396:0.075945802 397:0.394912 398:0.394912 399:0.30988401 400:0.116875 401:0.0286984 402:0.0074610901 403:0.0096410299 404:0.0439994 405:0.102987 406:0.394912 407:0.394912 408:0.16306899 409:0.018072199 410:0.0239005 411:0.00715596 412:0.0183401 413:0.031078201 414:0.093574204 415:0.22194199 416:0.31786299 417:0.0489025 418:0.088347897 419:0.108275 420:0.01157 421:0.046281699 422:0.029374501 423:0.098629802 424:0.063962899 425:0.135042 426:0.02943 427:0.00713035 428:0.0413936 429:0.0020659999 430:0.0113664 431:0.0154818 432:0.031929601 433:0.49053001 434:0.49053001 435:0.213257 436:0.0140647 437:0.038975701 438:0.0108937 439:0.040495999 440:0.0443996 441:0.181926 442:0.33137 443:0.49053001 444:0.089388698 445:0.029377 446:0.060786199 447:0.0247366 448:0.0135737 449:0.0279919 450:0.136774 451:0.081547998 452:0.137329 453:0.058165401 454:0.00556417 455:0.0526025 456:0.00048288499 457:0.017245 458:0.0193462 459:0.048616402 460:0.060129501 461:0.021948401 462:0.029913699 463:0.019299701 464:0.044906199 465:0.0175565 466:0.0119125 467:0.0156464 468:0.061462302 469:0.058295202 470:0.095854998 471:0.028673699 472:0.153427 473:0.098818101 474:0.0190883 475:0.0104723 476:0.0090594003 477:0.0214689 478:0.058661599 479:0.022910699 480:0.0797664 481:0.448888 482:0.448888 483:0.066201702 484:0.0110196 485:0.0101702 486:0.044568699 487:0.0121851 488:0.00165964 489:0.016714601 490:0.26661199 491:0.114475 492:0.038144201 493:0.0129566 494:0.00710154 495:0.0132515 496:0.0167154 497:0.0015700801 498:0.138951 499:0.448888 500:0.448888 501:0.13469701 502:0.0098743103 503:0.0120969 504:0.020449899 505:0.172509 506:0.316636 507:0.097151503 508:0.0016508501 509:0.00751526 510:0.00056343299 511:0.00619226 512:0.00766245 513:0.036132701 514:0.32758299 515:0.32758299 516:0.185102 517:0.00271448 518:0.0055506001 519:0.0021077499 520:0.0076113902 521:0.0078878598 522:0.062226702 523:0.32758299 524:0.32758299 525:0.32758299 526:0.073735297 527:0.0155835 528:0.0080900798 529:0.0078549003 530:0.0136563 531:0.078472801 532:0.32758299 533:0.32758299 534:0.21144199 535:0.041211899 536:0.0137525 537:0.0125307 538:0.0198537 539:0.046548899 540:0.0698006 541:0.36397201 542:0.36397201 543:0.236828 544:0.00421543 545:0.00384528 546:0.0030706101 547:0.00229912 548:0.0106446 549:0.076104499 550:0.36397201 551:0.36397201 552:0.234155 553:0.00609749 554:0.0049081901 555:0.0014106299 556:0.00126768 557:0.0140629 558:0.083577499 559:0.29727399 560:0.36397201 561:0.1461 562:0.0465279 563:0.0117766 564:0.0066644298 565:0.0160813 566:0.034094799 567:0.053330701 568:0.14434101 569:0.25796199 570:0.067622602 571:0.0107657 572:0.0113291 573:0.0022455801 574:0.0046302201 575:0.0143164 576:0.033331901 577:0.36718601 578:0.36718601 579:0.21487901 580:0.00637491 581:0.0091344696 582:0.00337731 583:0.0048879501 584:0.014172 585:0.117203 586:0.34947199 587:0.36718601 588:0.175928 589:0.0132599 590:0.021729 591:0.0073772399 592:0.0078991596 593:0.0075694802 594:0.088066801 595:0.093863703 596:0.23096099 597:0.0855636 598:0.0299746 599:0.059756901 600:0.0206351 601:0.019435599 602:0.013414 603:0.033507802 604:0.0949829 605:0.36718601 606:0.36718601 607:0.058198001 608:0.085976899 609:0.0384144 610:0.040336799 611:0.0066767498 612:0.035753898 613:0.25672501 614:0.275653 615:0.19076601 616:0.12805399 617:0.101533 618:0.0128591 619:0.0072177202 620:0.0068856799 621:0.074524797 622:0.25311199 623:0.178037 624:0.15395699 625:0.275653 626:0.275653 627:0.0607142 628:0.0654971 629:0.053982999 630:0.18600599 631:0.19977801 632:0.275653 633:0.275653 634:0.098971799 635:0.096218497 636:0.0146749 637:0.017914001 638:0.0036092901 639:0.077520698 640:0.24804901 641:0.067523398 642:0.118701 643:0.275653 644:0.22677401 645:0.070512198 646:0.042083699 647:0.043958399 648:0.18909401 649:0.228471 650:0.061269499 651:0.034216601 652:0.27475399 653:0.26172099 654:0.0552922 655:0.068831503 656:0.048012398 657:0.29394501 658:0.234852 659:0.0056979302 660:0.0057154102 661:0.0128162 662:0.055223599 663:0.0041834698 664:0.0085284896 665:0.0087881899 666:0.331238 667:0.331238 668:0.0146006 669:0.0318648 670:0.16416 671:0.14771999 672:0.0670425 673:0.0393782 674:0.045981199 675:0.331238 676:0.331238 677:0.109641 678:0.124101 679:0.0209326 680:0.0648432 681:0.020873399 682:0.028813699 683:0.019764399 684:0.331238 685:0.18712901 686:0.0106558 687:0.0168349 688:0.00105196 689:0.031354401 690:0.011226 691:0.0044416101 692:0.0083506098 693:0.31727701 694:0.072329096 695:0.0121643 696:0.021572599 697:0.038367599 698:0.066970304 699:0.0266294 700:0.0077475598 701:0.0060812798 702:0.13920701 703:0.33447701 704:0.33447701 705:0.33447701 706:0.022984499 707:0.107735 708:0.073081903 709:0.044755399 710:0.0261824 711:0.33447701 712:0.17241199 713:0.28486201 714:0.25481299 715:0.139026 716:0.21739499 717:0.097700901 718:0.0348811 719:0.0164742 720:0.32604399 721:0.0080405101 722:0.00141143 723:0.0115323 724:0.18269899 725:0.105719 726:0.024545999 727:0.0040786299 728:0.00133198 729:0.0112496 730:0.0073009301 731:0.00091947702 732:0.103844 733:0.44205701 734:0.44205701 735:0.078719802 736:0.0039951801 737:0.0038286101 738:0.0102294 739:0.0116684 740:0.018780001 741:0.036901601 742:0.266137 743:0.205089 744:0.034494601 745:0.0142935 746:0.00671663 747:0.021133199 748:0.029958 749:0.00142877 750:0.12225 751:0.44205701 752:0.44205701 753:0.100263 754:0.0185658 755:0.058798298 756:0.070198298 757:0.32537299 758:0.32537299 759:0.32537299 760:0.246574 761:0.067148902 762:0.048376299 763:0.051592201 764:0.054554101 765:0.129538 766:0.239068 767:0.32537299 768:0.173997 769:0.118177 770:0.073483802 771:0.055830602 772:0.188798 773:0.29836199 774:0.092650101 775:0.080838896 776:0.047786798 777:0.103034 778:0.099695198 779:0.077555299 780:0.111569 781:0.101575 782:0.074515499 783:0.104785 784:0.053379301 785:0.0363614 786:0.069123402 787:0.054572299 788:0.134353 789:0.116812 790:0.220983 791:0.24334 792:0.117024 793:0.14112701 794:0.28777099 795:0.098153003 796:0.15170801 797:0.067995302 798:0.0278301 799:0.26605201 800:0.373633 801:0.072165698 802:0.059347399 803:0.114001 804:0.033493701 805:0.0270155 806:0.043844301 807:0.0087415399 808:0.0831175 809:0.18278199 810:0.0411181 811:0.033654999 812:0.023766 813:0.0262809 814:0.034034301 815:0.108983 816:0.059849601 817:0.35802001 818:0.373633 819:0.099276498 820:0.020810699 821:0.016210901 822:0.0121471 823:0.0116347 824:0.043629799 825:0.0088381702 826:0.36352101 827:0.373633 828:0.078547597 829:0.023943599 830:0.070015997 831:0.075929597 832:0.0606714 833:0.13469601 834:0.0944722 835:0.112712 836:0.020547001 837:0.019015601 838:0.058409899 839:0.276537 840:0.30950901 841:0.126904 842:0.18571199 843:0.26577401 844:0.30950901 845:0.064903103 846:0.0870056 847:0.020879401 848:0.018890001 849:0.0141491 850:0.0149914 851:0.066128902 852:0.079107903 853:0.23588701 854:0.30950901 855:0.047401398 856:0.113627 857:0.0341141 858:0.0338207 859:0.036462601 860:0.094972603 861:0.27158001 862:0.30950901 863:0.28371301 864:0.30950901 865:0.14194401 866:0.16952699 867:0.26029599 868:0.0533434 869:0.081929803 870:0.086543001 871:0.144722 872:0.0497494 873:0.190264 874:0.225536 875:0.029785801 876:0.042196002 877:0.032134701 878:0.076965801 879:0.022752499 880:0.023486899 881:0.02052 882:0.29655299 883:0.33472401 884:0.0154596 885:0.023879901 886:0.0143965 887:0.0428937 888:0.095453002 889:0.205449 890:0.161883 891:0.39121699 892:0.39121699 893:0.00361356 894:0.0090285102 895:0.00147399 896:0.028284701 897:0.00384866 898:0.0130611 899:0.0141938 900:0.39121699 901:0.17992599 902:0.0121158 903:0.0146053 904:0.0132722 905:0.0453864 906:0.0183711 907:0.0159615 908:0.0157381 909:0.28747401 910:0.21712001 911:0.13315 912:0.16569 913:0.0380641 914:0.137086 915:0.077146903 916:0.177065 917:0.029650001 918:0.36552 919:0.36552 920:0.0061846902 921:0.00421105 922:0.00083789602 923:0.0259293 924:0.0037505401 925:0.00627142 926:0.0109588 927:0.36552 928:0.36552 929:0.029975399 930:0.0462135 931:0.0244326 932:0.092159897 933:0.075378902 934:0.197724 935:0.036344901 936:0.36552 937:0.150466 938:0.28214201 939:0.28214201 940:0.0479187 941:0.124721 942:0.115318 943:0.28214201 944:0.037753299 945:0.236256 946:0.0932872 947:0.21100201 948:0.247879 949:0.17237499 950:0.121812 951:0.073557399 952:0.113395 953:0.019537199 954:0.095064402 955:0.235006 956:0.060373701 957:0.080888301 958:0.044254199 959:0.11228 960:0.159032 961:0.28214201 962:0.050544702 963:0.28214201 964:0.104055 965:0.061029501 966:0.126982 967:0.26157799 968:0.22430301 969:0.100826 970:0.15548199 971:0.0271201 972:0.094365403 973:0.0288895 974:0.0289126 975:0.083771199 976:0.24769901 977:0.17215499 978:0.0322522 979:0.0139563 980:0.0141957 981:0.016105801 982:0.209098 983:0.0250152 984:0.095767699 985:0.30352101 986:0.30352101 987:0.120021 988:0.0358104 989:0.20836601 990:0.30352101 991:0.034550201 992:0.0208429 993:0.076252103 994:0.28674501 995:0.23474699 996:0.021372501 997:0.00504721 998:0.011096 999:0.0109555 1000:0.228126 1001:0.0561128 1002:0.066694997 1003:0.27789301 1004:0.30352101 1005:0.077943698 1006:0.034063499 1007:0.180969 1008:0.30352101 1009:0.058551401 1010:0.0162986 1011:0.043742999 1012:0.077973001 1013:0.0869314 1014:0.115705 1015:0.041876402 1016:0.0274167 1017:0.0690687 1018:0.048620399 1019:0.0256254 1020:0.044363599 1021:0.0763878 1022:0.13009501 1023:0.128104 1024:0.0544209 1025:0.037616201 1026:0.066742003 1027:0.33965501 1028:0.0156352 1029:0.035050102 1030:0.118424 1031:0.147517 1032:0.117997 1033:0.053111002 1034:0.189559 1035:0.33965501 1036:0.33965501 1037:0.0788984 1038:0.12844101 1039:0.32833999 1040:0.33965501 1041:0.167183 1042:0.086920001 1043:0.266294 1044:0.33965501 1045:0.0256104 1046:0.0122006 1047:0.016391501 1048:0.022695901 1049:0.0669856 1050:0.036348801 1051:0.053572599 1052:0.086128302 1053:0.033357501 1054:0.0146176 1055:0.0072778198 1056:0.0120388 1057:0.0070099402 1058:0.0156191 1059:0.00384067 1060:0.116469 1061:0.25962499 1062:0.0290721 1063:0.429557 1064:0.0857445 1065:0.110264 1066:0.196696 1067:0.25654599 1068:0.0506493 1069:0.041029502 1070:0.075920098 1071:0.429557 1072:0.429557 1073:0.017775699 1074:0.018329101 1075:0.0113112 1076:0.0153277 1077:0.0046542501 1078:0.0431755 1079:0.13917699 1080:0.429557 1081:0.012767 1082:0.0085636703 1083:0.0103564 1084:0.00656171 1085:0.0092877196 1086:0.0105757 1087:0.160651 1088:0.32328299 1089:0.031999901 1090:0.038612802 1091:0.0058116699 1092:0.0097577702 1093:0.0079001496 1094:0.0185082 1095:0.028478701 1096:0.181714 1097:0.27948201 1098:0.108258 1099:0.35267401 1100:0.00721459 1101:0.0106277 1102:0.0104062 1103:0.0099599604 1104:0.0075981901 1105:0.229798 1106:0.35267401 1107:0.35267401 1108:0.111748 1109:0.0064150798 1110:0.0064441198 1111:0.0077037099 1112:0.0156636 1113:0.0157633 1114:0.35267401 1115:0.35267401 1116:0.224961 1117:0.205385 1118:0.0029667199 1119:0.0131992 1120:0.00928907 1121:0.0402117 1122:0.026068199 1123:0.133737 1124:0.214735 1125:0.37077799 1126:0.37077799 1127:0.0039883801 1128:0.0094780503 1129:0.00233787 1130:0.048815399 1131:0.0057235602 1132:0.027790001 1133:0.023954799 1134:0.37077799 1135:0.0340853 1136:0.0062398398 1137:0.010195 1138:0.00717824 1139:0.0440933 1140:0.0162795 1141:0.37077799 1142:0.37077799 1143:0.15646701 1144:0.021707799 1145:0.0096945101 1146:0.0216785 1147:0.00603629 1148:0.066916801 1149:0.0040869401 1150:0.172764 1151:0.35555401 1152:0.0801128 1153:0.46068299 1154:0.0139285 1155:0.0185587 1156:0.00024946401 1157:0.069977202 1158:0.0062496201 1159:0.0196588 1160:0.0231381 1161:0.491409 1162:0.491409 1163:0.0189215 1164:0.025917999 1165:0.0123835 1166:0.071813203 1167:0.0289224 1168:0.061507199 1169:0.036232501 1170:0.491409 1171:0.0278503 1172:0.0153476 1173:0.029062601 1174:0.00108101 1175:0.101395 1176:0.0072749602 1177:0.074374601 1178:0.120675 1179:0.037115201 1180:0.020591 1181:0.0050589899 1182:0.0095869098 1183:0.0010871 1184:0.0682256 1185:0.00311781 1186:0.0154295 1187:0.0131324 1188:0.0216146 1189:0.272019 1190:0.033576898 1191:0.0348134 1192:0.0271155 1193:0.084433302 1194:0.082672402 1195:0.116103 1196:0.033204101 1197:0.406661 1198:0.094833098 1199:0.040272601 1200:0.078527302 1201:0.406661 1202:0.406661 1203:0.0905656 1204:0.068325497 1205:0.0270162 1206:0.125293 1207:0.015625799 1208:0.00104396 1209:0.0046169702 1210:0.044943899 1211:0.069054 1212:0.0113465 1213:0.0051303101 1214:0.0038943801 1215:0.0159884 1216:0.025385501 1217:0.0130763 1218:0.038943999 1219:0.406661 1220:0.406661 1221:0.081224702 1222:0.012138 1223:0.0141448 1224:0.024878999 1225:0.021457801 1226:0.0118619 1227:0.0522689 1228:0.317395 1229:0.317395 1230:0.046800699 1231:0.0105668 1232:0.0110236 1233:0.0197083 1234:0.143282 1235:0.062293999 1236:0.063847803 1237:0.317395 1238:0.317395 1239:0.122275 1240:0.0346747 1241:0.071535103 1242:0.120547 1243:0.046897899 1244:0.030031299 1245:0.036596701 1246:0.317395 1247:0.317395 1248:0.080517203 1249:0.034025099 1250:0.035780098 1251:0.053684901 1252:0.317395 1253:0.098159 1254:0.056924202 1255:0.13663 1256:0.226202 1257:0.090873703 1258:0.065884702 1259:0.094477497 1260:0.317395 1261:0.24090099 1262:0.0031127799 1263:0.052143499 1264:0.193709 1265:0.13728499 1266:0.033051599 1267:0.0208348 1268:0.095283799 1269:0.299638 1270:0.188226 1271:0.030352401 1272:0.20563 1273:0.299638 1274:0.299638 1275:0.073282599 1276:0.036219399 1277:0.13110401 1278:0.208257 1279:0.051752001 1280:0.0257088 1281:0.087867796 1282:0.27809501 1283:0.217428 1284:0.022759899 1285:0.057993699 1286:0.030717099 1287:0.091665201 1288:0.110448 1289:0.066100098 1290:0.29379401 1291:0.299638 1292:0.299638 1293:0.0411436 1294:0.078828201 1295:0.0334557 1296:0.116918 1297:0.33384299 1298:0.046866 1299:0.17103 1300:0.33384299 1301:0.33384299 1302:0.038261302 1303:0.018041801 1304:0.035374101 1305:0.33384299 1306:0.33384299 1307:0.0089349197 1308:0.0086629 1309:0.0092642102 1310:0.0119433 1311:0.00371884 1312:0.020223999 1313:0.080374002 1314:0.33384299 1315:0.10302 1316:0.0324899 1317:0.186198 1318:0.33384299 1319:0.294377 1320:0.0237184 1321:0.023793099 1322:0.0070741801 1323:0.094819903 1324:0.087200999 1325:0.0036486101 1326:0.0050846399 1327:0.00613664 1328:0.0135686 1329:0.00349657 1330:0.0081796004 1331:0.0215318 1332:0.15225001 1333:0.31093499 1334:0.0056607602 1335:0.0035707699 1336:0.0032716801 1337:0.00341423 1338:0.00159695 1339:0.194199 1340:0.345287 1341:0.345287 1342:0.0621254 1343:0.0048283199 1344:0.0036343799 1345:0.0031399999 1346:0.0106874 1347:0.0061770999 1348:0.345287 1349:0.345287 1350:0.23484001 1351:0.045874801 1352:0.0049789599 1353:0.0039923401 1354:0.0031281 1355:0.0036710501 1356:0.0010872399 1357:0.0977256 1358:0.18330701 1359:0.124135 1360:0.0155661 1361:0.0036996 1362:0.0033474399 1363:0.0027151699 1364:0.0085409703 1365:0.00192053 1366:0.345287 1367:0.345287 1368:0.162662 1369:0.0110214 1370:0.0030584 1371:0.0060461201 1372:0.00388002 1373:0.0096465899 1374:0.0043753502 1375:0.325829 1376:0.38592201 1377:0.108886 1378:0.0076464801 1379:0.00605398 1380:0.0096840002 1381:0.00368707 1382:0.0072610602 1383:0.00158215 1384:0.140844 1385:0.239411 1386:0.040002901 1387:0.018528501 1388:0.00338012 1389:0.00764383 1390:0.0037064401 1391:0.00684703 1392:0.0022392101 1393:0.38592201 1394:0.38592201 1395:0.178243 1396:0.0174224 1397:0.0068105701 1398:0.00927612 1399:0.0060858 1400:0.0063856998 1401:0.0044473899 1402:0.38592201 1403:0.38592201 1404:0.146126 1405:0.0182484 1406:0.0185003 1407:0.0191177 1408:0.0060716998 1409:0.030570701 1410:0.0024677401 1411:0.214449 1412:0.32485101 1413:0.046381 1414:0.0115105 1415:0.0062675201 1416:0.0092712203 1417:0.0023656499 1418:0.033777799 1419:0.00025319101 1420:0.060682401 1421:0.085092597 1422:0.017644599 1423:0.045673199 1424:0.0243598 1425:0.0135396 1426:0.0152932 1427:0.019673999 1428:0.0078238901 1429:0.443712 1430:0.443712 1431:0.213016 1432:0.044159599 1433:0.017202601 1434:0.011221 1435:0.00356112 1436:0.0257218 1437:0.0074909399 1438:0.41926399 1439:0.443712 1440:0.093783297 1441:0.0076639401 1442:0.00050520798 1443:0.00213621 1444:0.0935954 1445:0.077149697 1446:0.0129496 1447:0.0051095402 1448:0.0063762399 1449:0.0086656297 1450:0.031612799 1451:0.029277001 1452:0.060199499 1453:0.44163901 1454:0.44163901 1455:0.075938001 1456:0.0093252603 1457:0.0077942 1458:0.0179414 1459:0.018268701 1460:0.0095686 1461:0.0245921 1462:0.204071 1463:0.13199601 1464:0.033845 1465:0.15997501 1466:0.22018901 1467:0.041919 1468:0.0310598 1469:0.03269 1470:0.191698 1471:0.44163901 1472:0.44163901 1473:0.0979148 1474:0.030756401 1475:0.042328399 1476:0.020564299 1477:0.029825401 1478:0.025567099 1479:0.060050499 1480:0.15218 1481:0.188079 1482:0.038224399 1483:0.00863472 1484:0.0350402 1485:0.043988101 1486:0.21881001 1487:0.066808298 1488:0.098959804 1489:0.11111 1490:0.32984 1491:0.111345 1492:0.0130533 1493:0.0527955 1494:0.26963499 1495:0.0442474 1496:0.039649501 1497:0.185847 1498:0.32984 1499:0.32984 1500:0.045020901 1501:0.043364801 1502:0.038373802 1503:0.0524172 1504:0.175687 1505:0.091439798 1506:0.26220399 1507:0.32984 1508:0.32984 1509:0.141362 1510:0.052057099 1511:0.0511324 1512:0.20574801 1513:0.153823 1514:0.079992801 1515:0.11753 1516:0.26142901 1517:0.33438101 1518:0.046890002 1519:0.149049 1520:0.074522696 1521:0.28362101 1522:0.33438101 1523:0.20614401 1524:0.33438101 1525:0.33438101 1526:0.33438101 1527:0.057321399 1528:0.19599199 1529:0.070953198 1530:0.33438101 1531:0.0180989 1532:0.0068236901 1533:0.0093321204 1534:0.00200432 1535:0.052844699 1536:0.0294559 1537:0.013537 1538:0.0125735 1539:0.028622899 1540:0.034496501 1541:0.0115071 1542:0.0080847703 1543:0.0045068599 1544:0.064982198 1545:0.021485399 1546:0.011629 1547:0.0105351 1548:0.0481291 1549:0.337652 1550:0.19203 1551:0.47338501 1552:0.48699901 1553:0.48699901 1554:0.058024298 1555:0.109991 1556:0.034152299 1557:0.293129 1558:0.014227 1559:0.00776463 1560:0.0188007 1561:0.016233601 1562:0.078171402 1563:0.0175687 1564:0.029263901 1565:0.0107902 1566:0.0141756 1567:0.051989499 1568:0.0106431 1569:0.0086747799 1570:0.0067513301 1571:0.122613 1572:0.0163598 1573:0.0136928 1574:0.0176709 1575:0.061524399 1576:0.052580599 1577:0.0030449 1578:0.0104838 1579:0.0038419 1580:0.075069502 1581:0.0108332 1582:0.0206188 1583:0.015246 1584:0.0544248 1585:0.0148662 1586:0.0067931502 1587:0.0154285 1588:0.0120847 1589:0.038926601 1590:0.0105863 1591:0.034280099 1592:0.057450801 1593:0.028256301 1594:0.053775501 1595:0.0088862795 1596:0.0106613 1597:0.0038622699 1598:0.052597601 1599:0.0135764 1600:0.65495199 1601:0.65495199 1602:0.28821599 1603:0.033660602 1604:0.00640172 1605:0.0106499 1606:0.00194601 1607:0.108115 1608:0.0132702 1609:0.019682899 1610:0.0163115 1611:0.035457902 1612:0.024638901 1613:0.0150408 1614:0.0053144102 1615:0.0148805 1616:0.143434 1617:0.0290423 1618:0.0245451 1619:0.0106338 1620:0.0241345 1621:0.0120859 1622:0.00250759 1623:0.0051517701 1624:0.00074138999 1625:0.0097366702 1626:0.00451086 1627:0.40590101 1628:0.410999 1629:0.097940996 1630:0.0120013 1631:0.0046825302 1632:0.0078978799 1633:0.0024753001 1634:0.0145059 1635:0.0075928899 1636:0.410999 1637:0.410999 1638:0.204615 1639:0.00228864 1640:0.001905 1641:0.0054730801 1642:0.0073977201 1643:0.021887699 1644:0.0066399602 1645:0.023304399 1646:0.0379529 1647:0.0108897 1648:0.0051828502 1649:0.0066243098 1650:0.0167799 1651:0.0100989 1652:0.026621301 1653:0.0102565 1654:0.30688101 1655:0.410999 1656:0.070981599 1657:0.0130777 1658:0.0050456198 1659:0.00360697 1660:0.0024544699 1661:0.0069477302 1662:0.0026700899 1663:0.352438 1664:0.352438 1665:0.105817 1666:0.016552299 1667:0.0058937301 1668:0.0027797101 1669:0.0025797901 1670:0.00578277 1671:0.0076960102 1672:0.26532599 1673:0.352438 1674:0.0674427 1675:0.0108857 1676:0.0056149899 1677:0.0080081699 1678:0.00650011 1679:0.0133695 1680:0.00332085 1681:0.352438 1682:0.352438 1683:0.098482102 1684:0.0201542 1685:0.00555029 1686:0.0046697399 1687:0.0066200402 1688:0.0110948 1689:0.0100683 1690:0.352438 1691:0.352438 1692:0.17114601 1693:0.0212531 1694:0.0104625 1695:0.0246523 1696:0.062994897 1697:0.0455864 1698:0.0201366 1699:0.137784 1700:0.215735 1701:0.038680099 1702:0.023006501 1703:0.015725199 1704:0.095055699 1705:0.34010801 1706:0.34010801 1707:0.0263642 1708:0.0294038 1709:0.055087999 1710:0.0113532 1711:0.0647965 1712:0.0212761 1713:0.021558199 1714:0.0312254 1715:0.0322362 1716:0.0176524 1717:0.34010801 1718:0.34010801 1719:0.170689 1720:0.103359 1721:0.077089503 1722:0.299467 1723:0.34010801 1724:0.34010801 1725:0.019988 1726:0.121719 1727:0.225723 1728:0.0658269 1729:0.073516101 1730:0.038976699 1731:0.144924 1732:0.333574 1733:0.333574 1734:0.0199796 1735:0.077885702 1736:0.0138894 1737:0.061558999 1738:0.163726 1739:0.077310897 1740:0.210252 1741:0.333574 1742:0.333574 1743:0.033406101 1744:0.094163202 1745:0.018053001 1746:0.099776797 1747:0.045631502 1748:0.032419 1749:0.231315 1750:0.333574 1751:0.333574 1752:0.0140537 1753:0.0246838 1754:0.0108483 1755:0.032889299 1756:0.0670949 1757:0.017393401 1758:0.082751602 1759:0.26080301 1760:0.228194 1761:0.0123865 1762:0.0261504 1763:0.0065839598 1764:0.046257898 #
