SVM-light Version V6.10
0 # kernel type
3 # kernel parameter -d 
1 # kernel parameter -g 
1 # kernel parameter -s 
1 # kernel parameter -r 
0# kernel parameter -u 
1764 # highest feature index 
728 # number of training documents 
145 # number of support vectors plus 1 
0.94572776 # threshold b, each following line is a SV (starting with alpha*y)
-0.010000000000000000208166817117217 1:0.115102 2:0.15942401 3:0.216277 4:0.198613 5:0.18263499 6:0.094682097 7:0.088008501 8:0.054674 9:0.098693401 10:0.187346 11:0.102392 12:0.116099 13:0.169062 14:0.20649999 15:0.091617197 16:0.114441 17:0.171957 18:0.143392 19:0.247649 20:0.28099301 21:0.18002599 22:0.15062501 23:0.117881 24:0.080501497 25:0.123161 26:0.178951 27:0.174556 28:0.28099301 29:0.242073 30:0.140645 31:0.23607799 32:0.18770599 33:0.101031 34:0.11836 35:0.102206 36:0.176673 37:0.12041 38:0.064956099 39:0.0405159 40:0.077059202 41:0.14258499 42:0.095985398 43:0.133094 44:0.28857601 45:0.206101 46:0.18910401 47:0.0839286 48:0.087114803 49:0.038424902 50:0.080126897 51:0.146273 52:0.25542101 53:0.28857601 54:0.28857601 55:0.135122 56:0.10881 57:0.071446501 58:0.132275 59:0.16042501 60:0.092024699 61:0.080820903 62:0.174888 63:0.249101 64:0.160154 65:0.10688 66:0.115767 67:0.067369103 68:0.148782 69:0.19130599 70:0.166485 71:0.27480301 72:0.28857601 73:0.274957 74:0.115075 75:0.13647699 76:0.082453199 77:0.0568581 78:0.116952 79:0.237433 80:0.210509 81:0.246675 82:0.274957 83:0.196146 84:0.166713 85:0.110137 86:0.125496 87:0.12043 88:0.149056 89:0.097912803 90:0.189519 91:0.19068199 92:0.10913 93:0.14612 94:0.100879 95:0.104511 96:0.16920701 97:0.15206 98:0.181261 99:0.19399799 100:0.274957 101:0.209621 102:0.144628 103:0.102038 104:0.124007 105:0.141396 106:0.12543701 107:0.131046 108:0.143004 109:0.13411801 110:0.132434 111:0.095884703 112:0.070140302 113:0.098254003 114:0.10645 115:0.073131397 116:0.0609423 117:0.093265802 118:0.152942 119:0.203848 120:0.215372 121:0.239455 122:0.284491 123:0.110418 124:0.0857483 125:0.16124199 126:0.284491 127:0.24365699 128:0.26347101 129:0.184094 130:0.071613804 131:0.062564999 132:0.079991102 133:0.050401598 134:0.032568801 135:0.076573104 136:0.284491 137:0.284491 138:0.284491 139:0.246053 140:0.155452 141:0.0307629 142:0.039626401 143:0.044897299 144:0.114286 145:0.0918338 146:0.138284 147:0.167255 148:0.185196 149:0.199747 150:0.037064798 151:0.059237398 152:0.109387 153:0.193076 154:0.25048 155:0.25048 156:0.25048 157:0.25048 158:0.25048 159:0.0510839 160:0.088231198 161:0.142029 162:0.25048 163:0.129145 164:0.230693 165:0.218739 166:0.121017 167:0.129904 168:0.018410699 169:0.050697502 170:0.0631781 171:0.069394 172:0.14623301 173:0.25048 174:0.195061 175:0.188361 176:0.16315 177:0.024214599 178:0.075609401 179:0.117583 180:0.203117 181:0.26487601 182:0.26487601 183:0.26487601 184:0.26487601 185:0.26487601 186:0.083318599 187:0.0838468 188:0.13373999 189:0.26487601 190:0.227671 191:0.26487601 192:0.15549099 193:0.166686 194:0.189253 195:0.089379601 196:0.042228699 197:0.073406696 198:0.190649 199:0.18893801 200:0.26487601 201:0.11757 202:0.121352 203:0.095451199 204:0.0147917 205:0.030750301 206:0.076079801 207:0.16906101 208:0.15021101 209:0.26487601 210:0.080106497 211:0.031334698 212:0.0238741 213:0.00986725 214:0.0041580498 215:0.0225573 216:0.053777002 217:0.316645 218:0.34303299 219:0.162329 220:0.070514299 221:0.163535 222:0.073055103 223:0.027175199 224:0.054101199 225:0.10863 226:0.20684899 227:0.202022 228:0.065521903 229:0.141118 230:0.34303299 231:0.073651202 232:0.0149948 233:0.031509802 234:0.100082 235:0.1779 236:0.34303299 237:0.080902897 238:0.072014801 239:0.31446999 240:0.032827798 241:0.0028398901 242:0.0135616 243:0.0452898 244:0.095531501 245:0.069196798 246:0.026164699 247:0.226445 248:0.34303299 249:0.093749501 250:0.00119489 251:0.0090466104 252:0.0441234 253:0.18310501 254:0.24554799 255:0.26382101 256:0.161788 257:0.018002899 258:0.021379299 259:0.071260497 260:0.171278 261:0.0937007 262:0.190616 263:0.23081701 264:0.159417 265:0.106985 266:0.039219499 267:0.029239601 268:0.051166501 269:0.0748863 270:0.0777805 271:0.13773599 272:0.31816599 273:0.31816599 274:0.222409 275:0.0471568 276:0.036286801 277:0.061096001 278:0.109079 279:0.099151902 280:0.241914 281:0.31816599 282:0.31816599 283:0.17538901 284:0.037991799 285:0.0313197 286:0.064923704 287:0.087036498 288:0.119384 289:0.131769 290:0.215645 291:0.091798201 292:0.0566305 293:0.058813799 294:0.0246676 295:0.038396299 296:0.078626603 297:0.088493101 298:0.117537 299:0.228347 300:0.13070101 301:0.049724299 302:0.12883499 303:0.054846399 304:0.091224603 305:0.108281 306:0.16928799 307:0.30827701 308:0.37950799 309:0.30837399 310:0.057278398 311:0.0439036 312:0.0118834 313:0.0326824 314:0.083468102 315:0.053295299 316:0.35278699 317:0.37950799 318:0.30701599 319:0.0221845 320:0.071157902 321:0.018590899 322:0.0481603 323:0.11687 324:0.111023 325:0.115829 326:0.148904 327:0.118652 328:0.046522599 329:0.083499998 330:0.052499201 331:0.058392201 332:0.058409501 333:0.110207 334:0.32486099 335:0.33497399 336:0.14607 337:0.042181801 338:0.045980699 339:0.049037501 340:0.033106901 341:0.072879903 342:0.102962 343:0.26091501 344:0.33497399 345:0.33497399 346:0.0167573 347:0.035191301 348:0.022356899 349:0.0359139 350:0.040092099 351:0.100056 352:0.33497399 353:0.33497399 354:0.33497399 355:0.0237072 356:0.0122177 357:0.020549599 358:0.0192919 359:0.028177001 360:0.086021602 361:0.319015 362:0.319015 363:0.169616 364:0.0290478 365:0.0208844 366:0.0259437 367:0.00914119 368:0.0274926 369:0.082879603 370:0.319015 371:0.319015 372:0.319015 373:0.073002897 374:0.0243113 375:0.0066850302 376:0.0079980502 377:0.0092035504 378:0.081314601 379:0.319015 380:0.319015 381:0.189348 382:0.0140119 383:0.0110373 384:0.0066387402 385:0.00146915 386:0.0106695 387:0.060644198 388:0.24945199 389:0.319015 390:0.164473 391:0.0102102 392:0.0126981 393:0.00074515498 394:0.000522652 395:0.00170035 396:0.043995399 397:0.36207399 398:0.36207399 399:0.36207399 400:0.061064199 401:0.036279399 402:0.018918701 403:0.032100402 404:0.032066699 405:0.089108102 406:0.29355499 407:0.36207399 408:0.27506101 409:0.0110514 410:0.0243163 411:0.0184235 412:0.034444202 413:0.054656699 414:0.105048 415:0.236655 416:0.36207399 417:0.158778 418:0.0078730304 419:0.0101236 420:0.00210246 421:0.00215274 422:0.00186617 423:0.0368043 424:0.109497 425:0.21542799 426:0.076857597 427:0.00175942 428:0.0096134199 429:0.00087092002 430:0.00184635 431:0.00098225195 432:0.015661201 433:0.47850099 434:0.47850099 435:0.30541 436:0.0125842 437:0.045865901 438:0.017111201 439:0.0242889 440:0.0469715 441:0.180849 442:0.30581599 443:0.47850099 444:0.155457 445:0.0134179 446:0.0393047 447:0.0069620102 448:0.0276397 449:0.0093857897 450:0.081738703 451:0.087387599 452:0.13375901 453:0.058291402 454:0.0031546 455:0.070023902 456:0.0028347101 457:0.022386501 458:0.00699363 459:0.034465302 460:0.039489899 461:0.022784 462:0.0231297 463:0.0046153702 464:0.085975401 465:0.0051415502 466:0.054332402 467:0.0172226 468:0.033408701 469:0.0408842 470:0.076734602 471:0.020327101 472:0.090164803 473:0.42139301 474:0.0236542 475:0.012212 476:0.0043113302 477:0.0166365 478:0.021614799 479:0.0085124904 480:0.0126879 481:0.26886901 482:0.45289099 483:0.104733 484:0.0198911 485:0.020697599 486:0.0178934 487:0.0111369 488:0.0092135398 489:0.0124557 490:0.092743203 491:0.45289099 492:0.0246564 493:0.0155446 494:0.0047304202 495:0.0100049 496:0.036283199 497:0.024026699 498:0.0283871 499:0.248923 500:0.45289099 501:0.14269599 502:0.0521443 503:0.049379699 504:0.0156397 505:0.176735 506:0.195779 507:0.200859 508:0.093108498 509:0.056143101 510:0.032705098 511:0.0278387 512:0.117194 513:0.232448 514:0.245166 515:0.27279299 516:0.27279299 517:0.0878295 518:0.028165201 519:0.0258478 520:0.039728701 521:0.125928 522:0.27279299 523:0.197246 524:0.090751603 525:0.145843 526:0.129182 527:0.10912 528:0.097837903 529:0.0388515 530:0.17655601 531:0.27279299 532:0.23819301 533:0.16646899 534:0.20333 535:0.040868402 536:0.040076301 537:0.0574518 538:0.100671 539:0.25567999 540:0.27279299 541:0.29173699 542:0.300372 543:0.25013101 544:0.046237901 545:0.0235411 546:0.0128337 547:0.026325 548:0.043500099 549:0.14274099 550:0.300372 551:0.300372 552:0.18132199 553:0.0494303 554:0.026055399 555:0.0074689598 556:0.0114854 557:0.053456198 558:0.106702 559:0.206101 560:0.285768 561:0.188774 562:0.090987101 563:0.053373698 564:0.047444101 565:0.105884 566:0.13869201 567:0.300372 568:0.15779699 569:0.27906099 570:0.116577 571:0.159421 572:0.074306898 573:0.0143734 574:0.053824 575:0.15332399 576:0.186188 577:0.26416999 578:0.30557799 579:0.27859801 580:0.0279673 581:0.0067592598 582:0.0098799802 583:0.020632001 584:0.064986102 585:0.104393 586:0.27066901 587:0.30557799 588:0.26712301 589:0.0106664 590:0.00348482 591:0.0069398498 592:0.019283099 593:0.0293415 594:0.0574448 595:0.144289 596:0.269126 597:0.107285 598:0.086257398 599:0.030830801 600:0.0212429 601:0.065692499 602:0.27464899 603:0.127731 604:0.30557799 605:0.30557799 606:0.22122499 607:0.032996599 608:0.0231073 609:0.022797 610:0.061377101 611:0.16896001 612:0.13105699 613:0.26010001 614:0.345599 615:0.15049 616:0.0078803804 617:0.0118002 618:0.0016063 619:0.00463785 620:0.0080520101 621:0.103712 622:0.208667 623:0.170358 624:0.071157701 625:0.00190615 626:0.015879501 627:0 628:0.0032840599 629:0.0038004401 630:0.17829999 631:0.35633701 632:0.33595899 633:0.200911 634:0.0114738 635:0.018610699 636:0.0099929897 637:0.023758501 638:0.036527202 639:0.35633701 640:0.35633701 641:0.032276399 642:0.030457299 643:0.0026739701 644:0.0103553 645:0.0031882401 646:0.0116478 647:0.010615 648:0.35633701 649:0.17105301 650:0.061083298 651:0.0311362 652:0.00100788 653:0.0086429799 654:0 655:0.00428419 656:0.00210229 657:0.17153201 658:0.144398 659:0.0096004 660:0.0081578903 661:0.00024086999 662:0.0084260004 663:0 664:0.00279746 665:0.00257395 666:0.16967 667:0.46912599 668:0.0121225 669:0.0072315298 670:0.00061453198 671:0.0085819298 672:0.00048407901 673:0.0126955 674:0.0056277802 675:0.46912599 676:0.46912599 677:0.0182449 678:0.020169999 679:0.00106371 680:0.0190835 681:0.00234386 682:0.0052471501 683:0.0053958502 684:0.46912599 685:0.120529 686:0.00385418 687:0.0046408302 688:3.3196698e-05 689:0.0220311 690:0 691:0.0065827901 692:0.00505216 693:0.137492 694:0.090894103 695:0.00447152 696:0.00316745 697:0.0024371599 698:0.040510099 699:0.00143028 700:0.0152976 701:0.0105014 702:0.100929 703:0.396525 704:0.108473 705:0.188921 706:0.0056272601 707:0.0526083 708:0.00851468 709:0.0076611699 710:0.029019499 711:0.396525 712:0.396525 713:0.20086101 714:0.396525 715:0.0232422 716:0.23053201 717:0.0097699296 718:0.0153178 719:0.098957002 720:0.396525 721:0.021848699 722:0.0067825099 723:0.0063328599 724:0.085487299 725:0.42800799 726:0.0145 727:0.00929303 728:0.0045979498 729:0.023646301 730:0.067024998 731:0.038025498 732:0.026874 733:0.211464 734:0.42800799 735:0.101741 736:0.0288279 737:0.031838 738:0.0239626 739:0.073072001 740:0.047663499 741:0.130629 742:0.144426 743:0.42800799 744:0.030615 745:0.0170584 746:0.062756903 747:0.103689 748:0.090626404 749:0.038725801 750:0.050030999 751:0.29210901 752:0.42800799 753:0.127694 754:0.048230499 755:0.0932291 756:0.061200999 757:0.083560303 758:0.061379999 759:0.179166 760:0.121924 761:0.150019 762:0.139037 763:0.199852 764:0.188205 765:0.166701 766:0.12743101 767:0.055966299 768:0.086668901 769:0.0294459 770:0.086344399 771:0.085178502 772:0.146332 773:0.18027601 774:0.27538499 775:0.099291697 776:0.0782829 777:0.155416 778:0.072730199 779:0.073611803 780:0.196582 781:0.29415101 782:0.29415101 783:0.29415101 784:0.139575 785:0.068036102 786:0.076318003 787:0.060507301 788:0.072698303 789:0.204226 790:0.27959499 791:0.26059601 792:0.21541999 793:0.196303 794:0.12979899 795:0.138151 796:0.099116303 797:0.0791585 798:0.079586297 799:0.172323 800:0.180537 801:0.28018701 802:0.28018701 803:0.14614201 804:0.116513 805:0.14741699 806:0.0676824 807:0.0290347 808:0.102911 809:0.182561 810:0.23633599 811:0.24685299 812:0.078787804 813:0.066188604 814:0.060006 815:0.046394501 816:0.098037697 817:0.218291 818:0.168511 819:0.25959 820:0.28018701 821:0.092243999 822:0.054050099 823:0.034444299 824:0.0132204 825:0.0219172 826:0.21479601 827:0.26908201 828:0.28018701 829:0.16627499 830:0.17436101 831:0.059856098 832:0.081744403 833:0.036759101 834:0.071239397 835:0.088962398 836:0.25597101 837:0.139551 838:0.26232699 839:0.30763599 840:0.188476 841:0.081827201 842:0.066165604 843:0.085588597 844:0.164445 845:0.30763599 846:0.18598901 847:0.215555 848:0.118435 849:0.041843299 850:0.030734301 851:0.015625 852:0.049974602 853:0.101378 854:0.235063 855:0.20333999 856:0.153201 857:0.174797 858:0.069802903 859:0.043227602 860:0.038308699 861:0.060506001 862:0.245647 863:0.30763599 864:0.248879 865:0.29157701 866:0.275415 867:0.13943499 868:0.0229419 869:0.0431934 870:0.024543799 871:0.087762602 872:0.196725 873:0.22624201 874:0.29805499 875:0.017107099 876:0.0148711 877:0.00377468 878:0.0134294 879:0.0042483001 880:0.0142306 881:0.018561199 882:0.29805499 883:0.20648199 884:0.056951098 885:0.0257321 886:0.0238043 887:0.080266498 888:0.0365429 889:0.19583 890:0.29805499 891:0.29805499 892:0.18155301 893:0.0262699 894:0.0142246 895:0.075566098 896:0.29805499 897:0.115402 898:0.037772398 899:0.185175 900:0.29805499 901:0.33381101 902:0.0043994701 903:0.0057342099 904:0.0015477 905:0.0102337 906:0.00071902602 907:0.0107484 908:0.0054034698 909:0.33595601 910:0.33595601 911:0.015858 912:0.0310902 913:0.0023598501 914:0.046696499 915:0.0098556997 916:0.0185281 917:0.0058015902 918:0.33595601 919:0.27841201 920:0.0925081 921:0.031938199 922:0.110673 923:0.33164999 924:0.053040899 925:0.0110862 926:0.041214202 927:0.27431101 928:0.33595601 929:0.075253397 930:0.030432699 931:0.043092798 932:0.135833 933:0.0101833 934:0.0209572 935:0.0067645502 936:0.33595601 937:0.24500699 938:0.112945 939:0.180549 940:0.00608123 941:0.099641003 942:0.0246644 943:0.129908 944:0.055369299 945:0.279587 946:0.142712 947:0.19734401 948:0.279587 949:0.016917599 950:0.153145 951:0.0243298 952:0.19279499 953:0.120619 954:0.17671201 955:0.279587 956:0.044591598 957:0.0587628 958:0.0068234 959:0.086540297 960:0.024141399 961:0.231874 962:0.0900793 963:0.279587 964:0.229513 965:0.085405901 966:0.087913297 967:0.029228499 968:0.194107 969:0.081541099 970:0.279587 971:0.193353 972:0.279587 973:0.031288099 974:0.062000901 975:0.176697 976:0.187271 977:0.34048101 978:0.0551566 979:0.061577599 980:0.094919696 981:0.047474299 982:0.078114003 983:0.040205799 984:0.0857706 985:0.31614801 986:0.34048101 987:0.105892 988:0.038844999 989:0.0785577 990:0.0486097 991:0.0531215 992:0.036784001 993:0.087511599 994:0.204419 995:0.34048101 996:0.133981 997:0.133634 998:0.085891299 999:0.068127297 1000:0.189661 1001:0.071364999 1002:0.143463 1003:0.30915901 1004:0.34048101 1005:0.15629999 1006:0.049726699 1007:0.054189 1008:0.137409 1009:0.064016797 1010:0.089126103 1011:0.131579 1012:0.0562221 1013:0.057232201 1014:0.134601 1015:0.27461299 1016:0.237857 1017:0.164753 1018:0.072208703 1019:0.066194601 1020:0.0715812 1021:0.037321098 1022:0.031217899 1023:0.140534 1024:0.27461299 1025:0.27461299 1026:0.18968 1027:0.18838701 1028:0.13762 1029:0.15355 1030:0.074841201 1031:0.074736796 1032:0.111435 1033:0.153042 1034:0.193964 1035:0.27461299 1036:0.180783 1037:0.126013 1038:0.116639 1039:0.075415798 1040:0.054810099 1041:0.15941501 1042:0.27461299 1043:0.27461299 1044:0.27461299 1045:0.128374 1046:0.0764184 1047:0.0310582 1048:0.023802999 1049:0.0131732 1050:0.033656199 1051:0.16306899 1052:0.28292099 1053:0.204907 1054:0.14350501 1055:0.0591444 1056:0.0121775 1057:0.0051105102 1058:0.0059877802 1059:0.0035015 1060:0.19107801 1061:0.30670199 1062:0.26259801 1063:0.230147 1064:0.145081 1065:0.046949599 1066:0.044623598 1067:0.055989299 1068:0.078333497 1069:0.1706 1070:0.30670199 1071:0.30670199 1072:0.203583 1073:0.121332 1074:0.034091402 1075:0.023438901 1076:0.0487011 1077:0.032223102 1078:0.212525 1079:0.30670199 1080:0.30670199 1081:0.073747903 1082:0.031240299 1083:0.0131636 1084:0.0027467599 1085:0.00738633 1086:0.000119773 1087:0.18652201 1088:0.35216501 1089:0.17782401 1090:0.075345598 1091:0.032556199 1092:0.0143071 1093:0.0039393101 1094:0.00672977 1095:0.000206764 1096:0.155377 1097:0.35216501 1098:0.16018599 1099:0.074177697 1100:0.023059901 1101:0.0155034 1102:0.0111874 1103:0.028616199 1104:0.0067614899 1105:0.34720001 1106:0.35216501 1107:0.26249701 1108:0.0538023 1109:0.0074227699 1110:0.0128138 1111:0.0068598702 1112:0.0135511 1113:0.0066399002 1114:0.33070001 1115:0.35216501 1116:0.24711899 1117:0.120473 1118:0.0099237496 1119:0.0076118498 1120:0.0227964 1121:0.143572 1122:0.031974699 1123:0.086296201 1124:0.280644 1125:0.25928399 1126:0.166233 1127:0.025283501 1128:0.0399337 1129:0.132688 1130:0.29890099 1131:0.14460801 1132:0.0424642 1133:0.169956 1134:0.297508 1135:0.041477401 1136:0.00747413 1137:0.0100701 1138:0.0151211 1139:0.101366 1140:0.018252701 1141:0.20581301 1142:0.29890099 1143:0.194069 1144:0.21599001 1145:0.018459501 1146:0.047488902 1147:0.069944099 1148:0.29890099 1149:0.064758502 1150:0.14624301 1151:0.29890099 1152:0.29890099 1153:0.269476 1154:0.099623397 1155:0.092030801 1156:0.199628 1157:0.33267701 1158:0.076109499 1159:0.0154998 1160:0.061620601 1161:0.267847 1162:0.33267701 1163:0.072264202 1164:0.038242199 1165:0.075222202 1166:0.272531 1167:0.0058033699 1168:0.00351042 1169:0.0033992899 1170:0.33267701 1171:0.26357999 1172:0.037490401 1173:0.107749 1174:0.11055 1175:0.33267701 1176:0.033087701 1177:0.0483316 1178:0.142791 1179:0.298336 1180:0.0676727 1181:0.0188001 1182:0.0441899 1183:0.043847501 1184:0.182944 1185:0.0033577001 1186:0.00267311 1187:0.0132015 1188:0.069754504 1189:0.42900801 1190:0.0142706 1191:0.00813838 1192:0.0099693798 1193:0.028749 1194:0.0074303499 1195:0.12711 1196:0.059082899 1197:0.42900801 1198:0.42900801 1199:0.064538002 1200:0.0125415 1201:0.0516336 1202:0.27843699 1203:0.109529 1204:0.27051201 1205:0.136031 1206:0.42900801 1207:0.0620775 1208:0.0117884 1209:0.0082136998 1210:0.00166936 1211:0.032025501 1212:0.00248179 1213:0.0103657 1214:0.0169654 1215:0.079035498 1216:0.062778696 1217:0.0147646 1218:0.0073784101 1219:0.043427698 1220:0.160659 1221:0.0137859 1222:0.018273501 1223:0.016223701 1224:0.077430204 1225:0.046542499 1226:0.019042499 1227:0.0122436 1228:0.110524 1229:0.350409 1230:0.062250201 1231:0.043832298 1232:0.022337301 1233:0.062873296 1234:0.15797301 1235:0.15163299 1236:0.096582003 1237:0.23649199 1238:0.350409 1239:0.153882 1240:0.065731697 1241:0.0289746 1242:0.130988 1243:0.0147625 1244:0.0112791 1245:0.0087617403 1246:0.127295 1247:0.350409 1248:0.0129212 1249:0.0105996 1250:0.0041072001 1251:0.0146826 1252:0.103825 1253:0.17239401 1254:0.128942 1255:0.317469 1256:0.350409 1257:0.350409 1258:0.13068099 1259:0.0184594 1260:0.075847402 1261:0.15710901 1262:0.121899 1263:0.130033 1264:0.077315502 1265:0.13357501 1266:0.14223801 1267:0.122269 1268:0.204051 1269:0.24293999 1270:0.14050101 1271:0.119461 1272:0.093584403 1273:0.117903 1274:0.113789 1275:0.159052 1276:0.16731299 1277:0.24293999 1278:0.230461 1279:0.070922203 1280:0.20885 1281:0.164032 1282:0.109645 1283:0.21405999 1284:0.174896 1285:0.16097599 1286:0.216397 1287:0.17075001 1288:0.132083 1289:0.162099 1290:0.111042 1291:0.144593 1292:0.179399 1293:0.166684 1294:0.241769 1295:0.24293999 1296:0.161676 1297:0.149133 1298:0.104032 1299:0.096788399 1300:0.15298501 1301:0.159917 1302:0.109385 1303:0.104715 1304:0.24703699 1305:0.184203 1306:0.17179599 1307:0.087779097 1308:0.074198499 1309:0.065115497 1310:0.120283 1311:0.0564817 1312:0.14711399 1313:0.26850301 1314:0.205349 1315:0.17356201 1316:0.20621 1317:0.230212 1318:0.185315 1319:0.18652301 1320:0.109168 1321:0.213558 1322:0.203491 1323:0.172379 1324:0.237518 1325:0.15157899 1326:0.230505 1327:0.131249 1328:0.141525 1329:0.061585099 1330:0.115575 1331:0.201895 1332:0.19072901 1333:0.110133 1334:0.039220899 1335:0.062311601 1336:0.041744899 1337:0.053630099 1338:0.0185811 1339:0.27257499 1340:0.32505301 1341:0.182533 1342:0.0729836 1343:0.0577153 1344:0.116561 1345:0.042477898 1346:0.0203363 1347:0.0281645 1348:0.32505301 1349:0.32505301 1350:0.232787 1351:0.21383999 1352:0.099356398 1353:0.122362 1354:0.0973147 1355:0.079802498 1356:0.049838699 1357:0.14670999 1358:0.195931 1359:0.141608 1360:0.14787801 1361:0.24215101 1362:0.24204101 1363:0.131074 1364:0.0376461 1365:0.047827099 1366:0.22683699 1367:0.27016401 1368:0.130082 1369:0.052167598 1370:0.0296204 1371:0.043014102 1372:0.0112443 1373:0.0112295 1374:0.0163437 1375:0.283566 1376:0.311472 1377:0.219476 1378:0.112015 1379:0.0089762099 1380:0.0110505 1381:0.0065004802 1382:0.024945499 1383:0.0073009399 1384:0.220677 1385:0.311472 1386:0.31144199 1387:0.097268999 1388:0.120413 1389:0.129583 1390:0.056014001 1391:0.016295901 1392:0.0155749 1393:0.20654801 1394:0.311472 1395:0.170146 1396:0.13899399 1397:0.031127101 1398:0.026658799 1399:0.032896101 1400:0.033271901 1401:0.0125738 1402:0.280617 1403:0.311472 1404:0.311472 1405:0.106598 1406:0.0101472 1407:0.021093 1408:0.0110802 1409:0.0278158 1410:0.0028332099 1411:0.155681 1412:0.34443799 1413:0.24863701 1414:0.0305798 1415:0.0056715501 1416:0.0136031 1417:0.0049207401 1418:0.0259836 1419:0.00098309806 1420:0.081540503 1421:0.186104 1422:0.106659 1423:0.077289999 1424:0.0209595 1425:0.018366899 1426:0.026885901 1427:0.040885601 1428:0.0147252 1429:0.34443799 1430:0.34443799 1431:0.34443799 1432:0.044460502 1433:0.0221074 1434:0.0144141 1435:0.0098620402 1436:0.0236322 1437:0.00442384 1438:0.34443799 1439:0.34443799 1440:0.34443799 1441:0.043944601 1442:0.0087378798 1443:0.0091961604 1444:0.00074686302 1445:0.030009 1446:0.00348085 1447:0.043653499 1448:0.097557902 1449:0.075112604 1450:0.046659 1451:0.0152869 1452:0.00921416 1453:0.075529598 1454:0.207865 1455:0.0083911 1456:0.0124347 1457:0.0093583697 1458:0.0455737 1459:0.112748 1460:0.021019001 1461:0.0164646 1462:0.0047145602 1463:0.023714799 1464:0.0051970598 1465:0.42529801 1466:0.42529801 1467:0.42529801 1468:0.079272904 1469:0.047870401 1470:0.0467977 1471:0.112433 1472:0.29567501 1473:0.0263405 1474:0.201571 1475:0.42529801 1476:0.17937601 1477:0.0100442 1478:0.0084371697 1479:0.0053079301 1480:0.131928 1481:0.32947701 1482:0.0058576502 1483:0.0030197201 1484:0.00163735 1485:0.0089478204 1486:0.120931 1487:0.206339 1488:0.15852 1489:0.32947701 1490:0.32947701 1491:0.152871 1492:0.083717398 1493:0.0116898 1494:0.068960696 1495:0.0140537 1496:0.0125321 1497:0.0132506 1498:0.144944 1499:0.32947701 1500:0.0306956 1501:0.0124765 1502:0.024522301 1503:0.0165307 1504:0.16524599 1505:0.32947701 1506:0.176479 1507:0.32947701 1508:0.32947701 1509:0.0879879 1510:0.059153799 1511:0.016248999 1512:0.0895724 1513:0.077677898 1514:0.220038 1515:0.194197 1516:0.165231 1517:0.146129 1518:0.097862899 1519:0.118474 1520:0.140481 1521:0.0936075 1522:0.107954 1523:0.164965 1524:0.193867 1525:0.186233 1526:0.145817 1527:0.118897 1528:0.256825 1529:0.21723901 1530:0.111942 1531:0.186427 1532:0.256825 1533:0.256825 1534:0.169709 1535:0.116179 1536:0.094061598 1537:0.0557856 1538:0.086256899 1539:0.10165 1540:0.141709 1541:0.256825 1542:0.256825 1543:0.223489 1544:0.133102 1545:0.074651197 1546:0.14463501 1547:0.167945 1548:0.13864399 1549:0.140926 1550:0.187482 1551:0.20959701 1552:0.140183 1553:0.098471299 1554:0.15861601 1555:0.257561 1556:0.181888 1557:0.140139 1558:0.177123 1559:0.15937801 1560:0.251975 1561:0.131301 1562:0.0692764 1563:0.148167 1564:0.175807 1565:0.156268 1566:0.174971 1567:0.086342797 1568:0.109218 1569:0.135851 1570:0.141293 1571:0.12191 1572:0.206963 1573:0.257561 1574:0.21042 1575:0.170434 1576:0.171648 1577:0.143344 1578:0.13673601 1579:0.062561303 1580:0.115406 1581:0.202508 1582:0.19154701 1583:0.137207 1584:0.19259401 1585:0.179455 1586:0.129191 1587:0.207718 1588:0.110488 1589:0.049052201 1590:0.087364599 1591:0.130675 1592:0.13743 1593:0.111926 1594:0.166925 1595:0.22331201 1596:0.27754 1597:0.19013301 1598:0.070797503 1599:0.056675099 1600:0.082101502 1601:0.0835853 1602:0.097730197 1603:0.21466599 1604:0.184965 1605:0.27141601 1606:0.068909802 1607:0.116693 1608:0.087311402 1609:0.079696402 1610:0.102494 1611:0.146753 1612:0.22894099 1613:0.25502899 1614:0.27754 1615:0.235847 1616:0.24297801 1617:0.090461001 1618:0.087985501 1619:0.14493901 1620:0.21821199 1621:0.140508 1622:0.135216 1623:0.200895 1624:0.119767 1625:0.086181901 1626:0.022595899 1627:0.071405202 1628:0.080163002 1629:0.144366 1630:0.153055 1631:0.067331202 1632:0.080224901 1633:0.092078499 1634:0.14040001 1635:0.0624534 1636:0.188848 1637:0.243968 1638:0.221186 1639:0.243968 1640:0.22125299 1641:0.243968 1642:0.243968 1643:0.243968 1644:0.0769765 1645:0.123154 1646:0.104542 1647:0.243968 1648:0.19409101 1649:0.17404 1650:0.138188 1651:0.16956501 1652:0.243968 1653:0.132761 1654:0.147534 1655:0.105133 1656:0.222675 1657:0.071929 1658:0.034713801 1659:0.053562898 1660:0.089011997 1661:0.103312 1662:0.070460603 1663:0.29194599 1664:0.29194599 1665:0.231915 1666:0.087306403 1667:0.040465102 1668:0.051584501 1669:0.053971801 1670:0.0360636 1671:0.045258399 1672:0.29194599 1673:0.29194599 1674:0.29060701 1675:0.077 1676:0.089973301 1677:0.074547097 1678:0.098553002 1679:0.18804599 1680:0.173847 1681:0.180172 1682:0.13329799 1683:0.093740903 1684:0.17411201 1685:0.073670097 1686:0.091651902 1687:0.091482297 1688:0.14945599 1689:0.17171 1690:0.29194599 1691:0.29194599 1692:0.19552401 1693:0.064724296 1694:0.012317 1695:0.0123229 1696:0.0076684002 1697:0.0074121002 1698:0.0121787 1699:0.28705701 1700:0.31857201 1701:0.19622201 1702:0.033790801 1703:0.0113134 1704:0.022558499 1705:0.020434501 1706:0.077570498 1707:0.0062498702 1708:0.197625 1709:0.31857201 1710:0.13642401 1711:0.149792 1712:0.022408601 1713:0.031915698 1714:0.033668 1715:0.037668001 1716:0.045808099 1717:0.31857201 1718:0.31857201 1719:0.24003699 1720:0.079221003 1721:0.0061466498 1722:0.019687099 1723:0.017651901 1724:0.039704099 1725:0.0018695201 1726:0.31857201 1727:0.31857201 1728:0.31857201 1729:0.020357501 1730:0.0107832 1731:0.048423 1732:0.103077 1733:0.33314899 1734:0.053472701 1735:0.083145499 1736:0.19891299 1737:0.079605497 1738:0.109805 1739:0.13012099 1740:0.108517 1741:0.193023 1742:0.33314899 1743:0.152211 1744:0.0361044 1745:0.079624802 1746:0.097885199 1747:0.0550205 1748:0.016465001 1749:0.064073101 1750:0.061120499 1751:0.20453 1752:0.0252336 1753:0.182576 1754:0.33314899 1755:0.28518999 1756:0.150784 1757:0.070791498 1758:0.087595202 1759:0.191448 1760:0.33314899 1761:0.140634 1762:0.113791 1763:0.20031001 1764:0.227878 #
-0.0081252628852177457424721396250789 1:0.0063365302 2:0 3:0 4:0 5:0.13359199 6:0 7:0 8:0 9:0.0063365302 10:0.0437706 11:0.001954 12:0.0058471099 13:0 14:0.908144 15:0 16:0.017879801 17:0.00597513 18:0.0437706 19:0.010517 20:0 21:0 22:0 23:0.0522094 24:0 25:0 26:0 27:0.010517 28:0.076834098 29:0.0025122899 30:0.0075177201 31:0 32:0.33488101 33:0 34:0.022988301 35:0.00768231 36:0.076834098 37:0.030353099 38:0.00452737 39:0.0135476 40:0 41:0.58636802 42:0 43:0.016047999 44:0.0053669298 45:0.030353099 46:0.050679401 47:0.0068321298 48:0.0126479 49:0 50:0.52667201 51:0.00763389 52:0.0193212 53:0.0120109 54:0.056268401 55:0.057046901 56:0.00582091 57:0.017418399 58:0 59:0.231966 60:0 61:0.0213718 62:0.0098117804 63:0.0576027 64:0.14241099 65:0.0798821 66:0.049390301 67:0.016028101 68:0.475052 69:0.044495799 70:0.052764501 71:0.079615198 72:0.168268 73:0.0517607 74:0.00801263 75:0.0103861 76:0 77:0.107903 78:0.0103745 79:0.0144285 80:0.0088706501 81:0.052131198 82:0.072071999 83:0.019082099 84:0.0124606 85:0.0056580799 86:0.127014 87:0.0057799402 88:0.0173885 89:0.038020398 90:0.094737597 91:0.215156 92:0.17664699 93:0.107894 94:0.018088 95:0.21664201 96:0.039696701 97:0.043886401 98:0.047828201 99:0.179764 100:0.57516801 101:0.40445301 102:0.162641 103:0.124207 104:0.16989 105:0.083610602 106:0.093710199 107:0.119403 108:0.413077 109:0.0086178305 110:0.0082141301 111:0.0033907699 112:0.0024735399 113:0.044494402 114:0.00076005002 115:0.0020417999 116:0.0068419902 117:0.0134169 118:0.042423099 119:0.030639799 120:0.0115974 121:0.0141054 122:0.069980897 123:0.00386832 124:0.0023864401 125:0.0036674 126:0.015740599 127:0.165207 128:0.425908 129:0.055176299 130:0.0282181 131:0.0356033 132:0.0212673 133:0.023996901 134:0.0278653 135:0.077158198 136:0.51006597 137:0.66116101 138:0.23768599 139:0.037558101 140:0.041053198 141:0.0078849699 142:0.016160101 143:0.02681 144:0.057317499 145:0.037404198 146:0.0669384 147:0.017754599 148:0.00609494 149:0.0113826 150:0.0041869502 151:0.00058521703 152:0.0030334699 153:0.0142317 154:0.128114 155:0.468606 156:0.072779402 157:0.0094985198 158:0.0090552503 159:0.0060997 160:0.00294775 161:0.0070769698 162:0.027871201 163:0.220963 164:0.47582999 165:0.146927 166:0.0175095 167:0.0052347998 168:0.00175847 169:0.0030008701 170:0.0060243998 171:0.023122599 172:0.37086701 173:0.47582999 174:0.28240699 175:0.0212925 176:0.00160791 177:0.00207043 178:0.0110962 179:0.00652174 180:0.065040097 181:0.097770497 182:0.43364599 183:0.090085201 184:0.00449496 185:0.0030861399 186:0.0027592899 187:0.0031777101 188:0.0081725996 189:0.023671901 190:0.19320799 191:0.43364599 192:0.13943601 193:0.0064801099 194:0.0050735902 195:0.0055766702 196:0.0051261098 197:0.0122362 198:0.031504001 199:0.201674 200:0.43364599 201:0.190313 202:0.0040910002 203:0.000423149 204:0.00075259898 205:0.0096451202 206:0.0144546 207:0.053651098 208:0.228129 209:0.43364599 210:0.175667 211:0.0084421104 212:0.038100999 213:0.0124491 214:0.0074004401 215:0.023927599 216:0.042286199 217:0.18446501 218:0.39501801 219:0.088532701 220:0.0198677 221:0.113475 222:0.0358821 223:0.028982 224:0.0246007 225:0.040049098 226:0.081809998 227:0.259231 228:0.0246068 229:0.063294902 230:0.39501801 231:0.12526201 232:0.058623601 233:0.0374659 234:0.050067201 235:0.143933 236:0.39501801 237:0.0637668 238:0.039792601 239:0.39501801 240:0.071468398 241:0.023965999 242:0.029722201 243:0.0259446 244:0.037018899 245:0.039414801 246:0.0096799303 247:0.081927396 248:0.39501801 249:0.101584 250:0.0218466 251:0.0205941 252:0.016920101 253:0.026446 254:0.00263257 255:0.00820887 256:0.0035482501 257:0.029201601 258:0.000647248 259:0.0029430699 260:0.0086037097 261:0.034478199 262:0.047940101 263:0.0045081601 264:0.0033074201 265:0.0078061498 266:0.02675 267:0.0097087203 268:0.0100947 269:0.0264598 270:0.082914099 271:0.098158397 272:0.115492 273:0.17850199 274:0.131428 275:0.26988301 276:0.0135954 277:0.0299074 278:0.060720801 279:0.120938 280:0.38183099 281:0.28085601 282:0.191689 283:0.260923 284:0.25689101 285:0.20603301 286:0.130945 287:0.27894899 288:0.52491099 289:0.00876767 290:0.0033587301 291:0.0027952499 292:0.001303 293:0.0049529001 294:0.00091051799 295:0.00146694 296:0.0033166099 297:0.0101524 298:0.030241501 299:0.026498299 300:0.025947601 301:0.0147838 302:0.034819201 303:0.00456277 304:0.0099091204 305:0.0170024 306:0.0350959 307:0.122382 308:0.35223901 309:0.069214799 310:0.035622202 311:0.019521199 312:0.0203918 313:0.0433346 314:0.037939101 315:0.073447801 316:0.49621299 317:0.66642702 318:0.30971 319:0.083606102 320:0.0251089 321:0.00353405 322:0.046173599 323:0.063597701 324:0.181788 325:0.022693099 326:0.061241802 327:0.0146716 328:0.0041258801 329:0.0068437401 330:0.00156023 331:0.0028923801 332:0.0034445601 333:0.0102846 334:0.15419599 335:0.35251799 336:0.0784119 337:0.0104759 338:0.0096982596 339:0.00562301 340:0.0057957699 341:0.0036577799 342:0.018103899 343:0.189257 344:0.49454999 345:0.146382 346:0.0116589 347:0.00487734 348:0.00148286 349:0.0069887699 350:0.0105676 351:0.042928699 352:0.42720801 353:0.49454999 354:0.32125601 355:0.0091417003 356:0.0046084202 357:0.00214018 358:0.0039161802 359:0.0064668702 360:0.033673599 361:0.146796 362:0.41978401 363:0.080353998 364:0.0080459202 365:0.0056499601 366:0.0038926699 367:0.0051270099 368:0.0033817601 369:0.0160388 370:0.168558 371:0.42671499 372:0.12165 373:0.0031636001 374:0.00163517 375:0.00090379198 376:0.00222462 377:0.0068405098 378:0.014697 379:0.27568999 380:0.42671499 381:0.18956999 382:0.0095984703 383:0.00294478 384:0.00090563501 385:0.00156798 386:0.00301666 387:0.021236699 388:0.243223 389:0.42671499 390:0.170451 391:0.0045823599 392:0.00141712 393:0.00150751 394:0.00322666 395:0.0077923099 396:0.0233115 397:0.177963 398:0.45756701 399:0.15454599 400:0.0072328402 401:0.00072925998 402:0.000216382 403:0.0036355599 404:0.0087906197 405:0.0108295 406:0.192343 407:0.45756701 408:0.15007301 409:0.0163127 410:0.0017341 411:0.00050100201 412:0.0104417 413:0.0073971502 414:0.030207699 415:0.138935 416:0.45756701 417:0.11284 418:0.0031119001 419:0.0028140501 420:0.0042436202 421:0.0062011499 422:0.0111972 423:0.0177535 424:0.076536901 425:0.45756701 426:0.045821398 427:0.0070194602 428:0.0039369399 429:0.0022774299 430:0.0083574802 431:0.0066440199 432:0.0242649 433:0.30617401 434:0.51541901 435:0.248476 436:0.0253029 437:0.0094905198 438:0.00210483 439:0.0201561 440:0.0227596 441:0.078974403 442:0.21063 443:0.51541901 444:0.16068999 445:0.0307352 446:0.17873999 447:0.0303047 448:0.0126208 449:0.028009299 450:0.041922599 451:0.091749802 452:0.325528 453:0.032146201 454:0.0206891 455:0.016857499 456:0.00325833 457:0.0114657 458:0.0125444 459:0.048677199 460:0.0273646 461:0.046319202 462:0.0159839 463:0.031980202 464:0.26386499 465:0.0121612 466:0.0081409197 467:0.0107986 468:0.0231118 469:0.026413999 470:0.079949997 471:0.0143115 472:0.032889001 473:0.49436301 474:0.049278598 475:0.0035409301 476:0.0066436199 477:0.0034507399 478:0.00344327 479:0.0036754301 480:0.00130241 481:0.0415079 482:0.49436301 483:0.0532903 484:0.00143523 485:0.00273329 486:0.00037715401 487:0.00118159 488:0.0029939699 489:0.0020289801 490:0.0223765 491:0.49436301 492:0.017725499 493:0.00142852 494:0.00145219 495:0.00187788 496:0.000169223 497:0.00052015099 498:0.00020580601 499:0.023780599 500:0.49436301 501:0.0246234 502:6.9327201e-05 503:8.3335501e-05 504:0.000205262 505:0.0167647 506:0.026730999 507:0.0138467 508:0.0143782 509:0.0127961 510:0.00129977 511:0.00103281 512:0.0027816501 513:0.0052531301 514:0.083056599 515:0.320804 516:0.042601001 517:0.018592199 518:0.0125818 519:0.0060183499 520:0.0090457601 521:0.0151654 522:0.030723499 523:0.15898 524:0.53719097 525:0.156776 526:0.025445599 527:0.030213799 528:0.0144345 529:0.00248254 530:0.0108479 531:0.027592201 532:0.386747 533:0.53719097 534:0.31184 535:0.0232688 536:0.012402 537:0.0057108798 538:0.0101233 539:0.024081299 540:0.0416114 541:0.069841698 542:0.424018 543:0.047376301 544:0.0059890002 545:0.0031588201 546:0.0018268001 547:0.0067209699 548:0.0064837802 549:0.0127329 550:0.141652 551:0.45617199 552:0.096612997 553:0.0106823 554:0.003148 555:0.00025242299 556:0.0042231702 557:0.00516182 558:0.019284301 559:0.215158 560:0.45617199 561:0.15479399 562:0.00775033 563:0.0026610801 564:0.00013415 565:0.0058363802 566:0.0180905 567:0.0142318 568:0.22665 569:0.45617199 570:0.173979 571:0.019112701 572:0.0174169 573:0.0050111199 574:0.0057240101 575:0.0184469 576:0.0205785 577:0.125218 578:0.43834099 579:0.112116 580:0.0052445298 581:0.00175998 582:0.000576519 583:0.0039531598 584:0.00322012 585:0.0161727 586:0.16261999 587:0.43834099 588:0.122334 589:0.0031038499 590:0.00096638 591:0.00084277999 592:0.0036818399 593:0.00319093 594:0.023223 595:0.118996 596:0.43834099 597:0.120506 598:0.046429701 599:0.034347501 600:0.0123408 601:0.030582201 602:0.0187205 603:0.0090533299 604:0.30893901 605:0.43834099 606:0.119035 607:0.059022401 608:0.0243487 609:0.0087569198 610:0.047706801 611:0.0443599 612:0.070368797 613:0.15919299 614:0.36305401 615:0.069632299 616:0.0043025198 617:0.00087463099 618:0.00056596199 619:0.00081906602 620:0.0028361799 621:0.049211901 622:0.16575401 623:0.35383299 624:0.042739 625:0.00373994 626:0.00206254 627:0.0040900498 628:0.0048715598 629:0.0101417 630:0.094348401 631:0.36305401 632:0.36305401 633:0.049556602 634:0.0190231 635:0.00639536 636:0.0037583001 637:0.0118541 638:0.0243864 639:0.36305401 640:0.36305401 641:0.065376297 642:0.023742 643:0.0132705 644:0.0120085 645:0.0077516399 646:0.0066834898 647:0.0211784 648:0.36305401 649:0.146079 650:0.14576399 651:0.0171465 652:0.0029491 653:0.0033108999 654:0.0056037302 655:0.0070408098 656:0.0118418 657:0.120003 658:0.140838 659:0.023824001 660:0.0037302601 661:0.0019541399 662:0.00190126 663:0.00168287 664:0.00224754 665:0.00336476 666:0.13931701 667:0.47305799 668:0.0148995 669:0.0139141 670:0.0058143199 671:0.0136323 672:0.0062583401 673:0.0100541 674:0.0226775 675:0.47305799 676:0.47305799 677:0.022211 678:0.0056622298 679:0.0028069101 680:0.0134519 681:0.00128526 682:0.0073532402 683:0.026546899 684:0.47305799 685:0.124383 686:0.0027135301 687:0.00079399301 688:0.0019701 689:0.0025346801 690:0.00079614401 691:0.00087763701 692:0.0018641 693:0.12709101 694:0.095294699 695:0.0026151601 696:0.00054888002 697:0.00335621 698:0.095275797 699:0.0044563101 700:0.00073889398 701:0.0044674701 702:0.108233 703:0.41981 704:0.0128077 705:0.0110594 706:0.040615901 707:0.0589494 708:0.0182651 709:0.0046338602 710:0.041517001 711:0.41981 712:0.41981 713:0.023419101 714:0.143812 715:0.28627199 716:0.305136 717:0.131161 718:0.033858702 719:0.084492996 720:0.41981 721:0.0194149 722:0.00112796 723:0.000199797 724:0.0042326301 725:0.47603601 726:0.00502691 727:0.00024736999 728:0.00205832 729:0.026914701 730:0.000212193 731:0.000138066 732:3.4036599e-05 733:0.0046363198 734:0.47603601 735:0.0037533101 736:1.15386e-05 737:0.000140274 738:0.00072773802 739:0.119653 740:0.0111186 741:0.079314701 742:0.15618201 743:0.47603601 744:0.088410303 745:0.015843701 746:0.026776699 747:0.17938 748:0.00096487103 749:0.000130361 750:0.0021592099 751:0.0278646 752:0.47603601 753:0.027207401 754:0.000154443 755:0.00056063599 756:0.00288609 757:0.080957599 758:0.38504699 759:0.164823 760:0.025417101 761:0.076940902 762:0.036075901 763:0.0622999 764:0.104094 765:0.0250783 766:0.14291 767:0.38504699 768:0.187161 769:0.024577901 770:0.059969701 771:0.024650799 772:0.057855599 773:0.12041 774:0.025790101 775:0.033523899 776:0.18880101 777:0.085348599 778:0.0199493 779:0.089025103 780:0.051787701 781:0.202958 782:0.38504699 783:0.114725 784:0.0594845 785:0.232673 786:0.072461396 787:0.022553099 788:0.079249099 789:0.032634798 790:0.22748999 791:0.38504699 792:0.188306 793:0.17942099 794:0.40123001 795:0.16482501 796:0.0205933 797:0.0322465 798:0.0079514701 799:0.036795799 800:0.124551 801:0.032715399 802:0.136571 803:0.40123001 804:0.116528 805:0.036226999 806:0.043771699 807:0.016006101 808:0.020410899 809:0.060973201 810:0.0405517 811:0.064629696 812:0.221642 813:0.051001601 814:0.021684401 815:0.046528801 816:0.0148139 817:0.192864 818:0.40123001 819:0.247003 820:0.045388401 821:0.074561998 822:0.021403 823:0.034763802 824:0.0265135 825:0.0326588 826:0.12902001 827:0.40123001 828:0.216947 829:0.050278101 830:0.36462101 831:0.079681799 832:0.102689 833:0.0897028 834:0.028636901 835:0.099986002 836:0.15289401 837:0.0248056 838:0.241014 839:0.36462101 840:0.12572099 841:0.14243101 842:0.065257601 843:0.019471601 844:0.181155 845:0.36462101 846:0.117923 847:0.0179544 848:0.043476701 849:0.0217639 850:0.053182099 851:0.046829399 852:0.032292102 853:0.108204 854:0.31477499 855:0.088894598 856:0.121481 857:0.133763 858:0.034486499 859:0.074411899 860:0.035705499 861:0.0259169 862:0.17951 863:0.36462101 864:0.236123 865:0.269032 866:0.269032 867:0.045978501 868:0.0272239 869:0.0119709 870:0.0081462199 871:0.046060398 872:0.26255 873:0.269032 874:0.269032 875:0.071366198 876:0.061934002 877:0.042859599 878:0.032564599 879:0.020860501 880:0.032667201 881:0.080038197 882:0.269032 883:0.195568 884:0.047475401 885:0.0187327 886:0.0276403 887:0.065098397 888:0.044495702 889:0.085222803 890:0.269032 891:0.269032 892:0.215409 893:0.117139 894:0.140451 895:0.145025 896:0.269032 897:0.162982 898:0.147148 899:0.218775 900:0.269032 901:0.32529801 902:0.065669499 903:0.0465611 904:0.027031699 905:0.026533401 906:0.0114532 907:0.0223235 908:0.0306307 909:0.32529801 910:0.32529801 911:0.032920402 912:0.010886 913:0.00525347 914:0.021383001 915:0.00191397 916:0.0123311 917:0.0261446 918:0.32529801 919:0.32529801 920:0.165456 921:0.171644 922:0.146685 923:0.25083899 924:0.075951301 925:0.065621398 926:0.059029799 927:0.285653 928:0.32529801 929:0.0523922 930:0.035950601 931:0.027025901 932:0.0507573 933:0.0061377701 934:0.0093298703 935:0.010539 936:0.32529801 937:0.30123201 938:0.0114105 939:0.0182698 940:0.040214501 941:0.075220697 942:0.0281209 943:0.0111979 944:0.0281695 945:0.30123201 946:0.30123201 947:0.029285399 948:0.120067 949:0.21804801 950:0.24556699 951:0.18004601 952:0.14286301 953:0.037317399 954:0.30123201 955:0.30123201 956:0.0056785098 957:0.0148973 958:0.0172686 959:0.0377982 960:0.021296101 961:0.0111591 962:0.0068324702 963:0.30123201 964:0.30123201 965:0.0431577 966:0.054198202 967:0.093838997 968:0.131403 969:0.16689999 970:0.151361 971:0.00558881 972:0.30123201 973:0.0857566 974:0.0285191 975:0.108569 976:0.218381 977:0.41916299 978:0.19373199 979:0.143934 980:0.0174488 981:0.111579 982:0.00080840499 983:0.00103119 984:0.0025738301 985:0.0574941 986:0.41916299 987:0.058663499 988:0.0053595002 989:0.00050251099 990:0.00111023 991:0.15297 992:0.0532686 993:0.040190302 994:0.14707799 995:0.41916299 996:0.202144 997:0.158544 998:0.0032369399 999:0.14809801 1000:0.00356312 1001:0.00335365 1002:0.00093972601 1003:0.075424798 1004:0.41916299 1005:0.066296197 1006:0.0069061201 1007:0.00040508001 1008:0.0024781199 1009:0.0215104 1010:0.0091981301 1011:0.00186986 1012:0.0018671399 1013:0.023918699 1014:0.0216008 1015:0.168594 1016:0.47871599 1017:0.170367 1018:0.050728802 1019:0.0115269 1020:0.0039846301 1021:0.0046134801 1022:0.0282402 1023:0.0133154 1024:0.26785901 1025:0.47871599 1026:0.37548599 1027:0.0222633 1028:0.00581461 1029:0.0059673199 1030:0.0037696401 1031:0.0049276799 1032:0.0048392699 1033:0.029803099 1034:0.084928297 1035:0.043242902 1036:0.0256512 1037:0.0122784 1038:0.0139136 1039:0.0110339 1040:0.0058986698 1041:0.0078358296 1042:0.062803201 1043:0.47871599 1044:0.12825499 1045:0.0335471 1046:0.00300949 1047:0.00565761 1048:0.0058203498 1049:0.0088058002 1050:0.00407138 1051:0.144894 1052:0.440249 1053:0.21662401 1054:0.032246001 1055:0.0039380798 1056:0.0123997 1057:0.0101644 1058:0.00216662 1059:0.0136239 1060:0.17708901 1061:0.440249 1062:0.225697 1063:0.020591 1064:0.0046985 1065:0.0062937299 1066:0.0054519 1067:0.0027600101 1068:0.0041904198 1069:0.064946003 1070:0.440249 1071:0.098832898 1072:0.031932801 1073:0.00946151 1074:0.0085427603 1075:0.0037847301 1076:0.00444073 1077:0.00722611 1078:0.150473 1079:0.440249 1080:0.169918 1081:0.0129923 1082:0.00239593 1083:0.0053358902 1084:0.0071539902 1085:0.0035593901 1086:0.0178323 1087:0.114423 1088:0.43972701 1089:0.1514 1090:0.053101201 1091:0.0128405 1092:0.0046229102 1093:0.015759399 1094:0.0076838001 1095:0.020606499 1096:0.073404603 1097:0.43972701 1098:0.154514 1099:0.0137731 1100:0.0064123999 1101:0.0030340501 1102:0.00142978 1103:0.0019722199 1104:0.0065709199 1105:0.17257001 1106:0.43972701 1107:0.192745 1108:0.034991398 1109:0.0026104399 1110:0.00068257999 1111:0.0049183499 1112:0.0043483698 1113:0.0100519 1114:0.18836799 1115:0.43972701 1116:0.22020701 1117:0.12615301 1118:0.0145079 1119:0.0054113599 1120:0.0300445 1121:0.118087 1122:0.089745998 1123:0.077471502 1124:0.296516 1125:0.251129 1126:0.25091499 1127:0.108356 1128:0.173464 1129:0.173453 1130:0.296516 1131:0.29357699 1132:0.177524 1133:0.24014901 1134:0.296516 1135:0.046952099 1136:0.0054841898 1137:0.00127413 1138:0.00732233 1139:0.0185737 1140:0.0286854 1141:0.131035 1142:0.296516 1143:0.161898 1144:0.117425 1145:0.035514299 1146:0.038910501 1147:0.021302899 1148:0.061426401 1149:0.068603799 1150:0.109709 1151:0.296516 1152:0.233844 1153:0.31927601 1154:0.232216 1155:0.31927601 1156:0.31927601 1157:0.31927601 1158:0.19732501 1159:0.10864 1160:0.120598 1161:0.31927601 1162:0.31927601 1163:0.064531498 1164:0.077914797 1165:0.081536204 1166:0.134188 1167:0.017654199 1168:0.0071080099 1169:0.0058308998 1170:0.31927601 1171:0.134299 1172:0.058891699 1173:0.087856703 1174:0.059287999 1175:0.085962802 1176:0.044574302 1177:0.060666598 1178:0.20206 1179:0.194067 1180:0.017178301 1181:0.0176463 1182:0.022255899 1183:0.029132601 1184:0.030528201 1185:0.0120484 1186:0.017705601 1187:0.029208999 1188:0.0165655 1189:0.45288301 1190:0.0129077 1191:0.0140623 1192:0.015777299 1193:0.027573399 1194:0.0067718499 1195:0.0137431 1196:0.00745265 1197:0.45288301 1198:0.45288301 1199:0.074197598 1200:0.038577601 1201:0.088205598 1202:0.244625 1203:0.104107 1204:0.0785532 1205:0.0100686 1206:0.45288301 1207:0.0162884 1208:0.0126115 1209:0.00640673 1210:0.0113775 1211:0.0235135 1212:0.0082985796 1213:0.021079101 1214:0.0160177 1215:0.0129926 1216:0.0093087899 1217:0.0091850599 1218:0.0090333298 1219:0.0103069 1220:0.28065699 1221:0.0129413 1222:0.0119788 1223:0.0089025097 1224:0.00844777 1225:0.0779263 1226:0.0208841 1227:0.0060674599 1228:0.050766502 1229:0.493972 1230:0.0400015 1231:0.019070501 1232:0.0016387301 1233:0.0779607 1234:0.0025768999 1235:0.00147448 1236:0.000200995 1237:0.032801401 1238:0.493972 1239:0.0196316 1240:0.00109483 1241:6.3908199e-05 1242:0.00177788 1243:0.00081690197 1244:0.00154629 1245:0.00148592 1246:0.0052350499 1247:0.493972 1248:0.0106631 1249:0.00094748999 1250:0.0011912599 1251:0.000899593 1252:0.00013616899 1253:0.000175033 1254:9.5471798e-05 1255:0.0111777 1256:0.493972 1257:0.0107895 1258:1.00304e-05 1259:5.7780999e-05 1260:0.000193047 1261:0.234861 1262:0.0315811 1263:0.0593694 1264:0.037813298 1265:0.204524 1266:0.033888299 1267:0.17369699 1268:0.155158 1269:0.26344299 1270:0.34994501 1271:0.091199003 1272:0.12368 1273:0.138708 1274:0.117183 1275:0.073648103 1276:0.21952599 1277:0.341515 1278:0.48042601 1279:0.0167809 1280:0.00102337 1281:0.00316213 1282:0.0010429299 1283:0.36278301 1284:0.00462376 1285:0.0167302 1286:0.015989101 1287:0.0208796 1288:0.128676 1289:0.0012806701 1290:0.0043414799 1291:0.0052832402 1292:0.10638 1293:0.0113445 1294:0.0344746 1295:0.040043499 1296:0.13682701 1297:0.096716002 1298:0.0186821 1299:0.0143103 1300:0.0208694 1301:0.0181082 1302:0.0204335 1303:0.075243801 1304:0.43361601 1305:0.15327001 1306:0.17289101 1307:0.080002896 1308:0.0248207 1309:0.0206245 1310:0.043380301 1311:0.043438099 1312:0.26984599 1313:0.64412802 1314:0.46503401 1315:0.0386476 1316:0.00233057 1317:0.0038669 1318:0.00100464 1319:0.0047051902 1320:0.00232164 1321:0.0044152499 1322:0.0059380801 1323:0.0387007 1324:0.064355001 1325:0.042502701 1326:0.0339991 1327:0.0152619 1328:0.0223573 1329:0.0146237 1330:0.016271001 1331:0.063624702 1332:0.069065101 1333:0.027714301 1334:0.016718199 1335:0.0065798801 1336:0.0047638798 1337:0.0079952404 1338:0.0057977098 1339:0.119609 1340:0.49208599 1341:0.17486399 1342:0.067217499 1343:0.0076905699 1344:0.0044804299 1345:0.0072893701 1346:0.00645041 1347:0.0103094 1348:0.25402501 1349:0.49208599 1350:0.33915401 1351:0.0191823 1352:0.0122138 1353:0.0088170199 1354:0.00624969 1355:0.0076264301 1356:0.0056674099 1357:0.0155016 1358:0.119326 1359:0.035310201 1360:0.0301753 1361:0.0116539 1362:0.0114218 1363:0.0057585998 1364:0.00693089 1365:0.0104244 1366:0.069051303 1367:0.49208599 1368:0.124932 1369:0.063222297 1370:0.0053503402 1371:0.00311005 1372:0.0063978899 1373:0.00166172 1374:0.0059299702 1375:0.171096 1376:0.43732601 1377:0.19196901 1378:0.041638099 1379:0.00310668 1380:0.0058709998 1381:0.0051692799 1382:0.0068505402 1383:0.017539799 1384:0.197239 1385:0.43732601 1386:0.2075 1387:0.0299059 1388:0.0058293198 1389:0.0049123298 1390:0.0035334399 1391:0.0021035301 1392:0.0059591201 1393:0.081034601 1394:0.43732601 1395:0.107334 1396:0.029332699 1397:0.00449104 1398:0.0051092901 1399:0.00386272 1400:0.00342818 1401:0.016231 1402:0.160099 1403:0.43732601 1404:0.174169 1405:0.0116155 1406:0.00129562 1407:0.0052475398 1408:0.0073725102 1409:0.0105669 1410:0.0160942 1411:0.117388 1412:0.473773 1413:0.152693 1414:0.0099658798 1415:0.0062156999 1416:0.00317859 1417:0.0080207903 1418:0.0085041104 1419:0.0127523 1420:0.0470833 1421:0.34103599 1422:0.055789702 1423:0.0095567796 1424:0.00234187 1425:0.0033561001 1426:0.00220299 1427:0.00286467 1428:0.016634099 1429:0.179818 1430:0.473773 1431:0.1997 1432:0.016615899 1433:0.0081492905 1434:0.0024915501 1435:0.0037302501 1436:0.0062151202 1437:0.010948 1438:0.18691599 1439:0.473773 1440:0.232482 1441:0.0326977 1442:0.0207304 1443:0.0111742 1444:0.0155523 1445:0.018710401 1446:0.0188444 1447:0.039887398 1448:0.19317099 1449:0.057785299 1450:0.030582801 1451:0.0211938 1452:0.017359801 1453:0.0208936 1454:0.201354 1455:0.021436101 1456:0.024569901 1457:0.0276611 1458:0.0224838 1459:0.076160803 1460:0.033939 1461:0.0165188 1462:0.024997899 1463:0.0343455 1464:0.0123306 1465:0.304259 1466:0.46458 1467:0.453511 1468:0.0862967 1469:0.035468299 1470:0.020186801 1471:0.046451099 1472:0.22756401 1473:0.023737499 1474:0.193728 1475:0.46458 1476:0.25553399 1477:0.0036191901 1478:0.00367003 1479:0.00302744 1480:0.016666001 1481:0.49547601 1482:0.0188761 1483:0.00357065 1484:0.0036911899 1485:0.0023975701 1486:0.00042390401 1487:0.000381341 1488:0.00034791601 1489:0.023798799 1490:0.49547601 1491:0.0222059 1492:0.00013462899 1493:0.000168403 1494:0.00038653199 1495:0.0113058 1496:0.0068396502 1497:0.0031010399 1498:0.040541101 1499:0.49547601 1500:0.025666701 1501:0.0202835 1502:0.053320602 1503:0.0216105 1504:0.00130619 1505:0.00160926 1506:0.00054666901 1507:0.056577101 1508:0.49547601 1509:0.043430101 1510:0.00106561 1511:0.00170336 1512:0.00054011698 1513:0.0087395599 1514:0 1515:0 1516:0 1517:0.63191199 1518:0 1519:0 1520:0 1521:0.0087395599 1522:0.111241 1523:0.000215462 1524:0.00064474402 1525:0 1526:0.181466 1527:0 1528:0.0019715501 1529:0.00065886002 1530:0.111241 1531:0.00219063 1532:0 1533:0 1534:0 1535:0.70686001 1536:0 1537:0 1538:0 1539:0.00219063 1540:0.0279194 1541:0 1542:0 1543:0 1544:0.156948 1545:0 1546:0 1547:0 1548:0.0279194 1549:0.28537899 1550:0.0097266799 1551:0.029105799 1552:0 1553:0.0571201 1554:0.00220202 1555:0.0103998 1556:0.0046018902 1557:0.285694 1558:0.479067 1559:0.44166899 1560:0.29208401 1561:0.121873 1562:0.15227 1563:0.0350261 1564:0.13101301 1565:0.096646801 1566:0.43019801 1567:0.0735287 1568:0.00047911299 1569:0.00143368 1570:0 1571:0.0122331 1572:0 1573:0.000826673 1574:0.00027086199 1575:0.0735287 1576:0.12537999 1577:0.0594518 1578:0.019920699 1579:0.0081248898 1580:0.0242704 1581:0 1582:0.020527501 1583:0.0067587099 1584:0.108114 1585:0.208566 1586:0.159684 1587:0.074913397 1588:0.0554277 1589:0.032025199 1590:0.064949699 1591:0.099674203 1592:0.083121002 1593:0.188428 1594:0.27669001 1595:0.120067 1596:0.149885 1597:0.076655798 1598:0.116012 1599:0.169596 1600:0.185421 1601:0.69071102 1602:0.38981399 1603:0.043860201 1604:0.0222751 1605:0.0068892902 1606:0.00403261 1607:0.0025507801 1608:0.0097816698 1609:0.011624 1610:0.0070607001 1611:0.0327635 1612:0.0571739 1613:0.0081998501 1614:0.021809399 1615:0.0136745 1616:0.11233 1617:0.0279414 1618:0.067875601 1619:0.041039102 1620:0.054547001 1621:0.039510701 1622:0.022181001 1623:0.0141918 1624:0.014463 1625:0.027956 1626:0.023743199 1627:0.062231999 1628:0.57701403 1629:0.118349 1630:0.048914801 1631:0.0296073 1632:0.0043785102 1633:0.0149509 1634:0.041747302 1635:0.0239309 1636:0.22534101 1637:0.65305197 1638:0.37152901 1639:0.0072245002 1640:0.00292709 1641:0.00187599 1642:0.0032984901 1643:0.026825299 1644:0.0047097001 1645:0.029689001 1646:0.0155677 1647:0.0075356602 1648:0.0153115 1649:0.0125684 1650:0.00173742 1651:0.0084659196 1652:0.0290557 1653:0.0093174204 1654:0.055005699 1655:0.092819601 1656:0.0518925 1657:0.0102643 1658:0.0094239498 1659:0.0042117098 1660:0.00307387 1661:0.0089123603 1662:0.0124807 1663:0.129659 1664:0.496539 1665:0.16570801 1666:0.028965199 1667:0.018878 1668:0.00545912 1669:0.0059081898 1670:0.0061126002 1671:0.0097858803 1672:0.232787 1673:0.496539 1674:0.31958801 1675:0.010304 1676:0.015998799 1677:0.0084981704 1678:0.0068337601 1679:0.0129388 1680:0.00978655 1681:0.0284878 1682:0.151455 1683:0.0419477 1684:0.036089402 1685:0.03283 1686:0.014209 1687:0.0162494 1688:0.021989999 1689:0.0113552 1690:0.074934401 1691:0.496539 1692:0.132717 1693:0.035554599 1694:0.0154206 1695:0.0025388401 1696:0.0041242498 1697:0.0055019101 1698:0.00098168699 1699:0.156039 1700:0.43168101 1701:0.20178799 1702:0.0557601 1703:0.0254119 1704:0.0037169601 1705:0.013142 1706:0.0448884 1707:0.0066670501 1708:0.16140801 1709:0.43168101 1710:0.194097 1711:0.032423399 1712:0.018380299 1713:0.00590439 1714:0.0054481998 1715:0.0102444 1716:0.0033767601 1717:0.087723702 1718:0.43168101 1719:0.125962 1720:0.048795 1721:0.023737499 1722:0.0039403299 1723:0.00486416 1724:0.012706 1725:0.0039774501 1726:0.175156 1727:0.43168101 1728:0.234459 1729:0.034979399 1730:0.041854098 1731:0.0047364598 1732:0.074694097 1733:0.38714901 1734:0.039813802 1735:0.0653629 1736:0.27479199 1737:0.12114 1738:0.0120598 1739:0.0287838 1740:0.0039028099 1741:0.146219 1742:0.38714901 1743:0.115751 1744:0.00367399 1745:0.0239021 1746:0.0343647 1747:0.0541033 1748:0.056086101 1749:0.01477 1750:0.063405998 1751:0.148195 1752:0.0293791 1753:0.123735 1754:0.38714901 1755:0.26530001 1756:0.049736701 1757:0.062419299 1758:0.058958001 1759:0.230408 1760:0.38714901 1761:0.122412 1762:0.0326127 1763:0.191265 1764:0.14158399 #
-0.010000000000000000208166817117217 1:0.102261 2:0.21882799 3:0.209977 4:0.064994097 5:0.059289798 6:0.046840299 7:0.0680352 8:0.0787322 9:0.065270297 10:0.201829 11:0.33780199 12:0.33430001 13:0.042395201 14:0.0295881 15:0.028472399 16:0.039220501 17:0.0593847 18:0.087496899 19:0.15953 20:0.255604 21:0.33780199 22:0.099901997 23:0.067846701 24:0.069126002 25:0.079172201 26:0.092809297 27:0.099682197 28:0.26469001 29:0.33780199 30:0.33780199 31:0.14306501 32:0.084394597 33:0.039801098 34:0.032235 35:0.0340271 36:0.087394498 37:0.166785 38:0.32235 39:0.32235 40:0.067594901 41:0.048884001 42:0.019888099 43:0.0139176 44:0.0277369 45:0.086026698 46:0.0940051 47:0.211803 48:0.23690701 49:0.068541802 50:0.056557201 51:0.0144114 52:0.017258201 53:0.033287399 54:0.054011799 55:0.32235 56:0.32235 57:0.32235 58:0.080973402 59:0.070946001 60:0.030500401 61:0.0154488 62:0.0296556 63:0.158318 64:0.26500601 65:0.32235 66:0.229757 67:0.039469 68:0.093483001 69:0.0728883 70:0.043597501 71:0.0857208 72:0.144779 73:0.125352 74:0.30096999 75:0.28332499 76:0.080083802 77:0.0465554 78:0.0138934 79:0.032497901 80:0.064033203 81:0.096774101 82:0.13772701 83:0.27861699 84:0.191009 85:0.10023 86:0.060901701 87:0.045886699 88:0.0870912 89:0.106148 90:0.13199501 91:0.238575 92:0.29151401 93:0.14097901 94:0.029307401 95:0.061300699 96:0.060667999 97:0.077652797 98:0.138868 99:0.133596 100:0.37291399 101:0.37291399 102:0.17327601 103:0.047997698 104:0.0372479 105:0.024661601 106:0.072793603 107:0.13667101 108:0.226998 109:0.116746 110:0.152961 111:0.088423602 112:0.033706501 113:0.076236904 114:0.0288301 115:0.058370199 116:0.065458 117:0.0727176 118:0.259619 119:0.319226 120:0.24044301 121:0.099234499 122:0.126577 123:0.0781205 124:0.0867479 125:0.089505397 126:0.14508501 127:0.319226 128:0.319226 129:0.139863 130:0.035323001 131:0.056317799 132:0.0228981 133:0.053856298 134:0.077170603 135:0.15870599 136:0.319226 137:0.319226 138:0.319226 139:0.101394 140:0.120548 141:0.079545498 142:0.060601 143:0.068595402 144:0.16713899 145:0.234118 146:0.28803501 147:0.133559 148:0.086939797 149:0.082521997 150:0.083328098 151:0.110923 152:0.0963552 153:0.168262 154:0.32236499 155:0.32236499 156:0.069292396 157:0.0319498 158:0.077450603 159:0.0783941 160:0.077939004 161:0.070638299 162:0.179318 163:0.32236499 164:0.32236499 165:0.199177 166:0.0583173 167:0.056982901 168:0.0405204 169:0.0345851 170:0.0347417 171:0.086311497 172:0.32236499 173:0.32236499 174:0.107012 175:0.0118322 176:0.0111596 177:0.024111001 178:0.017896799 179:0.023070499 180:0.11954 181:0.337717 182:0.337717 183:0.092701599 184:0.0056438199 185:0.0500107 186:0.0257944 187:0.0163606 188:0.019778101 189:0.112664 190:0.337717 191:0.337717 192:0.11991 193:0.0060820198 194:0.052825298 195:0.0227903 196:0.00708642 197:0.0286995 198:0.10615 199:0.337717 200:0.337717 201:0.099157996 202:0.00079576799 203:0.0064036399 204:0.0121379 205:0.0082904501 206:0.0084307501 207:0.100412 208:0.304683 209:0.337717 210:0.092532702 211:0.00128592 212:0.116585 213:0.032325398 214:0.0027284799 215:0.0101361 216:0.082811102 217:0.268336 218:0.29583901 219:0.072870202 220:0.0183925 221:0.20237599 222:0.0813125 223:0.00707966 224:0.045624301 225:0.095285803 226:0.067830198 227:0.034874801 228:0.069586001 229:0.205598 230:0.40675899 231:0.16358399 232:0.0471192 233:0.034147199 234:0.0454184 235:0.146663 236:0.181061 237:0.040532898 238:0.01454 239:0.40675899 240:0.152872 241:0.00459093 242:0.022678301 243:0.057663798 244:0.0316112 245:0.0145126 246:0.023798499 247:0.096140198 248:0.40675899 249:0.30656299 250:0.0254969 251:0.0261457 252:0.027851701 253:0.082524799 254:0.19970401 255:0.28831199 256:0.158667 257:0.131909 258:0.096516401 259:0.069471203 260:0.082342602 261:0.121669 262:0.120236 263:0.33971301 264:0.33971301 265:0.180235 266:0.113335 267:0.049844898 268:0.0260396 269:0.050561301 270:0.0623332 271:0.094508998 272:0.190317 273:0.246364 274:0.203776 275:0.146193 276:0.094185703 277:0.046723299 278:0.080872998 279:0.131192 280:0.12146 281:0.33971301 282:0.33971301 283:0.114046 284:0.082660101 285:0.039283302 286:0.041140102 287:0.102168 288:0.075257502 289:0.20148399 290:0.324534 291:0.324534 292:0.047842801 293:0.0448444 294:0.0140348 295:0.0062326202 296:0.0178505 297:0.077448599 298:0.28526601 299:0.324534 300:0.175735 301:0.015306 302:0.055962902 303:0.048309602 304:0.035353299 305:0.053809401 306:0.0846797 307:0.133653 308:0.324534 309:0.297887 310:0.0223292 311:0.028547401 312:0.0125424 313:0.0118292 314:0.0485944 315:0.036031101 316:0.24035899 317:0.324534 318:0.324534 319:0.0049257502 320:0.0141448 321:0.013124 322:0.0253614 323:0.110183 324:0.035750501 325:0.267535 326:0.34477901 327:0.055640001 328:0.0051146499 329:0.0221377 330:0.0250885 331:0.045322899 332:0.0616225 333:0.056392901 334:0.34477901 335:0.34477901 336:0.111347 337:0.0062315702 338:0.0103547 339:0.0049518701 340:0.0175486 341:0.032510899 342:0.092099003 343:0.27608201 344:0.34477901 345:0.21467701 346:0.0026316701 347:0.016341001 348:0.014492 349:0.0374154 350:0.084045298 351:0.0546504 352:0.34477901 353:0.34477901 354:0.187509 355:0.0075475099 356:0.0199867 357:0.018115999 358:0.022493299 359:0.0162169 360:0.071419097 361:0.34647799 362:0.34647799 363:0.134184 364:0.0085086003 365:0.0089047598 366:0.0042681801 367:0.00901601 368:0.0183158 369:0.109711 370:0.34647799 371:0.34647799 372:0.17750999 373:0.0164061 374:0.0153462 375:0.0117507 376:0.0078879697 377:0.0121595 378:0.091206297 379:0.33341199 380:0.34647799 381:0.122451 382:0.010859 383:0.0167714 384:0.0076263198 385:0.00757071 386:0.00568101 387:0.061431099 388:0.25802499 389:0.34647799 390:0.074282199 391:0.00622604 392:0.0106855 393:0.00180975 394:0.0059645199 395:0.0059579602 396:0.046318501 397:0.41476199 398:0.41476199 399:0.22994199 400:0.0156365 401:0.021547301 402:0.0101997 403:0.0056291502 404:0.00579035 405:0.089719303 406:0.41476199 407:0.41476199 408:0.16687199 409:0.0052336799 410:0.0193276 411:0.0085382303 412:0.0109435 413:0.0093526002 414:0.099284001 415:0.25524199 416:0.32591701 417:0.067414798 418:0.0066947099 419:0.0155775 420:0.0031425201 421:0.00704175 422:0.0079912404 423:0.044347499 424:0.11111 425:0.115245 426:0.036391199 427:0.0088909203 428:0.0211429 429:0.0043076202 430:0.0111432 431:0.0151939 432:0.037626099 433:0.44504899 434:0.44504899 435:0.167822 436:0.0117706 437:0.045829099 438:0.0129001 439:0.0174405 440:0.021285299 441:0.145216 442:0.23636299 443:0.33326399 444:0.070501201 445:0.0133934 446:0.41224301 447:0.089619599 448:0.0117045 449:0.0157225 450:0.0709842 451:0.069573402 452:0.080607504 453:0.036796398 454:0.016586499 455:0.044360898 456:0.0055220402 457:0.0241108 458:0.040090598 459:0.0545366 460:0.038086899 461:0.037229799 462:0.036721699 463:0.0245867 464:0.39717999 465:0.071100697 466:0.029939801 467:0.037570398 468:0.038584799 469:0.0148051 470:0.0150991 471:0.0031204701 472:0.0124667 473:0.447763 474:0.125045 475:0.00398272 476:0.0023652001 477:0.0060200398 478:0.0109797 479:0.000174927 480:0.017811 481:0.034991901 482:0.447763 483:0.271577 484:0.020755099 485:0.0213589 486:0.0136304 487:0.00741133 488:0.0053378898 489:0.0097586 490:0.0189211 491:0.447763 492:0.104607 493:0.0072237798 494:0.0057487902 495:0.0056712502 496:0.017047901 497:0.0023485301 498:0.0238418 499:0.062263399 500:0.447763 501:0.25837499 502:0.102591 503:0.079977497 504:0.0273817 505:0.084786199 506:0.061517499 507:0.093368098 508:0.086195096 509:0.086449303 510:0.0468201 511:0.123442 512:0.28736201 513:0.20953 514:0.191659 515:0.28736201 516:0.088334598 517:0.024108799 518:0.0172076 519:0.018084001 520:0.064113297 521:0.20482101 522:0.151237 523:0.065173998 524:0.0170699 525:0.057920001 526:0.0896658 527:0.13927799 528:0.099928297 529:0.28736201 530:0.28736201 531:0.276218 532:0.28736201 533:0.241538 534:0.054315899 535:0.0117481 536:0.075031601 537:0.0575931 538:0.128447 539:0.28736201 540:0.28736201 541:0.211695 542:0.32277399 543:0.164462 544:0.0094951997 545:0.0098114302 546:0.0080889799 547:0.016057501 548:0.069593802 549:0.073858999 550:0.16037001 551:0.32277399 552:0.32277399 553:0.0160373 554:0.0163296 555:0.0194466 556:0.0275653 557:0.090068698 558:0.0334423 559:0.32277399 560:0.32277399 561:0.122317 562:0.072000697 563:0.0975485 564:0.059554599 565:0.128709 566:0.160723 567:0.226411 568:0.232831 569:0.32277399 570:0.157015 571:0.110547 572:0.050424501 573:0.036035001 574:0.100466 575:0.0738976 576:0.122668 577:0.124439 578:0.34065899 579:0.297185 580:0.0216251 581:0.035489298 582:0.0407972 583:0.043838002 584:0.0591801 585:0.027206199 586:0.214452 587:0.34065899 588:0.230102 589:0.0199217 590:0.051897101 591:0.057839502 592:0.034802102 593:0.0144868 594:0.112531 595:0.101571 596:0.25845999 597:0.19953901 598:0.092698298 599:0.085879199 600:0.062291399 601:0.080319703 602:0.054444999 603:0.056895699 604:0.15362 605:0.34065899 606:0.34065899 607:0.0801614 608:0.119885 609:0.085702799 610:0.201122 611:0.174997 612:0.16532999 613:0.187562 614:0.225751 615:0.076619402 616:0.0084333504 617:0.024749801 618:0.015679801 619:0.0087249801 620:0.028749401 621:0.27455801 622:0.178461 623:0.0521436 624:0.0132993 625:0.0039829002 626:0.0104066 627:0.0039264001 628:0.0069835801 629:0.050974499 630:0.36337101 631:0.24292301 632:0.36337101 633:0.184783 634:0.016240001 635:0.0512852 636:0.030431701 637:0.067995399 638:0.102517 639:0.36337101 640:0.36337101 641:0.047819 642:0.0180078 643:0.0177943 644:0.0294572 645:0.0105103 646:0.0105256 647:0.115297 648:0.36337101 649:0.131364 650:0.0070396401 651:0.0054983902 652:0.00289487 653:0.00610193 654:0.0030110299 655:0.0059220102 656:0.0432688 657:0.32969299 658:0.109968 659:0.0140453 660:0.0082579898 661:0.0062125102 662:0.0063226698 663:0.000431444 664:0.0037757501 665:0.035811901 666:0.263513 667:0.42326301 668:0.0100014 669:0.0107388 670:0.0126743 671:0.0082773203 672:0.00191748 673:0.00541597 674:0.13683499 675:0.43446699 676:0.43446699 677:0.0155636 678:0.0098810298 679:0.0127825 680:0.0243314 681:0.00201784 682:0.0065660099 683:0.13679101 684:0.43446699 685:0.087427199 686:0.0162028 687:0.0093636196 688:0.0045709298 689:0.0075942199 690:0.00065782998 691:0.0075801099 692:0.022604501 693:0.196026 694:0.050605498 695:0.0093411403 696:0.0127918 697:0.0055004 698:0.111005 699:0.014901 700:0.016026299 701:0.019555699 702:0.084451698 703:0.43306199 704:0.146238 705:0.111034 706:0.039340101 707:0.063324697 708:0.0038153799 709:0.0172436 710:0.158703 711:0.43306199 712:0.259321 713:0.250043 714:0.188612 715:0.118561 716:0.29058 717:0.0088048903 718:0.072991997 719:0.16972899 720:0.43306199 721:0.0109751 722:0.0069078598 723:0.0128408 724:0.016694199 725:0.40846401 726:0.095752202 727:0.0100807 728:0.0070313402 729:0.0130185 730:0.0307208 731:0.0136022 732:0.050727401 733:0.063705496 734:0.40846401 735:0.238086 736:0.25023401 737:0.11372 738:0.042831 739:0.037175901 740:0.053280599 741:0.047965702 742:0.080006398 743:0.40846401 744:0.127545 745:0.0403759 746:0.0338942 747:0.103108 748:0.0630643 749:0.054253999 750:0.111236 751:0.110095 752:0.40846401 753:0.259442 754:0.17870601 755:0.042941201 756:0.038874801 757:0.0326856 758:0.0112321 759:0.039817002 760:0.067109503 761:0.079981297 762:0.083995998 763:0.257099 764:0.136522 765:0.084409803 766:0.12673201 767:0.055140801 768:0.044010799 769:0.041636299 770:0.086795598 771:0.077071302 772:0.13245399 773:0.13762701 774:0.168219 775:0.257099 776:0.257099 777:0.161217 778:0.118763 779:0.127009 780:0.121223 781:0.257099 782:0.178192 783:0.218229 784:0.229568 785:0.20072199 786:0.112674 787:0.20606899 788:0.257099 789:0.20316499 790:0.25544801 791:0.257099 792:0.219826 793:0.200065 794:0.078199103 795:0.041265398 796:0.080225103 797:0.097763702 798:0.100678 799:0.231282 800:0.174758 801:0.20107 802:0.140231 803:0.054984901 804:0.017861901 805:0.071067497 806:0.0307815 807:0.044018 808:0.209141 809:0.166168 810:0.161245 811:0.112574 812:0.053216498 813:0.034395799 814:0.176727 815:0.228861 816:0.24815799 817:0.28933001 818:0.28933001 819:0.26669601 820:0.080499098 821:0.041881099 822:0.0120634 823:0.0317269 824:0.032685399 825:0.091431201 826:0.28933001 827:0.28933001 828:0.28933001 829:0.099169798 830:0.072663501 831:0.071872696 832:0.044316601 833:0.0472394 834:0.043324102 835:0.142185 836:0.162102 837:0.099658802 838:0.092429698 839:0.281562 840:0.21359099 841:0.045705501 842:0.070416301 843:0.060312301 844:0.34512201 845:0.34512201 846:0.0797676 847:0.089502297 848:0.0238663 849:0.0064662402 850:0.0031766 851:0.0088250097 852:0.0148402 853:0.28142801 854:0.34512201 855:0.182511 856:0.085389301 857:0.022437699 858:0.00566357 859:0.0035240101 860:0.0115189 861:0.0150335 862:0.34512201 863:0.34512201 864:0.19518401 865:0.078263901 866:0.12556 867:0.0700671 868:0.0128833 869:0.0469299 870:0.0312085 871:0.29542601 872:0.272232 873:0.21684 874:0.145465 875:0.0186393 876:0.0180021 877:0.0226072 878:0.042618699 879:0.038070101 880:0.055151999 881:0.099548303 882:0.29542601 883:0.067204803 884:0.0070390902 885:0.0033670899 886:0.00487271 887:0.052932099 888:0.040578801 889:0.29542601 890:0.29542601 891:0.29542601 892:0.108177 893:0.0151656 894:0.024340199 895:0.023550401 896:0.29542601 897:0.29542601 898:0.169716 899:0.24098399 900:0.29542601 901:0.174971 902:0.0131558 903:0.0182037 904:0.018028701 905:0.024426799 906:0.0188416 907:0.011131 908:0.0599714 909:0.34764001 910:0.24868 911:0.024605 912:0.019844299 913:0.029560899 914:0.064439602 915:0.022368601 916:0.0302654 917:0.065457799 918:0.34764001 919:0.140994 920:0.064726099 921:0.085988201 922:0.034351598 923:0.34764001 924:0.253894 925:0.057057202 926:0.091101199 927:0.32962301 928:0.26872599 929:0.064201802 930:0.071259603 931:0.029910799 932:0.26473001 933:0.069467403 934:0.0411915 935:0.16493601 936:0.34764001 937:0.130686 938:0.15446199 939:0.118385 940:0.0463784 941:0.086818002 942:0.0269068 943:0.143417 944:0.10008 945:0.29937801 946:0.082461096 947:0.25406399 948:0.182374 949:0.081596904 950:0.14466199 951:0.0271316 952:0.213664 953:0.13372999 954:0.246783 955:0.146872 956:0.0755722 957:0.0487515 958:0.0302667 959:0.0636013 960:0.043164302 961:0.27982101 962:0.219431 963:0.29937801 964:0.120906 965:0.119699 966:0.067075104 967:0.063462399 968:0.110817 969:0.080403797 970:0.29937801 971:0.25696599 972:0.29937801 973:0.0264933 974:0.083148301 975:0.085169502 976:0.13754 977:0.323818 978:0.18562201 979:0.091978602 980:0.0480984 981:0.0583257 982:0.035492599 983:0.047252499 984:0.113787 985:0.16834299 986:0.323818 987:0.237921 988:0.052722901 989:0.0231492 990:0.0279944 991:0.052029401 992:0.0376775 993:0.060824499 994:0.154484 995:0.323818 996:0.31504899 997:0.282296 998:0.087147497 999:0.110112 1000:0.040443499 1001:0.0202673 1002:0.10273 1003:0.17709599 1004:0.323818 1005:0.323818 1006:0.069605596 1007:0.0595471 1008:0.0431256 1009:0.22833601 1010:0.187243 1011:0.122077 1012:0.076151103 1013:0.128308 1014:0.124127 1015:0.20599 1016:0.106882 1017:0.097117499 1018:0.104404 1019:0.10232 1020:0.0527962 1021:0.097013697 1022:0.23842099 1023:0.26214799 1024:0.26214799 1025:0.20103399 1026:0.11375 1027:0.094153598 1028:0.0797702 1029:0.129243 1030:0.100988 1031:0.113119 1032:0.16353101 1033:0.26214799 1034:0.223364 1035:0.10893 1036:0.15620001 1037:0.061137099 1038:0.082950301 1039:0.064461999 1040:0.147478 1041:0.26214799 1042:0.26214799 1043:0.26214799 1044:0.184065 1045:0.024351601 1046:0.0258673 1047:0.0140298 1048:0.090972401 1049:0.161945 1050:0.27191901 1051:0.27191901 1052:0.220415 1053:0.130409 1054:0.0400979 1055:0.029769201 1056:0.0101903 1057:0.034001902 1058:0.0533606 1059:0.154443 1060:0.18416999 1061:0.27191901 1062:0.158557 1063:0.129048 1064:0.0793266 1065:0.076854497 1066:0.079849802 1067:0.17270499 1068:0.27191901 1069:0.27191901 1070:0.223533 1071:0.16917101 1072:0.102075 1073:0.081643403 1074:0.040043801 1075:0.080999002 1076:0.104694 1077:0.27191901 1078:0.25505301 1079:0.27191901 1080:0.20913 1081:0.061937701 1082:0.017271399 1083:0.0048298398 1084:0.00851647 1085:0.016999099 1086:0.035877898 1087:0.26914099 1088:0.314338 1089:0.16713899 1090:0.0369321 1091:0.0092835203 1092:0.0034491499 1093:0.0058808299 1094:0.0078931497 1095:0.0174782 1096:0.31158701 1097:0.314338 1098:0.158647 1099:0.107636 1100:0.064856596 1101:0.035501301 1102:0.069182299 1103:0.060087599 1104:0.147295 1105:0.314338 1106:0.314338 1107:0.23245101 1108:0.047973301 1109:0.0296822 1110:0.044766899 1111:0.041464999 1112:0.044555999 1113:0.073599003 1114:0.314338 1115:0.314338 1116:0.24129701 1117:0.0328306 1118:0.0046120998 1119:0.0046985899 1120:0.0047558299 1121:0.052457601 1122:0.0297057 1123:0.170545 1124:0.29155999 1125:0.21308599 1126:0.072124802 1127:0.0088130804 1128:0.031943802 1129:0.023077101 1130:0.30572101 1131:0.30572101 1132:0.150598 1133:0.234318 1134:0.27598599 1135:0.051996902 1136:0.016143201 1137:0.02063 1138:0.0122842 1139:0.029906601 1140:0.0149055 1141:0.219317 1142:0.30572101 1143:0.19717699 1144:0.095292799 1145:0.0084391097 1146:0.0267644 1147:0.01145 1148:0.14701299 1149:0.10952 1150:0.271164 1151:0.30572101 1152:0.29908001 1153:0.137467 1154:0.047387701 1155:0.123527 1156:0.0438703 1157:0.31589901 1158:0.29435501 1159:0.079918802 1160:0.120853 1161:0.31589901 1162:0.196603 1163:0.0431487 1164:0.089566 1165:0.021702699 1166:0.31589901 1167:0.069090597 1168:0.0131676 1169:0.097651199 1170:0.31589901 1171:0.13911299 1172:0.0140035 1173:0.087352403 1174:0.018386699 1175:0.243267 1176:0.096036203 1177:0.178332 1178:0.31589901 1179:0.31589901 1180:0.066649698 1181:0.0103824 1182:0.0606387 1183:0.0113676 1184:0.15659299 1185:0.0239172 1186:0.047816399 1187:0.091826402 1188:0.129411 1189:0.29452601 1190:0.024736401 1191:0.0106011 1192:0.0062699602 1193:0.035893202 1194:0.0280062 1195:0.17114399 1196:0.26545599 1197:0.43402901 1198:0.305132 1199:0.040713798 1200:0.0106507 1201:0.081760101 1202:0.17582899 1203:0.082960904 1204:0.43402901 1205:0.26773101 1206:0.43402901 1207:0.041071001 1208:0.0037909099 1209:0.0080366498 1210:0.00184033 1211:0.031119701 1212:0.0032462601 1213:0.0117397 1214:0.0259354 1215:0.088272803 1216:0.062456701 1217:0.0065307701 1218:0.0111242 1219:0.018624 1220:0.054361399 1221:0.0084541896 1222:0.015954999 1223:0.0174463 1224:0.103891 1225:0.067488499 1226:0.00795535 1227:0.0151207 1228:0.084624097 1229:0.41064 1230:0.160833 1231:0.136904 1232:0.039851401 1233:0.138273 1234:0.032062501 1235:0.00189621 1236:0.038328201 1237:0.115171 1238:0.41064 1239:0.30447701 1240:0.0221221 1241:0.0299612 1242:0.033295698 1243:0.018580399 1244:0.0039822301 1245:0.0078813499 1246:0.059905801 1247:0.41064 1248:0.093549497 1249:0.0154715 1250:0.0076345401 1251:0.0238284 1252:0.079807401 1253:0.0155895 1254:0.035110299 1255:0.18085399 1256:0.41064 1257:0.273974 1258:0.0356021 1259:0.0171343 1260:0.047960401 1261:0.064645097 1262:0.075068898 1263:0.24948899 1264:0.136081 1265:0.0585199 1266:0.093651399 1267:0.136016 1268:0.20366099 1269:0.101201 1270:0.160721 1271:0.058825899 1272:0.147329 1273:0.117795 1274:0.17750099 1275:0.24948899 1276:0.24948899 1277:0.24948899 1278:0.160882 1279:0.140544 1280:0.24948899 1281:0.24948899 1282:0.13749599 1283:0.0703656 1284:0.064474203 1285:0.058424201 1286:0.15948901 1287:0.092086896 1288:0.122888 1289:0.111515 1290:0.128176 1291:0.097339198 1292:0.234271 1293:0.23033001 1294:0.24948899 1295:0.24948899 1296:0.14165699 1297:0.12929 1298:0.0613706 1299:0.070269302 1300:0.079781599 1301:0.192656 1302:0.26246199 1303:0.26246199 1304:0.180566 1305:0.116273 1306:0.065842003 1307:0.082667902 1308:0.064222202 1309:0.107588 1310:0.142086 1311:0.26246199 1312:0.235108 1313:0.107272 1314:0.121342 1315:0.088015102 1316:0.0525079 1317:0.043989498 1318:0.0824432 1319:0.248346 1320:0.26246199 1321:0.26246199 1322:0.25499099 1323:0.106345 1324:0.062973902 1325:0.043965999 1326:0.051912099 1327:0.121259 1328:0.205643 1329:0.26246199 1330:0.26246199 1331:0.166722 1332:0.144778 1333:0.078968003 1334:0.144384 1335:0.124847 1336:0.139062 1337:0.124855 1338:0.20339701 1339:0.19266 1340:0.14134 1341:0.171059 1342:0.073090598 1343:0.121149 1344:0.128049 1345:0.062335402 1346:0.112892 1347:0.0662819 1348:0.156286 1349:0.26275599 1350:0.240802 1351:0.052083701 1352:0.111713 1353:0.102461 1354:0.119304 1355:0.178707 1356:0.26275599 1357:0.26275599 1358:0.220155 1359:0.190605 1360:0.18150701 1361:0.163993 1362:0.15926901 1363:0.073757298 1364:0.19956601 1365:0.14596701 1366:0.14844701 1367:0.238763 1368:0.239996 1369:0.073650099 1370:0.0397783 1371:0.040319402 1372:0.0276064 1373:0.073871702 1374:0.0074599902 1375:0.128878 1376:0.29049799 1377:0.20297299 1378:0.068008997 1379:0.0145115 1380:0.0149617 1381:0.0122491 1382:0.033809599 1383:0.0044316999 1384:0.22968601 1385:0.29049799 1386:0.23591299 1387:0.206315 1388:0.115554 1389:0.159205 1390:0.0834933 1391:0.25010601 1392:0.061750501 1393:0.0960747 1394:0.261502 1395:0.28506899 1396:0.179473 1397:0.107616 1398:0.141287 1399:0.140066 1400:0.187598 1401:0.055064701 1402:0.22454999 1403:0.29049799 1404:0.26633 1405:0.051432598 1406:0.0093708104 1407:0.0135379 1408:0.00714707 1409:0.0122571 1410:0.0119873 1411:0.25350201 1412:0.30169699 1413:0.20016301 1414:0.0303728 1415:0.00824848 1416:0.0113005 1417:0.0049244598 1418:0.0139008 1419:0.0100069 1420:0.181835 1421:0.30169699 1422:0.121328 1423:0.176653 1424:0.153707 1425:0.113763 1426:0.21579 1427:0.123323 1428:0.105966 1429:0.30169699 1430:0.30169699 1431:0.14426801 1432:0.17631599 1433:0.18020999 1434:0.101682 1435:0.120318 1436:0.0701923 1437:0.086315997 1438:0.30169699 1439:0.30169699 1440:0.17806 1441:0.027845301 1442:0.0072873202 1443:0.0027431 1444:0.00130228 1445:0.0122696 1446:0.0024514 1447:0.147173 1448:0.28439 1449:0.099243097 1450:0.022515999 1451:0.0173971 1452:0.0094572902 1453:0.0072037899 1454:0.023941901 1455:0.0075905402 1456:0.034563798 1457:0.047600001 1458:0.033310998 1459:0.117606 1460:0.094598599 1461:0.034308098 1462:0.0054279901 1463:0.030444199 1464:0.039064199 1465:0.41485301 1466:0.41485301 1467:0.36783201 1468:0.066005498 1469:0.036835801 1470:0.022126799 1471:0.0063603399 1472:0.0170711 1473:0.00256721 1474:0.344024 1475:0.41485301 1476:0.270886 1477:0.0104999 1478:0.0109507 1479:0.0099258497 1480:0.043210801 1481:0.422012 1482:0.085997097 1483:0.0151657 1484:0.0065139998 1485:0.0073547699 1486:0.134334 1487:0.0412133 1488:0.0533536 1489:0.212648 1490:0.422012 1491:0.21919601 1492:0.043080602 1493:0.055946101 1494:0.088176399 1495:0.0244157 1496:0.019076999 1497:0.0165971 1498:0.050401699 1499:0.422012 1500:0.078944303 1501:0.067092702 1502:0.158804 1503:0.053600099 1504:0.077385299 1505:0.025170401 1506:0.0265767 1507:0.178111 1508:0.422012 1509:0.229651 1510:0.0231905 1511:0.0565455 1512:0.082118198 1513:0.247068 1514:0.247068 1515:0.231236 1516:0.0876569 1517:0.079768799 1518:0.0434012 1519:0.057752199 1520:0.195067 1521:0.189088 1522:0.15611 1523:0.138586 1524:0.117689 1525:0.099779896 1526:0.17712601 1527:0.14197899 1528:0.14143699 1529:0.247068 1530:0.188501 1531:0.247068 1532:0.137657 1533:0.1707 1534:0.100301 1535:0.102396 1536:0.057871599 1537:0.071686901 1538:0.247068 1539:0.247068 1540:0.161447 1541:0.075855002 1542:0.190348 1543:0.18447 1544:0.165549 1545:0.11078 1546:0.15045001 1547:0.21289399 1548:0.15311199 1549:0.095387302 1550:0.059524499 1551:0.052340399 1552:0.078552797 1553:0.133487 1554:0.13388699 1555:0.206839 1556:0.243277 1557:0.201759 1558:0.079838797 1559:0.034451298 1560:0.051185898 1561:0.086036399 1562:0.117827 1563:0.19115099 1564:0.26574701 1565:0.26574701 1566:0.26574701 1567:0.15895601 1568:0.081180401 1569:0.061349198 1570:0.091011398 1571:0.059463799 1572:0.083282001 1573:0.245001 1574:0.26574701 1575:0.26574701 1576:0.138528 1577:0.0886278 1578:0.064081602 1579:0.074259698 1580:0.045640402 1581:0.106056 1582:0.26574701 1583:0.26574701 1584:0.26574701 1585:0.038110498 1586:0.019481599 1587:0.033537801 1588:0.071708702 1589:0.13398799 1590:0.246168 1591:0.262817 1592:0.236224 1593:0.25271699 1594:0.140388 1595:0.064599901 1596:0.080099203 1597:0.088929303 1598:0.15712801 1599:0.226356 1600:0.181657 1601:0.14251301 1602:0.167446 1603:0.14496 1604:0.054108899 1605:0.045236301 1606:0.0648605 1607:0.106862 1608:0.157472 1609:0.262817 1610:0.262817 1611:0.262817 1612:0.120084 1613:0.038176101 1614:0.031911001 1615:0.096963003 1616:0.178534 1617:0.246383 1618:0.215653 1619:0.24128699 1620:0.17109001 1621:0.18288299 1622:0.137778 1623:0.161999 1624:0.097105697 1625:0.160244 1626:0.135993 1627:0.15690701 1628:0.210016 1629:0.223655 1630:0.16168299 1631:0.195807 1632:0.242704 1633:0.20541599 1634:0.169129 1635:0.102993 1636:0.20930099 1637:0.227128 1638:0.19948301 1639:0.059556998 1640:0.081149198 1641:0.090093702 1642:0.114944 1643:0.13622101 1644:0.186846 1645:0.14723299 1646:0.199572 1647:0.121689 1648:0.090232097 1649:0.23978201 1650:0.242704 1651:0.17402799 1652:0.139669 1653:0.13357501 1654:0.133835 1655:0.15275501 1656:0.109096 1657:0.212602 1658:0.234667 1659:0.223451 1660:0.25004801 1661:0.17014 1662:0.110741 1663:0.166209 1664:0.127239 1665:0.061661199 1666:0.21754199 1667:0.224014 1668:0.171032 1669:0.15356 1670:0.13100401 1671:0.16577999 1672:0.25004801 1673:0.25004801 1674:0.12847801 1675:0.092900597 1676:0.159216 1677:0.18124101 1678:0.17554 1679:0.146919 1680:0.117816 1681:0.138399 1682:0.076313898 1683:0.041854698 1684:0.059085201 1685:0.061932798 1686:0.088745199 1687:0.139322 1688:0.229523 1689:0.223997 1690:0.21776401 1691:0.109645 1692:0.051586401 1693:0.055188801 1694:0.0530448 1695:0.0460294 1696:0.024461299 1697:0.053935301 1698:0.082222097 1699:0.318131 1700:0.318131 1701:0.21426 1702:0.0458625 1703:0.022589499 1704:0.0149403 1705:0.010052 1706:0.0132939 1707:0.0106962 1708:0.29853299 1709:0.318131 1710:0.226172 1711:0.0303944 1712:0.030120799 1713:0.053733598 1714:0.075699396 1715:0.141063 1716:0.15729 1717:0.238269 1718:0.318131 1719:0.143931 1720:0.042936798 1721:0.027984099 1722:0.0208518 1723:0.029958 1724:0.055614602 1725:0.050248198 1726:0.318131 1727:0.318131 1728:0.19942001 1729:0.066939801 1730:0.020744 1731:0.0085328398 1732:0.038151 1733:0.30032 1734:0.0465905 1735:0.196063 1736:0.32572401 1737:0.149151 1738:0.073538899 1739:0.019083399 1740:0.013218 1741:0.13256 1742:0.32572401 1743:0.144687 1744:0.054591101 1745:0.10008 1746:0.081859201 1747:0.100374 1748:0.0312341 1749:0.0114916 1750:0.035688501 1751:0.128858 1752:0.027682001 1753:0.32572401 1754:0.32572401 1755:0.220422 1756:0.14099 1757:0.0580393 1758:0.056850702 1759:0.14946701 1760:0.31531501 1761:0.063625403 1762:0.155673 1763:0.251102 1764:0.175303 #
