SVM-light Version V6.10
0 # kernel type
3 # kernel parameter -d 
1 # kernel parameter -g 
1 # kernel parameter -s 
1 # kernel parameter -r 
0# kernel parameter -u 
1764 # highest feature index 
728 # number of training documents 
143 # number of support vectors plus 1 
1.3024287 # threshold b, each following line is a SV (starting with alpha*y)
-0.0080468809371105377847843698191355 1:0.13044301 2:0.051379502 3:0.070364296 4:0.0150209 5:0.13363899 6:0.0085923504 7:0.021186801 8:0.0214168 9:0.139864 10:0.158094 11:0.077166297 12:0.0482192 13:0.050622299 14:0.185159 15:0.131303 16:0.097591303 17:0.235958 18:0.30398601 19:0.094291098 20:0.081680298 21:0.181136 22:0.111722 23:0.295082 24:0.053397499 25:0.044156399 26:0.055180199 27:0.115443 28:0.104644 29:0.193878 30:0.35633701 31:0.360479 32:0.38578099 33:0.17170499 34:0.061569601 35:0.098648898 36:0.138629 37:0.077608302 38:0.109832 39:0.0835682 40:0.055333 41:0.12575801 42:0.119003 43:0.084613197 44:0.25824901 45:0.179474 46:0.088098198 47:0.196017 48:0.151319 49:0.116787 50:0.104082 51:0.115262 52:0.095243499 53:0.19576199 54:0.109779 55:0.044866499 56:0.124335 57:0.18014801 58:0.30125499 59:0.43147799 60:0.16588899 61:0.046186801 62:0.072636001 63:0.074118502 64:0.0255158 65:0.069631003 66:0.122686 67:0.24562301 68:0.37518299 69:0.24311399 70:0.079700798 71:0.088804699 72:0.049070001 73:0.0649525 74:0.17929199 75:0.148909 76:0.133175 77:0.133816 78:0.138365 79:0.120858 80:0.100481 81:0.038904201 82:0.090443999 83:0.146805 84:0.090364598 85:0.067117304 86:0.133113 87:0.119919 88:0.175512 89:0.11265 90:0.079036497 91:0.0153508 92:0.036877301 93:0.068788998 94:0.1459 95:0.3003 96:0.271014 97:0.13293099 98:0.078686103 99:0.037028901 100:0.247143 101:0.47589499 102:0.106748 103:0.109301 104:0.31771299 105:0.211643 106:0.154678 107:0.082048804 108:0.16642 109:0.0132171 110:0.0118568 111:0.0072780699 112:0.0061615398 113:0.030595399 114:0.0107578 115:0.0267321 116:0.0280478 117:0.018066199 118:0.032946199 119:0.051285598 120:0.0182823 121:0.0232198 122:0.091790602 123:0.023460601 124:0.0279957 125:0.021768801 126:0.0133397 127:0.18559299 128:0.51391298 129:0.099530801 130:0.019814299 131:0.037266001 132:0.0235996 133:0.0223672 134:0.015383 135:0.049915001 136:0.51391298 137:0.51391298 138:0.35105699 139:0.0246918 140:0.073692001 141:0.0248813 142:0.034476899 143:0.0322407 144:0.047074098 145:0.059378099 146:0.14297999 147:0.0313683 148:0.0101144 149:0.019650999 150:0.0080331704 151:0.0076311501 152:0.0057566199 153:0.0089743696 154:0.192261 155:0.403083 156:0.13639601 157:0.017866399 158:0.0280931 159:0.025076 160:0.0202432 161:0.0151568 162:0.0307135 163:0.33941901 164:0.403083 165:0.22014301 166:0.0115101 167:0.023411799 168:0.0045509902 169:0.017805301 170:0.0109201 171:0.017867399 172:0.403083 173:0.403083 174:0.303002 175:0.038254101 176:0.0252159 177:0.0058790701 178:0.0226763 179:0.0098870499 180:0.042681001 181:0.227336 182:0.374033 183:0.19171099 184:0.01651 185:0.0413871 186:0.049331199 187:0.040195301 188:0.036480099 189:0.0414792 190:0.304234 191:0.374033 192:0.24766999 193:0.0092505896 194:0.0218715 195:0.046210699 196:0.0463247 197:0.0369156 198:0.037842501 199:0.28309101 200:0.374033 201:0.223167 202:0.036487799 203:0.0176562 204:0.0144435 205:0.022765599 206:0.015516 207:0.044819001 208:0.15711699 209:0.374033 210:0.127367 211:0.0145023 212:0.0103985 213:0.0152437 214:0.020899201 215:0.012337 216:0.031439502 217:0.27512199 218:0.39631701 219:0.23387299 220:0.027619001 221:0.0348721 222:0.0416409 223:0.050542999 224:0.026702501 225:0.046623301 226:0.103572 227:0.39631701 228:0.107724 229:0.098349199 230:0.39631701 231:0.137825 232:0.107504 233:0.104215 234:0.104275 235:0.0711281 236:0.264907 237:0.091418199 238:0.0508225 239:0.111314 240:0.032581601 241:0.022087799 242:0.018561499 243:0.0205027 244:0.0201366 245:0.0472739 246:0.072329298 247:0.16571499 248:0.39631701 249:0.064240597 250:0.044091899 251:0.033014402 252:0.0237638 253:0.018317999 254:0.059342898 255:0.113556 256:0.111862 257:0.218411 258:0.039262801 259:0.0239149 260:0.0305383 261:0.024390901 262:0.022766899 263:0.107511 264:0.212532 265:0.252489 266:0.31972599 267:0.089616098 268:0.041807801 269:0.031454802 270:0.015884699 271:0.028167199 272:0.0361613 273:0.092740402 274:0.135682 275:0.34119299 276:0.081967697 277:0.0246407 278:0.032712098 279:0.041268401 280:0.159244 281:0.34424299 282:0.221931 283:0.34100899 284:0.42715901 285:0.13732199 286:0.0805839 287:0.047428701 288:0.076092601 289:0.0029368501 290:0.0168644 291:0.037319899 292:0.078158103 293:0.126467 294:0.0303184 295:0.0078856098 296:0.00694237 297:0.00368037 298:0.0252051 299:0.057342101 300:0.0275812 301:0.063560501 302:0.089932904 303:0.033809502 304:0.0138038 305:0.015759099 306:0.0153541 307:0.20294499 308:0.47443101 309:0.109709 310:0.096692301 311:0.154419 312:0.046604902 313:0.019421401 314:0.0245299 315:0.027811101 316:0.49555501 317:0.49555501 318:0.35382199 319:0.071021102 320:0.0933946 321:0.033324901 322:0.020097701 323:0.036422301 324:0.056708299 325:0.056398001 326:0.13352001 327:0.025970001 328:0.0141811 329:0.020110199 330:0.0138149 331:0.0094817504 332:0.00580939 333:0.0127759 334:0.214911 335:0.413903 336:0.113848 337:0.0103919 338:0.0235564 339:0.0115544 340:0.0131272 341:0.0077017201 342:0.054223999 343:0.313678 344:0.413903 345:0.19019599 346:0.0147548 347:0.022498 348:0.0058884099 349:0.0079317596 350:0.017539 351:0.026937701 352:0.413903 353:0.413903 354:0.281959 355:0.017429 356:0.0328319 357:0.0045111901 358:0.0076586702 359:0.025231101 360:0.081847399 361:0.26010799 362:0.37207901 363:0.161779 364:0.0077530299 365:0.0132362 366:0.0077218902 367:0.0112134 368:0.0119141 369:0.054661699 370:0.33200201 371:0.37207901 372:0.21895701 373:0.0143929 374:0.0164873 375:0.0071292301 376:0.0119978 377:0.028264999 378:0.0354832 379:0.29568499 380:0.37207901 381:0.19903 382:0.0109336 383:0.021098601 384:0.0064272401 385:0.0095984396 386:0.021307301 387:0.062675402 388:0.18431699 389:0.37207901 390:0.122217 391:0.0146409 392:0.020666501 393:0.0070953299 394:0.0174958 395:0.0309292 396:0.035301302 397:0.40478799 398:0.40478799 399:0.31107 400:0.033082899 401:0.053872298 402:0.0064562298 403:0.0278678 404:0.031814002 405:0.034191299 406:0.326442 407:0.40478799 408:0.26942801 409:0.072912998 410:0.067858897 411:0.0109252 412:0.038669001 413:0.0149533 414:0.0432465 415:0.143235 416:0.25553501 417:0.096126303 418:0.0311401 419:0.059027001 420:0.00803026 421:0.020241201 422:0.0266652 423:0.037673801 424:0.110193 425:0.145695 426:0.139466 427:0.152981 428:0.141763 429:0.058913 430:0.0404034 431:0.0278414 432:0.059475001 433:0.27118099 434:0.27118099 435:0.243352 436:0.084735498 437:0.036396999 438:0.0277056 439:0.0550787 440:0.052867599 441:0.087435402 442:0.188998 443:0.210371 444:0.108851 445:0.0354621 446:0.0442774 447:0.049984101 448:0.084929504 449:0.090583399 450:0.089469001 451:0.27118099 452:0.21734899 453:0.219831 454:0.27118099 455:0.14129201 456:0.13678899 457:0.117234 458:0.099208198 459:0.16113301 460:0.195778 461:0.138219 462:0.172085 463:0.25322399 464:0.239411 465:0.13335501 466:0.21097 467:0.14737201 468:0.15464599 469:0.032090899 470:0.079339899 471:0.045308001 472:0.0808447 473:0.19629399 474:0.0573221 475:0.032092601 476:0.030789001 477:0.020384399 478:0.00793867 479:0.029075401 480:0.043676499 481:0.240897 482:0.51612598 483:0.076436304 484:0.024819 485:0.018882399 486:0.0097202603 487:0.021603899 488:0.043363899 489:0.067946799 490:0.147266 491:0.38223201 492:0.077255599 493:0.065721899 494:0.034600802 495:0.0304091 496:0.00375066 497:0.019000299 498:0.0237983 499:0.37038901 500:0.51612598 501:0.090218604 502:0.026017601 503:0.0082265604 504:0.0040834299 505:0.057735398 506:0.12943 507:0.0268771 508:0.0151144 509:0.0235257 510:0.0072435001 511:0.0050564301 512:0.0046517602 513:0.0153532 514:0.149608 515:0.42126599 516:0.100445 517:0.031729799 518:0.031795099 519:0.00991737 520:0.0080211097 521:0.00754424 522:0.026526 523:0.42126599 524:0.42126599 525:0.086987801 526:0.013618 527:0.0092279296 528:0.0142318 529:0.0088460101 530:0.0150103 531:0.16468801 532:0.37456 533:0.42126599 534:0.219541 535:0.023142399 536:0.0145937 537:0.0153215 538:0.0103443 539:0.0223564 540:0.0551771 541:0.233082 542:0.38696101 543:0.124483 544:0.025007499 545:0.0244848 546:0.00837244 547:0.00540026 548:0.015966101 549:0.025931399 550:0.36609301 551:0.38696101 552:0.202869 553:0.012091 554:0.022601699 555:0.0060485099 556:0.0051785498 557:0.0194709 558:0.019671001 559:0.24687301 560:0.38696101 561:0.166587 562:0.015934501 563:0.0119834 564:0.0084597999 565:0.0065649501 566:0.023052501 567:0.0270309 568:0.207534 569:0.38696101 570:0.11586 571:0.010904 572:0.0148149 573:0.0064498298 574:0.0134362 575:0.0198335 576:0.0227191 577:0.43432701 578:0.43432701 579:0.28039601 580:0.0166332 581:0.050054502 582:0.0041491902 583:0.0037896701 584:0.035246499 585:0.0266001 586:0.314161 587:0.43432701 588:0.205937 589:0.041010201 590:0.063153103 591:0.0142599 592:0.0029704 593:0.0440211 594:0.059170499 595:0.164304 596:0.32816499 597:0.090245202 598:0.016292101 599:0.0228293 600:0.00651877 601:0.0152094 602:0.022603801 603:0.0364847 604:0.088536598 605:0.152914 606:0.053093199 607:0.045520399 608:0.072257698 609:0.052452099 610:0.0175234 611:0.0295667 612:0.054101299 613:0.28803399 614:0.306402 615:0.19033401 616:0.047972102 617:0.056698699 618:0.032946799 619:0.0078640496 620:0.0453302 621:0.10981 622:0.22235499 623:0.223139 624:0.079739802 625:0.0214331 626:0.037184902 627:0.022175699 628:0.030581901 629:0.039935499 630:0.176274 631:0.24737801 632:0.20162 633:0.093600601 634:0.153712 635:0.199957 636:0.15730999 637:0.037629198 638:0.067822099 639:0.183705 640:0.306402 641:0.287586 642:0.083008401 643:0.171325 644:0.19359399 645:0.129462 646:0.108596 647:0.100445 648:0.306402 649:0.106145 650:0.0569879 651:0.032227099 652:0.014545 653:0.091382697 654:0.0270629 655:0.040730398 656:0.0249942 657:0.115876 658:0.15376499 659:0.0560406 660:0.088748597 661:0.177734 662:0.28354299 663:0.15343399 664:0.106375 665:0.132512 666:0.22976901 667:0.202434 668:0.13213 669:0.052387301 670:0.16699199 671:0.28354299 672:0.148109 673:0.14169 674:0.073209003 675:0.28069401 676:0.28354299 677:0.133525 678:0.13178401 679:0.155641 680:0.28354299 681:0.171248 682:0.177195 683:0.225449 684:0.27813599 685:0.195925 686:0.112824 687:0.129409 688:0.21304899 689:0.13620199 690:0.141579 691:0.096733198 692:0.110745 693:0.247813 694:0.140579 695:0.161323 696:0.222195 697:0.25740999 698:0.166494 699:0.0950021 700:0.077520803 701:0.078119598 702:0.171027 703:0.25740999 704:0.178486 705:0.176869 706:0.101812 707:0.072169997 708:0.110883 709:0.150001 710:0.181069 711:0.25740999 712:0.20689 713:0.19045299 714:0.20232899 715:0.15253299 716:0.089945503 717:0.088882498 718:0.107371 719:0.134618 720:0.235129 721:0.023332 722:0.046744902 723:0.074357301 724:0.144127 725:0.31416199 726:0.051757999 727:0.0208514 728:0.020075699 729:0.038932599 730:0.0092375698 731:0.0135536 732:0.029980199 733:0.32256299 734:0.469073 735:0.110193 736:0.0154161 737:0.0044284798 738:0.00663102 739:0.036536202 740:0.049957 741:0.063503399 742:0.103424 743:0.29031101 744:0.0907906 745:0.036038298 746:0.042730398 747:0.054323301 748:0.083617002 749:0.017314199 750:0.031996101 751:0.24059799 752:0.469073 753:0.280352 754:0.124973 755:0.085901402 756:0.14099801 757:0.33620301 758:0.33620301 759:0.0564675 760:0.016823599 761:0.0154458 762:0.0330691 763:0.025456199 764:0.027380999 765:0.197116 766:0.19050699 767:0.33620301 768:0.13844 769:0.023411199 770:0.015885601 771:0.039254401 772:0.0496765 773:0.048181001 774:0.0462742 775:0.33620301 776:0.0312608 777:0.021891501 778:0.0203963 779:0.019133899 780:0.0247782 781:0.066103503 782:0.16870201 783:0.33620301 784:0.117752 785:0.055874299 786:0.055057999 787:0.0232314 788:0.0230761 789:0.041599602 790:0.192678 791:0.33620301 792:0.33620301 793:0.291805 794:0.34598601 795:0.27806801 796:0.065162897 797:0.052894101 798:0.076444499 799:0.066487499 800:0.099390998 801:0.071524203 802:0.183644 803:0.22017901 804:0.112416 805:0.0538099 806:0.0411277 807:0.030503999 808:0.038222302 809:0.058022998 810:0.073109902 811:0.0812115 812:0.117813 813:0.109591 814:0.062047198 815:0.094330199 816:0.117925 817:0.34598601 818:0.34598601 819:0.34598601 820:0.062635198 821:0.074911103 822:0.034359802 823:0.0464748 824:0.074412197 825:0.0560611 826:0.17628101 827:0.255353 828:0.18824799 829:0.19540399 830:0.183212 831:0.097887799 832:0.037813 833:0.046665002 834:0.029648099 835:0.066416703 836:0.100273 837:0.15489601 838:0.184738 839:0.129169 840:0.086237401 841:0.129798 842:0.238956 843:0.35683399 844:0.166079 845:0.104094 846:0.165318 847:0.090951897 848:0.089609198 849:0.074676201 850:0.0272772 851:0.13682599 852:0.0650528 853:0.174373 854:0.23487 855:0.200958 856:0.231683 857:0.14864101 858:0.220138 859:0.19245601 860:0.31318301 861:0.18893 862:0.17440701 863:0.12732001 864:0.182648 865:0.135717 866:0.110757 867:0.040462401 868:0.094278403 869:0.12829401 870:0.216288 871:0.124499 872:0.114934 873:0.111299 874:0.24330001 875:0.286845 876:0.137463 877:0.15411299 878:0.15149599 879:0.13318799 880:0.144499 881:0.15718199 882:0.248475 883:0.257927 884:0.091962703 885:0.049698099 886:0.066168703 887:0.153975 888:0.112671 889:0.126766 890:0.11513 891:0.220716 892:0.286845 893:0.286845 894:0.107177 895:0.080712803 896:0.149304 897:0.081921503 898:0.100978 899:0.13831601 900:0.286845 901:0.100267 902:0.25209901 903:0.134627 904:0.186848 905:0.202057 906:0.089493901 907:0.082999401 908:0.060789 909:0.112492 910:0.257689 911:0.23487 912:0.10212 913:0.138945 914:0.157892 915:0.098368801 916:0.115268 917:0.120357 918:0.155945 919:0.203356 920:0.247729 921:0.133168 922:0.138033 923:0.149781 924:0.066522896 925:0.0616869 926:0.059776399 927:0.22734 928:0.257689 929:0.257689 930:0.104868 931:0.156247 932:0.081862397 933:0.069435202 934:0.166421 935:0.257689 936:0.247862 937:0.26166001 938:0.24484 939:0.129007 940:0.091306098 941:0.045626201 942:0.098896101 943:0.100372 944:0.128775 945:0.177209 946:0.193095 947:0.159576 948:0.16255701 949:0.141122 950:0.104837 951:0.123247 952:0.098768599 953:0.0932611 954:0.13300601 955:0.26166001 956:0.22048301 957:0.11138 958:0.117799 959:0.0862078 960:0.121663 961:0.141938 962:0.26166001 963:0.25925499 964:0.13816901 965:0.18722799 966:0.199057 967:0.166044 968:0.242488 969:0.200128 970:0.109148 971:0.144839 972:0.167788 973:0.0384617 974:0.065368399 975:0.123536 976:0.139899 977:0.223084 978:0.171069 979:0.080742203 980:0.040481102 981:0.067313597 982:0.125351 983:0.045777101 984:0.098703399 985:0.16567799 986:0.289978 987:0.289978 988:0.16540299 989:0.092602499 990:0.206177 991:0.032520398 992:0.123852 993:0.181858 994:0.172949 995:0.289978 996:0.172011 997:0.0581102 998:0.0304382 999:0.085745201 1000:0.19131801 1001:0.156358 1002:0.21292999 1003:0.289978 1004:0.289978 1005:0.19865499 1006:0.0723309 1007:0.0471071 1008:0.192332 1009:0.37302199 1010:0.0100106 1011:0.0204865 1012:0.032206599 1013:0.028229101 1014:0.0127893 1015:0.072130799 1016:0.26890901 1017:0.37302199 1018:0.13003901 1019:0.0217143 1020:0.0262853 1021:0.027241999 1022:0.037058402 1023:0.0184379 1024:0.304869 1025:0.37302199 1026:0.37302199 1027:0.071904697 1028:0.0080735404 1029:0.0199847 1030:0.046937201 1031:0.0576021 1032:0.029816899 1033:0.0279155 1034:0.0764971 1035:0.106235 1036:0.044465601 1037:0.0191426 1038:0.032611899 1039:0.048394401 1040:0.055633999 1041:0.036306299 1042:0.152803 1043:0.37302199 1044:0.20872299 1045:0.0308438 1046:0.0165418 1047:0.0197156 1048:0.018206701 1049:0.026309 1050:0.019461401 1051:0.21745799 1052:0.34786299 1053:0.26696301 1054:0.0209057 1055:0.031344298 1056:0.0148609 1057:0.020941099 1058:0.017886801 1059:0.0203465 1060:0.14469901 1061:0.34786299 1062:0.180603 1063:0.041900601 1064:0.0182453 1065:0.028823599 1066:0.0374429 1067:0.033187699 1068:0.019413801 1069:0.198948 1070:0.34786299 1071:0.25042599 1072:0.0374703 1073:0.0312769 1074:0.0219997 1075:0.028956899 1076:0.024804899 1077:0.0153183 1078:0.32925099 1079:0.34786299 1080:0.336887 1081:0.0200889 1082:0.031421501 1083:0.025188901 1084:0.025833299 1085:0.0265617 1086:0.0209355 1087:0.103611 1088:0.228495 1089:0.11641 1090:0.0376403 1091:0.023060299 1092:0.045236502 1093:0.033719599 1094:0.041184701 1095:0.0149667 1096:0.048351798 1097:0.086329304 1098:0.077017203 1099:0.067801803 1100:0.037340499 1101:0.038426202 1102:0.042881198 1103:0.0515218 1104:0.0184558 1105:0.40808499 1106:0.40808499 1107:0.38686299 1108:0.060531098 1109:0.0274495 1110:0.039475799 1111:0.023246 1112:0.054225501 1113:0.020168999 1114:0.290703 1115:0.40808499 1116:0.369973 1117:0.250063 1118:0.065050498 1119:0.0623153 1120:0.062782899 1121:0.15595999 1122:0.0172009 1123:0.075019501 1124:0.116639 1125:0.312098 1126:0.33819401 1127:0.0904973 1128:0.0439304 1129:0.0477167 1130:0.14764901 1131:0.0304315 1132:0.038866401 1133:0.074084401 1134:0.33819401 1135:0.0758572 1136:0.0421209 1137:0.036237702 1138:0.0066632298 1139:0.0802681 1140:0.033149298 1141:0.332533 1142:0.33819401 1143:0.33819401 1144:0.085319303 1145:0.029640401 1146:0.023601901 1147:0.0042393599 1148:0.0810427 1149:0.034037098 1150:0.1786 1151:0.242176 1152:0.217118 1153:0.199983 1154:0.105858 1155:0.084679797 1156:0.090178698 1157:0.11547 1158:0.0448015 1159:0.048107699 1160:0.041294001 1161:0.236173 1162:0.28808299 1163:0.22263101 1164:0.174869 1165:0.17157701 1166:0.083502702 1167:0.088382103 1168:0.181573 1169:0.27457801 1170:0.28808299 1171:0.059785999 1172:0.048924699 1173:0.065003604 1174:0.0614128 1175:0.074616998 1176:0.052916098 1177:0.069718301 1178:0.099828497 1179:0.082506299 1180:0.28808299 1181:0.28808299 1182:0.175202 1183:0.207572 1184:0.113581 1185:0.16029 1186:0.168706 1187:0.15163 1188:0.28808299 1189:0.24650501 1190:0.125579 1191:0.077874199 1192:0.109106 1193:0.088962197 1194:0.102034 1195:0.16989399 1196:0.27063 1197:0.27063 1198:0.101815 1199:0.0984568 1200:0.080738701 1201:0.127441 1202:0.27063 1203:0.17348 1204:0.135655 1205:0.13076399 1206:0.17538799 1207:0.27063 1208:0.192568 1209:0.067373298 1210:0.153272 1211:0.109228 1212:0.113818 1213:0.15316901 1214:0.15501501 1215:0.27063 1216:0.152171 1217:0.051657401 1218:0.037056301 1219:0.204155 1220:0.27063 1221:0.18426999 1222:0.103782 1223:0.081767403 1224:0.13857 1225:0.0186179 1226:0.047907401 1227:0.041768 1228:0.076763399 1229:0.27074501 1230:0.077935196 1231:0.026990401 1232:0.0094088996 1233:0.0269625 1234:0.126233 1235:0.097672202 1236:0.096626602 1237:0.407821 1238:0.407821 1239:0.110395 1240:0.0349654 1241:0.016398899 1242:0.092685699 1243:0.023321999 1244:0.017522501 1245:0.0138898 1246:0.110909 1247:0.29419801 1248:0.095867299 1249:0.0260996 1250:0.0124726 1251:0.0191088 1252:0.0230134 1253:0.035105102 1254:0.0311742 1255:0.407821 1256:0.407821 1257:0.260106 1258:0.030644599 1259:0.0212202 1260:0.0175054 1261:0.017678799 1262:0.029273599 1263:0.048101898 1264:0.17830899 1265:0.29370201 1266:0.187047 1267:0.0620142 1268:0.036537301 1269:0.0153575 1270:0.043026 1271:0.0831654 1272:0.121706 1273:0.272284 1274:0.35512301 1275:0.209984 1276:0.104126 1277:0.140517 1278:0.069246203 1279:0.0137362 1280:0.0251549 1281:0.048601501 1282:0.141936 1283:0.36987799 1284:0.188896 1285:0.053555802 1286:0.0390971 1287:0.015555 1288:0.034747802 1289:0.0617931 1290:0.138557 1291:0.33453801 1292:0.36987799 1293:0.199525 1294:0.068329297 1295:0.101909 1296:0.052745901 1297:0.036258899 1298:0.031605601 1299:0.062715396 1300:0.133908 1301:0.162708 1302:0.061281499 1303:0.114129 1304:0.33841801 1305:0.133203 1306:0.066895202 1307:0.033928201 1308:0.042138301 1309:0.074536003 1310:0.085954599 1311:0.0494776 1312:0.440622 1313:0.440622 1314:0.430246 1315:0.0155616 1316:0.0161693 1317:0.0568408 1318:0.193928 1319:0.26973599 1320:0.093453698 1321:0.033704098 1322:0.029410901 1323:0.020194 1324:0.0192277 1325:0.0137166 1326:0.046417698 1327:0.15739501 1328:0.169651 1329:0.078842901 1330:0.071892202 1331:0.074265704 1332:0.035854802 1333:0.031511299 1334:0.017204 1335:0.0138562 1336:0.0183635 1337:0.0213925 1338:0.0102219 1339:0.29218099 1340:0.37659001 1341:0.238226 1342:0.029493099 1343:0.0217115 1344:0.0136073 1345:0.0108968 1346:0.032069001 1347:0.0075424402 1348:0.37659001 1349:0.37659001 1350:0.37659001 1351:0.0111395 1352:0.0162168 1353:0.0116048 1354:0.0297281 1355:0.0264265 1356:0.0200432 1357:0.062152199 1358:0.164753 1359:0.068627499 1360:0.0167113 1361:0.0210653 1362:0.0088154897 1363:0.0171712 1364:0.0308017 1365:0.029804699 1366:0.238326 1367:0.37659001 1368:0.204818 1369:0.019617001 1370:0.0135324 1371:0.0046200198 1372:0.00215812 1373:0.0140981 1374:0.00729864 1375:0.242544 1376:0.35559601 1377:0.21302401 1378:0.020687699 1379:0.0110518 1380:0.0096696103 1381:0.0129893 1382:0.010553 1383:0.017393 1384:0.130253 1385:0.27150699 1386:0.118542 1387:0.0206057 1388:0.0123832 1389:0.0094426796 1390:0.0059908498 1391:0.0222783 1392:0.0268002 1393:0.32271901 1394:0.35559601 1395:0.250496 1396:0.039792601 1397:0.0110943 1398:0.0154184 1399:0.017570101 1400:0.017697699 1401:0.025892301 1402:0.35559601 1403:0.35559601 1404:0.32800901 1405:0.033280201 1406:0.0218028 1407:0.0182689 1408:0.0330531 1409:0.0306646 1410:0.051217798 1411:0.092899099 1412:0.214875 1413:0.109178 1414:0.122253 1415:0.103789 1416:0.0317224 1417:0.043804999 1418:0.044240899 1419:0.069235303 1420:0.070818797 1421:0.143086 1422:0.211211 1423:0.062650204 1424:0.022651 1425:0.0098397704 1426:0.0265723 1427:0.040543601 1428:0.060892299 1429:0.41391599 1430:0.41391599 1431:0.40679601 1432:0.088226102 1433:0.056889899 1434:0.0087722102 1435:0.0075966101 1436:0.026337 1437:0.044744201 1438:0.22514901 1439:0.41391599 1440:0.24995901 1441:0.32111701 1442:0.171189 1443:0.035205599 1444:0.081830703 1445:0.122838 1446:0.081393503 1447:0.116065 1448:0.15960699 1449:0.32111701 1450:0.248353 1451:0.0486864 1452:0.023642501 1453:0.172841 1454:0.32111701 1455:0.12549099 1456:0.072147802 1457:0.074170597 1458:0.23977099 1459:0.165307 1460:0.095966697 1461:0.024019999 1462:0.0064499001 1463:0.0448667 1464:0.048356201 1465:0.19153699 1466:0.32111701 1467:0.26137999 1468:0.090426698 1469:0.031306099 1470:0.019554701 1471:0.075767301 1472:0.22075 1473:0.030888399 1474:0.091332503 1475:0.25262299 1476:0.156087 1477:0.019944901 1478:0.0055834502 1479:0.0046198498 1480:0.090919398 1481:0.227883 1482:0.051780399 1483:0.0167579 1484:0.0103244 1485:0.020370901 1486:0.0127991 1487:0.0144766 1488:0.018553499 1489:0.45357299 1490:0.45357299 1491:0.221249 1492:0.026946001 1493:0.016796 1494:0.0164549 1495:0.0134738 1496:0.00315037 1497:0.0112856 1498:0.085980602 1499:0.256183 1500:0.025634799 1501:0.017026899 1502:0.0254599 1503:0.0190279 1504:0.022712899 1505:0.0060964199 1506:0.020562399 1507:0.38824099 1508:0.45357299 1509:0.186644 1510:0.0304035 1511:0.0078954501 1512:0.019381899 1513:0.0074421 1514:0.0100443 1515:0.0277189 1516:0.058852199 1517:0.163643 1518:0.057592701 1519:0.0267318 1520:0.0123357 1521:0.0095386496 1522:0.016103599 1523:0.025534 1524:0.087385699 1525:0.173071 1526:0.194684 1527:0.095970802 1528:0.038424399 1529:0.035802901 1530:0.027757199 1531:0.416713 1532:0.030026499 1533:0.0279378 1534:0.067793898 1535:0.135544 1536:0.0429786 1537:0.0220249 1538:0.0169941 1539:0.314154 1540:0.416713 1541:0.25272799 1542:0.323448 1543:0.117768 1544:0.14189599 1545:0.119228 1546:0.0771593 1547:0.0409506 1548:0.416713 1549:0.014176 1550:0.0134564 1551:0.042178199 1552:0.135803 1553:0.143318 1554:0.062088098 1555:0.0271559 1556:0.0130283 1557:0.0176818 1558:0.044564299 1559:0.019598 1560:0.0310618 1561:0.091726601 1562:0.10063 1563:0.043488801 1564:0.027223701 1565:0.0114565 1566:0.025188901 1567:0.31952199 1568:0.27011099 1569:0.28889501 1570:0.078499898 1571:0.077893503 1572:0.082635 1573:0.25205499 1574:0.0804841 1575:0.31952199 1576:0.31952199 1577:0.31952199 1578:0.23649301 1579:0.102572 1580:0.109592 1581:0.042648401 1582:0.282022 1583:0.097677499 1584:0.31952199 1585:0.065179199 1586:0.023331201 1587:0.0120146 1588:0.055403098 1589:0.072278999 1590:0.035022099 1591:0.020847401 1592:0.0303175 1593:0.073001698 1594:0.080058001 1595:0.033640198 1596:0.0111167 1597:0.071178302 1598:0.124069 1599:0.089285001 1600:0.103334 1601:0.146598 1602:0.135231 1603:0.27994099 1604:0.26582599 1605:0.107426 1606:0.203638 1607:0.263197 1608:0.060368799 1609:0.060635701 1610:0.079798304 1611:0.27994099 1612:0.27994099 1613:0.174438 1614:0.050482601 1615:0.27994099 1616:0.27994099 1617:0.242911 1618:0.20572799 1619:0.27994099 1620:0.27994099 1621:0.032248601 1622:0.0360208 1623:0.017550301 1624:0.0260491 1625:0.068376698 1626:0.071363002 1627:0.140232 1628:0.277367 1629:0.127444 1630:0.044002801 1631:0.029052099 1632:0.0215344 1633:0.016265901 1634:0.0294057 1635:0.0230186 1636:0.26894799 1637:0.33240801 1638:0.238104 1639:0.33240801 1640:0.0812907 1641:0.0339914 1642:0.084893197 1643:0.212108 1644:0.14353099 1645:0.11567 1646:0.25508299 1647:0.33240801 1648:0.33240801 1649:0.0701098 1650:0.033041202 1651:0.0222934 1652:0.036756199 1653:0.0144694 1654:0.037827902 1655:0.125848 1656:0.33240801 1657:0.029268799 1658:0.026343601 1659:0.0121762 1660:0.0142647 1661:0.0149023 1662:0.0127701 1663:0.219767 1664:0.310552 1665:0.143856 1666:0.061904602 1667:0.043996401 1668:0.020426 1669:0.0143483 1670:0.013847 1671:0.015905499 1672:0.21561401 1673:0.310552 1674:0.13876601 1675:0.310552 1676:0.12653001 1677:0.038228702 1678:0.0309742 1679:0.015990401 1680:0.0103425 1681:0.069795102 1682:0.21183801 1683:0.237573 1684:0.310552 1685:0.30408999 1686:0.179372 1687:0.029429801 1688:0.023541501 1689:0.023686901 1690:0.230038 1691:0.310552 1692:0.25748801 1693:0.067297898 1694:0.038484 1695:0.024076199 1696:0.0097749298 1697:0.0238351 1698:0.0290484 1699:0.194253 1700:0.31998801 1701:0.119681 1702:0.0342618 1703:0.0181992 1704:0.019234501 1705:0.032601502 1706:0.043085899 1707:0.0319735 1708:0.088267297 1709:0.22938301 1710:0.063759103 1711:0.31232101 1712:0.199451 1713:0.173362 1714:0.0280752 1715:0.0607737 1716:0.124293 1717:0.31998801 1718:0.31998801 1719:0.31332901 1720:0.169539 1721:0.055267502 1722:0.058510602 1723:0.064627104 1724:0.120528 1725:0.213607 1726:0.234264 1727:0.31998801 1728:0.129887 1729:0.0271916 1730:0.021031 1731:0.032997999 1732:0.104141 1733:0.174989 1734:0.0303654 1735:0.0346235 1736:0.104042 1737:0.0389283 1738:0.0293191 1739:0.015564 1740:0.048917402 1741:0.34275001 1742:0.410882 1743:0.245354 1744:0.033583101 1745:0.0112068 1746:0.032791302 1747:0.067390598 1748:0.042410798 1749:0.044227 1750:0.092080504 1751:0.15573099 1752:0.108509 1753:0.070252798 1754:0.24295899 1755:0.074033998 1756:0.0795082 1757:0.062838003 1758:0.112713 1759:0.33292401 1760:0.410882 1761:0.32358599 1762:0.183341 1763:0.075229399 1764:0.128492 #
-0.0089254263609225316378203984868378 1:0 2:0 3:0.00194405 4:0.00399668 5:0.0288243 6:0.0064248601 7:0.0165803 8:0.0037400799 9:0 10:0.157392 11:0.033217501 12:0.119022 13:0.16112 14:0.57949698 15:0.628097 16:0.33371699 17:0.080339901 18:0.208211 19:0 20:0 21:0 22:0 23:0.00072050001 24:0 25:0.00020455501 26:6.8358902e-05 27:0 28:0.0544824 29:0.0073656901 30:0.0140271 31:0.0072411802 32:0.0707312 33:0.042319801 34:0.0106612 35:0.0133013 36:0.066210002 37:0.060231101 38:0.016111 39:0.052456699 40:0.137318 41:0.16873001 42:0.089876197 43:0.0481527 44:0.024878999 45:0.065740198 46:0.045034301 47:0.0136848 48:0.039857499 49:0.247379 50:0.437998 51:0.097142301 52:0.0328134 53:0.053666599 54:0.071956098 55:0.019691801 56:0.0062920698 57:0.0317594 58:0.129381 59:0.17385601 60:0.020398799 61:0.0079629002 62:0.0151246 63:0.025861001 64:0.020221701 65:0.0105394 66:0.11984 67:0.50119603 68:0.55413598 69:0.13516299 70:0.052110501 71:0.061816599 72:0.044953 73:0.0036168401 74:0.00099623494 75:0.0036627899 76:0.201014 77:0.439473 78:0.062244698 79:0.0129248 80:0.0124428 81:0.0112675 82:0.0103646 83:0.0056079999 84:0.0066750101 85:0.187031 86:0.439473 87:0.0286627 88:0.0283492 89:0.0118509 90:0.0085867597 91:0.00602241 92:0.0023936699 93:0.035395201 94:0.28264099 95:0.439473 96:0.082993597 97:0.020278299 98:0.0154042 99:0.0088020004 100:0.11065 101:0.136784 102:0.050178301 103:0.125963 104:0.439473 105:0.038341299 106:0.0317972 107:0.0096720299 108:0.0244139 109:0.0103782 110:0.0091127399 111:0.0091674104 112:0.0247779 113:0.088429801 114:0.0089343097 115:0.019095801 116:0.0074505801 117:0.0075666802 118:0.034379601 119:0.035065498 120:0.0158315 121:0.010515 122:0.085035503 123:0.020857399 124:0.0196441 125:0.00698752 126:0.013164 127:0.28493801 128:0.43270299 129:0.13487799 130:0.0103301 131:0.086812899 132:0.0168723 133:0.019329401 134:0.0055843601 135:0.037416801 136:0.50466299 137:0.50466299 138:0.393264 139:0.0153751 140:0.067473203 141:0.016700501 142:0.0124434 143:0.00304014 144:0.095099099 145:0.0510283 146:0.087457202 147:0.0309432 148:0.0051516299 149:0.021661 150:0.0075275898 151:0.0051174401 152:0.0024925999 153:0.016298899 154:0.213882 155:0.38723299 156:0.121833 157:0.0078460602 158:0.0247129 159:0.013662 160:0.0060682599 161:0.00160082 162:0.047667999 163:0.38873199 164:0.38873199 165:0.211226 166:0.0048282198 167:0.0138305 168:0.0028631999 169:0.0048244898 170:0.00375977 171:0.065008998 172:0.38873199 173:0.38873199 174:0.32465899 175:0.0063902601 176:0.0061223302 177:0.0040465598 178:0.00456418 179:0.0087784501 180:0.105831 181:0.24650501 182:0.33340299 183:0.13523901 184:0.0040166201 185:0.0141936 186:0.0081572495 187:0.0039784098 188:0.0017882599 189:0.038108699 190:0.33340299 191:0.33340299 192:0.23964401 193:0.0085105803 194:0.0106533 195:0.00133749 196:0.00125255 197:0.00236593 198:0.045965701 199:0.33340299 200:0.33340299 201:0.19501001 202:0.0073434198 203:0.00405009 204:0.00244423 205:0.00112063 206:0.0055748099 207:0.063872099 208:0.33340299 209:0.33340299 210:0.17436001 211:0.0235996 212:0.0299682 213:0.00371412 214:0.00098572799 215:0.00554692 216:0.062433299 217:0.31953299 218:0.31953299 219:0.19050799 220:0.029967001 221:0.065120101 222:0.011882 223:0.000378667 224:0.00356626 225:0.081905603 226:0.215653 227:0.31953299 228:0.077107601 229:0.197483 230:0.31953299 231:0.037847102 232:0.027402099 233:0.021875201 234:0.079773799 235:0.202601 236:0.297326 237:0.088145703 238:0.19201399 239:0.217246 240:0.023242099 241:0.00091275602 242:0.0034681801 243:0.0571246 244:0.055844799 245:0.060663801 246:0.016517101 247:0.31953299 248:0.31953299 249:0.0432062 250:0.00304849 251:0.0034518 252:0.036965501 253:8.7180597e-05 254:0 255:0 256:0 257:0 258:0 259:0 260:0 261:8.7180597e-05 262:0.00081722002 263:0.000110321 264:0.00798654 265:0.0124371 266:0.0152994 267:0 268:0 269:0 270:0.00081722002 271:0.111136 272:0.054805201 273:0.0129177 274:0.0013457499 275:0.0029933699 276:0 277:0 278:0 279:0.019598899 280:0.68079001 281:0.68079001 282:0.177834 283:0.059739001 284:0.0267011 285:0 286:0.0059567099 287:0.0019906301 288:0.118058 289:0.0023796901 290:0.0019858601 291:0.0131791 292:0.034389801 293:0.0406905 294:0.0034285099 295:0.0045088301 296:0.0024277701 297:0.00115517 298:0.065640502 299:0.070179999 300:0.0539116 301:0.101411 302:0.117785 303:0.016346401 304:0.0266959 305:0.0188687 306:0.0074079498 307:0.38732299 308:0.46413901 309:0.125994 310:0.050310601 311:0.022466701 312:0.0023225001 313:0.00495695 314:0.0042118998 315:0.049718902 316:0.46413901 317:0.46413901 318:0.34053501 319:0.056803901 320:0.0423356 321:0.0059993202 322:0.018768899 323:0.024787599 324:0.122087 325:0.086344197 326:0.15320501 327:0.0490622 328:0.0568088 329:0.0939494 330:0.010197 331:0.0068478198 332:0.0050929999 333:0.0087340102 334:0.24462099 335:0.37804401 336:0.13262001 337:0.026501801 338:0.066618003 339:0.0082599605 340:0.0031147299 341:0.00113564 342:0.033279501 343:0.37804401 344:0.37804401 345:0.21708301 346:0.020816101 347:0.026207 348:0.00414248 349:0.0047620698 350:0.0073733502 351:0.078084603 352:0.37804401 353:0.37804401 354:0.287503 355:0.011675 356:0.015668301 357:0.00386869 358:0.0024055999 359:0.0048011001 360:0.121325 361:0.28870401 362:0.333285 363:0.151967 364:0.0031844601 365:0.0099450499 366:0.0038163699 367:0.0028476201 368:0.00182331 369:0.038090199 370:0.333285 371:0.333285 372:0.20555399 373:0.0048556202 374:0.0055343299 375:0.0027145401 376:0.00153806 377:0.0021349499 378:0.064905301 379:0.333285 380:0.333285 381:0.192536 382:0.0021759199 383:0.00149048 384:0.00113857 385:0.0038735501 386:0.0058178199 387:0.083380498 388:0.32299501 389:0.333285 390:0.14252 391:0.0059381002 392:0.0066738799 393:0.0023375 394:0.00294855 395:0.0071896398 396:0.082285799 397:0.37440601 398:0.37440601 399:0.24851499 400:0.0053775599 401:0.0073266099 402:0.00271188 403:0.0023153999 404:0.0057036802 405:0.091082297 406:0.37440601 407:0.37440601 408:0.21785501 409:0.0076219402 410:0.0103007 411:0.0041005099 412:0.0043488401 413:0.0101078 414:0.093222998 415:0.26644 416:0.37440601 417:0.112741 418:0.0145206 419:0.0233941 420:0.0036095099 421:0.0024777399 422:0.0059484802 423:0.083082601 424:0.156546 425:0.20775899 426:0.064338297 427:0.021168601 428:0.0298949 429:0.0056716301 430:0.00366304 431:0.0042913998 432:0.063955903 433:0.38896501 434:0.38896501 435:0.260645 436:0.027562199 437:0.0207422 438:0.0035558699 439:0.0037996101 440:0.0095677702 441:0.12535501 442:0.31073201 443:0.38896501 444:0.15994599 445:0.159766 446:0.15444601 447:0.0105088 448:0.00346869 449:0.0084890397 450:0.083329499 451:0.146341 452:0.13410699 453:0.067223802 454:0.060680602 455:0.045805801 456:0.0054124501 457:0.00498959 458:0.00416754 459:0.0774341 460:0.0745079 461:0.038569599 462:0.046753 463:0.35279801 464:0.29437101 465:0.0100188 466:0.0078430502 467:0.00627416 468:0.048022799 469:0.037951201 470:0.052546199 471:0.025969001 472:0.28154701 473:0.260216 474:0.0124026 475:0.00115114 476:0.00163373 477:0.0109671 478:0.0089556696 479:0.0072666998 480:0.0103802 481:0.38143599 482:0.38143599 483:0.024163799 484:0.0032108701 485:0.000106949 486:0.0037265001 487:0.00813042 488:0.0035345899 489:0.0100294 490:0.38143599 491:0.33913001 492:0.0098687001 493:0.0029779901 494:0.00251769 495:0.00652054 496:0.00418645 497:0.00124566 498:0.0062429602 499:0.38143599 500:0.38143599 501:0.017016999 502:0.0048372699 503:0.00235938 504:0.00400439 505:0.201626 506:0.27979001 507:0.0434126 508:0.000344695 509:0.00028205701 510:0 511:0.000163816 512:7.30295e-05 513:0.033242799 514:0.36380801 515:0.36380801 516:0.088499397 517:0.0036241601 518:0.00148559 519:0 520:0.00062586402 521:0.000551934 522:0.0601741 523:0.36380801 524:0.36380801 525:0.139584 526:0.0023412299 527:0.024356199 528:0.0111109 529:0.019855 530:0.0316066 531:0.0899764 532:0.36380801 533:0.36380801 534:0.156091 535:0.00187967 536:0.024070101 537:0.0084669702 538:0.029686401 539:0.050858799 540:0.103202 541:0.344008 542:0.344008 543:0.119681 544:0.0089162299 545:0.0020685201 546:0.00029159899 547:0.00094242702 548:0.00192372 549:0.065800801 550:0.344008 551:0.344008 552:0.19509 553:0.0097580301 554:0.0034662001 555:0.00099622901 556:0.00270905 557:0.0082029998 558:0.084683798 559:0.344008 560:0.344008 561:0.124423 562:0.0050721499 563:0.0057868799 564:0.00072698598 565:0.0081872102 566:0.0209998 567:0.086227201 568:0.242792 569:0.344008 570:0.12408 571:0.036429401 572:0.022006201 573:0.0068214401 574:0.00771967 575:0.0146671 576:0.063673899 577:0.32282099 578:0.32282099 579:0.17540701 580:0.051084399 581:0.0204302 582:0.0046964898 583:0.0034683701 584:0.0065370402 585:0.090795398 586:0.32282099 587:0.32282099 588:0.149562 589:0.103872 590:0.023056399 591:0.012634 592:0.0043952502 593:0.0039407099 594:0.26605901 595:0.160192 596:0.21669599 597:0.088863499 598:0.13642301 599:0.086681902 600:0.032610599 601:0.0322331 602:0.0122677 603:0.090010896 604:0.32282099 605:0.160404 606:0.067282103 607:0.245902 608:0.090356097 609:0.076567002 610:0.0538073 611:0.0081844302 612:0.32282099 613:0.35385799 614:0.220162 615:0.0597637 616:0.020507799 617:0.0026999901 618:0.00376398 619:0.0020203099 620:0.00356748 621:0.28326899 622:0.35385799 623:0.103413 624:0.026086001 625:0.00476004 626:0.0035210799 627:0.00206748 628:0.0022929099 629:0.0048541999 630:0.31045401 631:0.35385799 632:0.037540901 633:0.0155915 634:0.047037698 635:0.0103045 636:0.018365299 637:0.0094681997 638:0.00557198 639:0.35385799 640:0.35385799 641:0.0050859498 642:0.0036826599 643:0.00138851 644:0.00207979 645:0.00091976998 646:0.0049534198 647:0.010198 648:0.35385799 649:0.34792799 650:0.037477098 651:0.0133461 652:0.00889087 653:0.0076022102 654:0.0014990499 655:0.00358755 656:0.0030019099 657:0.24763601 658:0.38052401 659:0.0156234 660:0.0107159 661:0.0112688 662:0.0096659102 663:0.00128476 664:0.0026630801 665:0.0026527401 666:0.29464999 667:0.38052401 668:0.0052361898 669:0.00359147 670:0.0020165399 671:0.00320365 672:0.0029063399 673:0.0147228 674:0.00706953 675:0.38052401 676:0.38052401 677:0.0065733199 678:0.0042115599 679:0.00300076 680:0.0081837298 681:0.00319097 682:0.011721 683:0.0075408099 684:0.38052401 685:0.32980901 686:0.014097 687:0.0101265 688:0.019399401 689:0.020382799 690:0.00608776 691:0.00168491 692:0.019380501 693:0.27350199 694:0.17582899 695:0.0105542 696:0.0093591902 697:0.158813 698:0.187851 699:0.0225388 700:0.0054066801 701:0.061097801 702:0.15954199 703:0.32980901 704:0.042087201 705:0.0244007 706:0.044670399 707:0.042459302 708:0.016863201 709:0.0033116499 710:0.0360208 711:0.32980901 712:0.32980901 713:0.096166201 714:0.0626968 715:0.32980901 716:0.32980901 717:0.085537799 718:0.0064138598 719:0.096593902 720:0.32980901 721:0.0242323 722:0.00320605 723:0.0070792702 724:0.33944699 725:0.32474601 726:0.0115212 727:0.0039288402 728:0.0204542 729:0.021803699 730:0.00317244 731:0.00154491 732:0.0038320599 733:0.34837601 734:0.34837601 735:0.018189801 736:0.0040673702 737:0.0032154799 738:0.0033060601 739:0.0594972 740:0.028241601 741:0.0253819 742:0.34837601 743:0.34837601 744:0.067838497 745:0.0087128002 746:0.029468 747:0.036620699 748:0.016026201 749:0.00067091 750:0.0037847499 751:0.34837601 752:0.34837601 753:0.17203701 754:0.0249679 755:0.027914099 756:0.049131699 757:0.19171301 758:0.267629 759:0.068650901 760:0.0044714501 761:0.0421835 762:0.0200861 763:0.16675 764:0.32369199 765:0.078583501 766:0.144611 767:0.26127601 768:0.0688788 769:0.0030595399 770:0.041657601 771:0.0153092 772:0.16063599 773:0.281425 774:0.078594297 775:0.016190801 776:0.0069234702 777:0.0079008602 778:0.0024616299 779:0.0138217 780:0.0070440299 781:0.35482299 782:0.35482299 783:0.120708 784:0.015009 785:0.013383 786:0.0121432 787:0.0073562302 788:0.0190764 789:0.00917318 790:0.35482299 791:0.35482299 792:0.124417 793:0.17211799 794:0.299936 795:0.088960901 796:0.0155277 797:0.018325601 798:0.0057215001 799:0.187351 800:0.30934 801:0.102234 802:0.15750299 803:0.178304 804:0.079666696 805:0.123426 806:0.078508697 807:0.0157302 808:0.054753799 809:0.084323101 810:0.051980399 811:0.043308102 812:0.0288634 813:0.020728 814:0.0140552 815:0.0152902 816:0.0142183 817:0.3725 818:0.3725 819:0.167101 820:0.077008903 821:0.051387399 822:0.026959499 823:0.083103903 824:0.083802901 825:0.0091408798 826:0.35616499 827:0.3725 828:0.177185 829:0.13524 830:0.060426399 831:0.057608899 832:0.157184 833:0.104812 834:0.028088899 835:0.0407544 836:0.034453399 837:0.0984708 838:0.32415 839:0.046221301 840:0.056820799 841:0.145953 842:0.074602701 843:0.043054 844:0.096281201 845:0.231316 846:0.32415 847:0.110605 848:0.043247201 849:0.055095099 850:0.18297701 851:0.15854 852:0.0093523199 853:0.175028 854:0.32415 855:0.178252 856:0.21125799 857:0.042898402 858:0.063968703 859:0.14519601 860:0.103859 861:0.0042559202 862:0.28203601 863:0.32415 864:0.32415 865:0.31616101 866:0.0130746 867:0.011404 868:0.0147433 869:0.0068371999 870:0.0082811704 871:0.042381398 872:0.16906901 873:0.33147901 874:0.33147901 875:0.0091569796 876:0.0096957302 877:0.00072979101 878:0.00376674 879:0.000300254 880:0.0079576299 881:0.047509801 882:0.33147901 883:0.21064501 884:0.0143688 885:0.0115151 886:0.0064783501 887:0.0053365398 888:0 889:0.134882 890:0.33147901 891:0.33147901 892:0.33147901 893:0.0152485 894:0.00817833 895:0.0024887801 896:0.00254514 897:0 898:0.018541699 899:0.174428 900:0.33147901 901:0.34939 902:0.0055915401 903:0.0065127099 904:0.00140452 905:0.0064196498 906:0.00146524 907:0.0080139199 908:0.0092290398 909:0.35311401 910:0.35311401 911:0.0048942799 912:0.0037706599 913:0.0054923398 914:0.0128702 915:0.0039538098 916:0.0077935401 917:0.0114805 918:0.35311401 919:0.35311401 920:0.0083715199 921:0.0053509399 922:0.00166521 923:0.0043373699 924:0.00022150901 925:0.00194229 926:0.0118917 927:0.35311401 928:0.35311401 929:0.0093920501 930:0.00700597 931:0.0066464902 932:0.0150801 933:0.0024391699 934:0.0079358397 935:0.0107895 936:0.35311401 937:0.31298801 938:0.0294879 939:0.0166796 940:0.028377 941:0.0316061 942:0.0102278 943:0.0069754501 944:0.016747 945:0.31298801 946:0.25142801 947:0.101016 948:0.060245 949:0.31298801 950:0.28114599 951:0.0645089 952:0.0079821898 953:0.0233895 954:0.228306 955:0.31298801 956:0.0226741 957:0.0153772 958:0.079154797 959:0.133468 960:0.0049727298 961:0.078624599 962:0.021582801 963:0.31298801 964:0.14104401 965:0.039994199 966:0.0283776 967:0.31298801 968:0.31298801 969:0.024022801 970:0.086261101 971:0.021594999 972:0.180227 973:0.0515856 974:0.047923099 975:0.0357721 976:0.29175699 977:0.29175699 978:0.094903797 979:0.013013 980:0.0096543804 981:0.020547699 982:0.051804502 983:0.0156582 984:0.0125064 985:0.169359 986:0.29175699 987:0.29175699 988:0.102892 989:0.063949399 990:0.133784 991:0.037930898 992:0.077326201 993:0.0594377 994:0.29175699 995:0.29175699 996:0.045611002 997:0.020884899 998:0.0094533004 999:0.0124581 1000:0.29175699 1001:0.199525 1002:0.127589 1003:0.216123 1004:0.29175699 1005:0.14433999 1006:0.103591 1007:0.051365599 1008:0.29175699 1009:0.0149828 1010:0.0129154 1011:0.00595946 1012:0.0018808 1013:0.0026797799 1014:0.00045022601 1015:0.37755099 1016:0.424867 1017:0.103132 1018:0.0169285 1019:0.017036799 1020:0.0094070304 1021:0.0104367 1022:0.00823153 1023:0.0039955098 1024:0.424867 1025:0.424867 1026:0.18935201 1027:0.019131999 1028:0.0367244 1029:0.030433901 1030:0.0082710404 1031:0.0051591299 1032:0.00142035 1033:0.0275208 1034:0.055558801 1035:0.019012099 1036:0.0259213 1037:0.0303325 1038:0.016149599 1039:0.020152301 1040:0.0074784802 1041:0.00179509 1042:0.25711301 1043:0.424867 1044:0.0894932 1045:0.0146036 1046:0.0064592999 1047:0.0040123202 1048:0.0055130301 1049:0.0041323202 1050:0.0036076801 1051:0.35381901 1052:0.35381901 1053:0.114536 1054:0.022179401 1055:0.0072701001 1056:0.0028756601 1057:0.00843459 1058:0.0145244 1059:0.0013481 1060:0.277044 1061:0.35381901 1062:0.128333 1063:0.0068383599 1064:0.0078993104 1065:0.00830629 1066:0.0151009 1067:0.00600396 1068:0.00098208501 1069:0.313961 1070:0.35381901 1071:0.100054 1072:0.0083690099 1073:0.0039739301 1074:0.0079279402 1075:0.0110524 1076:0.0046023298 1077:0.000877404 1078:0.35381901 1079:0.35381901 1080:0.168846 1081:0.041116402 1082:0.00971743 1083:0.0089483997 1084:0.038956299 1085:0.047589701 1086:0.00126256 1087:0.22445001 1088:0.33862701 1089:0.159688 1090:0.067120701 1091:0.0120457 1092:0.0113047 1093:0.032005999 1094:0.033461999 1095:0.00068363 1096:0.26637301 1097:0.33862701 1098:0.313223 1099:0.018740799 1100:0.0080280798 1101:0.0055070301 1102:0.0076895002 1103:0.0021178499 1104:0.00290478 1105:0.33862701 1106:0.33862701 1107:0.169736 1108:0.025619101 1109:0.0117976 1110:0.0089218998 1111:0.0080176396 1112:0.0049393098 1113:0.0039556799 1114:0.30529699 1115:0.33862701 1116:0.205548 1117:0.174187 1118:0.0072728698 1119:0.0040972 1120:0.0046019098 1121:0.0092120701 1122:0.00089666399 1123:0.140862 1124:0.346277 1125:0.346277 1126:0.346277 1127:0.0084494296 1128:0.0021818001 1129:0.0033571101 1130:0.0077057099 1131:0.00135099 1132:0.0152538 1133:0.142462 1134:0.346277 1135:0.0586574 1136:0.0053353198 1137:0.0067031099 1138:0.0056174202 1139:0.0134184 1140:0.0025165 1141:0.193771 1142:0.346277 1143:0.25759801 1144:0.18983699 1145:0.0030443501 1146:0.00371312 1147:0.0042677401 1148:0.021221999 1149:0.0034020301 1150:0.087561697 1151:0.23284 1152:0.346277 1153:0.39780399 1154:0.00447708 1155:0.00126778 1156:0.00104206 1157:0.0027533199 1158:0.000985333 1159:0.00242113 1160:0.0056785201 1161:0.39780399 1162:0.39780399 1163:0.0137861 1164:0.0089686597 1165:0.0032306099 1166:0.01644 1167:0.00280405 1168:0.0104199 1169:0.0099359304 1170:0.39780399 1171:0.220327 1172:0.00131468 1173:0.0014802 1174:0.00161261 1175:0.0102921 1176:0.0037512199 1177:0.023456 1178:0.0448016 1179:0.31173 1180:0.25247899 1181:0.0080253202 1182:0.0080693904 1183:0.0056833099 1184:0.0185946 1185:0.0044756602 1186:0.0099823698 1187:0.0057018599 1188:0.38650799 1189:0.34714299 1190:0.054912999 1191:0.038043201 1192:0.16056 1193:0.18193001 1194:0.0049682599 1195:0.067075603 1196:0.017436 1197:0.34714299 1198:0.14161199 1199:0.0446436 1200:0.035824399 1201:0.34714299 1202:0.34714299 1203:0.0151442 1204:0.068898603 1205:0.018588901 1206:0.176523 1207:0.183083 1208:0.026144501 1209:0.024713799 1210:0.125248 1211:0.120116 1212:0.0089956596 1213:0.00850657 1214:0.0065449402 1215:0.26602 1216:0.059823699 1217:0.0208159 1218:0.0338181 1219:0.34714299 1220:0.34714299 1221:0.021615401 1222:0.00537166 1223:0.0086231502 1224:0.062326699 1225:0.017304599 1226:0.037033498 1227:0.0382226 1228:0.33673301 1229:0.33673301 1230:0.0144567 1231:0.0096853897 1232:0.0069725802 1233:0.00665467 1234:0.18925799 1235:0.118245 1236:0.089940503 1237:0.33673301 1238:0.33673301 1239:0.0182861 1240:0.0131059 1241:0.0089654597 1242:0.16044401 1243:0.0035260499 1244:0.0027757001 1245:0.0132167 1246:0.33673301 1247:0.33673301 1248:0.019063899 1249:0.0019438 1250:0.0035425499 1251:0.0028371899 1252:0.0132664 1253:0.0054911501 1254:0.0127939 1255:0.33673301 1256:0.33673301 1257:0.0253378 1258:0.00333715 1259:0.00110167 1260:0.013017 1261:0.0724959 1262:0.15637299 1263:0.240005 1264:0.10761 1265:0.278229 1266:0.0301756 1267:0.0366311 1268:0.0076600201 1269:0.041036598 1270:0.13586099 1271:0.110041 1272:0.127395 1273:0.208202 1274:0.24265601 1275:0.0574334 1276:0.119271 1277:0.24134 1278:0.159998 1279:0.024858201 1280:0.025072301 1281:0.101668 1282:0.093537301 1283:0.51474398 1284:0.0228603 1285:0.058142599 1286:0.0221259 1287:0.025613099 1288:0.045953099 1289:0.065432899 1290:0.12614299 1291:0.060328599 1292:0.47543401 1293:0.0777447 1294:0.101446 1295:0.0274802 1296:0.041451398 1297:0.0120299 1298:0.0138475 1299:0.028761299 1300:0.067823201 1301:0.050290599 1302:0.0249073 1303:0.20675901 1304:0.39361301 1305:0.086580098 1306:0.0093657598 1307:0.0083209099 1308:0.037176099 1309:0.0843722 1310:0.042026699 1311:0.0174715 1312:0.54608399 1313:0.54608399 1314:0.33011401 1315:0.0064845001 1316:0.0165326 1317:0.030566899 1318:0.0305836 1319:0.097979903 1320:0.054437999 1321:0.01904 1322:0.0036094701 1323:0.0061698402 1324:0.0044517699 1325:0.0078307698 1326:0.025984401 1327:0.051228099 1328:0.097973697 1329:0.080048896 1330:0.099951997 1331:0.13318001 1332:0.045397401 1333:0.0058777998 1334:0.0052330298 1335:0.0073053502 1336:0.0114488 1337:0.00369142 1338:0.0041120499 1339:0.372601 1340:0.372601 1341:0.151813 1342:0.00822003 1343:0.0074273301 1344:0.0108589 1345:0.0069999401 1346:0.0051793698 1347:0.0067114499 1348:0.372601 1349:0.372601 1350:0.19152001 1351:0.0023554999 1352:0.0030136199 1353:0.00895047 1354:0.0080263503 1355:0.0141094 1356:0.0087850802 1357:0.127414 1358:0.23549999 1359:0.0571719 1360:0.0046131602 1361:0.004063 1362:0.0086356802 1363:0.0043677101 1364:0.011637 1365:0.00286985 1366:0.372601 1367:0.372601 1368:0.165078 1369:0.0109979 1370:0.0049485499 1371:0.0089314403 1372:0.0058250502 1373:0.0131739 1374:0.0049636001 1375:0.26377001 1376:0.364429 1377:0.13297901 1378:0.0123664 1379:0.00295709 1380:0.00430243 1381:0.0032204499 1382:0.0206856 1383:0.0050810399 1384:0.21529999 1385:0.364429 1386:0.1034 1387:0.0063951002 1388:0.0025267201 1389:0.0049360399 1390:0.0051869298 1391:0.016290599 1392:0.0068903998 1393:0.364429 1394:0.364429 1395:0.16182099 1396:0.0093768798 1397:0.00147051 1398:0.0041721701 1399:0.00332886 1400:0.024765501 1401:0.0109496 1402:0.364429 1403:0.364429 1404:0.16326 1405:0.015941501 1406:0.00275204 1407:0.00198797 1408:0.00069369102 1409:0.0189192 1410:0.00521411 1411:0.241294 1412:0.40173399 1413:0.0975371 1414:0.0170803 1415:0.00806286 1416:0.0081711197 1417:0.0059834402 1418:0.020152999 1419:0.0083182296 1420:0.073722303 1421:0.126903 1422:0.042828001 1423:0.027032999 1424:0.00470461 1425:0.0067829401 1426:0.0026955099 1427:0.021914801 1428:0.0116898 1429:0.40173399 1430:0.40173399 1431:0.226457 1432:0.0386924 1433:0.0068590799 1434:0.0071916399 1435:0.00162632 1436:0.017811 1437:0.0055979099 1438:0.40173399 1439:0.40173399 1440:0.20417801 1441:0.0050172801 1442:0.0035922299 1443:0.0125894 1444:0.18322 1445:0.174648 1446:0.0203117 1447:0.0117204 1448:0.0114655 1449:0.0090850098 1450:0.00130525 1451:0.00123844 1452:0.030978199 1453:0.39936399 1454:0.39936399 1455:0.050582599 1456:0.0052101598 1457:0.0059291399 1458:0.0041246898 1459:0.0240476 1460:0.0042619701 1461:0.021024499 1462:0.284394 1463:0.26783001 1464:0.026352899 1465:0.147083 1466:0.305379 1467:0.095479101 1468:0.0124297 1469:0.0038125 1470:0.0313209 1471:0.39936399 1472:0.39936399 1473:0.081653297 1474:0.023616901 1475:0.043226399 1476:0.028551999 1477:0.0130077 1478:0.00065404002 1479:0.00822521 1480:0.33879 1481:0.33879 1482:0.0255975 1483:0.00202837 1484:0.0021927401 1485:0.0129567 1486:0.056791101 1487:0.00076984602 1488:0.0053314702 1489:0.33879 1490:0.33879 1491:0.069565102 1492:0.0101378 1493:0.0027797001 1494:0.054683 1495:0.0145145 1496:0.000442866 1497:0.0058323899 1498:0.33879 1499:0.33879 1500:0.061046898 1501:0.00787267 1502:0.00901799 1503:0.0332684 1504:0.059896301 1505:5.9069e-05 1506:0.014 1507:0.33879 1508:0.33879 1509:0.189466 1510:0.024330599 1511:0.0310026 1512:0.14024501 1513:0.070485704 1514:0.091127202 1515:0.23569 1516:0.13844401 1517:0.283889 1518:0.0168464 1519:0.074725702 1520:0.027739599 1521:0.0664903 1522:0.0454855 1523:0.089263201 1524:0.18679801 1525:0.0122949 1526:0.56659901 1527:0.060318999 1528:0.135959 1529:0.042465299 1530:0.042728402 1531:0.092548899 1532:0.13196599 1533:0.25061101 1534:0.073118299 1535:0.147442 1536:0.0115739 1537:0.0628924 1538:0.019252799 1539:0.080347203 1540:0.056790698 1541:0.096458197 1542:0.15467501 1543:0.036263298 1544:0.452526 1545:0.119677 1546:0.16157 1547:0.074774601 1548:0.057184398 1549:0.018495601 1550:0.053995699 1551:0.087756597 1552:0.0250789 1553:0.34801301 1554:0.114354 1555:0.091302298 1556:0.031712402 1557:0.019584401 1558:0.0147358 1559:0.019255299 1560:0.040306199 1561:0.055694699 1562:0.31792 1563:0.322745 1564:0.20833801 1565:0.040369399 1566:0.0184211 1567:0.049329299 1568:0.034240801 1569:0.044321001 1570:0.0210496 1571:0.26137 1572:0.113644 1573:0.13718601 1574:0.112418 1575:0.071705297 1576:0.035479601 1577:0.0110916 1578:0.026733899 1579:0.057158198 1580:0.42130801 1581:0.46692199 1582:0.216287 1583:0.084952198 1584:0.055323299 1585:0.0109417 1586:0.0071431301 1587:0.026159501 1588:0.027409799 1589:0.171142 1590:0.112901 1591:0.092633598 1592:0.054187499 1593:0.033107501 1594:0.024519799 1595:0.0133225 1596:0.031719901 1597:0.020966399 1598:0.141017 1599:0.020557599 1600:0.57629502 1601:0.57629502 1602:0.28226301 1603:0.0052435999 1604:0.00182599 1605:0.0060143499 1606:0.029533699 1607:0.26082501 1608:0.22940201 1609:0.098275699 1610:0.012037 1611:0.0060058101 1612:0.0190068 1613:0.0044652801 1614:0.0147982 1615:0.0071755699 1616:0.178267 1617:0.066471897 1618:0.050906099 1619:0.0141173 1620:0.0219095 1621:0.0040800101 1622:0.0018034501 1623:0.00594809 1624:0.00767464 1625:0.0255323 1626:0.0102605 1627:0.349888 1628:0.42604199 1629:0.123873 1630:0.0058414601 1631:0.0014550301 1632:0.0087699201 1633:0.0075527001 1634:0.0272818 1635:0.018689699 1636:0.42604199 1637:0.42604199 1638:0.24723201 1639:0.00322708 1640:0.00061999098 1641:0.0036041101 1642:0.0039897002 1643:0.036668301 1644:0.0263042 1645:0.028567201 1646:0.039399199 1647:0.0135221 1648:0.00703021 1649:0.00030843 1650:0.00425738 1651:0.00504437 1652:0.048718199 1653:0.043575399 1654:0.235312 1655:0.421756 1656:0.089106999 1657:0.0099273697 1658:0.00215789 1659:0.0046519302 1660:0.0031103101 1661:0.00652513 1662:0.0068603102 1663:0.35024601 1664:0.35024601 1665:0.14289799 1666:0.0170657 1667:0.0045422199 1668:0.0056552901 1669:0.0023620101 1670:0.00607742 1671:0.0030284999 1672:0.29053599 1673:0.35024601 1674:0.154691 1675:0.0100323 1676:0.000836336 1677:0.00202241 1678:0.00129155 1679:0.0101486 1680:0.008808 1681:0.26819599 1682:0.35024601 1683:0.118879 1684:0.0118807 1685:0.00329269 1686:0.0035127201 1687:0.00163064 1688:0.0056744101 1689:0.0048718001 1690:0.35024601 1691:0.35024601 1692:0.210987 1693:0.045425799 1694:0.0084838904 1695:0.030037001 1696:0.129342 1697:0.12708101 1698:0.0109746 1699:0.169535 1700:0.324725 1701:0.14651 1702:0.043351099 1703:0.0099917203 1704:0.0368963 1705:0.324725 1706:0.324725 1707:0.037998401 1708:0.032641999 1709:0.075157098 1710:0.063366897 1711:0.0453398 1712:0.0097136097 1713:0.0148986 1714:0.023198999 1715:0.035305001 1716:0.0106736 1717:0.324725 1718:0.324725 1719:0.213764 1720:0.070550002 1721:0.044883501 1722:0.099225499 1723:0.324725 1724:0.324725 1725:0.018379301 1726:0.112903 1727:0.25494301 1728:0.109488 1729:0.0074047199 1730:0.0032238399 1731:0.0147727 1732:0.32666299 1733:0.32666299 1734:0.0519953 1735:0.0146088 1736:0.0099035101 1737:0.0275483 1738:0.0145827 1739:0.0033291599 1740:0.037631899 1741:0.31681001 1742:0.32666299 1743:0.16076601 1744:0.056799401 1745:0.032863598 1746:0.118999 1747:0.034460299 1748:0.0306582 1749:0.101761 1750:0.32666299 1751:0.32666299 1752:0.030605299 1753:0.0238075 1754:0.0209397 1755:0.045158699 1756:0.12732799 1757:0.054707602 1758:0.0862846 1759:0.27287599 1760:0.32666299 1761:0.101569 1762:0.110067 1763:0.0382782 1764:0.254233 #
-0.0026357692245175673440016339554859 1:0.065011002 2:0.0350377 3:0.0146719 4:0.0136112 5:0.064431697 6:0.041798599 7:0.0233215 8:0.018765399 9:0.053610802 10:0.043088801 11:0.0194859 12:0.038322099 13:0.051051401 14:0.28675699 15:0.28090301 16:0.19029599 17:0.051197201 18:0.058302999 19:0.28675699 20:0.28675699 21:0.22657099 22:0.031042101 23:0.0437764 24:0.0540457 25:0.165168 26:0.211293 27:0.28675699 28:0.15166301 29:0.096280299 30:0.0431276 31:0.068438202 32:0.185745 33:0.275998 34:0.28675699 35:0.28675699 36:0.28675699 37:0.060560901 38:0.035775501 39:0.078727402 40:0.12771299 41:0.33330101 42:0.33330101 43:0.30507499 44:0.0746141 45:0.075145602 46:0.0415342 47:0.0135889 48:0.026247799 49:0.053048 50:0.15409499 51:0.13042399 52:0.061964899 53:0.042748101 54:0.0478906 55:0.110357 56:0.072081603 57:0.100413 58:0.20654701 59:0.33330101 60:0.33330101 61:0.33330101 62:0.242176 63:0.20960499 64:0.069525503 65:0.0347315 66:0.054207101 67:0.072500698 68:0.154471 69:0.137265 70:0.130494 71:0.051291801 72:0.077801198 73:0.151934 74:0.0093094204 75:0.028369 76:0.065507598 77:0.158794 78:0.0696683 79:0.098622002 80:0.088174798 81:0.115072 82:0.108757 83:0.0247852 84:0.0508768 85:0.0185051 86:0.035897002 87:0.0288135 88:0.0111697 89:0.0145714 90:0.128343 91:0.25098899 92:0.161028 93:0.105766 94:0.104104 95:0.21489801 96:0.104528 97:0.25165099 98:0.144173 99:0.233164 100:0.35465699 101:0.48290199 102:0.173352 103:0.067869604 104:0.055721801 105:0.055866402 106:0.0778623 107:0.114391 108:0.381697 109:0.0234647 110:0.0111451 111:0.021959299 112:0.011483 113:0.017105401 114:0.0218757 115:0.00738884 116:0.0104938 117:0.028697601 118:0.075067401 119:0.055962399 120:0.051079199 121:0.050114602 122:0.037494201 123:0.037368499 124:0.0204009 125:0.021317201 126:0.049057499 127:0.17291 128:0.50312901 129:0.127976 130:0.027381999 131:0.025609801 132:0.037363701 133:0.0312465 134:0.039004199 135:0.075722098 136:0.50312901 137:0.50312901 138:0.34714499 139:0.10882 140:0.058650699 141:0.063905701 142:0.064414598 143:0.048186801 144:0.094277397 145:0.068029203 146:0.095282897 147:0.049464099 148:0.0241326 149:0.019893 150:0.027962901 151:0.0270594 152:0.017433999 153:0.044898599 154:0.154618 155:0.38710499 156:0.152325 157:0.0153288 158:0.041010302 159:0.084373802 160:0.0768255 161:0.0483144 162:0.120163 163:0.30085 164:0.38710499 165:0.193729 166:0.0417809 167:0.0153946 168:0.0382718 169:0.051240399 170:0.030994499 171:0.052737899 172:0.34804299 173:0.38710499 174:0.38710499 175:0.0195328 176:0.0210131 177:0.075643897 178:0.087082699 179:0.081044503 180:0.131374 181:0.14448 182:0.35072401 183:0.16058201 184:0.0087650698 185:0.032111999 186:0.0430112 187:0.0441592 188:0.0429224 189:0.0909146 190:0.27680999 191:0.35072401 192:0.25865301 193:0.039002601 194:0.034795899 195:0.0174907 196:0.037578098 197:0.037781 198:0.088036798 199:0.189851 200:0.35072401 201:0.32067999 202:0.0132385 203:0.0227826 204:0.039000399 205:0.031613 206:0.050774999 207:0.108514 208:0.179315 209:0.35072401 210:0.27201101 211:0.039005298 212:0.052568499 213:0.0417003 214:0.0282351 215:0.037134599 216:0.12184 217:0.283463 218:0.34058499 219:0.210675 220:0.080265701 221:0.092069998 222:0.0606956 223:0.045149099 224:0.0153072 225:0.108372 226:0.199331 227:0.229477 228:0.110287 229:0.116116 230:0.34058499 231:0.216288 232:0.117271 233:0.022305001 234:0.094961502 235:0.14548901 236:0.31676599 237:0.127378 238:0.092797697 239:0.238106 240:0.112491 241:0.0521942 242:0.0209531 243:0.124179 244:0.052340198 245:0.094698504 246:0.0454273 247:0.15123001 248:0.34058499 249:0.155458 250:0.066225499 251:0.018472999 252:0.057847802 253:0.23058 254:0.225153 255:0.182689 256:0.054853301 257:0.079119101 258:0.056858301 259:0.141082 260:0.14597 261:0.23058 262:0.100638 263:0.091009699 264:0.062749296 265:0.065163702 266:0.174188 267:0.23058 268:0.23058 269:0.23058 270:0.23058 271:0.13559 272:0.14517599 273:0.135336 274:0.095253401 275:0.120299 276:0.092218101 277:0.20518 278:0.216701 279:0.108073 280:0.121168 281:0.23058 282:0.23058 283:0.189882 284:0.23058 285:0.197944 286:0.107416 287:0.127253 288:0.127516 289:0.076471701 290:0.066761598 291:0.081880704 292:0.107597 293:0.25054899 294:0.26552001 295:0.25274101 296:0.16180301 297:0.122956 298:0.052226 299:0.035973199 300:0.038605701 301:0.045635499 302:0.046642199 303:0.064629599 304:0.059631702 305:0.059593599 306:0.070280701 307:0.137474 308:0.26552001 309:0.26552001 310:0.215473 311:0.26552001 312:0.26552001 313:0.153115 314:0.196787 315:0.14408199 316:0.26552001 317:0.26552001 318:0.137766 319:0.065925002 320:0.070210502 321:0.066735603 322:0.084239699 323:0.17896 324:0.247431 325:0.072868101 326:0.15900201 327:0.054533601 328:0.0199253 329:0.0158506 330:0.00554456 331:0.024027299 332:0.0280833 333:0.044313699 334:0.128929 335:0.39076301 336:0.123991 337:0.011933 338:0.0054226299 339:0.0095501104 340:0.0145774 341:0.017789099 342:0.061323799 343:0.39076301 344:0.39076301 345:0.17343099 346:0.0415399 347:0.038300298 348:0.0155146 349:0.026738999 350:0.066195004 351:0.237405 352:0.29999599 353:0.39076301 354:0.32561299 355:0.047858998 356:0.0353074 357:0.0320834 358:0.030745899 359:0.035900999 360:0.11575 361:0.13916001 362:0.38551599 363:0.14380699 364:0.016443901 365:0.0158052 366:0.028691901 367:0.0145794 368:0.012304 369:0.041085102 370:0.230828 371:0.38551599 372:0.24315199 373:0.055684801 374:0.031620398 375:0.0296364 376:0.0216018 377:0.021670699 378:0.0339575 379:0.22368801 380:0.38551599 381:0.220917 382:0.0298822 383:0.038766101 384:0.056236502 385:0.0249191 386:0.019625399 387:0.057293601 388:0.22726899 389:0.38551599 390:0.242227 391:0.068220899 392:0.058912799 393:0.0502511 394:0.0327015 395:0.046706598 396:0.0763584 397:0.28710899 398:0.36847401 399:0.312105 400:0.056703899 401:0.0279631 402:0.0364636 403:0.045641199 404:0.042471301 405:0.0490149 406:0.203646 407:0.36847401 408:0.337271 409:0.032444399 410:0.0173025 411:0.059097901 412:0.0550786 413:0.0601441 414:0.086864397 415:0.186684 416:0.36847401 417:0.24652299 418:0.053307701 419:0.061506201 420:0.037293799 421:0.0512104 422:0.0953646 423:0.101495 424:0.069743603 425:0.25916201 426:0.12563799 427:0.036806598 428:0.041381098 429:0.0345819 430:0.034663599 431:0.047966499 432:0.045160901 433:0.24668901 434:0.384958 435:0.384958 436:0.082638301 437:0.0512596 438:0.055285498 439:0.046847399 440:0.105733 441:0.197239 442:0.179479 443:0.384958 444:0.36137301 445:0.131459 446:0.163644 447:0.071384899 448:0.0886437 449:0.107479 450:0.21053199 451:0.060981899 452:0.217143 453:0.103301 454:0.086040102 455:0.074717201 456:0.0236315 457:0.026396601 458:0.021025499 459:0.0471338 460:0.059635401 461:0.067839198 462:0.079102203 463:0.104362 464:0.183606 465:0.046198599 466:0.063293599 467:0.063939601 468:0.0504435 469:0.048642799 470:0.095378302 471:0.074190699 472:0.112855 473:0.387593 474:0.089445099 475:0.045730699 476:0.023683099 477:0.053226199 478:0.0141802 479:0.031574 480:0.035877898 481:0.139318 482:0.43679401 483:0.156644 484:0.0505502 485:0.015704099 486:0.0131629 487:0.0180458 488:0.019203899 489:0.033541799 490:0.151306 491:0.43679401 492:0.0544855 493:0.0267385 494:0.026091401 495:0.0108243 496:0.0152974 497:0.0125204 498:0.029704001 499:0.249615 500:0.43679401 501:0.29077101 502:0.0452132 503:0.0285393 504:0.016200701 505:0.138356 506:0.18303899 507:0.23366299 508:0.113826 509:0.105147 510:0.14966699 511:0.22044501 512:0.23366299 513:0.101731 514:0.182419 515:0.23366299 516:0.23366299 517:0.172409 518:0.147853 519:0.112081 520:0.099382497 521:0.187537 522:0.15194499 523:0.13519301 524:0.23366299 525:0.23366299 526:0.17936701 527:0.094413802 528:0.122419 529:0.115963 530:0.13620999 531:0.101587 532:0.23366299 533:0.23366299 534:0.18550099 535:0.119719 536:0.077838898 537:0.086640596 538:0.105107 539:0.16452201 540:0.142195 541:0.189004 542:0.28718901 543:0.26908299 544:0.13265599 545:0.115749 546:0.085880399 547:0.110102 548:0.14213 549:0.123006 550:0.28718901 551:0.28718901 552:0.233611 553:0.0685504 554:0.056334801 555:0.044608101 556:0.061374601 557:0.090272397 558:0.129107 559:0.25219899 560:0.28718901 561:0.223562 562:0.085645303 563:0.050020501 564:0.055141602 565:0.076448403 566:0.085641101 567:0.120191 568:0.25112101 569:0.28718901 570:0.26106 571:0.048956599 572:0.034922201 573:0.0467907 574:0.0537122 575:0.0434012 576:0.043519601 577:0.27268299 578:0.27268299 579:0.238823 580:0.054721799 581:0.060807802 582:0.039626699 583:0.0176934 584:0.0438556 585:0.16823401 586:0.26643601 587:0.27268299 588:0.26210999 589:0.050004799 590:0.0654286 591:0.0442244 592:0.030471601 593:0.035999998 594:0.164204 595:0.196141 596:0.27268299 597:0.24604499 598:0.058388799 599:0.074779198 600:0.063202299 601:0.030535299 602:0.02592 603:0.052041002 604:0.27268299 605:0.175822 606:0.180712 607:0.0993319 608:0.219745 609:0.158452 610:0.092902802 611:0.076847397 612:0.27268299 613:0.26821601 614:0.32684401 615:0.127453 616:0.0230402 617:0.040965199 618:0.034442801 619:0.025531201 620:0.028033599 621:0.198774 622:0.27701601 623:0.156701 624:0.073884398 625:0.0248044 626:0.028020401 627:0.0236859 628:0.0269728 629:0.032575998 630:0.28137201 631:0.36232001 632:0.068655297 633:0.071804002 634:0.042170901 635:0.10936 636:0.081836604 637:0.065241702 638:0.073000498 639:0.36232001 640:0.36232001 641:0.0102011 642:0.0124864 643:0.0080317697 644:0.0135653 645:0.0268458 646:0.0222467 647:0.025197599 648:0.36232001 649:0.23054899 650:0.049712099 651:0.037679501 652:0.0139146 653:0.0212267 654:0.0185638 655:0.028528299 656:0.0404361 657:0.26451701 658:0.24303199 659:0.0129033 660:0.0110477 661:0.015772 662:0.023289399 663:0.0145746 664:0.0141962 665:0.0185427 666:0.2402 667:0.43153799 668:0.0103531 669:0.0076487102 670:0.0034082099 671:0.00369981 672:0.016310399 673:0.0154904 674:0.017309399 675:0.43153799 676:0.43153799 677:0.015697001 678:0.0106206 679:0.0075752102 680:0.0084049702 681:0.0120164 682:0.0079194801 683:0.00711047 684:0.43153799 685:0.222708 686:0.0129209 687:0.0096201804 688:0.0209335 689:0.021358799 690:0.0069720699 691:0.0059388098 692:0.0050840699 693:0.23475701 694:0.16908 695:0.0156895 696:0.0270395 697:0.036579501 698:0.080540501 699:0.034728501 700:0.0345699 701:0.0475564 702:0.192451 703:0.411367 704:0.0290219 705:0.022593901 706:0.0210397 707:0.0145398 708:0.0071153301 709:0.0052790702 710:0.0125615 711:0.411367 712:0.411367 713:0.079786398 714:0.093888097 715:0.13266499 716:0.25956699 717:0.100316 718:0.086962797 719:0.11794 720:0.411367 721:0.042321 722:0.010368 723:0.023260901 724:0.111909 725:0.34718701 726:0.0697124 727:0.0417368 728:0.044395 729:0.047019999 730:0.020944299 731:0.021245901 732:0.047219802 733:0.28871799 734:0.34718701 735:0.253521 736:0.050331701 737:0.024336001 738:0.0196444 739:0.143014 740:0.048479401 741:0.067574203 742:0.179177 743:0.34718701 744:0.221719 745:0.088669203 746:0.092124403 747:0.17791399 748:0.020364201 749:0.029561199 750:0.036182199 751:0.232172 752:0.34718701 753:0.34275299 754:0.0544798 755:0.024399299 756:0.0137295 757:0.101318 758:0.167363 759:0.118983 760:0.15276299 761:0.095884599 762:0.081785798 763:0.139725 764:0.27970099 765:0.105193 766:0.215496 767:0.258356 768:0.101103 769:0.107091 770:0.066607103 771:0.057603899 772:0.165997 773:0.30781201 774:0.115999 775:0.048763901 776:0.045271199 777:0.023407999 778:0.0636646 779:0.055612501 780:0.117942 781:0.294889 782:0.30781201 783:0.16101401 784:0.13936 785:0.096194498 786:0.038084801 787:0.084605202 788:0.037997499 789:0.118935 790:0.30781201 791:0.30781201 792:0.20500199 793:0.213333 794:0.30580601 795:0.138685 796:0.056442998 797:0.049107 798:0.049647499 799:0.170303 800:0.25138101 801:0.146341 802:0.16930801 803:0.26516399 804:0.114654 805:0.0202468 806:0.0533248 807:0.056800101 808:0.116091 809:0.092147097 810:0.084126502 811:0.117095 812:0.089092202 813:0.036919799 814:0.048063699 815:0.040977199 816:0.082900703 817:0.30580601 818:0.30580601 819:0.282814 820:0.062512897 821:0.0640608 822:0.027175499 823:0.0245788 824:0.0861414 825:0.073684201 826:0.30580601 827:0.30580601 828:0.243375 829:0.148498 830:0.15408801 831:0.105021 832:0.051345099 833:0.087092698 834:0.057711601 835:0.064061597 836:0.042894401 837:0.041212302 838:0.27234799 839:0.0816705 840:0.087717101 841:0.124186 842:0.20117401 843:0.170518 844:0.13398901 845:0.148733 846:0.27234799 847:0.095666803 848:0.0626854 849:0.048723899 850:0.0712763 851:0.127884 852:0.082953699 853:0.23137499 854:0.27234799 855:0.157671 856:0.27234799 857:0.13153 858:0.081350297 859:0.24309801 860:0.185185 861:0.15220501 862:0.26864699 863:0.27234799 864:0.27234799 865:0.31984499 866:0.0269459 867:0.021850901 868:0.0296055 869:0.053697601 870:0.061704502 871:0.0744275 872:0.13848101 873:0.31984499 874:0.31984499 875:0.017306199 876:0.00140328 877:0.0030181401 878:0.0075999801 879:0.0270372 880:0.036335099 881:0.078476697 882:0.31984499 883:0.159768 884:0.076148599 885:0.0200416 886:0.066591501 887:0.040146399 888:0.049171001 889:0.175366 890:0.31984499 891:0.31984499 892:0.20271 893:0.055017099 894:0.019735601 895:0.035227299 896:0.0179653 897:0.0181683 898:0.137794 899:0.31984499 900:0.31984499 901:0.345503 902:0.0111566 903:0.0044596801 904:0.0054864301 905:0.0069035599 906:0.0185575 907:0.0227392 908:0.0221454 909:0.345503 910:0.345503 911:0.0129379 912:0.0167758 913:0.0085096601 914:0.0066434201 915:0.0144631 916:0.0136033 917:0.0124548 918:0.345503 919:0.345503 920:0.038129698 921:0.024857599 922:0.034373499 923:0.0119523 924:0.0167556 925:0.0679828 926:0.16591699 927:0.345503 928:0.345503 929:0.023353999 930:0.0201056 931:0.0101814 932:0.0053629 933:0.0142676 934:0.029624101 935:0.029872499 936:0.345503 937:0.33558801 938:0.0260332 939:0.0206942 940:0.0173473 941:0.0119102 942:0.00864561 943:0.0051374398 944:0.0121043 945:0.33558801 946:0.33558801 947:0.086791299 948:0.079616502 949:0.1151 950:0.15109 951:0.051700801 952:0.036936499 953:0.0423664 954:0.33558801 955:0.33558801 956:0.0228299 957:0.0142755 958:0.0118506 959:0.00738808 960:0.0088337101 961:0.0094284397 962:0.013727 963:0.33558801 964:0.33558801 965:0.0585077 966:0.034134001 967:0.066003099 968:0.10589 969:0.077016003 970:0.0616831 971:0.083349504 972:0.33558801 973:0.134095 974:0.087621801 975:0.085875303 976:0.222028 977:0.30863199 978:0.183623 979:0.055048801 980:0.043148499 981:0.14226 982:0.0274128 983:0.038945299 984:0.037338901 985:0.177387 986:0.30863199 987:0.30863199 988:0.043469701 989:0.025055001 990:0.025008099 991:0.13106699 992:0.074661002 993:0.051889699 994:0.21034899 995:0.30863199 996:0.18759499 997:0.077508397 998:0.097802296 999:0.168898 1000:0.034024999 1001:0.0773995 1002:0.103236 1003:0.29031599 1004:0.30863199 1005:0.28445399 1006:0.065164 1007:0.0504447 1008:0.049199 1009:0.050337799 1010:0.0148112 1011:0.035478201 1012:0.084990799 1013:0.18272699 1014:0.14846399 1015:0.211585 1016:0.31504801 1017:0.138045 1018:0.186497 1019:0.072280698 1020:0.078684002 1021:0.117891 1022:0.16201 1023:0.157821 1024:0.31504801 1025:0.31504801 1026:0.31504801 1027:0.017831 1028:0.0030314501 1029:0.0190183 1030:0.050636601 1031:0.31504801 1032:0.080842301 1033:0.0254202 1034:0.032349601 1035:0.043531399 1036:0.0911915 1037:0.0185236 1038:0.051850799 1039:0.072522998 1040:0.31504801 1041:0.10783 1042:0.087361 1043:0.24843299 1044:0.220495 1045:0.096619003 1046:0.0491364 1047:0.0412747 1048:0.0365934 1049:0.037248898 1050:0.054989301 1051:0.29085699 1052:0.34079799 1053:0.25210801 1054:0.038918801 1055:0.0251166 1056:0.021597501 1057:0.0142433 1058:0.0389135 1059:0.051975802 1060:0.34079799 1061:0.34079799 1062:0.20188899 1063:0.070079401 1064:0.0208668 1065:0.0304252 1066:0.032075699 1067:0.067513302 1068:0.061222099 1069:0.14050201 1070:0.34079799 1071:0.164276 1072:0.072642297 1073:0.0274546 1074:0.0278512 1075:0.022451499 1076:0.017174 1077:0.041691199 1078:0.28995001 1079:0.34079799 1080:0.21208601 1081:0.040348299 1082:0.0175853 1083:0.0096078496 1084:0.0244112 1085:0.040098399 1086:0.0501967 1087:0.24691901 1088:0.32236099 1089:0.14159 1090:0.107242 1091:0.054488901 1092:0.017880101 1093:0.076943703 1094:0.0555401 1095:0.068117298 1096:0.28477699 1097:0.32236099 1098:0.24078999 1099:0.053719401 1100:0.028736999 1101:0.034697399 1102:0.026267899 1103:0.0124505 1104:0.032893199 1105:0.32236099 1106:0.32236099 1107:0.207899 1108:0.089804403 1109:0.0540612 1110:0.049475901 1111:0.067267999 1112:0.023019901 1113:0.051709101 1114:0.32236099 1115:0.32236099 1116:0.216259 1117:0.095929302 1118:0.0502184 1119:0.0129659 1120:0.038313001 1121:0.029090101 1122:0.030633699 1123:0.22447801 1124:0.323378 1125:0.30166501 1126:0.15853 1127:0.032405298 1128:0.042518798 1129:0.060318299 1130:0.0215319 1131:0.0107906 1132:0.157699 1133:0.323378 1134:0.323378 1135:0.069559 1136:0.0253959 1137:0.026011299 1138:0.033595301 1139:0.0200429 1140:0.036470301 1141:0.274602 1142:0.323378 1143:0.169962 1144:0.078472003 1145:0.0082019595 1146:0.027578101 1147:0.0258791 1148:0.0170998 1149:0.031716298 1150:0.192563 1151:0.323378 1152:0.31771001 1153:0.33592701 1154:0.035088498 1155:0.036515001 1156:0.0439956 1157:0.0067700599 1158:0.0100388 1159:0.078447998 1160:0.21996801 1161:0.33592701 1162:0.33592701 1163:0.024274999 1164:0.0093966704 1165:0.00324992 1166:0.00138731 1167:0.0070940801 1168:0.032173298 1169:0.0294307 1170:0.33592701 1171:0.211257 1172:0.0119179 1173:0.019305401 1174:0.0152457 1175:0.0113467 1176:0.034145899 1177:0.111851 1178:0.279919 1179:0.33592701 1180:0.33592701 1181:0.0126053 1182:0.0126632 1183:0.0058628698 1184:0.0084302798 1185:0.026280001 1186:0.0522081 1187:0.059231501 1188:0.33592701 1189:0.34119299 1190:0.0158385 1191:0.0054206299 1192:0.00177998 1193:0.00253148 1194:0.0030567599 1195:0.0112143 1196:0.0085548796 1197:0.34119299 1198:0.34119299 1199:0.0694438 1200:0.036798701 1201:0.0595048 1202:0.172846 1203:0.087210298 1204:0.067858502 1205:0.068221301 1206:0.34119299 1207:0.34119299 1208:0.020238699 1209:0.0099645397 1210:0.0075180898 1211:0.0097575597 1212:0.0111528 1213:0.0221391 1214:0.016846299 1215:0.34119299 1216:0.32625401 1217:0.073180303 1218:0.0437361 1219:0.0613988 1220:0.14667299 1221:0.0305527 1222:0.0282149 1223:0.0198649 1224:0.31382 1225:0.185729 1226:0.0613571 1227:0.0492783 1228:0.173241 1229:0.34819001 1230:0.18985701 1231:0.0757531 1232:0.087381303 1233:0.195319 1234:0.021419801 1235:0.074992098 1236:0.0917482 1237:0.27288699 1238:0.34819001 1239:0.21222199 1240:0.062553599 1241:0.057204999 1242:0.029425099 1243:0.132489 1244:0.0534002 1245:0.049024001 1246:0.16007701 1247:0.34819001 1248:0.083587103 1249:0.038214799 1250:0.0175779 1251:0.095705703 1252:0.020891299 1253:0.030130399 1254:0.059170999 1255:0.23793299 1256:0.34819001 1257:0.27467301 1258:0.075246699 1259:0.0413794 1260:0.0249897 1261:0.0062152902 1262:0.00192756 1263:0.0058310698 1264:0.021330999 1265:0.48968101 1266:0.059863299 1267:0.0087159704 1268:0.0095743202 1269:0.0084509803 1270:0.0261431 1271:0.0172252 1272:0.0225829 1273:0.046505298 1274:0.48968101 1275:0.085946299 1276:0.028918801 1277:0.066622697 1278:0.043010999 1279:0.00250103 1280:0.00129343 1281:0.00201003 1282:0.0616422 1283:0.48968101 1284:0.056866702 1285:0.0061014802 1286:0.00201622 1287:0.00193402 1288:0.0062668198 1289:0.0100334 1290:0.012634 1291:0.050675701 1292:0.48968101 1293:0.057030901 1294:0.00606615 1295:0.0108976 1296:0.0085811401 1297:0.110105 1298:0.060029998 1299:0.051473401 1300:0.083118699 1301:0.31365201 1302:0.12849399 1303:0.116741 1304:0.28142399 1305:0.16928101 1306:0.23437101 1307:0.14968599 1308:0.12427 1309:0.111976 1310:0.089880504 1311:0.074188396 1312:0.37164301 1313:0.406405 1314:0.40363801 1315:0.035365701 1316:0.0306125 1317:0.0265476 1318:0.032459199 1319:0.32914701 1320:0.032076702 1321:0.0162134 1322:0.024789499 1323:0.044785801 1324:0.091759302 1325:0.074114598 1326:0.062572099 1327:0.0623983 1328:0.0479513 1329:0.0211452 1330:0.038830999 1331:0.043182701 1332:0.0716912 1333:0.081377499 1334:0.050287802 1335:0.060435198 1336:0.037964702 1337:0.022029201 1338:0.0265981 1339:0.30117199 1340:0.37708801 1341:0.236884 1342:0.111871 1343:0.049877699 1344:0.074406996 1345:0.074804403 1346:0.039737798 1347:0.0576736 1348:0.37708801 1349:0.37708801 1350:0.37708801 1351:0.038272999 1352:0.0267464 1353:0.025194 1354:0.017303601 1355:0.016550999 1356:0.0131968 1357:0.041933201 1358:0.089838199 1359:0.0468679 1360:0.049483702 1361:0.027091799 1362:0.0234205 1363:0.0097099803 1364:0.022687901 1365:0.026919 1366:0.212311 1367:0.37708801 1368:0.161952 1369:0.063104801 1370:0.0192231 1371:0.0281594 1372:0.035042401 1373:0.019562701 1374:0.033490401 1375:0.30676201 1376:0.342291 1377:0.187895 1378:0.039299902 1379:0.0133628 1380:0.017495699 1381:0.0269875 1382:0.026246199 1383:0.038878199 1384:0.27440399 1385:0.342291 1386:0.178682 1387:0.045784101 1388:0.020284601 1389:0.017340699 1390:0.0157008 1391:0.0209253 1392:0.021435199 1393:0.225471 1394:0.342291 1395:0.136116 1396:0.073487602 1397:0.040747602 1398:0.032403 1399:0.0448412 1400:0.0454753 1401:0.037926398 1402:0.342291 1403:0.342291 1404:0.27267301 1405:0.061710801 1406:0.0181228 1407:0.018844901 1408:0.027634799 1409:0.0217936 1410:0.0399055 1411:0.211386 1412:0.34270999 1413:0.139605 1414:0.081895597 1415:0.0141078 1416:0.0221643 1417:0.023028599 1418:0.0123748 1419:0.033271398 1420:0.14812499 1421:0.324541 1422:0.15677901 1423:0.112041 1424:0.064857401 1425:0.035056502 1426:0.063039497 1427:0.036168899 1428:0.058653802 1429:0.34270999 1430:0.34270999 1431:0.26620799 1432:0.077243499 1433:0.0442761 1434:0.020377699 1435:0.060683802 1436:0.0199639 1437:0.065839097 1438:0.34270999 1439:0.34270999 1440:0.249917 1441:0.122613 1442:0.0322318 1443:0.0305907 1444:0.029253401 1445:0.0214149 1446:0.0285313 1447:0.128071 1448:0.24135099 1449:0.22090501 1450:0.1117 1451:0.060647301 1452:0.047711499 1453:0.057070602 1454:0.193234 1455:0.039475299 1456:0.070689701 1457:0.070762403 1458:0.116642 1459:0.056722 1460:0.037572298 1461:0.025954099 1462:0.054967899 1463:0.025310401 1464:0.042893 1465:0.390957 1466:0.390957 1467:0.33652201 1468:0.076119997 1469:0.041263901 1470:0.024970099 1471:0.0602323 1472:0.16907699 1473:0.10672 1474:0.30866501 1475:0.390957 1476:0.199292 1477:0.025873 1478:0.0197552 1479:0.0239354 1480:0.095091298 1481:0.38851199 1482:0.055949401 1483:0.0285911 1484:0.0147447 1485:0.019653801 1486:0.0152706 1487:0.0080492198 1488:0.0530091 1489:0.27085701 1490:0.38851199 1491:0.207782 1492:0.0415175 1493:0.0208345 1494:0.016644999 1495:0.030933401 1496:0.0127932 1497:0.0276086 1498:0.132511 1499:0.38851199 1500:0.15235201 1501:0.075362101 1502:0.16910701 1503:0.055989198 1504:0.015988 1505:0.0210671 1506:0.061582901 1507:0.32122001 1508:0.38851199 1509:0.24500801 1510:0.050330199 1511:0.062559098 1512:0.0288334 1513:0.00119822 1514:0.00035066801 1515:3.4640099e-05 1516:0.049433399 1517:0.49553999 1518:0.060588401 1519:0.0026801899 1520:0.00546681 1521:0.00111954 1522:0.0037442599 1523:0.00102311 1524:0.00180739 1525:0.032975599 1526:0.49553999 1527:0.0529368 1528:0.00343894 1529:0.0023703501 1530:0.0039254702 1531:0.00082639197 1532:0.00040449301 1533:0 1534:0.0126351 1535:0.49553999 1536:0.039353199 1537:0.00156235 1538:0.0055368599 1539:0.00080454501 1540:0.00137432 1541:0.00017939101 1542:0.00054131501 1543:0.0151119 1544:0.49553999 1545:0.0271776 1546:0.00074580702 1547:0.00056645198 1548:0.00144007 1549:0.0472279 1550:0.0214222 1551:0.035204399 1552:0.0353503 1553:0.67363 1554:0.057817701 1555:0.041196302 1556:0.037273999 1557:0.048379 1558:0.129292 1559:0.061099701 1560:0.075886197 1561:0.068368599 1562:0.065766402 1563:0.0348428 1564:0.070102803 1565:0.060669798 1566:0.089777701 1567:0.015489 1568:0.0066815699 1569:0.020064499 1570:0.021968599 1571:0.67363 1572:0.0170068 1573:0.0103671 1574:0.011071 1575:0.017080899 1576:0.043377198 1577:0.014744 1578:0.024760401 1579:0.0105951 1580:0.108622 1581:0.0085025104 1582:0.0241547 1583:0.0147585 1584:0.034901202 1585:0.198048 1586:0.11555 1587:0.128189 1588:0.078691497 1589:0.0671634 1590:0.0527303 1591:0.125089 1592:0.206653 1593:0.16170099 1594:0.186976 1595:0.12672301 1596:0.120819 1597:0.020152001 1598:0.099489696 1599:0.109529 1600:0.43774199 1601:0.62517399 1602:0.25043499 1603:0.081638701 1604:0.0311474 1605:0.0307485 1606:0.0133718 1607:0.127386 1608:0.0097920401 1609:0.0296243 1610:0.036322702 1611:0.060991898 1612:0.070202999 1613:0.042029299 1614:0.046456799 1615:0.00162696 1616:0.20655701 1617:0.022704599 1618:0.046521399 1619:0.0708225 1620:0.058780201 1621:0.091057397 1622:0.050279699 1623:0.056317199 1624:0.041237801 1625:0.090097599 1626:0.073743902 1627:0.23110899 1628:0.37710899 1629:0.117181 1630:0.168304 1631:0.109541 1632:0.171809 1633:0.17464 1634:0.235596 1635:0.118864 1636:0.421397 1637:0.421397 1638:0.421397 1639:0.0363704 1640:0.020448299 1641:0.0298585 1642:0.016019 1643:0.048163101 1644:0.0253442 1645:0.0256522 1646:0.018005 1647:0.013043 1648:0.059835199 1649:0.047028199 1650:0.094701797 1651:0.077084199 1652:0.115078 1653:0.038301099 1654:0.039834701 1655:0.064071201 1656:0.0798591 1657:0.096089303 1658:0.050609101 1659:0.053424399 1660:0.063339897 1661:0.074116603 1662:0.045500599 1663:0.27574 1664:0.40677699 1665:0.21872599 1666:0.099694498 1667:0.047704399 1668:0.019649301 1669:0.059119601 1670:0.057034001 1671:0.066788197 1672:0.40677699 1673:0.40677699 1674:0.239868 1675:0.046562299 1676:0.0183789 1677:0.027845601 1678:0.024230501 1679:0.057544801 1680:0.0196453 1681:0.045112401 1682:0.102185 1683:0.051354799 1684:0.100566 1685:0.0312276 1686:0.0136805 1687:0.033700701 1688:0.091189101 1689:0.073404104 1690:0.194056 1691:0.40677699 1692:0.127161 1693:0.034547601 1694:0.020383099 1695:0.0080466196 1696:0.022937801 1697:0.0264639 1698:0.0228871 1699:0.25476199 1700:0.375671 1701:0.13569801 1702:0.067040198 1703:0.024180699 1704:0.0105981 1705:0.040594898 1706:0.044812799 1707:0.044638399 1708:0.199882 1709:0.375671 1710:0.142652 1711:0.070223004 1712:0.017253 1713:0.0114327 1714:0.026687801 1715:0.047412299 1716:0.043893401 1717:0.200058 1718:0.375671 1719:0.142616 1720:0.091399297 1721:0.0167177 1722:0.0174003 1723:0.042872299 1724:0.033840202 1725:0.0410944 1726:0.335271 1727:0.375671 1728:0.27789 1729:0.070138998 1730:0.030357501 1731:0.028669599 1732:0.091925398 1733:0.169912 1734:0.115834 1735:0.102692 1736:0.317406 1737:0.114021 1738:0.045770701 1739:0.041920401 1740:0.0384917 1741:0.188995 1742:0.317406 1743:0.17124601 1744:0.073367201 1745:0.074209601 1746:0.0585845 1747:0.071537599 1748:0.051685899 1749:0.0404386 1750:0.067664601 1751:0.0615534 1752:0.044608898 1753:0.26363099 1754:0.317406 1755:0.267611 1756:0.100219 1757:0.0810875 1758:0.101694 1759:0.253497 1760:0.317406 1761:0.092578299 1762:0.14264099 1763:0.317406 1764:0.21542899 #
