<?xml version="1.0"?>
<opencv_storage>
<cascade type_id="opencv-haar-classifier">
  <size>
    50 50</size>
  <stages>
    <_>
      <trees>
        <_>
          <_>
            <feature>
              <rects>
                <_>
                  0 13 4 23 -1.</_>
                <_>
                  2 13 2 23 2.</_></rects>
              <tilted>0</tilted></feature>
            <threshold>-1.0798152536153793e-02</threshold>
            <left_val>7.7748346328735352e-01</left_val>
            <right_val>-9.5986157655715942e-01</right_val></_></_>
        <_>
          <_>
            <feature>
              <rects>
                <_>
                  46 11 4 31 -1.</_>
                <_>
                  48 11 2 31 2.</_></rects>
              <tilted>0</tilted></feature>
            <threshold>8.3319358527660370e-03</threshold>
            <left_val>-9.3635672330856323e-01</left_val>
            <right_val>7.6237440109252930e-01</right_val></_></_></trees>
      <stage_threshold>-1.9748720526695251e-01</stage_threshold>
      <parent>-1</parent>
      <next>-1</next></_>
    <_>
      <trees>
        <_>
          <_>
            <feature>
              <rects>
                <_>
                  2 1 48 4 -1.</_>
                <_>
                  18 1 16 4 3.</_></rects>
              <tilted>0</tilted></feature>
            <threshold>-5.6607332080602646e-02</threshold>
            <left_val>8.2022470235824585e-01</left_val>
            <right_val>-9.3010753393173218e-01</right_val></_></_>
        <_>
          <_>
            <feature>
              <rects>
                <_>
                  13 0 23 4 -1.</_>
                <_>
                  13 2 23 2 2.</_></rects>
              <tilted>0</tilted></feature>
            <threshold>-6.6315177828073502e-03</threshold>
            <left_val>6.7949503660202026e-01</left_val>
            <right_val>-9.5258975028991699e-01</right_val></_></_>
        <_>
          <_>
            <feature>
              <rects>
                <_>
                  1 44 28 5 -1.</_>
                <_>
                  15 44 14 5 2.</_></rects>
              <tilted>0</tilted></feature>
            <threshold>-3.0131939798593521e-02</threshold>
            <left_val>7.7265572547912598e-01</left_val>
            <right_val>-8.8313758373260498e-01</right_val></_></_></trees>
      <stage_threshold>-1.1337500810623169e+00</stage_threshold>
      <parent>0</parent>
      <next>-1</next></_>
    <_>
      <trees>
        <_>
          <_>
            <feature>
              <rects>
                <_>
                  1 2 5 48 -1.</_>
                <_>
                  1 18 5 16 3.</_></rects>
              <tilted>0</tilted></feature>
            <threshold>-5.8608543127775192e-02</threshold>
            <left_val>6.5508687496185303e-01</left_val>
            <right_val>-9.5265424251556396e-01</right_val></_></_>
        <_>
          <_>
            <feature>
              <rects>
                <_>
                  7 46 32 4 -1.</_>
                <_>
                  7 48 32 2 2.</_></rects>
              <tilted>0</tilted></feature>
            <threshold>1.1652052402496338e-02</threshold>
            <left_val>-8.2509422302246094e-01</left_val>
            <right_val>8.2565027475357056e-01</right_val></_></_>
        <_>
          <_>
            <feature>
              <rects>
                <_>
                  44 0 5 26 -1.</_>
                <_>
                  44 13 5 13 2.</_></rects>
              <tilted>0</tilted></feature>
            <threshold>-2.7944449335336685e-02</threshold>
            <left_val>7.4734264612197876e-01</left_val>
            <right_val>-7.9600149393081665e-01</right_val></_></_></trees>
      <stage_threshold>-1.0304057598114014e+00</stage_threshold>
      <parent>1</parent>
      <next>-1</next></_>
    <_>
      <trees>
        <_>
          <_>
            <feature>
              <rects>
                <_>
                  25 37 18 12 -1.</_>
                <_>
                  25 37 9 6 2.</_>
                <_>
                  34 43 9 6 2.</_></rects>
              <tilted>0</tilted></feature>
            <threshold>2.1688025444746017e-02</threshold>
            <left_val>-8.4099870920181274e-01</left_val>
            <right_val>7.0796459913253784e-01</right_val></_></_>
        <_>
          <_>
            <feature>
              <rects>
                <_>
                  16 0 15 2 -1.</_>
                <_>
                  16 1 15 1 2.</_></rects>
              <tilted>0</tilted></feature>
            <threshold>-3.1636552885174751e-03</threshold>
            <left_val>7.1890854835510254e-01</left_val>
            <right_val>-7.4049055576324463e-01</right_val></_></_>
        <_>
          <_>
            <feature>
              <rects>
                <_>
                  0 28 6 13 -1.</_>
                <_>
                  3 28 3 13 2.</_></rects>
              <tilted>0</tilted></feature>
            <threshold>-9.5713194459676743e-03</threshold>
            <left_val>5.9109634160995483e-01</left_val>
            <right_val>-8.1959325075149536e-01</right_val></_></_>
        <_>
          <_>
            <feature>
              <rects>
                <_>
                  48 16 2 18 -1.</_>
                <_>
                  49 16 1 18 2.</_></rects>
              <tilted>0</tilted></feature>
            <threshold>3.3357073552906513e-03</threshold>
            <left_val>-7.4037331342697144e-01</left_val>
            <right_val>6.7716497182846069e-01</right_val></_></_></trees>
      <stage_threshold>-1.7239174842834473e+00</stage_threshold>
      <parent>2</parent>
      <next>-1</next></_>
    <_>
      <trees>
        <_>
          <_>
            <feature>
              <rects>
                <_>
                  0 40 12 3 -1.</_>
                <_>
                  6 40 6 3 2.</_></rects>
              <tilted>0</tilted></feature>
            <threshold>-8.5366461426019669e-03</threshold>
            <left_val>6.0254776477813721e-01</left_val>
            <right_val>-8.9964663982391357e-01</right_val></_></_>
        <_>
          <_>
            <feature>
              <rects>
                <_>
                  6 0 1 20 -1.</_>
                <_>
                  6 10 1 10 2.</_></rects>
              <tilted>0</tilted></feature>
            <threshold>-3.9868345484137535e-03</threshold>
            <left_val>5.2069967985153198e-01</left_val>
            <right_val>-8.6841320991516113e-01</right_val></_></_>
        <_>
          <_>
            <feature>
              <rects>
                <_>
                  14 48 21 2 -1.</_>
                <_>
                  14 49 21 1 2.</_></rects>
              <tilted>0</tilted></feature>
            <threshold>2.0670886151492596e-03</threshold>
            <left_val>-8.2570922374725342e-01</left_val>
            <right_val>5.6168991327285767e-01</right_val></_></_></trees>
      <stage_threshold>-1.2063699960708618e+00</stage_threshold>
      <parent>3</parent>
      <next>-1</next></_>
    <_>
      <trees>
        <_>
          <_>
            <feature>
              <rects>
                <_>
                  2 7 10 14 -1.</_>
                <_>
                  2 7 5 7 2.</_>
                <_>
                  7 14 5 7 2.</_></rects>
              <tilted>0</tilted></feature>
            <threshold>1.4201290905475616e-02</threshold>
            <left_val>-8.3714669942855835e-01</left_val>
            <right_val>6.2184876203536987e-01</right_val></_></_>
        <_>
          <_>
            <feature>
              <rects>
                <_>
                  0 25 4 12 -1.</_>
                <_>
                  2 25 2 12 2.</_></rects>
              <tilted>0</tilted></feature>
            <threshold>-5.8173593133687973e-03</threshold>
            <left_val>4.9421963095664978e-01</left_val>
            <right_val>-8.7879729270935059e-01</right_val></_></_>
        <_>
          <_>
            <feature>
              <rects>
                <_>
                  37 35 12 11 -1.</_>
                <_>
                  43 35 6 11 2.</_></rects>
              <tilted>0</tilted></feature>
            <threshold>1.3729359023272991e-02</threshold>
            <left_val>-8.3202993869781494e-01</left_val>
            <right_val>5.3103506565093994e-01</right_val></_></_></trees>
      <stage_threshold>-1.1849089860916138e+00</stage_threshold>
      <parent>4</parent>
      <next>-1</next></_>
    <_>
      <trees>
        <_>
          <_>
            <feature>
              <rects>
                <_>
                  5 38 14 8 -1.</_>
                <_>
                  5 38 7 4 2.</_>
                <_>
                  12 42 7 4 2.</_></rects>
              <tilted>0</tilted></feature>
            <threshold>-1.1291056871414185e-02</threshold>
            <left_val>5.8253753185272217e-01</left_val>
            <right_val>-8.3640080690383911e-01</right_val></_></_>
        <_>
          <_>
            <feature>
              <rects>
                <_>
                  5 1 42 4 -1.</_>
                <_>
                  19 1 14 4 3.</_></rects>
              <tilted>0</tilted></feature>
            <threshold>-4.2523697018623352e-02</threshold>
            <left_val>5.3514236211776733e-01</left_val>
            <right_val>-8.5698932409286499e-01</right_val></_></_>
        <_>
          <_>
            <feature>
              <rects>
                <_>
                  27 3 20 2 -1.</_>
                <_>
                  27 4 20 1 2.</_></rects>
              <tilted>0</tilted></feature>
            <threshold>-9.9321082234382629e-04</threshold>
            <left_val>4.3662583827972412e-01</left_val>
            <right_val>-8.5208344459533691e-01</right_val></_></_>
        <_>
          <_>
            <feature>
              <rects>
                <_>
                  5 47 42 2 -1.</_>
                <_>
                  19 47 14 2 3.</_></rects>
              <tilted>0</tilted></feature>
            <threshold>-2.0047359168529510e-02</threshold>
            <left_val>5.0734573602676392e-01</left_val>
            <right_val>-8.8827705383300781e-01</right_val></_></_></trees>
      <stage_threshold>-7.5290966033935547e-01</stage_threshold>
      <parent>5</parent>
      <next>-1</next></_>
    <_>
      <trees>
        <_>
          <_>
            <feature>
              <rects>
                <_>
                  0 17 2 15 -1.</_>
                <_>
                  1 17 1 15 2.</_></rects>
              <tilted>0</tilted></feature>
            <threshold>-3.8339388556778431e-03</threshold>
            <left_val>4.7924527525901794e-01</left_val>
            <right_val>-8.4056937694549561e-01</right_val></_></_>
        <_>
          <_>
            <feature>
              <rects>
                <_>
                  39 6 8 16 -1.</_>
                <_>
                  39 6 4 8 2.</_>
                <_>
                  43 14 4 8 2.</_></rects>
              <tilted>0</tilted></feature>
            <threshold>-1.0482987388968468e-02</threshold>
            <left_val>5.6357532739639282e-01</left_val>
            <right_val>-7.5516134500503540e-01</right_val></_></_>
        <_>
          <_>
            <feature>
              <rects>
                <_>
                  9 0 31 4 -1.</_>
                <_>
                  9 2 31 2 2.</_></rects>
              <tilted>0</tilted></feature>
            <threshold>-1.2533538043498993e-02</threshold>
            <left_val>4.2044359445571899e-01</left_val>
            <right_val>-8.0202758312225342e-01</right_val></_></_></trees>
      <stage_threshold>-1.1752871274948120e+00</stage_threshold>
      <parent>6</parent>
      <next>-1</next></_>
    <_>
      <trees>
        <_>
          <_>
            <feature>
              <rects>
                <_>
                  40 28 8 14 -1.</_>
                <_>
                  40 28 4 7 2.</_>
                <_>
                  44 35 4 7 2.</_></rects>
              <tilted>0</tilted></feature>
            <threshold>1.1761674657464027e-02</threshold>
            <left_val>-7.8726287262871164e-01</left_val>
            <right_val>5.0000000000000699e-01</right_val></_></_>
        <_>
          <_>
            <feature>
              <rects>
                <_>
                  1 8 4 39 -1.</_>
                <_>
                  1 21 4 13 3.</_></rects>
              <tilted>0</tilted></feature>
            <threshold>-4.1123487055301666e-02</threshold>
            <left_val>4.3898866122411090e-01</left_val>
            <right_val>-7.7664575807077851e-01</right_val></_></_>
        <_>
          <_>
            <feature>
              <rects>
                <_>
                  13 48 22 2 -1.</_>
                <_>
                  13 49 22 1 2.</_></rects>
              <tilted>0</tilted></feature>
            <threshold>2.9969019815325737e-03</threshold>
            <left_val>-6.8008812571042010e-01</left_val>
            <right_val>4.7809379483961717e-01</right_val></_></_>
        <_>
          <_>
            <feature>
              <rects>
                <_>
                  3 6 2 20 -1.</_>
                <_>
                  4 6 1 20 2.</_></rects>
              <tilted>0</tilted></feature>
            <threshold>-7.7704805880784988e-04</threshold>
            <left_val>3.7541911332525346e-01</left_val>
            <right_val>-8.4664638731542563e-01</right_val></_></_>
        <_>
          <_>
            <feature>
              <rects>
                <_>
                  1 8 49 10 -1.</_>
                <_>
                  1 13 49 5 2.</_></rects>
              <tilted>0</tilted></feature>
            <threshold>-1.6359142959117889e-02</threshold>
            <left_val>3.7836183987290023e-01</left_val>
            <right_val>-8.0526989341158828e-01</right_val></_></_></trees>
      <stage_threshold>-1.4902157783508301e+00</stage_threshold>
      <parent>7</parent>
      <next>-1</next></_>
    <_>
      <trees>
        <_>
          <_>
            <feature>
              <rects>
                <_>
                  11 46 10 4 -1.</_>
                <_>
                  11 48 10 2 2.</_></rects>
              <tilted>0</tilted></feature>
            <threshold>5.8870185166597366e-03</threshold>
            <left_val>-8.2508960573475432e-01</left_val>
            <right_val>4.3602484472050501e-01</right_val></_></_>
        <_>
          <_>
            <feature>
              <rects>
                <_>
                  48 17 2 17 -1.</_>
                <_>
                  49 17 1 17 2.</_></rects>
              <tilted>0</tilted></feature>
            <threshold>5.3342948667705059e-03</threshold>
            <left_val>-6.4901439367884362e-01</left_val>
            <right_val>5.7615036381195928e-01</right_val></_></_>
        <_>
          <_>
            <feature>
              <rects>
                <_>
                  6 35 2 14 -1.</_>
                <_>
                  7 35 1 14 2.</_></rects>
              <tilted>0</tilted></feature>
            <threshold>-6.9009570870548487e-04</threshold>
            <left_val>3.9707596577870846e-01</left_val>
            <right_val>-7.5358595974178999e-01</right_val></_></_>
        <_>
          <_>
            <feature>
              <rects>
                <_>
                  35 3 4 10 -1.</_>
                <_>
                  35 3 2 5 2.</_>
                <_>
                  37 8 2 5 2.</_></rects>
              <tilted>0</tilted></feature>
            <threshold>-1.3846198562532663e-03</threshold>
            <left_val>4.6562148954030386e-01</left_val>
            <right_val>-6.3012235336145683e-01</right_val></_></_>
        <_>
          <_>
            <feature>
              <rects>
                <_>
                  9 22 8 3 -1.</_>
                <_>
                  13 22 4 3 2.</_></rects>
              <tilted>0</tilted></feature>
            <threshold>1.3551444862969220e-04</threshold>
            <left_val>3.2111824013159868e-01</left_val>
            <right_val>-8.2518941797017309e-01</right_val></_></_></trees>
      <stage_threshold>-1.4409502744674683e+00</stage_threshold>
      <parent>8</parent>
      <next>-1</next></_>
    <_>
      <trees>
        <_>
          <_>
            <feature>
              <rects>
                <_>
                  8 2 12 10 -1.</_>
                <_>
                  8 2 6 5 2.</_>
                <_>
                  14 7 6 5 2.</_></rects>
              <tilted>0</tilted></feature>
            <threshold>1.5426936559379101e-02</threshold>
            <left_val>-7.4310692669803224e-01</left_val>
            <right_val>4.2776998597476018e-01</right_val></_></_>
        <_>
          <_>
            <feature>
              <rects>
                <_>
                  2 47 26 1 -1.</_>
                <_>
                  15 47 13 1 2.</_></rects>
              <tilted>0</tilted></feature>
            <threshold>-7.2350134141743183e-03</threshold>
            <left_val>3.6406572523606695e-01</left_val>
            <right_val>-8.1727618471059726e-01</right_val></_></_>
        <_>
          <_>
            <feature>
              <rects>
                <_>
                  46 15 4 15 -1.</_>
                <_>
                  46 20 4 5 3.</_></rects>
              <tilted>0</tilted></feature>
            <threshold>-2.8318115510046482e-03</threshold>
            <left_val>3.4548733841825363e-01</left_val>
            <right_val>-7.7842422986398496e-01</right_val></_></_>
        <_>
          <_>
            <feature>
              <rects>
                <_>
                  0 16 3 18 -1.</_>
                <_>
                  1 16 1 18 3.</_></rects>
              <tilted>0</tilted></feature>
            <threshold>-2.3118164390325546e-03</threshold>
            <left_val>5.9148916125796835e-01</left_val>
            <right_val>-5.2978254931948920e-01</right_val></_></_>
        <_>
          <_>
            <feature>
              <rects>
                <_>
                  7 0 37 9 -1.</_>
                <_>
                  7 3 37 3 3.</_></rects>
              <tilted>0</tilted></feature>
            <threshold>-1.1827382259070873e-02</threshold>
            <left_val>3.1920337212589567e-01</left_val>
            <right_val>-8.4129888973733014e-01</right_val></_></_>
        <_>
          <_>
            <feature>
              <rects>
                <_>
                  20 49 12 1 -1.</_>
                <_>
                  24 49 4 1 3.</_></rects>
              <tilted>0</tilted></feature>
            <threshold>-1.7065912252292037e-03</threshold>
            <left_val>6.7234705140362627e-01</left_val>
            <right_val>-4.1317265111306328e-01</right_val></_></_>
        <_>
          <_>
            <feature>
              <rects>
                <_>
                  16 4 33 2 -1.</_>
                <_>
                  27 4 11 2 3.</_></rects>
              <tilted>0</tilted></feature>
            <threshold>-1.0247690603137016e-02</threshold>
            <left_val>4.0659181638817310e-01</left_val>
            <right_val>-6.3744757822984721e-01</right_val></_></_></trees>
      <stage_threshold>-1.4320558309555054e+00</stage_threshold>
      <parent>9</parent>
      <next>-1</next></_>
    <_>
      <trees>
        <_>
          <_>
            <feature>
              <rects>
                <_>
                  33 38 5 12 -1.</_>
                <_>
                  33 42 5 4 3.</_></rects>
              <tilted>0</tilted></feature>
            <threshold>-1.0774031281471252e-02</threshold>
            <left_val>4.4475138121547575e-01</left_val>
            <right_val>-7.6016260162599980e-01</right_val></_></_>
        <_>
          <_>
            <feature>
              <rects>
                <_>
                  4 36 2 10 -1.</_>
                <_>
                  5 36 1 10 2.</_></rects>
              <tilted>0</tilted></feature>
            <threshold>-8.6671730969101191e-04</threshold>
            <left_val>3.5779335118189098e-01</left_val>
            <right_val>-7.7756163803082001e-01</right_val></_></_>
        <_>
          <_>
            <feature>
              <rects>
                <_>
                  0 12 6 34 -1.</_>
                <_>
                  2 12 2 34 3.</_></rects>
              <tilted>0</tilted></feature>
            <threshold>-5.5181952193379402e-03</threshold>
            <left_val>3.0450662784676347e-01</left_val>
            <right_val>-7.7026849488232341e-01</right_val></_></_>
        <_>
          <_>
            <feature>
              <rects>
                <_>
                  8 14 26 24 -1.</_>
                <_>
                  21 14 13 24 2.</_></rects>
              <tilted>0</tilted></feature>
            <threshold>1.3680945266969502e-04</threshold>
            <left_val>3.6212471493820941e-01</left_val>
            <right_val>-7.2582406658405385e-01</right_val></_></_>
        <_>
          <_>
            <feature>
              <rects>
                <_>
                  20 0 9 3 -1.</_>
                <_>
                  23 0 3 3 3.</_></rects>
              <tilted>0</tilted></feature>
            <threshold>-2.4404027499258518e-04</threshold>
            <left_val>2.9831527075158654e-01</left_val>
            <right_val>-8.2609063026506147e-01</right_val></_></_></trees>
      <stage_threshold>-1.6475527286529541e+00</stage_threshold>
      <parent>10</parent>
      <next>-1</next></_>
    <_>
      <trees>
        <_>
          <_>
            <feature>
              <rects>
                <_>
                  47 13 3 20 -1.</_>
                <_>
                  48 13 1 20 3.</_></rects>
              <tilted>0</tilted></feature>
            <threshold>-3.2500550150871277e-03</threshold>
            <left_val>3.4896551724138403e-01</left_val>
            <right_val>-7.1389830508472996e-01</right_val></_></_>
        <_>
          <_>
            <feature>
              <rects>
                <_>
                  35 35 4 12 -1.</_>
                <_>
                  35 35 2 6 2.</_>
                <_>
                  37 41 2 6 2.</_></rects>
              <tilted>0</tilted></feature>
            <threshold>1.3667340390384197e-03</threshold>
            <left_val>-6.4844460633198076e-01</left_val>
            <right_val>4.1659694992053914e-01</right_val></_></_>
        <_>
          <_>
            <feature>
              <rects>
                <_>
                  0 22 5 12 -1.</_>
                <_>
                  0 26 5 4 3.</_></rects>
              <tilted>0</tilted></feature>
            <threshold>-1.4921127585694194e-03</threshold>
            <left_val>3.2646142757705032e-01</left_val>
            <right_val>-7.5298060522331456e-01</right_val></_></_>
        <_>
          <_>
            <feature>
              <rects>
                <_>
                  3 3 10 12 -1.</_>
                <_>
                  3 9 10 6 2.</_></rects>
              <tilted>0</tilted></feature>
            <threshold>-9.3753468245267868e-03</threshold>
            <left_val>2.7798777338088887e-01</left_val>
            <right_val>-9.2310743575410159e-01</right_val></_></_>
        <_>
          <_>
            <feature>
              <rects>
                <_>
                  23 17 7 27 -1.</_>
                <_>
                  23 26 7 9 3.</_></rects>
              <tilted>0</tilted></feature>
            <threshold>-3.3545518363098381e-06</threshold>
            <left_val>2.9381991134970736e-01</left_val>
            <right_val>-7.0564206191169043e-01</right_val></_></_>
        <_>
          <_>
            <feature>
              <rects>
                <_>
                  42 11 6 21 -1.</_>
                <_>
                  44 11 2 21 3.</_></rects>
              <tilted>0</tilted></feature>
            <threshold>-2.8673089109361172e-03</threshold>
            <left_val>3.5695753207365688e-01</left_val>
            <right_val>-6.6888602673376130e-01</right_val></_></_></trees>
      <stage_threshold>-1.3226119279861450e+00</stage_threshold>
      <parent>11</parent>
      <next>-1</next></_>
    <_>
      <trees>
        <_>
          <_>
            <feature>
              <rects>
                <_>
                  19 48 8 2 -1.</_>
                <_>
                  19 48 4 1 2.</_>
                <_>
                  23 49 4 1 2.</_></rects>
              <tilted>0</tilted></feature>
            <threshold>-6.6576339304447174e-04</threshold>
            <left_val>4.1341653666146960e-01</left_val>
            <right_val>-6.8313021167413224e-01</right_val></_></_>
        <_>
          <_>
            <feature>
              <rects>
                <_>
                  0 5 2 22 -1.</_>
                <_>
                  0 5 1 11 2.</_>
                <_>
                  1 16 1 11 2.</_></rects>
              <tilted>0</tilted></feature>
            <threshold>-1.9560898654162884e-03</threshold>
            <left_val>3.6060470046168297e-01</left_val>
            <right_val>-6.8205155358467384e-01</right_val></_></_>
        <_>
          <_>
            <feature>
              <rects>
                <_>
                  46 13 4 23 -1.</_>
                <_>
                  48 13 2 23 2.</_></rects>
              <tilted>0</tilted></feature>
            <threshold>1.4776887372136116e-02</threshold>
            <left_val>-6.3962027169187352e-01</left_val>
            <right_val>4.1362978202847178e-01</right_val></_></_>
        <_>
          <_>
            <feature>
              <rects>
                <_>
                  25 8 16 10 -1.</_>
                <_>
                  25 8 8 5 2.</_>
                <_>
                  33 13 8 5 2.</_></rects>
              <tilted>0</tilted></feature>
            <threshold>8.4449471905827522e-03</threshold>
            <left_val>-3.6560843376163843e-01</left_val>
            <right_val>6.3826478295290912e-01</right_val></_></_>
        <_>
          <_>
            <feature>
              <rects>
                <_>
                  5 47 42 1 -1.</_>
                <_>
                  19 47 14 1 3.</_></rects>
              <tilted>0</tilted></feature>
            <threshold>-1.1830035597085953e-02</threshold>
            <left_val>3.6852412514061900e-01</left_val>
            <right_val>-6.8367556977121235e-01</right_val></_></_>
        <_>
          <_>
            <feature>
              <rects>
                <_>
                  14 0 19 2 -1.</_>
                <_>
                  14 1 19 1 2.</_></rects>
              <tilted>0</tilted></feature>
            <threshold>-2.0062606781721115e-03</threshold>
            <left_val>2.9766183676798430e-01</left_val>
            <right_val>-8.1781094041174762e-01</right_val></_></_>
        <_>
          <_>
            <feature>
              <rects>
                <_>
                  0 22 4 6 -1.</_>
                <_>
                  0 24 4 2 3.</_></rects>
              <tilted>0</tilted></feature>
            <threshold>-4.4740765588358045e-05</threshold>
            <left_val>2.2825442895175124e-01</left_val>
            <right_val>-7.4977532505551658e-01</right_val></_></_></trees>
      <stage_threshold>-1.5242965221405029e+00</stage_threshold>
      <parent>12</parent>
      <next>-1</next></_></stages></cascade>
</opencv_storage>
